<?xml version="1.0"?>
<opencv_storage>
<cascade>
  <stageType>BOOST</stageType>
  <featureType>HAAR</featureType>
  <height>24</height>
  <width>24</width>
  <stageParams>
    <boostType>GAB</boostType>
    <minHitRate>9.9500000476837158e-01</minHitRate>
    <maxFalseAlarm>5.0000000000000000e-01</maxFalseAlarm>
    <weightTrimRate>9.4999999999999996e-01</weightTrimRate>
    <maxDepth>1</maxDepth>
    <maxWeakCount>100</maxWeakCount></stageParams>
  <featureParams>
    <maxCatCount>0</maxCatCount>
    <featSize>1</featSize>
    <mode>BASIC</mode></featureParams>
  <stageNum>6</stageNum>
  <stages>
    <!-- stage 0 -->
    <_>
      <maxWeakCount>4</maxWeakCount>
      <stageThreshold>-1.6121438741683960e+00</stageThreshold>
      <weakClassifiers>
        <_>
          <internalNodes>
            0 -1 10 3.5997294617118314e-05</internalNodes>
          <leafValues>
            -8.0759727954864502e-01 8.8351821899414062e-01</leafValues></_>
        <_>
          <internalNodes>
            0 -1 16 -8.3207830786705017e-02</internalNodes>
          <leafValues>
            6.1208522319793701e-01 -9.0711283683776855e-01</leafValues></_>
        <_>
          <internalNodes>
            0 -1 4 1.8695187463890761e-04</internalNodes>
          <leafValues>
            -5.0266534090042114e-01 8.7590962648391724e-01</leafValues></_>
        <_>
          <internalNodes>
            0 -1 22 9.7145829349756241e-03</internalNodes>
          <leafValues>
            -6.3605803251266479e-01 6.0523158311843872e-01</leafValues></_></weakClassifiers></_>
    <!-- stage 1 -->
    <_>
      <maxWeakCount>4</maxWeakCount>
      <stageThreshold>-1.1569434404373169e+00</stageThreshold>
      <weakClassifiers>
        <_>
          <internalNodes>
            0 -1 7 2.6527699446887709e-05</internalNodes>
          <leafValues>
            -7.7014923095703125e-01 9.3913042545318604e-01</leafValues></_>
        <_>
          <internalNodes>
            0 -1 6 -4.5552328811027110e-04</internalNodes>
          <leafValues>
            9.7698605060577393e-01 -3.9476287364959717e-01</leafValues></_>
        <_>
          <internalNodes>
            0 -1 17 7.9848039895296097e-03</internalNodes>
          <leafValues>
            -7.3677277565002441e-01 4.7012054920196533e-01</leafValues></_>
        <_>
          <internalNodes>
            0 -1 3 -7.0728862192481756e-04</internalNodes>
          <leafValues>
            7.6196491718292236e-01 -4.6215191483497620e-01</leafValues></_></weakClassifiers></_>
    <!-- stage 2 -->
    <_>
      <maxWeakCount>4</maxWeakCount>
      <stageThreshold>-1.0062175989151001e+00</stageThreshold>
      <weakClassifiers>
        <_>
          <internalNodes>
            0 -1 7 2.6527699446887709e-05</internalNodes>
          <leafValues>
            -7.6850730180740356e-01 8.5797339677810669e-01</leafValues></_>
        <_>
          <internalNodes>
            0 -1 23 -3.4469470381736755e-02</internalNodes>
          <leafValues>
            5.5666559934616089e-01 -6.4655351638793945e-01</leafValues></_>
        <_>
          <internalNodes>
            0 -1 1 -3.6109035136178136e-04</internalNodes>
          <leafValues>
            9.0846043825149536e-01 -3.9160090684890747e-01</leafValues></_>
        <_>
          <internalNodes>
            0 -1 27 -3.3334767795167863e-04</internalNodes>
          <leafValues>
            8.3326011896133423e-01 -4.0277504920959473e-01</leafValues></_></weakClassifiers></_>
    <!-- stage 3 -->
    <_>
      <maxWeakCount>6</maxWeakCount>
      <stageThreshold>-9.4577610492706299e-01</stageThreshold>
      <weakClassifiers>
        <_>
          <internalNodes>
            0 -1 8 1.5124815399758518e-04</internalNodes>
          <leafValues>
            -7.9541736841201782e-01 6.4359861612319946e-01</leafValues></_>
        <_>
          <internalNodes>
            0 -1 21 -7.3993340134620667e-02</internalNodes>
          <leafValues>
            7.3060762882232666e-01 -5.7551258802413940e-01</leafValues></_>
        <_>
          <internalNodes>
            0 -1 15 -1.0649515688419342e-01</internalNodes>
          <leafValues>
            4.4002541899681091e-01 -9.3351656198501587e-01</leafValues></_>
        <_>
          <internalNodes>
            0 -1 28 3.4898554440587759e-04</internalNodes>
          <leafValues>
            -4.6800538897514343e-01 8.4334617853164673e-01</leafValues></_>
        <_>
          <internalNodes>
            0 -1 18 1.8260399519931525e-04</internalNodes>
          <leafValues>
            -2.4263410270214081e-01 9.4722402095794678e-01</leafValues></_>
        <_>
          <internalNodes>
            0 -1 2 -5.2170536946505308e-04</internalNodes>
          <leafValues>
            7.5795835256576538e-01 -3.7031209468841553e-01</leafValues></_></weakClassifiers></_>
    <!-- stage 4 -->
    <_>
      <maxWeakCount>6</maxWeakCount>
      <stageThreshold>-1.1965754032135010e+00</stageThreshold>
      <weakClassifiers>
        <_>
          <internalNodes>
            0 -1 12 -1.6969402134418488e-01</internalNodes>
          <leafValues>
            4.9264234304428101e-01 -7.7289754152297974e-01</leafValues></_>
        <_>
          <internalNodes>
            0 -1 20 -2.6919847005046904e-04</internalNodes>
          <leafValues>
            4.0927511453628540e-01 -8.1853538751602173e-01</leafValues></_>
        <_>
          <internalNodes>
            0 -1 25 -8.2360906526446342e-04</internalNodes>
          <leafValues>
            9.7213429212570190e-01 -3.8615238666534424e-01</leafValues></_>
        <_>
          <internalNodes>
            0 -1 13 -4.4093079864978790e-02</internalNodes>
          <leafValues>
            3.6300629377365112e-01 -8.8669306039810181e-01</leafValues></_>
        <_>
          <internalNodes>
            0 -1 0 -4.1685728356242180e-03</internalNodes>
          <leafValues>
            8.5262823104858398e-01 -3.9616179466247559e-01</leafValues></_>
        <_>
          <internalNodes>
            0 -1 14 3.3383122645318508e-03</internalNodes>
          <leafValues>
            -3.7976646423339844e-01 8.1416541337966919e-01</leafValues></_></weakClassifiers></_>
    <!-- stage 5 -->
    <_>
      <maxWeakCount>6</maxWeakCount>
      <stageThreshold>-1.0844438076019287e+00</stageThreshold>
      <weakClassifiers>
        <_>
          <internalNodes>
            0 -1 9 4.5312372967600822e-03</internalNodes>
          <leafValues>
            -6.9058823585510254e-01 7.7090907096862793e-01</leafValues></_>
        <_>
          <internalNodes>
            0 -1 11 -1.3697797432541847e-02</internalNodes>
          <leafValues>
            5.8940917253494263e-01 -7.8824996948242188e-01</leafValues></_>
        <_>
          <internalNodes>
            0 -1 24 -7.2671903762966394e-04</internalNodes>
          <leafValues>
            7.8122115135192871e-01 -4.6470564603805542e-01</leafValues></_>
        <_>
          <internalNodes>
            0 -1 19 2.2865913808345795e-02</internalNodes>
          <leafValues>
            3.6077830195426941e-01 -9.4313997030258179e-01</leafValues></_>
        <_>
          <internalNodes>
            0 -1 5 -6.9986761081963778e-04</internalNodes>
          <leafValues>
            8.3377641439437866e-01 -4.2517918348312378e-01</leafValues></_>
        <_>
          <internalNodes>
            0 -1 26 2.4492433294653893e-04</internalNodes>
          <leafValues>
            -3.2242590188980103e-01 1.</leafValues></_></weakClassifiers></_></stages>
  <features>
    <_>
      <rects>
        <_>
          0 0 2 10 -1.</_>
        <_>
          0 5 2 5 2.</_></rects>
      <tilted>0</tilted></_>
    <_>
      <rects>
        <_>
          0 0 8 4 -1.</_>
        <_>
          4 0 4 4 2.</_></rects>
      <tilted>0</tilted></_>
    <_>
      <rects>
        <_>
          0 0 4 8 -1.</_>
        <_>
          0 4 4 4 2.</_></rects>
      <tilted>0</tilted></_>
    <_>
      <rects>
        <_>
          0 0 4 15 -1.</_>
        <_>
          0 5 4 5 3.</_></rects>
      <tilted>0</tilted></_>
    <_>
      <rects>
        <_>
          0 0 8 10 -1.</_>
        <_>
          0 0 4 5 2.</_>
        <_>
          4 5 4 5 2.</_></rects>
      <tilted>0</tilted></_>
    <_>
      <rects>
        <_>
          0 0 6 12 -1.</_>
        <_>
          0 4 6 4 3.</_></rects>
      <tilted>0</tilted></_>
    <_>
      <rects>
        <_>
          0 0 8 4 -1.</_>
        <_>
          0 2 8 2 2.</_></rects>
      <tilted>0</tilted></_>
    <_>
      <rects>
        <_>
          0 6 6 12 -1.</_>
        <_>
          3 6 3 12 2.</_></rects>
      <tilted>0</tilted></_>
    <_>
      <rects>
        <_>
          0 7 4 10 -1.</_>
        <_>
          2 7 2 10 2.</_></rects>
      <tilted>0</tilted></_>
    <_>
      <rects>
        <_>
          0 7 4 11 -1.</_>
        <_>
          2 7 2 11 2.</_></rects>
      <tilted>0</tilted></_>
    <_>
      <rects>
        <_>
          0 8 4 9 -1.</_>
        <_>
          2 8 2 9 2.</_></rects>
      <tilted>0</tilted></_>
    <_>
      <rects>
        <_>
          1 8 18 8 -1.</_>
        <_>
          1 12 18 4 2.</_></rects>
      <tilted>0</tilted></_>
    <_>
      <rects>
        <_>
          1 9 16 10 -1.</_>
        <_>
          9 9 8 10 2.</_></rects>
      <tilted>0</tilted></_>
    <_>
      <rects>
        <_>
          2 6 16 7 -1.</_>
        <_>
          10 6 8 7 2.</_></rects>
      <tilted>0</tilted></_>
    <_>
      <rects>
        <_>
          2 19 15 3 -1.</_>
        <_>
          7 19 5 3 3.</_></rects>
      <tilted>0</tilted></_>
    <_>
      <rects>
        <_>
          3 6 14 18 -1.</_>
        <_>
          10 6 7 18 2.</_></rects>
      <tilted>0</tilted></_>
    <_>
      <rects>
        <_>
          4 7 12 11 -1.</_>
        <_>
          10 7 6 11 2.</_></rects>
      <tilted>0</tilted></_>
    <_>
      <rects>
        <_>
          4 9 9 3 -1.</_>
        <_>
          7 9 3 3 3.</_></rects>
      <tilted>0</tilted></_>
    <_>
      <rects>
        <_>
          6 0 3 10 -1.</_>
        <_>
          6 5 3 5 2.</_></rects>
      <tilted>0</tilted></_>
    <_>
      <rects>
        <_>
          6 5 4 15 -1.</_>
        <_>
          6 10 4 5 3.</_></rects>
      <tilted>0</tilted></_>
    <_>
      <rects>
        <_>
          8 11 2 2 -1.</_>
        <_>
          9 11 1 2 2.</_></rects>
      <tilted>0</tilted></_>
    <_>
      <rects>
        <_>
          9 11 9 9 -1.</_>
        <_>
          9 14 9 3 3.</_></rects>
      <tilted>0</tilted></_>
    <_>
      <rects>
        <_>
          11 10 3 6 -1.</_>
        <_>
          11 12 3 2 3.</_></rects>
      <tilted>0</tilted></_>
    <_>
      <rects>
        <_>
          11 11 9 3 -1.</_>
        <_>
          14 11 3 3 3.</_></rects>
      <tilted>0</tilted></_>
    <_>
      <rects>
        <_>
          19 0 5 12 -1.</_>
        <_>
          19 4 5 4 3.</_></rects>
      <tilted>0</tilted></_>
    <_>
      <rects>
        <_>
          20 12 3 12 -1.</_>
        <_>
          20 18 3 6 2.</_></rects>
      <tilted>0</tilted></_>
    <_>
      <rects>
        <_>
          21 0 1 14 -1.</_>
        <_>
          21 7 1 7 2.</_></rects>
      <tilted>0</tilted></_>
    <_>
      <rects>
        <_>
          23 0 1 10 -1.</_>
        <_>
          23 5 1 5 2.</_></rects>
      <tilted>0</tilted></_>
    <_>
      <rects>
        <_>
          23 16 1 8 -1.</_>
        <_>
          23 20 1 4 2.</_></rects>
      <tilted>0</tilted></_></features></cascade>
</opencv_storage>
