<?xml version="1.0"?>
<opencv_storage>
<cascade>
  <stageType>BOOST</stageType>
  <featureType>HAAR</featureType>
  <height>32</height>
  <width>32</width>
  <stageParams>
    <boostType>GAB</boostType>
    <minHitRate>9.9500000476837158e-01</minHitRate>
    <maxFalseAlarm>5.0000000000000000e-01</maxFalseAlarm>
    <weightTrimRate>9.4999999999999996e-01</weightTrimRate>
    <maxDepth>1</maxDepth>
    <maxWeakCount>100</maxWeakCount></stageParams>
  <featureParams>
    <maxCatCount>0</maxCatCount>
    <featSize>1</featSize>
    <mode>BASIC</mode></featureParams>
  <stageNum>1</stageNum>
  <stages>
    <!-- stage 0 -->
    <_>
      <maxWeakCount>3</maxWeakCount>
      <stageThreshold>-7.1928179264068604e-01</stageThreshold>
      <weakClassifiers>
        <_>
          <internalNodes>
            0 -1 2 -5.8490611612796783e-02</internalNodes>
          <leafValues>
            7.6470589637756348e-01 -9.0099012851715088e-01</leafValues></_>
        <_>
          <internalNodes>
            0 -1 0 5.1921757403761148e-04</internalNodes>
          <leafValues>
            -7.7591568231582642e-01 9.6080869436264038e-01</leafValues></_>
        <_>
          <internalNodes>
            0 -1 1 1.3945347745902836e-04</internalNodes>
          <leafValues>
            -7.3411315679550171e-01 9.5762401819229126e-01</leafValues></_></weakClassifiers></_></stages>
  <features>
    <_>
      <rects>
        <_>
          0 8 6 15 -1.</_>
        <_>
          3 8 3 15 2.</_></rects>
      <tilted>0</tilted></_>
    <_>
      <rects>
        <_>
          6 3 12 2 -1.</_>
        <_>
          6 3 6 1 2.</_>
        <_>
          12 4 6 1 2.</_></rects>
      <tilted>0</tilted></_>
    <_>
      <rects>
        <_>
          7 12 21 3 -1.</_>
        <_>
          14 12 7 3 3.</_></rects>
      <tilted>0</tilted></_></features></cascade>
</opencv_storage>
