<?xml version="1.0"?>
<opencv_storage>
<stage5>
  <maxWeakCount>6</maxWeakCount>
  <stageThreshold>-1.0844438076019287e+00</stageThreshold>
  <weakClassifiers>
    <_>
      <internalNodes>
        0 -1 6756 4.5312372967600822e-03</internalNodes>
      <leafValues>
        -6.9058823585510254e-01 7.7090907096862793e-01</leafValues></_>
    <_>
      <internalNodes>
        0 -1 20863 -1.3697797432541847e-02</internalNodes>
      <leafValues>
        5.8940917253494263e-01 -7.8824996948242188e-01</leafValues></_>
    <_>
      <internalNodes>
        0 -1 155415 -7.2671903762966394e-04</internalNodes>
      <leafValues>
        7.8122115135192871e-01 -4.6470564603805542e-01</leafValues></_>
    <_>
      <internalNodes>
        0 -1 74663 2.2865913808345795e-02</internalNodes>
      <leafValues>
        3.6077830195426941e-01 -9.4313997030258179e-01</leafValues></_>
    <_>
      <internalNodes>
        0 -1 418 -6.9986761081963778e-04</internalNodes>
      <leafValues>
        8.3377641439437866e-01 -4.2517918348312378e-01</leafValues></_>
    <_>
      <internalNodes>
        0 -1 159763 2.4492433294653893e-04</internalNodes>
      <leafValues>
        -3.2242590188980103e-01 1.</leafValues></_></weakClassifiers></stage5>
</opencv_storage>
