<?xml version="1.0"?>
<opencv_storage>
<stage4>
  <maxWeakCount>6</maxWeakCount>
  <stageThreshold>-1.1965754032135010e+00</stageThreshold>
  <weakClassifiers>
    <_>
      <internalNodes>
        0 -1 21306 -1.6969402134418488e-01</internalNodes>
      <leafValues>
        4.9264234304428101e-01 -7.7289754152297974e-01</leafValues></_>
    <_>
      <internalNodes>
        0 -1 96050 -2.6919847005046904e-04</internalNodes>
      <leafValues>
        4.0927511453628540e-01 -8.1853538751602173e-01</leafValues></_>
    <_>
      <internalNodes>
        0 -1 159271 -8.2360906526446342e-04</internalNodes>
      <leafValues>
        9.7213429212570190e-01 -3.8615238666534424e-01</leafValues></_>
    <_>
      <internalNodes>
        0 -1 31551 -4.4093079864978790e-02</internalNodes>
      <leafValues>
        3.6300629377365112e-01 -8.8669306039810181e-01</leafValues></_>
    <_>
      <internalNodes>
        0 -1 101 -4.1685728356242180e-03</internalNodes>
      <leafValues>
        8.5262823104858398e-01 -3.9616179466247559e-01</leafValues></_>
    <_>
      <internalNodes>
        0 -1 37516 3.3383122645318508e-03</internalNodes>
      <leafValues>
        -3.7976646423339844e-01 8.1416541337966919e-01</leafValues></_></weakClassifiers></stage4>
</opencv_storage>
