<?xml version="1.0"?>
<opencv_storage>
<stage2>
  <maxWeakCount>5</maxWeakCount>
  <stageThreshold>-1.6128566265106201e+00</stageThreshold>
  <weakClassifiers>
    <_>
      <internalNodes>
        0 -1 44 1.2950328527949750e-04</internalNodes>
      <leafValues>
        7.8571426868438721e-01 -6.8220341205596924e-01</leafValues></_>
    <_>
      <internalNodes>
        0 -1 8 4.0035881102085114e-03</internalNodes>
      <leafValues>
        -9.0598839521408081e-01 2.4189810454845428e-01</leafValues></_>
    <_>
      <internalNodes>
        0 -1 42 1.8933303654193878e-03</internalNodes>
      <leafValues>
        3.2058641314506531e-01 -7.9849392175674438e-01</leafValues></_>
    <_>
      <internalNodes>
        0 -1 55 1.2146284803748131e-02</internalNodes>
      <leafValues>
        3.1129074096679688e-01 -6.7509639263153076e-01</leafValues></_>
    <_>
      <internalNodes>
        0 -1 37 1.6367983072996140e-02</internalNodes>
      <leafValues>
        3.0103889107704163e-01 -6.7017102241516113e-01</leafValues></_></weakClassifiers></stage2>
</opencv_storage>
