<?xml version="1.0"?>
<opencv_storage>
<cascade>
  <stageType>BOOST</stageType>
  <featureType>HAAR</featureType>
  <height>16</height>
  <width>32</width>
  <stageParams>
    <boostType>GAB</boostType>
    <minHitRate>9.9500000476837158e-01</minHitRate>
    <maxFalseAlarm>5.0000000000000000e-01</maxFalseAlarm>
    <weightTrimRate>9.4999999999999996e-01</weightTrimRate>
    <maxDepth>1</maxDepth>
    <maxWeakCount>100</maxWeakCount></stageParams>
  <featureParams>
    <maxCatCount>0</maxCatCount>
    <featSize>1</featSize>
    <mode>BASIC</mode></featureParams>
  <stageNum>4</stageNum>
  <stages>
    <!-- stage 0 -->
    <_>
      <maxWeakCount>2</maxWeakCount>
      <stageThreshold>-2.7096900343894958e-01</stageThreshold>
      <weakClassifiers>
        <_>
          <internalNodes>
            0 -1 12 4.8958463594317436e-04</internalNodes>
          <leafValues>
            -9.8518520593643188e-01 6.1860466003417969e-01</leafValues></_>
        <_>
          <internalNodes>
            0 -1 6 4.6770982444286346e-03</internalNodes>
          <leafValues>
            -6.9436025619506836e-01 7.1421617269515991e-01</leafValues></_></weakClassifiers></_>
    <!-- stage 1 -->
    <_>
      <maxWeakCount>4</maxWeakCount>
      <stageThreshold>-1.5478789806365967e+00</stageThreshold>
      <weakClassifiers>
        <_>
          <internalNodes>
            0 -1 8 2.3502226918935776e-02</internalNodes>
          <leafValues>
            -7.6950353384017944e-01 5.1913875341415405e-01</leafValues></_>
        <_>
          <internalNodes>
            0 -1 14 -7.8531209146603942e-04</internalNodes>
          <leafValues>
            4.2019852995872498e-01 -9.1579419374465942e-01</leafValues></_>
        <_>
          <internalNodes>
            0 -1 4 2.8839317383244634e-04</internalNodes>
          <leafValues>
            -4.2129474878311157e-01 8.9785116910934448e-01</leafValues></_>
        <_>
          <internalNodes>
            0 -1 13 3.1670514727011323e-04</internalNodes>
          <leafValues>
            -7.7727913856506348e-01 5.0341445207595825e-01</leafValues></_></weakClassifiers></_>
    <!-- stage 2 -->
    <_>
      <maxWeakCount>4</maxWeakCount>
      <stageThreshold>-9.3994706869125366e-01</stageThreshold>
      <weakClassifiers>
        <_>
          <internalNodes>
            0 -1 2 -2.9239018913358450e-03</internalNodes>
          <leafValues>
            -5.9178084135055542e-01 6.4477610588073730e-01</leafValues></_>
        <_>
          <internalNodes>
            0 -1 10 1.8021760042756796e-03</internalNodes>
          <leafValues>
            -8.7702262401580811e-01 4.5222944021224976e-01</leafValues></_>
        <_>
          <internalNodes>
            0 -1 1 -9.2873314861208200e-04</internalNodes>
          <leafValues>
            8.3335953950881958e-01 -4.5475187897682190e-01</leafValues></_>
        <_>
          <internalNodes>
            0 -1 3 7.0292584132403135e-04</internalNodes>
          <leafValues>
            -2.9489174485206604e-01 9.8360824584960938e-01</leafValues></_></weakClassifiers></_>
    <!-- stage 3 -->
    <_>
      <maxWeakCount>6</maxWeakCount>
      <stageThreshold>-1.4408329725265503e+00</stageThreshold>
      <weakClassifiers>
        <_>
          <internalNodes>
            0 -1 2 -2.9239018913358450e-03</internalNodes>
          <leafValues>
            -6.1045753955841064e-01 7.3543304204940796e-01</leafValues></_>
        <_>
          <internalNodes>
            0 -1 9 7.6382188126444817e-04</internalNodes>
          <leafValues>
            -3.5696047544479370e-01 9.7486114501953125e-01</leafValues></_>
        <_>
          <internalNodes>
            0 -1 7 5.9144967235624790e-04</internalNodes>
          <leafValues>
            -2.7272045612335205e-01 9.7883427143096924e-01</leafValues></_>
        <_>
          <internalNodes>
            0 -1 11 2.4680409114807844e-04</internalNodes>
          <leafValues>
            -7.3870247602462769e-01 4.7909840941429138e-01</leafValues></_>
        <_>
          <internalNodes>
            0 -1 5 1.2695537589024752e-04</internalNodes>
          <leafValues>
            -3.4665077924728394e-01 9.4480109214782715e-01</leafValues></_>
        <_>
          <internalNodes>
            0 -1 0 -4.3742614798247814e-04</internalNodes>
          <leafValues>
            8.8465875387191772e-01 -3.4516113996505737e-01</leafValues></_></weakClassifiers></_></stages>
  <features>
    <_>
      <rects>
        <_>
          0 0 1 10 -1.</_>
        <_>
          0 5 1 5 2.</_></rects>
      <tilted>0</tilted></_>
    <_>
      <rects>
        <_>
          0 0 26 1 -1.</_>
        <_>
          13 0 13 1 2.</_></rects>
      <tilted>0</tilted></_>
    <_>
      <rects>
        <_>
          0 0 26 11 -1.</_>
        <_>
          13 0 13 11 2.</_></rects>
      <tilted>0</tilted></_>
    <_>
      <rects>
        <_>
          0 3 2 11 -1.</_>
        <_>
          1 3 1 11 2.</_></rects>
      <tilted>0</tilted></_>
    <_>
      <rects>
        <_>
          0 3 2 12 -1.</_>
        <_>
          1 3 1 12 2.</_></rects>
      <tilted>0</tilted></_>
    <_>
      <rects>
        <_>
          0 4 1 6 -1.</_>
        <_>
          0 6 1 2 3.</_></rects>
      <tilted>0</tilted></_>
    <_>
      <rects>
        <_>
          0 6 26 4 -1.</_>
        <_>
          13 6 13 4 2.</_></rects>
      <tilted>0</tilted></_>
    <_>
      <rects>
        <_>
          2 15 24 1 -1.</_>
        <_>
          10 15 8 1 3.</_></rects>
      <tilted>0</tilted></_>
    <_>
      <rects>
        <_>
          7 7 20 3 -1.</_>
        <_>
          17 7 10 3 2.</_></rects>
      <tilted>0</tilted></_>
    <_>
      <rects>
        <_>
          10 15 22 1 -1.</_>
        <_>
          21 15 11 1 2.</_></rects>
      <tilted>0</tilted></_>
    <_>
      <rects>
        <_>
          13 9 8 1 -1.</_>
        <_>
          17 9 4 1 2.</_></rects>
      <tilted>0</tilted></_>
    <_>
      <rects>
        <_>
          15 7 2 2 -1.</_>
        <_>
          16 7 1 2 2.</_></rects>
      <tilted>0</tilted></_>
    <_>
      <rects>
        <_>
          16 8 2 1 -1.</_>
        <_>
          17 8 1 1 2.</_></rects>
      <tilted>0</tilted></_>
    <_>
      <rects>
        <_>
          17 5 1 4 -1.</_>
        <_>
          17 7 1 2 2.</_></rects>
      <tilted>0</tilted></_>
    <_>
      <rects>
        <_>
          17 8 2 4 -1.</_>
        <_>
          17 10 2 2 2.</_></rects>
      <tilted>0</tilted></_></features></cascade>
</opencv_storage>
