<?xml version="1.0"?>
<opencv_storage>
<stage1>
  <maxWeakCount>5</maxWeakCount>
  <stageThreshold>-1.2394616603851318e+00</stageThreshold>
  <weakClassifiers>
    <_>
      <internalNodes>
        0 -1 88 2.0212076604366302e-02</internalNodes>
      <leafValues>
        -8.9115643501281738e-01 -1.8446601927280426e-01</leafValues></_>
    <_>
      <internalNodes>
        0 -1 0 4.0776573587208986e-04</internalNodes>
      <leafValues>
        -7.1548253297805786e-01 9.8490349948406219e-02</leafValues></_>
    <_>
      <internalNodes>
        0 -1 41 2.1674033254384995e-02</internalNodes>
      <leafValues>
        1.5834407508373260e-01 -1.</leafValues></_>
    <_>
      <internalNodes>
        0 -1 55 2.2736772894859314e-02</internalNodes>
      <leafValues>
        2.3089785873889923e-01 -7.0316839218139648e-01</leafValues></_>
    <_>
      <internalNodes>
        0 -1 37 2.2605463862419128e-02</internalNodes>
      <leafValues>
        2.6311171054840088e-01 -7.2875499725341797e-01</leafValues></_></weakClassifiers></stage1>
</opencv_storage>
