<?xml version="1.0"?>
<opencv_storage>
<stage5>
  <maxWeakCount>6</maxWeakCount>
  <stageThreshold>-1.4524762630462646e+00</stageThreshold>
  <weakClassifiers>
    <_>
      <internalNodes>
        0 -1 56342 -5.5724896490573883e-02</internalNodes>
      <leafValues>
        8.0774033069610596e-01 -7.4897682666778564e-01</leafValues></_>
    <_>
      <internalNodes>
        0 -1 9126 -1.6813538968563080e-01</internalNodes>
      <leafValues>
        5.7768464088439941e-01 -7.3302298784255981e-01</leafValues></_>
    <_>
      <internalNodes>
        0 -1 160717 -4.8653793783159927e-05</internalNodes>
      <leafValues>
        9.6713280677795410e-01 -3.5899466276168823e-01</leafValues></_>
    <_>
      <internalNodes>
        0 -1 1347 -1.0749889770522714e-04</internalNodes>
      <leafValues>
        7.5861054658889771e-01 -3.7356901168823242e-01</leafValues></_>
    <_>
      <internalNodes>
        0 -1 56941 3.7305686622858047e-02</internalNodes>
      <leafValues>
        4.7241470217704773e-01 -8.0819952487945557e-01</leafValues></_>
    <_>
      <internalNodes>
        0 -1 95251 -3.5402814392000437e-03</internalNodes>
      <leafValues>
        -8.5799473524093628e-01 4.3810716271400452e-01</leafValues></_></weakClassifiers></stage5>
</opencv_storage>
