<?xml version="1.0"?>
<opencv_storage>
<stage1>
  <maxWeakCount>5</maxWeakCount>
  <stageThreshold>-1.5169326066970825e+00</stageThreshold>
  <weakClassifiers>
    <_>
      <internalNodes>
        0 -1 99117 4.4348990195430815e-04</internalNodes>
      <leafValues>
        -7.5524473190307617e-01 5.2173912525177002e-01</leafValues></_>
    <_>
      <internalNodes>
        0 -1 35440 5.2663318812847137e-02</internalNodes>
      <leafValues>
        4.3136450648307800e-01 -8.1999623775482178e-01</leafValues></_>
    <_>
      <internalNodes>
        0 -1 16 -3.8914661854505539e-04</internalNodes>
      <leafValues>
        9.9088972806930542e-01 -4.0260165929794312e-01</leafValues></_>
    <_>
      <internalNodes>
        0 -1 61954 4.6383272274397314e-04</internalNodes>
      <leafValues>
        -4.4699168205261230e-01 7.3255360126495361e-01</leafValues></_>
    <_>
      <internalNodes>
        0 -1 1859 1.9148467981722206e-04</internalNodes>
      <leafValues>
        -3.6908215284347534e-01 9.4912886619567871e-01</leafValues></_></weakClassifiers></stage1>
</opencv_storage>
