<?xml version="1.0"?>
<opencv_storage>
<stage3>
  <maxWeakCount>7</maxWeakCount>
  <stageThreshold>-5.6056135892868042e-01</stageThreshold>
  <weakClassifiers>
    <_>
      <internalNodes>
        0 -1 69 -2.6717953733168542e-04</internalNodes>
      <leafValues>
        7.3003804683685303e-01 -4.3935927748680115e-01</leafValues></_>
    <_>
      <internalNodes>
        0 -1 1886 1.3786810450255871e-04</internalNodes>
      <leafValues>
        -3.5999730229377747e-01 8.9810258150100708e-01</leafValues></_>
    <_>
      <internalNodes>
        0 -1 7883 -9.0543611440807581e-04</internalNodes>
      <leafValues>
        8.6408233642578125e-01 -3.5300949215888977e-01</leafValues></_>
    <_>
      <internalNodes>
        0 -1 79659 1.9861120730638504e-02</internalNodes>
      <leafValues>
        4.9737912416458130e-01 -7.0812010765075684e-01</leafValues></_>
    <_>
      <internalNodes>
        0 -1 36922 7.1929872501641512e-04</internalNodes>
      <leafValues>
        -3.1664156913757324e-01 9.3320804834365845e-01</leafValues></_>
    <_>
      <internalNodes>
        0 -1 3436 1.3657048111781478e-04</internalNodes>
      <leafValues>
        -2.7643400430679321e-01 9.1920614242553711e-01</leafValues></_>
    <_>
      <internalNodes>
        0 -1 89997 -1.3061799108982086e-03</internalNodes>
      <leafValues>
        6.8750119209289551e-01 -4.1343992948532104e-01</leafValues></_></weakClassifiers></stage3>
</opencv_storage>
