<?xml version="1.0"?>
<opencv_storage>
<stage5>
  <maxWeakCount>8</maxWeakCount>
  <stageThreshold>-9.4420355558395386e-01</stageThreshold>
  <weakClassifiers>
    <_>
      <internalNodes>
        0 -1 121842 2.9054301194264553e-05</internalNodes>
      <leafValues>
        -5.9172302484512329e-01 1.</leafValues></_>
    <_>
      <internalNodes>
        0 -1 26 -5.3585795685648918e-03</internalNodes>
      <leafValues>
        9.5626598596572876e-01 -3.4161245822906494e-01</leafValues></_>
    <_>
      <internalNodes>
        0 -1 125159 3.3188471570611000e-04</internalNodes>
      <leafValues>
        -6.4802116155624390e-01 5.3625416755676270e-01</leafValues></_>
    <_>
      <internalNodes>
        0 -1 33232 -4.2555260006338358e-04</internalNodes>
      <leafValues>
        1. -3.1188762187957764e-01</leafValues></_>
    <_>
      <internalNodes>
        0 -1 124372 -1.4374357648193836e-02</internalNodes>
      <leafValues>
        5.1804399490356445e-01 -5.8346468210220337e-01</leafValues></_>
    <_>
      <internalNodes>
        0 -1 157562 3.3375190105289221e-04</internalNodes>
      <leafValues>
        -2.9403209686279297e-01 9.3570905923843384e-01</leafValues></_>
    <_>
      <internalNodes>
        0 -1 152142 -3.6527100019156933e-04</internalNodes>
      <leafValues>
        9.7885274887084961e-01 -2.0272178947925568e-01</leafValues></_>
    <_>
      <internalNodes>
        0 -1 157618 -3.0870249611325562e-04</internalNodes>
      <leafValues>
        9.2775058746337891e-01 -2.4663481116294861e-01</leafValues></_></weakClassifiers></stage5>
</opencv_storage>
