<?xml version="1.0"?>
<opencv_storage>
<cascade>
  <stageType>BOOST</stageType>
  <featureType>HAAR</featureType>
  <height>16</height>
  <width>32</width>
  <stageParams>
    <boostType>GAB</boostType>
    <minHitRate>9.9500000476837158e-01</minHitRate>
    <maxFalseAlarm>5.0000000000000000e-01</maxFalseAlarm>
    <weightTrimRate>9.4999999999999996e-01</weightTrimRate>
    <maxDepth>1</maxDepth>
    <maxWeakCount>100</maxWeakCount></stageParams>
  <featureParams>
    <maxCatCount>0</maxCatCount>
    <featSize>1</featSize>
    <mode>BASIC</mode></featureParams>
  <stageNum>3</stageNum>
  <stages>
    <!-- stage 0 -->
    <_>
      <maxWeakCount>3</maxWeakCount>
      <stageThreshold>-1.0107170343399048e+00</stageThreshold>
      <weakClassifiers>
        <_>
          <internalNodes>
            0 -1 6 1.2770485132932663e-02</internalNodes>
          <leafValues>
            -9.2556631565093994e-01 7.3145782947540283e-01</leafValues></_>
        <_>
          <internalNodes>
            0 -1 9 3.2722413539886475e-02</internalNodes>
          <leafValues>
            -7.9866933822631836e-01 5.8901983499526978e-01</leafValues></_>
        <_>
          <internalNodes>
            0 -1 12 4.4706373591907322e-04</internalNodes>
          <leafValues>
            -6.2957453727722168e-01 7.1351867914199829e-01</leafValues></_></weakClassifiers></_>
    <!-- stage 1 -->
    <_>
      <maxWeakCount>5</maxWeakCount>
      <stageThreshold>-1.4885483980178833e+00</stageThreshold>
      <weakClassifiers>
        <_>
          <internalNodes>
            0 -1 10 4.6025656163692474e-02</internalNodes>
          <leafValues>
            -7.7547496557235718e-01 5.4689401388168335e-01</leafValues></_>
        <_>
          <internalNodes>
            0 -1 5 6.8839394953101873e-04</internalNodes>
          <leafValues>
            -4.4717705249786377e-01 9.0596377849578857e-01</leafValues></_>
        <_>
          <internalNodes>
            0 -1 8 -7.3016770184040070e-03</internalNodes>
          <leafValues>
            -8.9228117465972900e-01 4.0115916728973389e-01</leafValues></_>
        <_>
          <internalNodes>
            0 -1 0 -5.2560772746801376e-04</internalNodes>
          <leafValues>
            9.7189712524414062e-01 -3.9862260222434998e-01</leafValues></_>
        <_>
          <internalNodes>
            0 -1 13 -1.9228982273489237e-04</internalNodes>
          <leafValues>
            8.8778203725814819e-01 -3.2813349366188049e-01</leafValues></_></weakClassifiers></_>
    <!-- stage 2 -->
    <_>
      <maxWeakCount>6</maxWeakCount>
      <stageThreshold>-9.9384313821792603e-01</stageThreshold>
      <weakClassifiers>
        <_>
          <internalNodes>
            0 -1 1 1.3354039401747286e-04</internalNodes>
          <leafValues>
            -3.5658913850784302e-01 1.</leafValues></_>
        <_>
          <internalNodes>
            0 -1 7 2.2964496747590601e-04</internalNodes>
          <leafValues>
            -6.2911128997802734e-01 5.9457951784133911e-01</leafValues></_>
        <_>
          <internalNodes>
            0 -1 4 4.1175048681907356e-04</internalNodes>
          <leafValues>
            -4.4825857877731323e-01 9.0254247188568115e-01</leafValues></_>
        <_>
          <internalNodes>
            0 -1 2 1.1203421652317047e-01</internalNodes>
          <leafValues>
            4.4942528009414673e-01 -8.8453024625778198e-01</leafValues></_>
        <_>
          <internalNodes>
            0 -1 3 -2.8678122907876968e-04</internalNodes>
          <leafValues>
            6.5278005599975586e-01 -5.5231809616088867e-01</leafValues></_>
        <_>
          <internalNodes>
            0 -1 11 -9.0270870714448392e-05</internalNodes>
          <leafValues>
            5.5001765489578247e-01 -6.6208946704864502e-01</leafValues></_></weakClassifiers></_></stages>
  <features>
    <_>
      <rects>
        <_>
          0 0 1 12 -1.</_>
        <_>
          0 6 1 6 2.</_></rects>
      <tilted>0</tilted></_>
    <_>
      <rects>
        <_>
          0 2 2 12 -1.</_>
        <_>
          1 2 1 12 2.</_></rects>
      <tilted>0</tilted></_>
    <_>
      <rects>
        <_>
          5 4 25 12 -1.</_>
        <_>
          5 10 25 6 2.</_></rects>
      <tilted>0</tilted></_>
    <_>
      <rects>
        <_>
          6 7 4 3 -1.</_>
        <_>
          8 7 2 3 2.</_></rects>
      <tilted>0</tilted></_>
    <_>
      <rects>
        <_>
          6 14 18 1 -1.</_>
        <_>
          12 14 6 1 3.</_></rects>
      <tilted>0</tilted></_>
    <_>
      <rects>
        <_>
          8 0 22 1 -1.</_>
        <_>
          19 0 11 1 2.</_></rects>
      <tilted>0</tilted></_>
    <_>
      <rects>
        <_>
          9 2 9 12 -1.</_>
        <_>
          9 6 9 4 3.</_></rects>
      <tilted>0</tilted></_>
    <_>
      <rects>
        <_>
          11 6 4 2 -1.</_>
        <_>
          13 6 2 2 2.</_></rects>
      <tilted>0</tilted></_>
    <_>
      <rects>
        <_>
          13 0 4 15 -1.</_>
        <_>
          13 5 4 5 3.</_></rects>
      <tilted>0</tilted></_>
    <_>
      <rects>
        <_>
          13 6 10 6 -1.</_>
        <_>
          13 6 5 3 2.</_>
        <_>
          18 9 5 3 2.</_></rects>
      <tilted>0</tilted></_>
    <_>
      <rects>
        <_>
          14 5 10 8 -1.</_>
        <_>
          14 5 5 4 2.</_>
        <_>
          19 9 5 4 2.</_></rects>
      <tilted>0</tilted></_>
    <_>
      <rects>
        <_>
          15 9 2 1 -1.</_>
        <_>
          16 9 1 1 2.</_></rects>
      <tilted>0</tilted></_>
    <_>
      <rects>
        <_>
          19 14 12 2 -1.</_>
        <_>
          25 14 6 2 2.</_></rects>
      <tilted>0</tilted></_>
    <_>
      <rects>
        <_>
          27 8 5 8 -1.</_>
        <_>
          27 12 5 4 2.</_></rects>
      <tilted>0</tilted></_></features></cascade>
</opencv_storage>
