<?xml version="1.0"?>
<opencv_storage>
<stage2>
  <maxWeakCount>6</maxWeakCount>
  <stageThreshold>-9.9384313821792603e-01</stageThreshold>
  <weakClassifiers>
    <_>
      <internalNodes>
        0 -1 1886 1.3354039401747286e-04</internalNodes>
      <leafValues>
        -3.5658913850784302e-01 1.</leafValues></_>
    <_>
      <internalNodes>
        0 -1 76157 2.2964496747590601e-04</internalNodes>
      <leafValues>
        -6.2911128997802734e-01 5.9457951784133911e-01</leafValues></_>
    <_>
      <internalNodes>
        0 -1 49882 4.1175048681907356e-04</internalNodes>
      <leafValues>
        -4.4825857877731323e-01 9.0254247188568115e-01</leafValues></_>
    <_>
      <internalNodes>
        0 -1 40401 1.1203421652317047e-01</internalNodes>
      <leafValues>
        4.4942528009414673e-01 -8.8453024625778198e-01</leafValues></_>
    <_>
      <internalNodes>
        0 -1 47954 -2.8678122907876968e-04</internalNodes>
      <leafValues>
        6.5278005599975586e-01 -5.5231809616088867e-01</leafValues></_>
    <_>
      <internalNodes>
        0 -1 95385 -9.0270870714448392e-05</internalNodes>
      <leafValues>
        5.5001765489578247e-01 -6.6208946704864502e-01</leafValues></_></weakClassifiers></stage2>
</opencv_storage>
