<?xml version="1.0"?>
<opencv_storage>
<stage6>
  <maxWeakCount>6</maxWeakCount>
  <stageThreshold>-1.3277176618576050e+00</stageThreshold>
  <weakClassifiers>
    <_>
      <internalNodes>
        0 -1 6000 2.7017989850719459e-05</internalNodes>
      <leafValues>
        -7.9355061054229736e-01 5.2596366405487061e-01</leafValues></_>
    <_>
      <internalNodes>
        0 -1 160744 -1.8252106383442879e-04</internalNodes>
      <leafValues>
        9.1752171516418457e-01 -4.5042845606803894e-01</leafValues></_>
    <_>
      <internalNodes>
        0 -1 138710 3.8764714263379574e-03</internalNodes>
      <leafValues>
        -8.4444433450698853e-01 4.2846569418907166e-01</leafValues></_>
    <_>
      <internalNodes>
        0 -1 68388 -9.3421209603548050e-03</internalNodes>
      <leafValues>
        3.3227348327636719e-01 -8.0617702007293701e-01</leafValues></_>
    <_>
      <internalNodes>
        0 -1 176 -2.8719924739561975e-04</internalNodes>
      <leafValues>
        8.1107556819915771e-01 -4.5339921116828918e-01</leafValues></_>
    <_>
      <internalNodes>
        0 -1 11958 5.1454509957693517e-05</internalNodes>
      <leafValues>
        -3.4393757581710815e-01 8.8183146715164185e-01</leafValues></_></weakClassifiers></stage6>
</opencv_storage>
