<?xml version="1.0"?>
<opencv_storage>
<stage4>
  <maxWeakCount>6</maxWeakCount>
  <stageThreshold>-1.4457839727401733e+00</stageThreshold>
  <weakClassifiers>
    <_>
      <internalNodes>
        0 -1 26914 2.9594631632789969e-04</internalNodes>
      <leafValues>
        -6.4404892921447754e-01 9.0265488624572754e-01</leafValues></_>
    <_>
      <internalNodes>
        0 -1 68314 -6.4584344625473022e-02</internalNodes>
      <leafValues>
        4.1653528809547424e-01 -8.0051904916763306e-01</leafValues></_>
    <_>
      <internalNodes>
        0 -1 6809 2.0952216800651513e-05</internalNodes>
      <leafValues>
        -5.5402916669845581e-01 6.7622464895248413e-01</leafValues></_>
    <_>
      <internalNodes>
        0 -1 151338 4.4093867763876915e-03</internalNodes>
      <leafValues>
        -6.4491188526153564e-01 4.5376884937286377e-01</leafValues></_>
    <_>
      <internalNodes>
        0 -1 131808 -3.7224544212222099e-03</internalNodes>
      <leafValues>
        5.0282412767410278e-01 -6.2350970506668091e-01</leafValues></_>
    <_>
      <internalNodes>
        0 -1 13071 2.0780498743988574e-04</internalNodes>
      <leafValues>
        -4.0377974510192871e-01 7.8061467409133911e-01</leafValues></_></weakClassifiers></stage4>
</opencv_storage>
