<?xml version="1.0"?>
<opencv_storage>
<cascade>
  <stageType>BOOST</stageType>
  <featureType>HAAR</featureType>
  <height>16</height>
  <width>32</width>
  <stageParams>
    <boostType>GAB</boostType>
    <minHitRate>9.9500000476837158e-01</minHitRate>
    <maxFalseAlarm>5.0000000000000000e-01</maxFalseAlarm>
    <weightTrimRate>9.4999999999999996e-01</weightTrimRate>
    <maxDepth>1</maxDepth>
    <maxWeakCount>100</maxWeakCount></stageParams>
  <featureParams>
    <maxCatCount>0</maxCatCount>
    <featSize>1</featSize>
    <mode>BASIC</mode></featureParams>
  <stageNum>3</stageNum>
  <stages>
    <!-- stage 0 -->
    <_>
      <maxWeakCount>3</maxWeakCount>
      <stageThreshold>-8.2890957593917847e-01</stageThreshold>
      <weakClassifiers>
        <_>
          <internalNodes>
            0 -1 4 5.2921935915946960e-02</internalNodes>
          <leafValues>
            -9.3235296010971069e-01 8.8055557012557983e-01</leafValues></_>
        <_>
          <internalNodes>
            0 -1 9 2.5864117778837681e-03</internalNodes>
          <leafValues>
            -7.6675778627395630e-01 6.7284286022186279e-01</leafValues></_>
        <_>
          <internalNodes>
            0 -1 0 -1.5601303894072771e-03</internalNodes>
          <leafValues>
            9.6815222501754761e-01 -5.6939947605133057e-01</leafValues></_></weakClassifiers></_>
    <!-- stage 1 -->
    <_>
      <maxWeakCount>3</maxWeakCount>
      <stageThreshold>-1.1175967454910278e+00</stageThreshold>
      <weakClassifiers>
        <_>
          <internalNodes>
            0 -1 5 -7.2074815630912781e-02</internalNodes>
          <leafValues>
            7.4762552976608276e-01 -8.3107089996337891e-01</leafValues></_>
        <_>
          <internalNodes>
            0 -1 1 -5.7035893201828003e-02</internalNodes>
          <leafValues>
            -8.4905469417572021e-01 6.5434706211090088e-01</leafValues></_>
        <_>
          <internalNodes>
            0 -1 3 -3.6923907697200775e-02</internalNodes>
          <leafValues>
            5.6252884864807129e-01 -8.1824254989624023e-01</leafValues></_></weakClassifiers></_>
    <!-- stage 2 -->
    <_>
      <maxWeakCount>4</maxWeakCount>
      <stageThreshold>-5.4777926206588745e-01</stageThreshold>
      <weakClassifiers>
        <_>
          <internalNodes>
            0 -1 7 -9.9457930773496628e-03</internalNodes>
          <leafValues>
            7.0546984672546387e-01 -7.3216885328292847e-01</leafValues></_>
        <_>
          <internalNodes>
            0 -1 6 -4.3441742658615112e-02</internalNodes>
          <leafValues>
            5.4855096340179443e-01 -7.8551232814788818e-01</leafValues></_>
        <_>
          <internalNodes>
            0 -1 8 -1.8564598634839058e-02</internalNodes>
          <leafValues>
            -8.7587243318557739e-01 4.9745437502861023e-01</leafValues></_>
        <_>
          <internalNodes>
            0 -1 2 3.6187462508678436e-02</internalNodes>
          <leafValues>
            5.1171106100082397e-01 -8.0785918235778809e-01</leafValues></_></weakClassifiers></_></stages>
  <features>
    <_>
      <rects>
        <_>
          1 0 30 1 -1.</_>
        <_>
          11 0 10 1 3.</_></rects>
      <tilted>0</tilted></_>
    <_>
      <rects>
        <_>
          7 4 10 12 -1.</_>
        <_>
          7 8 10 4 3.</_></rects>
      <tilted>0</tilted></_>
    <_>
      <rects>
        <_>
          7 8 6 8 -1.</_>
        <_>
          7 12 6 4 2.</_></rects>
      <tilted>0</tilted></_>
    <_>
      <rects>
        <_>
          9 3 8 8 -1.</_>
        <_>
          13 3 4 8 2.</_></rects>
      <tilted>0</tilted></_>
    <_>
      <rects>
        <_>
          12 2 12 7 -1.</_>
        <_>
          18 2 6 7 2.</_></rects>
      <tilted>0</tilted></_>
    <_>
      <rects>
        <_>
          12 2 12 14 -1.</_>
        <_>
          12 2 6 7 2.</_>
        <_>
          18 9 6 7 2.</_></rects>
      <tilted>0</tilted></_>
    <_>
      <rects>
        <_>
          13 4 10 10 -1.</_>
        <_>
          13 4 5 5 2.</_>
        <_>
          18 9 5 5 2.</_></rects>
      <tilted>0</tilted></_>
    <_>
      <rects>
        <_>
          14 5 4 4 -1.</_>
        <_>
          14 5 2 2 2.</_>
        <_>
          16 7 2 2 2.</_></rects>
      <tilted>0</tilted></_>
    <_>
      <rects>
        <_>
          16 6 15 5 -1.</_>
        <_>
          21 6 5 5 3.</_></rects>
      <tilted>0</tilted></_>
    <_>
      <rects>
        <_>
          17 8 2 1 -1.</_>
        <_>
          18 8 1 1 2.</_></rects>
      <tilted>0</tilted></_></features></cascade>
</opencv_storage>
