<?xml version="1.0"?>
<opencv_storage>
<stage2>
  <maxWeakCount>6</maxWeakCount>
  <stageThreshold>-1.2549593448638916e+00</stageThreshold>
  <weakClassifiers>
    <_>
      <internalNodes>
        0 -1 177 4.5580288860946894e-04</internalNodes>
      <leafValues>
        -8.5714286565780640e-01 -3.6641222238540649e-01</leafValues></_>
    <_>
      <internalNodes>
        0 -1 129 3.0695362016558647e-02</internalNodes>
      <leafValues>
        -7.1031844615936279e-01 1.2426089495420456e-01</leafValues></_>
    <_>
      <internalNodes>
        0 -1 150 1.8350480124354362e-02</internalNodes>
      <leafValues>
        2.2031982243061066e-01 -6.1184030771255493e-01</leafValues></_>
    <_>
      <internalNodes>
        0 -1 33 4.1609175503253937e-02</internalNodes>
      <leafValues>
        2.2190228104591370e-01 -7.0486730337142944e-01</leafValues></_>
    <_>
      <internalNodes>
        0 -1 19 3.6720022559165955e-02</internalNodes>
      <leafValues>
        1.5602856874465942e-01 -8.3645886182785034e-01</leafValues></_>
    <_>
      <internalNodes>
        0 -1 160 4.9430131912231445e-04</internalNodes>
      <leafValues>
        -7.7889859676361084e-01 1.6513739526271820e-01</leafValues></_></weakClassifiers></stage2>
</opencv_storage>
