<?xml version="1.0"?>
<opencv_storage>
<stage4>
  <maxWeakCount>11</maxWeakCount>
  <stageThreshold>-1.4235656261444092e+00</stageThreshold>
  <weakClassifiers>
    <_>
      <internalNodes>
        0 -1 160 4.3515287339687347e-02</internalNodes>
      <leafValues>
        -6.4583331346511841e-01 5.0000000000000000e-01</leafValues></_>
    <_>
      <internalNodes>
        0 -1 138 3.6662090569734573e-02</internalNodes>
      <leafValues>
        -4.5669329166412354e-01 2.2916115820407867e-01</leafValues></_>
    <_>
      <internalNodes>
        0 -1 10 1.0499120689928532e-03</internalNodes>
      <leafValues>
        -1. 1.1387948691844940e-01</leafValues></_>
    <_>
      <internalNodes>
        0 -1 205 2.0353037863969803e-02</internalNodes>
      <leafValues>
        -4.5144996047019958e-01 3.2263669371604919e-01</leafValues></_>
    <_>
      <internalNodes>
        0 -1 42 7.8888889402151108e-03</internalNodes>
      <leafValues>
        2.3753251135349274e-01 -5.6069231033325195e-01</leafValues></_>
    <_>
      <internalNodes>
        0 -1 0 3.6645695217885077e-04</internalNodes>
      <leafValues>
        -6.1497646570205688e-01 2.3567260801792145e-01</leafValues></_>
    <_>
      <internalNodes>
        0 -1 201 3.2277904450893402e-02</internalNodes>
      <leafValues>
        -4.8590156435966492e-01 3.4080398082733154e-01</leafValues></_>
    <_>
      <internalNodes>
        0 -1 136 3.7001315504312515e-02</internalNodes>
      <leafValues>
        1.7378211021423340e-01 -6.6445308923721313e-01</leafValues></_>
    <_>
      <internalNodes>
        0 -1 101 2.2369768470525742e-02</internalNodes>
      <leafValues>
        -5.4166495800018311e-01 2.4645720422267914e-01</leafValues></_>
    <_>
      <internalNodes>
        0 -1 7 2.9160565463826060e-04</internalNodes>
      <leafValues>
        -4.0251752734184265e-01 3.6060774326324463e-01</leafValues></_>
    <_>
      <internalNodes>
        0 -1 80 3.0178872868418694e-02</internalNodes>
      <leafValues>
        1.6388687491416931e-01 -7.1482890844345093e-01</leafValues></_></weakClassifiers></stage4>
</opencv_storage>
