<?xml version="1.0"?>
<opencv_storage>
<stage4>
  <maxWeakCount>5</maxWeakCount>
  <stageThreshold>-1.3428647518157959e+00</stageThreshold>
  <weakClassifiers>
    <_>
      <internalNodes>
        0 -1 13032 1.9037729362025857e-04</internalNodes>
      <leafValues>
        -5.6805664300918579e-01 9.6943229436874390e-01</leafValues></_>
    <_>
      <internalNodes>
        0 -1 8236 4.4361659092828631e-04</internalNodes>
      <leafValues>
        -5.6688398122787476e-01 6.2194955348968506e-01</leafValues></_>
    <_>
      <internalNodes>
        0 -1 64751 2.2267913445830345e-02</internalNodes>
      <leafValues>
        -7.2384107112884521e-01 4.1062974929809570e-01</leafValues></_>
    <_>
      <internalNodes>
        0 -1 157868 3.8280879380181432e-04</internalNodes>
      <leafValues>
        -3.1452521681785583e-01 9.6146214008331299e-01</leafValues></_>
    <_>
      <internalNodes>
        0 -1 143979 5.4633314721286297e-04</internalNodes>
      <leafValues>
        -2.4366509914398193e-01 8.3044213056564331e-01</leafValues></_></weakClassifiers></stage4>
</opencv_storage>
