<?xml version="1.0"?>
<opencv_storage>
<cascade>
  <stageType>BOOST</stageType>
  <featureType>HAAR</featureType>
  <height>16</height>
  <width>32</width>
  <stageParams>
    <boostType>GAB</boostType>
    <minHitRate>9.9500000476837158e-01</minHitRate>
    <maxFalseAlarm>5.0000000000000000e-01</maxFalseAlarm>
    <weightTrimRate>9.4999999999999996e-01</weightTrimRate>
    <maxDepth>1</maxDepth>
    <maxWeakCount>100</maxWeakCount></stageParams>
  <featureParams>
    <maxCatCount>0</maxCatCount>
    <featSize>1</featSize>
    <mode>BASIC</mode></featureParams>
  <stageNum>4</stageNum>
  <stages>
    <!-- stage 0 -->
    <_>
      <maxWeakCount>2</maxWeakCount>
      <stageThreshold>-4.8964083194732666e-01</stageThreshold>
      <weakClassifiers>
        <_>
          <internalNodes>
            0 -1 6 -4.1179511696100235e-02</internalNodes>
          <leafValues>
            6.2117648124694824e-01 -9.5999997854232788e-01</leafValues></_>
        <_>
          <internalNodes>
            0 -1 13 5.1834800979122519e-04</internalNodes>
          <leafValues>
            -8.2035207748413086e-01 4.7035914659500122e-01</leafValues></_></weakClassifiers></_>
    <!-- stage 1 -->
    <_>
      <maxWeakCount>4</maxWeakCount>
      <stageThreshold>-4.9313041567802429e-01</stageThreshold>
      <weakClassifiers>
        <_>
          <internalNodes>
            0 -1 10 -1.3017939403653145e-02</internalNodes>
          <leafValues>
            5.6723713874816895e-01 -7.9725086688995361e-01</leafValues></_>
        <_>
          <internalNodes>
            0 -1 1 -9.2542916536331177e-04</internalNodes>
          <leafValues>
            6.2408816814422607e-01 -6.6025578975677490e-01</leafValues></_>
        <_>
          <internalNodes>
            0 -1 7 -5.9696435928344727e-02</internalNodes>
          <leafValues>
            4.9862566590309143e-01 -7.9062849283218384e-01</leafValues></_>
        <_>
          <internalNodes>
            0 -1 11 1.4469289453700185e-03</internalNodes>
          <leafValues>
            -8.1073814630508423e-01 4.7066077589988708e-01</leafValues></_></weakClassifiers></_>
    <!-- stage 2 -->
    <_>
      <maxWeakCount>4</maxWeakCount>
      <stageThreshold>-4.4064083695411682e-01</stageThreshold>
      <weakClassifiers>
        <_>
          <internalNodes>
            0 -1 2 -1.4476290671154857e-03</internalNodes>
          <leafValues>
            9.5511221885681152e-01 -3.8338339328765869e-01</leafValues></_>
        <_>
          <internalNodes>
            0 -1 0 -4.7984503908082843e-04</internalNodes>
          <leafValues>
            9.4365394115447998e-01 -3.1875360012054443e-01</leafValues></_>
        <_>
          <internalNodes>
            0 -1 3 2.7683033840730786e-04</internalNodes>
          <leafValues>
            -3.2922530174255371e-01 9.6675658226013184e-01</leafValues></_>
        <_>
          <internalNodes>
            0 -1 8 -2.1215615794062614e-02</internalNodes>
          <leafValues>
            5.9072142839431763e-01 -6.2363415956497192e-01</leafValues></_></weakClassifiers></_>
    <!-- stage 3 -->
    <_>
      <maxWeakCount>6</maxWeakCount>
      <stageThreshold>-9.1545110940933228e-01</stageThreshold>
      <weakClassifiers>
        <_>
          <internalNodes>
            0 -1 9 -3.1052779406309128e-02</internalNodes>
          <leafValues>
            6.6086953878402710e-01 -6.4225351810455322e-01</leafValues></_>
        <_>
          <internalNodes>
            0 -1 5 2.8502184431999922e-04</internalNodes>
          <leafValues>
            -4.3473958969116211e-01 8.4509110450744629e-01</leafValues></_>
        <_>
          <internalNodes>
            0 -1 13 2.2597044880967587e-04</internalNodes>
          <leafValues>
            -7.4174922704696655e-01 5.0368577241897583e-01</leafValues></_>
        <_>
          <internalNodes>
            0 -1 4 3.5626348108053207e-04</internalNodes>
          <leafValues>
            -3.9258548617362976e-01 9.3038141727447510e-01</leafValues></_>
        <_>
          <internalNodes>
            0 -1 14 2.5539839407429099e-04</internalNodes>
          <leafValues>
            -4.2055317759513855e-01 7.9191893339157104e-01</leafValues></_>
        <_>
          <internalNodes>
            0 -1 12 -4.7760307788848877e-02</internalNodes>
          <leafValues>
            -8.3090746402740479e-01 4.7099483013153076e-01</leafValues></_></weakClassifiers></_></stages>
  <features>
    <_>
      <rects>
        <_>
          0 0 1 10 -1.</_>
        <_>
          0 5 1 5 2.</_></rects>
      <tilted>0</tilted></_>
    <_>
      <rects>
        <_>
          0 0 3 15 -1.</_>
        <_>
          0 5 3 5 3.</_></rects>
      <tilted>0</tilted></_>
    <_>
      <rects>
        <_>
          0 0 30 1 -1.</_>
        <_>
          10 0 10 1 3.</_></rects>
      <tilted>0</tilted></_>
    <_>
      <rects>
        <_>
          0 2 1 9 -1.</_>
        <_>
          0 5 1 3 3.</_></rects>
      <tilted>0</tilted></_>
    <_>
      <rects>
        <_>
          0 2 2 12 -1.</_>
        <_>
          1 2 1 12 2.</_></rects>
      <tilted>0</tilted></_>
    <_>
      <rects>
        <_>
          1 6 1 10 -1.</_>
        <_>
          1 11 1 5 2.</_></rects>
      <tilted>0</tilted></_>
    <_>
      <rects>
        <_>
          6 8 21 6 -1.</_>
        <_>
          13 8 7 6 3.</_></rects>
      <tilted>0</tilted></_>
    <_>
      <rects>
        <_>
          6 9 21 5 -1.</_>
        <_>
          13 9 7 5 3.</_></rects>
      <tilted>0</tilted></_>
    <_>
      <rects>
        <_>
          9 9 8 5 -1.</_>
        <_>
          13 9 4 5 2.</_></rects>
      <tilted>0</tilted></_>
    <_>
      <rects>
        <_>
          12 5 3 9 -1.</_>
        <_>
          12 8 3 3 3.</_></rects>
      <tilted>0</tilted></_>
    <_>
      <rects>
        <_>
          13 5 3 6 -1.</_>
        <_>
          13 8 3 3 2.</_></rects>
      <tilted>0</tilted></_>
    <_>
      <rects>
        <_>
          13 8 6 1 -1.</_>
        <_>
          15 8 2 1 3.</_></rects>
      <tilted>0</tilted></_>
    <_>
      <rects>
        <_>
          14 2 18 10 -1.</_>
        <_>
          20 2 6 10 3.</_></rects>
      <tilted>0</tilted></_>
    <_>
      <rects>
        <_>
          15 7 1 3 -1.</_>
        <_>
          15 8 1 1 3.</_></rects>
      <tilted>0</tilted></_>
    <_>
      <rects>
        <_>
          21 12 10 4 -1.</_>
        <_>
          26 12 5 4 2.</_></rects>
      <tilted>0</tilted></_></features></cascade>
</opencv_storage>
