<?xml version="1.0"?>
<opencv_storage>
<stage5>
  <maxWeakCount>6</maxWeakCount>
  <stageThreshold>-9.5265161991119385e-01</stageThreshold>
  <weakClassifiers>
    <_>
      <internalNodes>
        0 -1 48921 -2.5280120098614134e-05</internalNodes>
      <leafValues>
        9.7900629043579102e-01 -5.8103287220001221e-01</leafValues></_>
    <_>
      <internalNodes>
        0 -1 87642 -9.4560692086815834e-03</internalNodes>
      <leafValues>
        5.5632942914962769e-01 -6.5425217151641846e-01</leafValues></_>
    <_>
      <internalNodes>
        0 -1 71261 3.6616608849726617e-04</internalNodes>
      <leafValues>
        -3.6476331949234009e-01 9.5077133178710938e-01</leafValues></_>
    <_>
      <internalNodes>
        0 -1 119385 -4.9593220464885235e-03</internalNodes>
      <leafValues>
        6.1060976982116699e-01 -4.8801249265670776e-01</leafValues></_>
    <_>
      <internalNodes>
        0 -1 34183 -7.0934453979134560e-03</internalNodes>
      <leafValues>
        3.8679733872413635e-01 -7.7138942480087280e-01</leafValues></_>
    <_>
      <internalNodes>
        0 -1 13084 4.5507523464038968e-04</internalNodes>
      <leafValues>
        -3.5001036524772644e-01 8.1720566749572754e-01</leafValues></_></weakClassifiers></stage5>
</opencv_storage>
