<?xml version="1.0"?>
<opencv_storage>
<stage1>
  <maxWeakCount>6</maxWeakCount>
  <stageThreshold>-1.6838449239730835e+00</stageThreshold>
  <weakClassifiers>
    <_>
      <internalNodes>
        0 -1 85 8.8345006108283997e-02</internalNodes>
      <leafValues>
        -7.3853212594985962e-01 3.4375000000000000e-01</leafValues></_>
    <_>
      <internalNodes>
        0 -1 208 2.5148048996925354e-02</internalNodes>
      <leafValues>
        2.9933249950408936e-01 -7.6225620508193970e-01</leafValues></_>
    <_>
      <internalNodes>
        0 -1 170 3.0718773603439331e-02</internalNodes>
      <leafValues>
        2.9172608256340027e-01 -7.7329003810882568e-01</leafValues></_>
    <_>
      <internalNodes>
        0 -1 168 2.7835365384817123e-02</internalNodes>
      <leafValues>
        1.7539055645465851e-01 -9.8476928472518921e-01</leafValues></_>
    <_>
      <internalNodes>
        0 -1 179 3.6828056909143925e-03</internalNodes>
      <leafValues>
        -9.0802615880966187e-01 2.3689815402030945e-01</leafValues></_>
    <_>
      <internalNodes>
        0 -1 25 4.7049000859260559e-03</internalNodes>
      <leafValues>
        -8.6114674806594849e-01 1.7794468998908997e-01</leafValues></_></weakClassifiers></stage1>
</opencv_storage>
