<?xml version="1.0"?>
<opencv_storage>
<stage4>
  <maxWeakCount>7</maxWeakCount>
  <stageThreshold>-1.7210977077484131e+00</stageThreshold>
  <weakClassifiers>
    <_>
      <internalNodes>
        0 -1 193 8.6744561791419983e-02</internalNodes>
      <leafValues>
        -7.2558140754699707e-01 1.7142857611179352e-01</leafValues></_>
    <_>
      <internalNodes>
        0 -1 208 3.5220772027969360e-02</internalNodes>
      <leafValues>
        6.9320492446422577e-02 -9.3016529083251953e-01</leafValues></_>
    <_>
      <internalNodes>
        0 -1 4 3.6030560731887817e-02</internalNodes>
      <leafValues>
        -4.4524112343788147e-01 3.4283244609832764e-01</leafValues></_>
    <_>
      <internalNodes>
        0 -1 14 1.5071387402713299e-02</internalNodes>
      <leafValues>
        4.2899495363235474e-01 -4.1883301734924316e-01</leafValues></_>
    <_>
      <internalNodes>
        0 -1 0 4.6221219236031175e-04</internalNodes>
      <leafValues>
        -8.5196608304977417e-01 1.7622704803943634e-01</leafValues></_>
    <_>
      <internalNodes>
        0 -1 61 1.3177901506423950e-02</internalNodes>
      <leafValues>
        -6.0831147432327271e-01 2.2185355424880981e-01</leafValues></_>
    <_>
      <internalNodes>
        0 -1 46 2.4169826880097389e-02</internalNodes>
      <leafValues>
        2.3132178187370300e-01 -5.6326591968536377e-01</leafValues></_></weakClassifiers></stage4>
</opencv_storage>
