<?xml version="1.0"?>
<opencv_storage>
<stage4>
  <maxWeakCount>5</maxWeakCount>
  <stageThreshold>-1.3339718580245972e+00</stageThreshold>
  <weakClassifiers>
    <_>
      <internalNodes>
        0 -1 6000 2.9546734367613681e-05</internalNodes>
      <leafValues>
        -7.9254007339477539e-01 8.5270702838897705e-01</leafValues></_>
    <_>
      <internalNodes>
        0 -1 90396 2.6378353140898980e-05</internalNodes>
      <leafValues>
        -4.4551688432693481e-01 9.9101841449737549e-01</leafValues></_>
    <_>
      <internalNodes>
        0 -1 162316 4.4183360296301544e-04</internalNodes>
      <leafValues>
        -3.6119696497917175e-01 9.6989804506301880e-01</leafValues></_>
    <_>
      <internalNodes>
        0 -1 29766 -1.9768580794334412e-02</internalNodes>
      <leafValues>
        -4.8365598917007446e-01 6.3456678390502930e-01</leafValues></_>
    <_>
      <internalNodes>
        0 -1 159753 -5.7518889661878347e-04</internalNodes>
      <leafValues>
        8.4730041027069092e-01 -3.6928474903106689e-01</leafValues></_></weakClassifiers></stage4>
</opencv_storage>
