<?xml version="1.0"?>
<opencv_storage>
<stage2>
  <maxWeakCount>6</maxWeakCount>
  <stageThreshold>-7.5913786888122559e-01</stageThreshold>
  <weakClassifiers>
    <_>
      <internalNodes>
        0 -1 106903 -3.9766505360603333e-03</internalNodes>
      <leafValues>
        6.8768769502639771e-01 -6.2397819757461548e-01</leafValues></_>
    <_>
      <internalNodes>
        0 -1 530 -6.0785096138715744e-04</internalNodes>
      <leafValues>
        8.2124572992324829e-01 -4.4904363155364990e-01</leafValues></_>
    <_>
      <internalNodes>
        0 -1 66369 2.5639827363193035e-03</internalNodes>
      <leafValues>
        -8.3195465803146362e-01 4.9451252818107605e-01</leafValues></_>
    <_>
      <internalNodes>
        0 -1 2710 6.2601291574537754e-04</internalNodes>
      <leafValues>
        -3.8158214092254639e-01 1.</leafValues></_>
    <_>
      <internalNodes>
        0 -1 91255 -2.1709674037992954e-03</internalNodes>
      <leafValues>
        8.0439180135726929e-01 -4.2916119098663330e-01</leafValues></_>
    <_>
      <internalNodes>
        0 -1 50533 -1.0168181359767914e-01</internalNodes>
      <leafValues>
        -5.7011115550994873e-01 6.8629252910614014e-01</leafValues></_></weakClassifiers></stage2>
</opencv_storage>
