<?xml version="1.0"?>
<opencv_storage>
<cascade>
  <stageType>BOOST</stageType>
  <featureType>HAAR</featureType>
  <height>16</height>
  <width>32</width>
  <stageParams>
    <boostType>GAB</boostType>
    <minHitRate>9.9500000476837158e-01</minHitRate>
    <maxFalseAlarm>5.0000000000000000e-01</maxFalseAlarm>
    <weightTrimRate>9.4999999999999996e-01</weightTrimRate>
    <maxDepth>1</maxDepth>
    <maxWeakCount>100</maxWeakCount></stageParams>
  <featureParams>
    <maxCatCount>0</maxCatCount>
    <featSize>1</featSize>
    <mode>BASIC</mode></featureParams>
  <stageNum>3</stageNum>
  <stages>
    <!-- stage 0 -->
    <_>
      <maxWeakCount>3</maxWeakCount>
      <stageThreshold>-7.1943420171737671e-01</stageThreshold>
      <weakClassifiers>
        <_>
          <internalNodes>
            0 -1 12 1.0848751291632652e-02</internalNodes>
          <leafValues>
            -7.8151261806488037e-01 5.7763975858688354e-01</leafValues></_>
        <_>
          <internalNodes>
            0 -1 6 1.5196273103356361e-02</internalNodes>
          <leafValues>
            -7.6387453079223633e-01 4.9636843800544739e-01</leafValues></_>
        <_>
          <internalNodes>
            0 -1 1 -8.7500724475830793e-04</internalNodes>
          <leafValues>
            8.5218745470046997e-01 -4.3429005146026611e-01</leafValues></_></weakClassifiers></_>
    <!-- stage 1 -->
    <_>
      <maxWeakCount>6</maxWeakCount>
      <stageThreshold>-4.3560153245925903e-01</stageThreshold>
      <weakClassifiers>
        <_>
          <internalNodes>
            0 -1 2 -2.1260972134768963e-03</internalNodes>
          <leafValues>
            8.7412589788436890e-01 -3.8619980216026306e-01</leafValues></_>
        <_>
          <internalNodes>
            0 -1 14 -2.5483063654974103e-04</internalNodes>
          <leafValues>
            5.2380287647247314e-01 -6.8372756242752075e-01</leafValues></_>
        <_>
          <internalNodes>
            0 -1 0 -4.9768155440688133e-04</internalNodes>
          <leafValues>
            8.7809497117996216e-01 -3.4532392024993896e-01</leafValues></_>
        <_>
          <internalNodes>
            0 -1 5 -6.5751670626923442e-04</internalNodes>
          <leafValues>
            9.6841186285018921e-01 -2.8578472137451172e-01</leafValues></_>
        <_>
          <internalNodes>
            0 -1 11 -4.7021195292472839e-02</internalNodes>
          <leafValues>
            -8.6239928007125854e-01 3.9810985326766968e-01</leafValues></_>
        <_>
          <internalNodes>
            0 -1 8 8.1642321310937405e-04</internalNodes>
          <leafValues>
            -3.3389329910278320e-01 9.2129021883010864e-01</leafValues></_></weakClassifiers></_>
    <!-- stage 2 -->
    <_>
      <maxWeakCount>6</maxWeakCount>
      <stageThreshold>-6.2268763780593872e-01</stageThreshold>
      <weakClassifiers>
        <_>
          <internalNodes>
            0 -1 9 -1.4305206947028637e-02</internalNodes>
          <leafValues>
            5.2664190530776978e-01 -7.1669477224349976e-01</leafValues></_>
        <_>
          <internalNodes>
            0 -1 10 -3.3140945015475154e-04</internalNodes>
          <leafValues>
            8.7776100635528564e-01 -3.5197886824607849e-01</leafValues></_>
        <_>
          <internalNodes>
            0 -1 13 2.2027480008546263e-04</internalNodes>
          <leafValues>
            -7.1706312894821167e-01 4.3857362866401672e-01</leafValues></_>
        <_>
          <internalNodes>
            0 -1 7 -2.3132338537834585e-04</internalNodes>
          <leafValues>
            7.9211437702178955e-01 -4.5499378442764282e-01</leafValues></_>
        <_>
          <internalNodes>
            0 -1 4 4.7393761633429676e-05</internalNodes>
          <leafValues>
            -3.8411778211593628e-01 7.6481258869171143e-01</leafValues></_>
        <_>
          <internalNodes>
            0 -1 3 1.0335963452234864e-04</internalNodes>
          <leafValues>
            -3.5007187724113464e-01 8.4652394056320190e-01</leafValues></_></weakClassifiers></_></stages>
  <features>
    <_>
      <rects>
        <_>
          0 0 1 10 -1.</_>
        <_>
          0 5 1 5 2.</_></rects>
      <tilted>0</tilted></_>
    <_>
      <rects>
        <_>
          0 15 24 1 -1.</_>
        <_>
          12 15 12 1 2.</_></rects>
      <tilted>0</tilted></_>
    <_>
      <rects>
        <_>
          1 0 30 1 -1.</_>
        <_>
          11 0 10 1 3.</_></rects>
      <tilted>0</tilted></_>
    <_>
      <rects>
        <_>
          1 4 1 6 -1.</_>
        <_>
          1 6 1 2 3.</_></rects>
      <tilted>0</tilted></_>
    <_>
      <rects>
        <_>
          4 3 10 1 -1.</_>
        <_>
          9 3 5 1 2.</_></rects>
      <tilted>0</tilted></_>
    <_>
      <rects>
        <_>
          4 15 28 1 -1.</_>
        <_>
          18 15 14 1 2.</_></rects>
      <tilted>0</tilted></_>
    <_>
      <rects>
        <_>
          5 4 9 10 -1.</_>
        <_>
          8 4 3 10 3.</_></rects>
      <tilted>0</tilted></_>
    <_>
      <rects>
        <_>
          5 14 20 2 -1.</_>
        <_>
          15 14 10 2 2.</_></rects>
      <tilted>0</tilted></_>
    <_>
      <rects>
        <_>
          6 15 24 1 -1.</_>
        <_>
          18 15 12 1 2.</_></rects>
      <tilted>0</tilted></_>
    <_>
      <rects>
        <_>
          7 2 8 8 -1.</_>
        <_>
          7 2 4 4 2.</_>
        <_>
          11 6 4 4 2.</_></rects>
      <tilted>0</tilted></_>
    <_>
      <rects>
        <_>
          11 0 20 2 -1.</_>
        <_>
          11 0 10 1 2.</_>
        <_>
          21 1 10 1 2.</_></rects>
      <tilted>0</tilted></_>
    <_>
      <rects>
        <_>
          11 2 21 10 -1.</_>
        <_>
          18 2 7 10 3.</_></rects>
      <tilted>0</tilted></_>
    <_>
      <rects>
        <_>
          16 7 8 4 -1.</_>
        <_>
          20 7 4 4 2.</_></rects>
      <tilted>0</tilted></_>
    <_>
      <rects>
        <_>
          17 7 1 4 -1.</_>
        <_>
          17 9 1 2 2.</_></rects>
      <tilted>0</tilted></_>
    <_>
      <rects>
        <_>
          18 6 1 2 -1.</_>
        <_>
          18 7 1 1 2.</_></rects>
      <tilted>0</tilted></_></features></cascade>
</opencv_storage>
