<?xml version="1.0"?>
<opencv_storage>
<stage1>
  <maxWeakCount>6</maxWeakCount>
  <stageThreshold>-4.3560153245925903e-01</stageThreshold>
  <weakClassifiers>
    <_>
      <internalNodes>
        0 -1 8367 -2.1260972134768963e-03</internalNodes>
      <leafValues>
        8.7412589788436890e-01 -3.8619980216026306e-01</leafValues></_>
    <_>
      <internalNodes>
        0 -1 105813 -2.5483063654974103e-04</internalNodes>
      <leafValues>
        5.2380287647247314e-01 -6.8372756242752075e-01</leafValues></_>
    <_>
      <internalNodes>
        0 -1 21 -4.9768155440688133e-04</internalNodes>
      <leafValues>
        8.7809497117996216e-01 -3.4532392024993896e-01</leafValues></_>
    <_>
      <internalNodes>
        0 -1 36927 -6.5751670626923442e-04</internalNodes>
      <leafValues>
        9.6841186285018921e-01 -2.8578472137451172e-01</leafValues></_>
    <_>
      <internalNodes>
        0 -1 74523 -4.7021195292472839e-02</internalNodes>
      <leafValues>
        -8.6239928007125854e-01 3.9810985326766968e-01</leafValues></_>
    <_>
      <internalNodes>
        0 -1 49950 8.1642321310937405e-04</internalNodes>
      <leafValues>
        -3.3389329910278320e-01 9.2129021883010864e-01</leafValues></_></weakClassifiers></stage1>
</opencv_storage>
