<?xml version="1.0"?>
<opencv_storage>
<stage1>
  <maxWeakCount>6</maxWeakCount>
  <stageThreshold>-1.0414013862609863e+00</stageThreshold>
  <weakClassifiers>
    <_>
      <internalNodes>
        0 -1 157 9.6603348851203918e-02</internalNodes>
      <leafValues>
        -7.1058315038681030e-01 7.8378379344940186e-01</leafValues></_>
    <_>
      <internalNodes>
        0 -1 46 2.4644432589411736e-02</internalNodes>
      <leafValues>
        1.1061872541904449e-01 -9.5838385820388794e-01</leafValues></_>
    <_>
      <internalNodes>
        0 -1 71 2.7127496898174286e-02</internalNodes>
      <leafValues>
        3.1728705763816833e-01 -6.7161101102828979e-01</leafValues></_>
    <_>
      <internalNodes>
        0 -1 163 4.4352591037750244e-02</internalNodes>
      <leafValues>
        2.9499584436416626e-01 -7.5630116462707520e-01</leafValues></_>
    <_>
      <internalNodes>
        0 -1 15 1.2868825346231461e-02</internalNodes>
      <leafValues>
        4.8983040452003479e-01 -4.9036365747451782e-01</leafValues></_>
    <_>
      <internalNodes>
        0 -1 160 1.9599352031946182e-02</internalNodes>
      <leafValues>
        -4.3314588069915771e-01 5.1435041427612305e-01</leafValues></_></weakClassifiers></stage1>
</opencv_storage>
