<?xml version="1.0"?>
<opencv_storage>
<stage6>
  <maxWeakCount>8</maxWeakCount>
  <stageThreshold>-1.0730804204940796e+00</stageThreshold>
  <weakClassifiers>
    <_>
      <internalNodes>
        0 -1 326 -3.7021451862528920e-04</internalNodes>
      <leafValues>
        9.7620713710784912e-01 -5.8050453662872314e-01</leafValues></_>
    <_>
      <internalNodes>
        0 -1 13045 2.4642882635816932e-04</internalNodes>
      <leafValues>
        -2.8502428531646729e-01 9.2797911167144775e-01</leafValues></_>
    <_>
      <internalNodes>
        0 -1 119170 1.7410095781087875e-02</internalNodes>
      <leafValues>
        -8.7845301628112793e-01 3.3687338232994080e-01</leafValues></_>
    <_>
      <internalNodes>
        0 -1 70724 8.1666430924087763e-04</internalNodes>
      <leafValues>
        -4.1593432426452637e-01 7.3161661624908447e-01</leafValues></_>
    <_>
      <internalNodes>
        0 -1 148321 1.5531716053374112e-04</internalNodes>
      <leafValues>
        -2.7391326427459717e-01 8.9739567041397095e-01</leafValues></_>
    <_>
      <internalNodes>
        0 -1 11895 3.3280905336141586e-04</internalNodes>
      <leafValues>
        -3.5647648572921753e-01 7.5278371572494507e-01</leafValues></_>
    <_>
      <internalNodes>
        0 -1 161099 7.2884291876107454e-04</internalNodes>
      <leafValues>
        -2.4736537039279938e-01 8.6143463850021362e-01</leafValues></_>
    <_>
      <internalNodes>
        0 -1 114847 4.5259525068104267e-03</internalNodes>
      <leafValues>
        -3.5426905751228333e-01 7.5359290838241577e-01</leafValues></_></weakClassifiers></stage6>
</opencv_storage>
