<?xml version="1.0"?>
<opencv_storage>
<stage3>
  <maxWeakCount>9</maxWeakCount>
  <stageThreshold>-1.4059925079345703e+00</stageThreshold>
  <weakClassifiers>
    <_>
      <internalNodes>
        0 -1 121 1.0203765332698822e-01</internalNodes>
      <leafValues>
        -6.8602150678634644e-01 5.4285717010498047e-01</leafValues></_>
    <_>
      <internalNodes>
        0 -1 33 3.3082224428653717e-02</internalNodes>
      <leafValues>
        1.1440306156873703e-01 -7.3547285795211792e-01</leafValues></_>
    <_>
      <internalNodes>
        0 -1 25 7.4142700759693980e-04</internalNodes>
      <leafValues>
        -8.3322906494140625e-01 1.4270475506782532e-01</leafValues></_>
    <_>
      <internalNodes>
        0 -1 174 2.8225965797901154e-02</internalNodes>
      <leafValues>
        -4.1742762923240662e-01 3.4931242465972900e-01</leafValues></_>
    <_>
      <internalNodes>
        0 -1 137 4.5063614845275879e-02</internalNodes>
      <leafValues>
        -2.6608464121818542e-01 5.4130446910858154e-01</leafValues></_>
    <_>
      <internalNodes>
        0 -1 22 4.8157043755054474e-02</internalNodes>
      <leafValues>
        -3.8947319984436035e-01 3.6971464753150940e-01</leafValues></_>
    <_>
      <internalNodes>
        0 -1 143 8.9743956923484802e-03</internalNodes>
      <leafValues>
        -7.5123983621597290e-01 2.0081052184104919e-01</leafValues></_>
    <_>
      <internalNodes>
        0 -1 171 4.6188987791538239e-02</internalNodes>
      <leafValues>
        -2.3082068562507629e-01 6.9312810897827148e-01</leafValues></_>
    <_>
      <internalNodes>
        0 -1 53 2.3774160072207451e-02</internalNodes>
      <leafValues>
        2.1660488843917847e-01 -7.0027571916580200e-01</leafValues></_></weakClassifiers></stage3>
</opencv_storage>
