<?xml version="1.0"?>
<opencv_storage>
<stage3>
  <maxWeakCount>6</maxWeakCount>
  <stageThreshold>-1.8973834514617920e+00</stageThreshold>
  <weakClassifiers>
    <_>
      <internalNodes>
        0 -1 25915 3.0664133373647928e-04</internalNodes>
      <leafValues>
        -6.2364423274993896e-01 9.8522168397903442e-01</leafValues></_>
    <_>
      <internalNodes>
        0 -1 34986 7.8582915011793375e-04</internalNodes>
      <leafValues>
        -7.6228111982345581e-01 4.6855291724205017e-01</leafValues></_>
    <_>
      <internalNodes>
        0 -1 7498 3.6260222259443253e-05</internalNodes>
      <leafValues>
        -4.7283399105072021e-01 6.7950409650802612e-01</leafValues></_>
    <_>
      <internalNodes>
        0 -1 560 -3.1602554954588413e-03</internalNodes>
      <leafValues>
        9.5580041408538818e-01 -3.8477554917335510e-01</leafValues></_>
    <_>
      <internalNodes>
        0 -1 117565 3.1469597015529871e-03</internalNodes>
      <leafValues>
        -5.1090705394744873e-01 5.4815232753753662e-01</leafValues></_>
    <_>
      <internalNodes>
        0 -1 343 -3.3081879373639822e-03</internalNodes>
      <leafValues>
        6.8752551078796387e-01 -3.7377551198005676e-01</leafValues></_></weakClassifiers></stage3>
</opencv_storage>
