<?xml version="1.0"?>
<opencv_storage>
<stage2>
  <maxWeakCount>7</maxWeakCount>
  <stageThreshold>-1.7697240114212036e+00</stageThreshold>
  <weakClassifiers>
    <_>
      <internalNodes>
        0 -1 5998 1.5176975466602016e-05</internalNodes>
      <leafValues>
        -7.6981759071350098e-01 5.5286192893981934e-01</leafValues></_>
    <_>
      <internalNodes>
        0 -1 159271 -2.7885509189218283e-04</internalNodes>
      <leafValues>
        9.6795082092285156e-01 -4.3525126576423645e-01</leafValues></_>
    <_>
      <internalNodes>
        0 -1 104742 -2.0303504425100982e-04</internalNodes>
      <leafValues>
        5.0896781682968140e-01 -6.1955159902572632e-01</leafValues></_>
    <_>
      <internalNodes>
        0 -1 566 -5.3786684293299913e-04</internalNodes>
      <leafValues>
        9.1130387783050537e-01 -3.4752473235130310e-01</leafValues></_>
    <_>
      <internalNodes>
        0 -1 77610 -1.6832184046506882e-02</internalNodes>
      <leafValues>
        4.6171727776527405e-01 -7.2848087549209595e-01</leafValues></_>
    <_>
      <internalNodes>
        0 -1 263 -1.0401350446045399e-03</internalNodes>
      <leafValues>
        7.0552891492843628e-01 -4.2940440773963928e-01</leafValues></_>
    <_>
      <internalNodes>
        0 -1 86816 -3.5271799424663186e-04</internalNodes>
      <leafValues>
        3.7010830640792847e-01 -8.2545000314712524e-01</leafValues></_></weakClassifiers></stage2>
</opencv_storage>
