<?xml version="1.0"?>
<opencv_storage>
<stage3>
  <maxWeakCount>6</maxWeakCount>
  <stageThreshold>-1.5250349044799805e+00</stageThreshold>
  <weakClassifiers>
    <_>
      <internalNodes>
        0 -1 52 1.8953282386064529e-02</internalNodes>
      <leafValues>
        -8.1341105699539185e-01 -1.3375796377658844e-01</leafValues></_>
    <_>
      <internalNodes>
        0 -1 2 2.1203882060945034e-03</internalNodes>
      <leafValues>
        -7.8374028205871582e-01 1.8233141303062439e-01</leafValues></_>
    <_>
      <internalNodes>
        0 -1 37 1.5341816470026970e-02</internalNodes>
      <leafValues>
        3.7589913606643677e-01 -5.4317045211791992e-01</leafValues></_>
    <_>
      <internalNodes>
        0 -1 154 1.2763911858201027e-02</internalNodes>
      <leafValues>
        2.4688662588596344e-01 -9.0831458568572998e-01</leafValues></_>
    <_>
      <internalNodes>
        0 -1 196 1.4567624777555466e-02</internalNodes>
      <leafValues>
        -6.0846853256225586e-01 3.4622710943222046e-01</leafValues></_>
    <_>
      <internalNodes>
        0 -1 66 4.4256463646888733e-02</internalNodes>
      <leafValues>
        -4.6835041046142578e-01 5.1214677095413208e-01</leafValues></_></weakClassifiers></stage3>
</opencv_storage>
