<?xml version="1.0"?>
<opencv_storage>
<stage2>
  <maxWeakCount>5</maxWeakCount>
  <stageThreshold>-1.2376718521118164e+00</stageThreshold>
  <weakClassifiers>
    <_>
      <internalNodes>
        0 -1 1934 1.5725450793979689e-05</internalNodes>
      <leafValues>
        -4.4181257486343384e-01 1.</leafValues></_>
    <_>
      <internalNodes>
        0 -1 94301 2.9442347586154938e-03</internalNodes>
      <leafValues>
        -7.4214535951614380e-01 4.9324133992195129e-01</leafValues></_>
    <_>
      <internalNodes>
        0 -1 67559 7.1241945261135697e-04</internalNodes>
      <leafValues>
        -3.5078227519989014e-01 8.9592617750167847e-01</leafValues></_>
    <_>
      <internalNodes>
        0 -1 90990 -1.2676650658249855e-04</internalNodes>
      <leafValues>
        5.6372070312500000e-01 -5.1510047912597656e-01</leafValues></_>
    <_>
      <internalNodes>
        0 -1 530 -6.2523258384317160e-04</internalNodes>
      <leafValues>
        6.6847449541091919e-01 -4.2321786284446716e-01</leafValues></_></weakClassifiers></stage2>
</opencv_storage>
