<?xml version="1.0"?>
<opencv_storage>
<stage1>
  <maxWeakCount>5</maxWeakCount>
  <stageThreshold>-1.2904576063156128e+00</stageThreshold>
  <weakClassifiers>
    <_>
      <internalNodes>
        0 -1 149 4.4907331466674805e-02</internalNodes>
      <leafValues>
        -8.0609416961669922e-01 -6.4748197793960571e-02</leafValues></_>
    <_>
      <internalNodes>
        0 -1 48 3.2202031463384628e-02</internalNodes>
      <leafValues>
        -8.0727785825729370e-01 2.2901342809200287e-01</leafValues></_>
    <_>
      <internalNodes>
        0 -1 34 2.4160474538803101e-02</internalNodes>
      <leafValues>
        -8.6531794071197510e-01 2.4755257368087769e-01</leafValues></_>
    <_>
      <internalNodes>
        0 -1 20 1.4085982926189899e-02</internalNodes>
      <leafValues>
        3.2080283761024475e-01 -8.8546264171600342e-01</leafValues></_>
    <_>
      <internalNodes>
        0 -1 177 5.9324619360268116e-03</internalNodes>
      <leafValues>
        2.9605779051780701e-01 -8.3643847703933716e-01</leafValues></_></weakClassifiers></stage1>
</opencv_storage>
