<?xml version="1.0"?>
<opencv_storage>
<stage2>
  <maxWeakCount>5</maxWeakCount>
  <stageThreshold>-1.1425794363021851e+00</stageThreshold>
  <weakClassifiers>
    <_>
      <internalNodes>
        0 -1 19 7.3957778513431549e-03</internalNodes>
      <leafValues>
        -3.0337077379226685e-01 -9.3991416692733765e-01</leafValues></_>
    <_>
      <internalNodes>
        0 -1 0 1.9686326850205660e-03</internalNodes>
      <leafValues>
        -6.9447487592697144e-01 1.4755576848983765e-01</leafValues></_>
    <_>
      <internalNodes>
        0 -1 39 2.2356305271387100e-02</internalNodes>
      <leafValues>
        3.3018338680267334e-01 -6.8360602855682373e-01</leafValues></_>
    <_>
      <internalNodes>
        0 -1 41 1.3802627101540565e-02</internalNodes>
      <leafValues>
        2.5953668355941772e-01 -8.5996901988983154e-01</leafValues></_>
    <_>
      <internalNodes>
        0 -1 60 1.4745282009243965e-02</internalNodes>
      <leafValues>
        4.2172670364379883e-01 -4.5697882771492004e-01</leafValues></_></weakClassifiers></stage2>
</opencv_storage>
