<?xml version="1.0"?>
<opencv_storage>
<cascade>
  <stageType>BOOST</stageType>
  <featureType>HAAR</featureType>
  <height>16</height>
  <width>32</width>
  <stageParams>
    <boostType>GAB</boostType>
    <minHitRate>9.9500000476837158e-01</minHitRate>
    <maxFalseAlarm>5.0000000000000000e-01</maxFalseAlarm>
    <weightTrimRate>9.4999999999999996e-01</weightTrimRate>
    <maxDepth>1</maxDepth>
    <maxWeakCount>100</maxWeakCount></stageParams>
  <featureParams>
    <maxCatCount>0</maxCatCount>
    <featSize>1</featSize>
    <mode>BASIC</mode></featureParams>
  <stageNum>4</stageNum>
  <stages>
    <!-- stage 0 -->
    <_>
      <maxWeakCount>5</maxWeakCount>
      <stageThreshold>-6.0289043188095093e-01</stageThreshold>
      <weakClassifiers>
        <_>
          <internalNodes>
            0 -1 7 4.6607151627540588e-02</internalNodes>
          <leafValues>
            -8.5882353782653809e-01 6.3478261232376099e-01</leafValues></_>
        <_>
          <internalNodes>
            0 -1 16 -5.3201117552816868e-03</internalNodes>
          <leafValues>
            -7.9205787181854248e-01 4.7519597411155701e-01</leafValues></_>
        <_>
          <internalNodes>
            0 -1 1 -7.8802875941619277e-04</internalNodes>
          <leafValues>
            8.8570684194564819e-01 -4.4722452759742737e-01</leafValues></_>
        <_>
          <internalNodes>
            0 -1 0 -3.0436686938628554e-04</internalNodes>
          <leafValues>
            9.5029675960540771e-01 -3.9254981279373169e-01</leafValues></_>
        <_>
          <internalNodes>
            0 -1 4 1.7632424831390381e-02</internalNodes>
          <leafValues>
            -6.2318414449691772e-01 6.2051141262054443e-01</leafValues></_></weakClassifiers></_>
    <!-- stage 1 -->
    <_>
      <maxWeakCount>4</maxWeakCount>
      <stageThreshold>-5.5277556180953979e-01</stageThreshold>
      <weakClassifiers>
        <_>
          <internalNodes>
            0 -1 15 -1.1791951255872846e-03</internalNodes>
          <leafValues>
            4.1675505042076111e-01 -8.5995626449584961e-01</leafValues></_>
        <_>
          <internalNodes>
            0 -1 2 7.6913097873330116e-03</internalNodes>
          <leafValues>
            -5.4142946004867554e-01 7.1581691503524780e-01</leafValues></_>
        <_>
          <internalNodes>
            0 -1 14 3.1106214737519622e-04</internalNodes>
          <leafValues>
            -8.7147945165634155e-01 4.0325090289115906e-01</leafValues></_>
        <_>
          <internalNodes>
            0 -1 5 -5.2193517331033945e-04</internalNodes>
          <leafValues>
            4.5096269249916077e-01 -8.1188714504241943e-01</leafValues></_></weakClassifiers></_>
    <!-- stage 2 -->
    <_>
      <maxWeakCount>5</maxWeakCount>
      <stageThreshold>-9.7224569320678711e-01</stageThreshold>
      <weakClassifiers>
        <_>
          <internalNodes>
            0 -1 3 1.4073546975851059e-02</internalNodes>
          <leafValues>
            -4.2016807198524475e-01 8.9285713434219360e-01</leafValues></_>
        <_>
          <internalNodes>
            0 -1 12 -4.4522648677229881e-03</internalNodes>
          <leafValues>
            -6.6276842355728149e-01 5.8200550079345703e-01</leafValues></_>
        <_>
          <internalNodes>
            0 -1 17 -3.0778034124523401e-04</internalNodes>
          <leafValues>
            8.5863393545150757e-01 -4.2241641879081726e-01</leafValues></_>
        <_>
          <internalNodes>
            0 -1 6 2.2320915013551712e-04</internalNodes>
          <leafValues>
            -3.8932690024375916e-01 8.5610395669937134e-01</leafValues></_>
        <_>
          <internalNodes>
            0 -1 0 -4.9039721488952637e-04</internalNodes>
          <leafValues>
            9.3637704849243164e-01 -3.2233977317810059e-01</leafValues></_></weakClassifiers></_>
    <!-- stage 3 -->
    <_>
      <maxWeakCount>5</maxWeakCount>
      <stageThreshold>-6.6397994756698608e-01</stageThreshold>
      <weakClassifiers>
        <_>
          <internalNodes>
            0 -1 8 2.9614674858748913e-03</internalNodes>
          <leafValues>
            -5.4130703210830688e-01 7.4533104896545410e-01</leafValues></_>
        <_>
          <internalNodes>
            0 -1 9 2.5010388344526291e-04</internalNodes>
          <leafValues>
            -3.7260431051254272e-01 1.</leafValues></_>
        <_>
          <internalNodes>
            0 -1 10 -2.1299752593040466e-01</internalNodes>
          <leafValues>
            -6.4541453123092651e-01 6.4522981643676758e-01</leafValues></_>
        <_>
          <internalNodes>
            0 -1 11 -1.9071601331233978e-02</internalNodes>
          <leafValues>
            -7.9085922241210938e-01 5.2031922340393066e-01</leafValues></_>
        <_>
          <internalNodes>
            0 -1 13 -2.1647095680236816e-02</internalNodes>
          <leafValues>
            -9.1561764478683472e-01 4.8868820071220398e-01</leafValues></_></weakClassifiers></_></stages>
  <features>
    <_>
      <rects>
        <_>
          0 0 1 10 -1.</_>
        <_>
          0 5 1 5 2.</_></rects>
      <tilted>0</tilted></_>
    <_>
      <rects>
        <_>
          0 0 20 1 -1.</_>
        <_>
          10 0 10 1 2.</_></rects>
      <tilted>0</tilted></_>
    <_>
      <rects>
        <_>
          0 1 28 10 -1.</_>
        <_>
          14 1 14 10 2.</_></rects>
      <tilted>0</tilted></_>
    <_>
      <rects>
        <_>
          0 5 28 4 -1.</_>
        <_>
          14 5 14 4 2.</_></rects>
      <tilted>0</tilted></_>
    <_>
      <rects>
        <_>
          0 9 24 7 -1.</_>
        <_>
          8 9 8 7 3.</_></rects>
      <tilted>0</tilted></_>
    <_>
      <rects>
        <_>
          1 0 10 5 -1.</_>
        <_>
          6 0 5 5 2.</_></rects>
      <tilted>0</tilted></_>
    <_>
      <rects>
        <_>
          5 14 12 1 -1.</_>
        <_>
          9 14 4 1 3.</_></rects>
      <tilted>0</tilted></_>
    <_>
      <rects>
        <_>
          9 7 12 5 -1.</_>
        <_>
          13 7 4 5 3.</_></rects>
      <tilted>0</tilted></_>
    <_>
      <rects>
        <_>
          10 8 2 4 -1.</_>
        <_>
          10 10 2 2 2.</_></rects>
      <tilted>0</tilted></_>
    <_>
      <rects>
        <_>
          10 14 15 1 -1.</_>
        <_>
          15 14 5 1 3.</_></rects>
      <tilted>0</tilted></_>
    <_>
      <rects>
        <_>
          11 0 20 10 -1.</_>
        <_>
          11 5 20 5 2.</_></rects>
      <tilted>0</tilted></_>
    <_>
      <rects>
        <_>
          12 6 7 9 -1.</_>
        <_>
          12 9 7 3 3.</_></rects>
      <tilted>0</tilted></_>
    <_>
      <rects>
        <_>
          14 0 18 8 -1.</_>
        <_>
          20 0 6 8 3.</_></rects>
      <tilted>0</tilted></_>
    <_>
      <rects>
        <_>
          14 12 9 4 -1.</_>
        <_>
          17 12 3 4 3.</_></rects>
      <tilted>0</tilted></_>
    <_>
      <rects>
        <_>
          15 6 1 4 -1.</_>
        <_>
          15 8 1 2 2.</_></rects>
      <tilted>0</tilted></_>
    <_>
      <rects>
        <_>
          16 7 2 2 -1.</_>
        <_>
          17 7 1 2 2.</_></rects>
      <tilted>0</tilted></_>
    <_>
      <rects>
        <_>
          17 3 15 8 -1.</_>
        <_>
          22 3 5 8 3.</_></rects>
      <tilted>0</tilted></_>
    <_>
      <rects>
        <_>
          17 13 6 3 -1.</_>
        <_>
          20 13 3 3 2.</_></rects>
      <tilted>0</tilted></_></features></cascade>
</opencv_storage>
