<?xml version="1.0"?>
<opencv_storage>
<stage0>
  <maxWeakCount>5</maxWeakCount>
  <stageThreshold>-6.0289043188095093e-01</stageThreshold>
  <weakClassifiers>
    <_>
      <internalNodes>
        0 -1 65909 4.6607151627540588e-02</internalNodes>
      <leafValues>
        -8.5882353782653809e-01 6.3478261232376099e-01</leafValues></_>
    <_>
      <internalNodes>
        0 -1 101545 -5.3201117552816868e-03</internalNodes>
      <leafValues>
        -7.9205787181854248e-01 4.7519597411155701e-01</leafValues></_>
    <_>
      <internalNodes>
        0 -1 477 -7.8802875941619277e-04</internalNodes>
      <leafValues>
        8.8570684194564819e-01 -4.4722452759742737e-01</leafValues></_>
    <_>
      <internalNodes>
        0 -1 21 -3.0436686938628554e-04</internalNodes>
      <leafValues>
        9.5029675960540771e-01 -3.9254981279373169e-01</leafValues></_>
    <_>
      <internalNodes>
        0 -1 6535 1.7632424831390381e-02</internalNodes>
      <leafValues>
        -6.2318414449691772e-01 6.2051141262054443e-01</leafValues></_></weakClassifiers></stage0>
</opencv_storage>
