<?xml version="1.0"?>
<opencv_storage>
<stage3>
  <maxWeakCount>6</maxWeakCount>
  <stageThreshold>-1.2185906171798706e+00</stageThreshold>
  <weakClassifiers>
    <_>
      <internalNodes>
        0 -1 90398 2.2970525606069714e-05</internalNodes>
      <leafValues>
        -6.6065186262130737e-01 9.3084818124771118e-01</leafValues></_>
    <_>
      <internalNodes>
        0 -1 131410 -6.1579227447509766e-02</internalNodes>
      <leafValues>
        6.2381005287170410e-01 -6.0242474079132080e-01</leafValues></_>
    <_>
      <internalNodes>
        0 -1 566 -3.1644044793210924e-04</internalNodes>
      <leafValues>
        9.7344946861267090e-01 -3.2495501637458801e-01</leafValues></_>
    <_>
      <internalNodes>
        0 -1 159753 -5.4831802845001221e-04</internalNodes>
      <leafValues>
        6.1044281721115112e-01 -4.6523120999336243e-01</leafValues></_>
    <_>
      <internalNodes>
        0 -1 104540 -2.9076281934976578e-02</internalNodes>
      <leafValues>
        5.0978493690490723e-01 -6.6959071159362793e-01</leafValues></_>
    <_>
      <internalNodes>
        0 -1 119594 -4.4338183215586469e-05</internalNodes>
      <leafValues>
        4.2858877778053284e-01 -6.6997426748275757e-01</leafValues></_></weakClassifiers></stage3>
</opencv_storage>
