<?xml version="1.0"?>
<opencv_storage>
<stage2>
  <maxWeakCount>5</maxWeakCount>
  <stageThreshold>-9.7224569320678711e-01</stageThreshold>
  <weakClassifiers>
    <_>
      <internalNodes>
        0 -1 4590 1.4073546975851059e-02</internalNodes>
      <leafValues>
        -4.2016807198524475e-01 8.9285713434219360e-01</leafValues></_>
    <_>
      <internalNodes>
        0 -1 87932 -4.4522648677229881e-03</internalNodes>
      <leafValues>
        -6.6276842355728149e-01 5.8200550079345703e-01</leafValues></_>
    <_>
      <internalNodes>
        0 -1 103646 -3.0778034124523401e-04</internalNodes>
      <leafValues>
        8.5863393545150757e-01 -4.2241641879081726e-01</leafValues></_>
    <_>
      <internalNodes>
        0 -1 43474 2.2320915013551712e-04</internalNodes>
      <leafValues>
        -3.8932690024375916e-01 8.5610395669937134e-01</leafValues></_>
    <_>
      <internalNodes>
        0 -1 21 -4.9039721488952637e-04</internalNodes>
      <leafValues>
        9.3637704849243164e-01 -3.2233977317810059e-01</leafValues></_></weakClassifiers></stage2>
</opencv_storage>
