<?xml version="1.0"?>
<opencv_storage>
<stage3>
  <maxWeakCount>6</maxWeakCount>
  <stageThreshold>-8.5472691059112549e-01</stageThreshold>
  <weakClassifiers>
    <_>
      <internalNodes>
        0 -1 128532 3.4163240343332291e-04</internalNodes>
      <leafValues>
        -4.8238152265548706e-01 6.8804156780242920e-01</leafValues></_>
    <_>
      <internalNodes>
        0 -1 82940 -5.1701941993087530e-04</internalNodes>
      <leafValues>
        8.9511466026306152e-01 -3.5586124658584595e-01</leafValues></_>
    <_>
      <internalNodes>
        0 -1 94003 1.6865399666130543e-03</internalNodes>
      <leafValues>
        -7.1061944961547852e-01 4.6451991796493530e-01</leafValues></_>
    <_>
      <internalNodes>
        0 -1 106075 9.1675517614930868e-04</internalNodes>
      <leafValues>
        -6.5135937929153442e-01 4.7719591856002808e-01</leafValues></_>
    <_>
      <internalNodes>
        0 -1 62897 2.3887128918431699e-04</internalNodes>
      <leafValues>
        -3.6648517847061157e-01 9.2868912220001221e-01</leafValues></_>
    <_>
      <internalNodes>
        0 -1 90130 -1.1507317423820496e-02</internalNodes>
      <leafValues>
        6.3271236419677734e-01 -5.9171479940414429e-01</leafValues></_></weakClassifiers></stage3>
</opencv_storage>
