<?xml version="1.0"?>
<opencv_storage>
<cascade>
  <stageType>BOOST</stageType>
  <featureType>HAAR</featureType>
  <height>24</height>
  <width>24</width>
  <stageParams>
    <boostType>GAB</boostType>
    <minHitRate>9.9500000476837158e-01</minHitRate>
    <maxFalseAlarm>5.0000000000000000e-01</maxFalseAlarm>
    <weightTrimRate>9.4999999999999996e-01</weightTrimRate>
    <maxDepth>1</maxDepth>
    <maxWeakCount>100</maxWeakCount></stageParams>
  <featureParams>
    <maxCatCount>0</maxCatCount>
    <featSize>1</featSize>
    <mode>BASIC</mode></featureParams>
  <stageNum>6</stageNum>
  <stages>
    <!-- stage 0 -->
    <_>
      <maxWeakCount>3</maxWeakCount>
      <stageThreshold>-7.9718518257141113e-01</stageThreshold>
      <weakClassifiers>
        <_>
          <internalNodes>
            0 -1 5 -7.1247530286200345e-05</internalNodes>
          <leafValues>
            -8.9079511165618896e-01 8.1688225269317627e-01</leafValues></_>
        <_>
          <internalNodes>
            0 -1 20 -5.7617142796516418e-02</internalNodes>
          <leafValues>
            -7.8694599866867065e-01 6.8374264240264893e-01</leafValues></_>
        <_>
          <internalNodes>
            0 -1 1 -3.6804859992116690e-03</internalNodes>
          <leafValues>
            8.8206434249877930e-01 -5.9013271331787109e-01</leafValues></_></weakClassifiers></_>
    <!-- stage 1 -->
    <_>
      <maxWeakCount>3</maxWeakCount>
      <stageThreshold>-7.9986745119094849e-01</stageThreshold>
      <weakClassifiers>
        <_>
          <internalNodes>
            0 -1 17 2.1137353542144410e-05</internalNodes>
          <leafValues>
            -6.7372107505798340e-01 9.6890079975128174e-01</leafValues></_>
        <_>
          <internalNodes>
            0 -1 28 -2.7915695682168007e-04</internalNodes>
          <leafValues>
            7.8545087575912476e-01 -5.6676447391510010e-01</leafValues></_>
        <_>
          <internalNodes>
            0 -1 11 -8.1069376319646835e-03</internalNodes>
          <leafValues>
            -9.1159725189208984e-01 4.5920509099960327e-01</leafValues></_></weakClassifiers></_>
    <!-- stage 2 -->
    <_>
      <maxWeakCount>5</maxWeakCount>
      <stageThreshold>-1.6538695096969604e+00</stageThreshold>
      <weakClassifiers>
        <_>
          <internalNodes>
            0 -1 19 2.8463151465984993e-05</internalNodes>
          <leafValues>
            -6.7215883731842041e-01 9.3364930152893066e-01</leafValues></_>
        <_>
          <internalNodes>
            0 -1 14 -5.5094782263040543e-02</internalNodes>
          <leafValues>
            -8.1436592340469360e-01 5.2083373069763184e-01</leafValues></_>
        <_>
          <internalNodes>
            0 -1 2 -5.0619244575500488e-03</internalNodes>
          <leafValues>
            7.6966446638107300e-01 -5.0460714101791382e-01</leafValues></_>
        <_>
          <internalNodes>
            0 -1 15 3.9456170052289963e-03</internalNodes>
          <leafValues>
            4.2023354768753052e-01 -8.5351049900054932e-01</leafValues></_>
        <_>
          <internalNodes>
            0 -1 12 3.0639738542959094e-04</internalNodes>
          <leafValues>
            -4.1503527760505676e-01 7.7821874618530273e-01</leafValues></_></weakClassifiers></_>
    <!-- stage 3 -->
    <_>
      <maxWeakCount>5</maxWeakCount>
      <stageThreshold>-1.5349390506744385e+00</stageThreshold>
      <weakClassifiers>
        <_>
          <internalNodes>
            0 -1 18 3.2920102967182174e-05</internalNodes>
          <leafValues>
            -6.4709162712097168e-01 8.9513927698135376e-01</leafValues></_>
        <_>
          <internalNodes>
            0 -1 21 -1.1578761041164398e-02</internalNodes>
          <leafValues>
            3.7539416551589966e-01 -8.1560498476028442e-01</leafValues></_>
        <_>
          <internalNodes>
            0 -1 0 -2.2132444428279996e-04</internalNodes>
          <leafValues>
            5.3573328256607056e-01 -5.8805346488952637e-01</leafValues></_>
        <_>
          <internalNodes>
            0 -1 9 3.4280953695997596e-04</internalNodes>
          <leafValues>
            -3.4561169147491455e-01 9.3591207265853882e-01</leafValues></_>
        <_>
          <internalNodes>
            0 -1 4 -6.5819919109344482e-04</internalNodes>
          <leafValues>
            7.5224542617797852e-01 -3.2957640290260315e-01</leafValues></_></weakClassifiers></_>
    <!-- stage 4 -->
    <_>
      <maxWeakCount>7</maxWeakCount>
      <stageThreshold>-1.1461508274078369e+00</stageThreshold>
      <weakClassifiers>
        <_>
          <internalNodes>
            0 -1 16 4.4418306788429618e-04</internalNodes>
          <leafValues>
            -6.4055430889129639e-01 7.9356849193572998e-01</leafValues></_>
        <_>
          <internalNodes>
            0 -1 6 5.3851930715609342e-05</internalNodes>
          <leafValues>
            -6.2989646196365356e-01 6.0701745748519897e-01</leafValues></_>
        <_>
          <internalNodes>
            0 -1 28 -3.0655339360237122e-03</internalNodes>
          <leafValues>
            8.3383983373641968e-01 -3.9677998423576355e-01</leafValues></_>
        <_>
          <internalNodes>
            0 -1 23 1.3422998599708080e-03</internalNodes>
          <leafValues>
            -6.6080528497695923e-01 4.5350313186645508e-01</leafValues></_>
        <_>
          <internalNodes>
            0 -1 24 3.3949417993426323e-03</internalNodes>
          <leafValues>
            -4.3161129951477051e-01 6.8120259046554565e-01</leafValues></_>
        <_>
          <internalNodes>
            0 -1 10 -5.2323576528578997e-04</internalNodes>
          <leafValues>
            7.6318734884262085e-01 -3.0452507734298706e-01</leafValues></_>
        <_>
          <internalNodes>
            0 -1 25 -3.8473660242743790e-04</internalNodes>
          <leafValues>
            9.8001420497894287e-01 -2.6399925351142883e-01</leafValues></_></weakClassifiers></_>
    <!-- stage 5 -->
    <_>
      <maxWeakCount>7</maxWeakCount>
      <stageThreshold>-1.1988588571548462e+00</stageThreshold>
      <weakClassifiers>
        <_>
          <internalNodes>
            0 -1 13 5.0908513367176056e-04</internalNodes>
          <leafValues>
            -6.1160355806350708e-01 1.</leafValues></_>
        <_>
          <internalNodes>
            0 -1 8 2.2389399236999452e-04</internalNodes>
          <leafValues>
            -4.2619824409484863e-01 7.2548395395278931e-01</leafValues></_>
        <_>
          <internalNodes>
            0 -1 26 4.7299135476350784e-03</internalNodes>
          <leafValues>
            -6.4271044731140137e-01 5.1280784606933594e-01</leafValues></_>
        <_>
          <internalNodes>
            0 -1 27 -3.4019091981463134e-04</internalNodes>
          <leafValues>
            7.0910453796386719e-01 -4.6017837524414062e-01</leafValues></_>
        <_>
          <internalNodes>
            0 -1 22 2.9218421332188882e-05</internalNodes>
          <leafValues>
            -3.5025301575660706e-01 9.1621291637420654e-01</leafValues></_>
        <_>
          <internalNodes>
            0 -1 3 -5.0391466356813908e-04</internalNodes>
          <leafValues>
            8.9412719011306763e-01 -2.5247436761856079e-01</leafValues></_>
        <_>
          <internalNodes>
            0 -1 7 -1.6894102096557617e-02</internalNodes>
          <leafValues>
            -8.7742507457733154e-01 3.9414983987808228e-01</leafValues></_></weakClassifiers></_></stages>
  <features>
    <_>
      <rects>
        <_>
          0 0 1 10 -1.</_>
        <_>
          0 5 1 5 2.</_></rects>
      <tilted>0</tilted></_>
    <_>
      <rects>
        <_>
          0 0 1 16 -1.</_>
        <_>
          0 8 1 8 2.</_></rects>
      <tilted>0</tilted></_>
    <_>
      <rects>
        <_>
          0 0 2 10 -1.</_>
        <_>
          0 5 2 5 2.</_></rects>
      <tilted>0</tilted></_>
    <_>
      <rects>
        <_>
          0 0 11 4 -1.</_>
        <_>
          0 2 11 2 2.</_></rects>
      <tilted>0</tilted></_>
    <_>
      <rects>
        <_>
          0 0 24 4 -1.</_>
        <_>
          0 2 24 2 2.</_></rects>
      <tilted>0</tilted></_>
    <_>
      <rects>
        <_>
          0 7 12 5 -1.</_>
        <_>
          6 7 6 5 2.</_></rects>
      <tilted>0</tilted></_>
    <_>
      <rects>
        <_>
          0 8 10 4 -1.</_>
        <_>
          5 8 5 4 2.</_></rects>
      <tilted>0</tilted></_>
    <_>
      <rects>
        <_>
          0 8 12 5 -1.</_>
        <_>
          6 8 6 5 2.</_></rects>
      <tilted>0</tilted></_>
    <_>
      <rects>
        <_>
          0 16 1 8 -1.</_>
        <_>
          0 20 1 4 2.</_></rects>
      <tilted>0</tilted></_>
    <_>
      <rects>
        <_>
          0 20 5 4 -1.</_>
        <_>
          0 22 5 2 2.</_></rects>
      <tilted>0</tilted></_>
    <_>
      <rects>
        <_>
          2 0 1 8 -1.</_>
        <_>
          2 4 1 4 2.</_></rects>
      <tilted>0</tilted></_>
    <_>
      <rects>
        <_>
          3 2 21 10 -1.</_>
        <_>
          10 2 7 10 3.</_></rects>
      <tilted>0</tilted></_>
    <_>
      <rects>
        <_>
          3 18 1 6 -1.</_>
        <_>
          3 20 1 2 3.</_></rects>
      <tilted>0</tilted></_>
    <_>
      <rects>
        <_>
          6 0 10 6 -1.</_>
        <_>
          6 3 10 3 2.</_></rects>
      <tilted>0</tilted></_>
    <_>
      <rects>
        <_>
          6 4 12 8 -1.</_>
        <_>
          6 8 12 4 2.</_></rects>
      <tilted>0</tilted></_>
    <_>
      <rects>
        <_>
          7 8 6 5 -1.</_>
        <_>
          9 8 2 5 3.</_></rects>
      <tilted>0</tilted></_>
    <_>
      <rects>
        <_>
          8 0 9 6 -1.</_>
        <_>
          8 3 9 3 2.</_></rects>
      <tilted>0</tilted></_>
    <_>
      <rects>
        <_>
          8 0 9 8 -1.</_>
        <_>
          8 4 9 4 2.</_></rects>
      <tilted>0</tilted></_>
    <_>
      <rects>
        <_>
          8 0 10 6 -1.</_>
        <_>
          8 3 10 3 2.</_></rects>
      <tilted>0</tilted></_>
    <_>
      <rects>
        <_>
          8 0 10 8 -1.</_>
        <_>
          8 4 10 4 2.</_></rects>
      <tilted>0</tilted></_>
    <_>
      <rects>
        <_>
          8 0 10 12 -1.</_>
        <_>
          8 6 10 6 2.</_></rects>
      <tilted>0</tilted></_>
    <_>
      <rects>
        <_>
          10 10 4 6 -1.</_>
        <_>
          10 12 4 2 3.</_></rects>
      <tilted>0</tilted></_>
    <_>
      <rects>
        <_>
          11 0 7 10 -1.</_>
        <_>
          11 5 7 5 2.</_></rects>
      <tilted>0</tilted></_>
    <_>
      <rects>
        <_>
          12 7 9 7 -1.</_>
        <_>
          15 7 3 7 3.</_></rects>
      <tilted>0</tilted></_>
    <_>
      <rects>
        <_>
          12 18 3 6 -1.</_>
        <_>
          12 20 3 2 3.</_></rects>
      <tilted>0</tilted></_>
    <_>
      <rects>
        <_>
          18 0 6 4 -1.</_>
        <_>
          18 2 6 2 2.</_></rects>
      <tilted>0</tilted></_>
    <_>
      <rects>
        <_>
          18 4 4 14 -1.</_>
        <_>
          18 4 2 7 2.</_>
        <_>
          20 11 2 7 2.</_></rects>
      <tilted>0</tilted></_>
    <_>
      <rects>
        <_>
          22 0 2 8 -1.</_>
        <_>
          22 4 2 4 2.</_></rects>
      <tilted>0</tilted></_>
    <_>
      <rects>
        <_>
          23 0 1 10 -1.</_>
        <_>
          23 5 1 5 2.</_></rects>
      <tilted>0</tilted></_></features></cascade>
</opencv_storage>
