<?xml version="1.0"?>
<opencv_storage>
<cascade>
  <stageType>BOOST</stageType>
  <featureType>HAAR</featureType>
  <height>16</height>
  <width>32</width>
  <stageParams>
    <boostType>GAB</boostType>
    <minHitRate>9.9500000476837158e-01</minHitRate>
    <maxFalseAlarm>5.0000000000000000e-01</maxFalseAlarm>
    <weightTrimRate>9.4999999999999996e-01</weightTrimRate>
    <maxDepth>1</maxDepth>
    <maxWeakCount>100</maxWeakCount></stageParams>
  <featureParams>
    <maxCatCount>0</maxCatCount>
    <featSize>1</featSize>
    <mode>BASIC</mode></featureParams>
  <stageNum>4</stageNum>
  <stages>
    <!-- stage 0 -->
    <_>
      <maxWeakCount>3</maxWeakCount>
      <stageThreshold>-7.5831532478332520e-01</stageThreshold>
      <weakClassifiers>
        <_>
          <internalNodes>
            0 -1 2 7.8258272260427475e-03</internalNodes>
          <leafValues>
            -7.8497791290283203e-01 7.3925101757049561e-01</leafValues></_>
        <_>
          <internalNodes>
            0 -1 12 4.0513472631573677e-03</internalNodes>
          <leafValues>
            4.6400061249732971e-01 -7.6393580436706543e-01</leafValues></_>
        <_>
          <internalNodes>
            0 -1 7 3.9641844341531396e-04</internalNodes>
          <leafValues>
            -4.3733802437782288e-01 8.9925318956375122e-01</leafValues></_></weakClassifiers></_>
    <!-- stage 1 -->
    <_>
      <maxWeakCount>5</maxWeakCount>
      <stageThreshold>-1.3153038024902344e+00</stageThreshold>
      <weakClassifiers>
        <_>
          <internalNodes>
            0 -1 4 2.2529321722686291e-03</internalNodes>
          <leafValues>
            -6.8310910463333130e-01 6.2517100572586060e-01</leafValues></_>
        <_>
          <internalNodes>
            0 -1 1 -1.4799832133576274e-03</internalNodes>
          <leafValues>
            8.8618808984756470e-01 -4.1347238421440125e-01</leafValues></_>
        <_>
          <internalNodes>
            0 -1 0 -4.4368341332301497e-04</internalNodes>
          <leafValues>
            9.4066256284713745e-01 -3.7722975015640259e-01</leafValues></_>
        <_>
          <internalNodes>
            0 -1 9 -7.4723176658153534e-03</internalNodes>
          <leafValues>
            -7.7834069728851318e-01 5.1180696487426758e-01</leafValues></_>
        <_>
          <internalNodes>
            0 -1 3 2.3029453586786985e-04</internalNodes>
          <leafValues>
            -3.6281237006187439e-01 9.9381226301193237e-01</leafValues></_></weakClassifiers></_>
    <!-- stage 2 -->
    <_>
      <maxWeakCount>3</maxWeakCount>
      <stageThreshold>-3.6041429638862610e-01</stageThreshold>
      <weakClassifiers>
        <_>
          <internalNodes>
            0 -1 11 5.6890805717557669e-04</internalNodes>
          <leafValues>
            -4.6982759237289429e-01 9.2372882366180420e-01</leafValues></_>
        <_>
          <internalNodes>
            0 -1 9 -7.4723176658153534e-03</internalNodes>
          <leafValues>
            -7.7797073125839233e-01 5.0246012210845947e-01</leafValues></_>
        <_>
          <internalNodes>
            0 -1 6 4.0021169115789235e-04</internalNodes>
          <leafValues>
            -3.9304685592651367e-01 1.</leafValues></_></weakClassifiers></_>
    <!-- stage 3 -->
    <_>
      <maxWeakCount>4</maxWeakCount>
      <stageThreshold>-1.0069293975830078e+00</stageThreshold>
      <weakClassifiers>
        <_>
          <internalNodes>
            0 -1 8 1.2948515359312296e-03</internalNodes>
          <leafValues>
            -5.4121863842010498e-01 8.0461812019348145e-01</leafValues></_>
        <_>
          <internalNodes>
            0 -1 13 5.1859318045899272e-04</internalNodes>
          <leafValues>
            -5.6456071138381958e-01 7.1174198389053345e-01</leafValues></_>
        <_>
          <internalNodes>
            0 -1 10 -1.9001975655555725e-02</internalNodes>
          <leafValues>
            -7.7366960048675537e-01 5.6277632713317871e-01</leafValues></_>
        <_>
          <internalNodes>
            0 -1 5 5.1008374430239201e-04</internalNodes>
          <leafValues>
            -4.6392646431922913e-01 9.6869909763336182e-01</leafValues></_></weakClassifiers></_></stages>
  <features>
    <_>
      <rects>
        <_>
          0 0 1 10 -1.</_>
        <_>
          0 5 1 5 2.</_></rects>
      <tilted>0</tilted></_>
    <_>
      <rects>
        <_>
          0 0 30 1 -1.</_>
        <_>
          10 0 10 1 3.</_></rects>
      <tilted>0</tilted></_>
    <_>
      <rects>
        <_>
          0 2 20 5 -1.</_>
        <_>
          10 2 10 5 2.</_></rects>
      <tilted>0</tilted></_>
    <_>
      <rects>
        <_>
          0 3 1 6 -1.</_>
        <_>
          0 5 1 2 3.</_></rects>
      <tilted>0</tilted></_>
    <_>
      <rects>
        <_>
          0 3 16 3 -1.</_>
        <_>
          8 3 8 3 2.</_></rects>
      <tilted>0</tilted></_>
    <_>
      <rects>
        <_>
          3 1 24 2 -1.</_>
        <_>
          15 1 12 2 2.</_></rects>
      <tilted>0</tilted></_>
    <_>
      <rects>
        <_>
          6 15 21 1 -1.</_>
        <_>
          13 15 7 1 3.</_></rects>
      <tilted>0</tilted></_>
    <_>
      <rects>
        <_>
          9 15 15 1 -1.</_>
        <_>
          14 15 5 1 3.</_></rects>
      <tilted>0</tilted></_>
    <_>
      <rects>
        <_>
          13 0 2 6 -1.</_>
        <_>
          13 2 2 2 3.</_></rects>
      <tilted>0</tilted></_>
    <_>
      <rects>
        <_>
          14 2 8 9 -1.</_>
        <_>
          14 5 8 3 3.</_></rects>
      <tilted>0</tilted></_>
    <_>
      <rects>
        <_>
          15 7 2 9 -1.</_>
        <_>
          15 10 2 3 3.</_></rects>
      <tilted>0</tilted></_>
    <_>
      <rects>
        <_>
          18 14 14 2 -1.</_>
        <_>
          25 14 7 2 2.</_></rects>
      <tilted>0</tilted></_>
    <_>
      <rects>
        <_>
          19 4 2 12 -1.</_>
        <_>
          19 10 2 6 2.</_></rects>
      <tilted>0</tilted></_>
    <_>
      <rects>
        <_>
          19 13 12 3 -1.</_>
        <_>
          25 13 6 3 2.</_></rects>
      <tilted>0</tilted></_></features></cascade>
</opencv_storage>
