<?xml version="1.0"?>
<opencv_storage>
<stage2>
  <maxWeakCount>5</maxWeakCount>
  <stageThreshold>-1.6538695096969604e+00</stageThreshold>
  <weakClassifiers>
    <_>
      <internalNodes>
        0 -1 90418 2.8463151465984993e-05</internalNodes>
      <leafValues>
        -6.7215883731842041e-01 9.3364930152893066e-01</leafValues></_>
    <_>
      <internalNodes>
        0 -1 74348 -5.5094782263040543e-02</internalNodes>
      <leafValues>
        -8.1436592340469360e-01 5.2083373069763184e-01</leafValues></_>
    <_>
      <internalNodes>
        0 -1 101 -5.0619244575500488e-03</internalNodes>
      <leafValues>
        7.6966446638107300e-01 -5.0460714101791382e-01</leafValues></_>
    <_>
      <internalNodes>
        0 -1 85851 3.9456170052289963e-03</internalNodes>
      <leafValues>
        4.2023354768753052e-01 -8.5351049900054932e-01</leafValues></_>
    <_>
      <internalNodes>
        0 -1 48743 3.0639738542959094e-04</internalNodes>
      <leafValues>
        -4.1503527760505676e-01 7.7821874618530273e-01</leafValues></_></weakClassifiers></stage2>
</opencv_storage>
