<?xml version="1.0"?>
<opencv_storage>
<cascade>
  <stageType>BOOST</stageType>
  <featureType>HAAR</featureType>
  <height>16</height>
  <width>32</width>
  <stageParams>
    <boostType>GAB</boostType>
    <minHitRate>9.9500000476837158e-01</minHitRate>
    <maxFalseAlarm>5.0000000000000000e-01</maxFalseAlarm>
    <weightTrimRate>9.4999999999999996e-01</weightTrimRate>
    <maxDepth>1</maxDepth>
    <maxWeakCount>100</maxWeakCount></stageParams>
  <featureParams>
    <maxCatCount>0</maxCatCount>
    <featSize>1</featSize>
    <mode>BASIC</mode></featureParams>
  <stageNum>3</stageNum>
  <stages>
    <!-- stage 0 -->
    <_>
      <maxWeakCount>4</maxWeakCount>
      <stageThreshold>-1.3304471969604492e+00</stageThreshold>
      <weakClassifiers>
        <_>
          <internalNodes>
            0 -1 6 6.9092072546482086e-02</internalNodes>
          <leafValues>
            -7.9772078990936279e-01 8.0229228734970093e-01</leafValues></_>
        <_>
          <internalNodes>
            0 -1 8 -2.9056105995550752e-04</internalNodes>
          <leafValues>
            6.4778971672058105e-01 -7.8733098506927490e-01</leafValues></_>
        <_>
          <internalNodes>
            0 -1 5 5.4082512855529785e-02</internalNodes>
          <leafValues>
            -8.4825426340103149e-01 4.7227793931961060e-01</leafValues></_>
        <_>
          <internalNodes>
            0 -1 1 -9.5406291075050831e-04</internalNodes>
          <leafValues>
            9.3956184387207031e-01 -4.9715429544448853e-01</leafValues></_></weakClassifiers></_>
    <!-- stage 1 -->
    <_>
      <maxWeakCount>3</maxWeakCount>
      <stageThreshold>-4.3612241744995117e-01</stageThreshold>
      <weakClassifiers>
        <_>
          <internalNodes>
            0 -1 7 2.2981103393249214e-04</internalNodes>
          <leafValues>
            -6.8731564283370972e-01 6.4542937278747559e-01</leafValues></_>
        <_>
          <internalNodes>
            0 -1 2 3.5458791535347700e-04</internalNodes>
          <leafValues>
            -4.0238919854164124e-01 1.</leafValues></_>
        <_>
          <internalNodes>
            0 -1 9 -1.5244699898175895e-04</internalNodes>
          <leafValues>
            6.5358245372772217e-01 -5.9751510620117188e-01</leafValues></_></weakClassifiers></_>
    <!-- stage 2 -->
    <_>
      <maxWeakCount>5</maxWeakCount>
      <stageThreshold>-8.0635023117065430e-01</stageThreshold>
      <weakClassifiers>
        <_>
          <internalNodes>
            0 -1 4 7.8565947711467743e-02</internalNodes>
          <leafValues>
            -8.0696201324462891e-01 6.6406250000000000e-01</leafValues></_>
        <_>
          <internalNodes>
            0 -1 0 -7.6687918044626713e-04</internalNodes>
          <leafValues>
            9.2927420139312744e-01 -4.8065656423568726e-01</leafValues></_>
        <_>
          <internalNodes>
            0 -1 10 6.4524996560066938e-04</internalNodes>
          <leafValues>
            -9.5013540983200073e-01 4.8053383827209473e-01</leafValues></_>
        <_>
          <internalNodes>
            0 -1 2 2.4376250803470612e-04</internalNodes>
          <leafValues>
            -4.7934722900390625e-01 9.8730689287185669e-01</leafValues></_>
        <_>
          <internalNodes>
            0 -1 3 -6.6039741039276123e-02</internalNodes>
          <leafValues>
            -7.6601237058639526e-01 4.8008170723915100e-01</leafValues></_></weakClassifiers></_></stages>
  <features>
    <_>
      <rects>
        <_>
          0 0 20 1 -1.</_>
        <_>
          10 0 10 1 2.</_></rects>
      <tilted>0</tilted></_>
    <_>
      <rects>
        <_>
          0 0 22 1 -1.</_>
        <_>
          11 0 11 1 2.</_></rects>
      <tilted>0</tilted></_>
    <_>
      <rects>
        <_>
          0 2 2 12 -1.</_>
        <_>
          1 2 1 12 2.</_></rects>
      <tilted>0</tilted></_>
    <_>
      <rects>
        <_>
          0 4 28 7 -1.</_>
        <_>
          14 4 14 7 2.</_></rects>
      <tilted>0</tilted></_>
    <_>
      <rects>
        <_>
          7 8 18 4 -1.</_>
        <_>
          13 8 6 4 3.</_></rects>
      <tilted>0</tilted></_>
    <_>
      <rects>
        <_>
          8 1 24 8 -1.</_>
        <_>
          20 1 12 8 2.</_></rects>
      <tilted>0</tilted></_>
    <_>
      <rects>
        <_>
          8 9 18 3 -1.</_>
        <_>
          14 9 6 3 3.</_></rects>
      <tilted>0</tilted></_>
    <_>
      <rects>
        <_>
          14 8 2 4 -1.</_>
        <_>
          14 8 1 2 2.</_>
        <_>
          15 10 1 2 2.</_></rects>
      <tilted>0</tilted></_>
    <_>
      <rects>
        <_>
          16 7 2 1 -1.</_>
        <_>
          17 7 1 1 2.</_></rects>
      <tilted>0</tilted></_>
    <_>
      <rects>
        <_>
          16 8 2 1 -1.</_>
        <_>
          17 8 1 1 2.</_></rects>
      <tilted>0</tilted></_>
    <_>
      <rects>
        <_>
          17 7 1 4 -1.</_>
        <_>
          17 9 1 2 2.</_></rects>
      <tilted>0</tilted></_></features></cascade>
</opencv_storage>
