<?xml version="1.0"?>
<opencv_storage>
<stage2>
  <maxWeakCount>5</maxWeakCount>
  <stageThreshold>-1.3041975498199463e+00</stageThreshold>
  <weakClassifiers>
    <_>
      <internalNodes>
        0 -1 7498 2.3532926206826232e-05</internalNodes>
      <leafValues>
        -8.0268496274948120e-01 8.2575172185897827e-01</leafValues></_>
    <_>
      <internalNodes>
        0 -1 66265 -7.7122129499912262e-02</internalNodes>
      <leafValues>
        5.2080172300338745e-01 -6.6602611541748047e-01</leafValues></_>
    <_>
      <internalNodes>
        0 -1 560 -2.8328350745141506e-03</internalNodes>
      <leafValues>
        8.7815171480178833e-01 -3.9839130640029907e-01</leafValues></_>
    <_>
      <internalNodes>
        0 -1 263 -6.8228668533265591e-04</internalNodes>
      <leafValues>
        8.5184311866760254e-01 -3.4130212664604187e-01</leafValues></_>
    <_>
      <internalNodes>
        0 -1 157913 2.6234640972688794e-04</internalNodes>
      <leafValues>
        -2.8262081742286682e-01 9.2831289768218994e-01</leafValues></_></weakClassifiers></stage2>
</opencv_storage>
