<?xml version="1.0"?>
<opencv_storage>
<stage3>
  <maxWeakCount>6</maxWeakCount>
  <stageThreshold>-1.9175354242324829e+00</stageThreshold>
  <weakClassifiers>
    <_>
      <internalNodes>
        0 -1 6000 8.3985629316885024e-05</internalNodes>
      <leafValues>
        -7.8607046604156494e-01 6.7804527282714844e-01</leafValues></_>
    <_>
      <internalNodes>
        0 -1 134026 -8.0575399100780487e-02</internalNodes>
      <leafValues>
        -7.1418762207031250e-01 4.1669628024101257e-01</leafValues></_>
    <_>
      <internalNodes>
        0 -1 12274 -3.9678061148151755e-04</internalNodes>
      <leafValues>
        8.1076151132583618e-01 -4.0880811214447021e-01</leafValues></_>
    <_>
      <internalNodes>
        0 -1 486 -4.0656706551089883e-04</internalNodes>
      <leafValues>
        9.4027745723724365e-01 -2.6940852403640747e-01</leafValues></_>
    <_>
      <internalNodes>
        0 -1 96521 -2.4091286584734917e-02</internalNodes>
      <leafValues>
        5.3991585969924927e-01 -4.8608571290969849e-01</leafValues></_>
    <_>
      <internalNodes>
        0 -1 7506 2.4934386601671576e-05</internalNodes>
      <leafValues>
        -3.6855888366699219e-01 7.4702495336532593e-01</leafValues></_></weakClassifiers></stage3>
</opencv_storage>
