<?xml version="1.0"?>
<opencv_storage>
<stage4>
  <maxWeakCount>5</maxWeakCount>
  <stageThreshold>-1.3204556703567505e+00</stageThreshold>
  <weakClassifiers>
    <_>
      <internalNodes>
        0 -1 22246 4.3756358325481415e-02</internalNodes>
      <leafValues>
        -7.5848460197448730e-01 6.7729830741882324e-01</leafValues></_>
    <_>
      <internalNodes>
        0 -1 15610 2.1882900036871433e-03</internalNodes>
      <leafValues>
        -4.3584656715393066e-01 9.7137188911437988e-01</leafValues></_>
    <_>
      <internalNodes>
        0 -1 89103 -6.7208018153905869e-03</internalNodes>
      <leafValues>
        5.0554138422012329e-01 -6.2645769119262695e-01</leafValues></_>
    <_>
      <internalNodes>
        0 -1 161248 -3.7420154549181461e-03</internalNodes>
      <leafValues>
        8.2218593358993530e-01 -3.7527397274971008e-01</leafValues></_>
    <_>
      <internalNodes>
        0 -1 157927 1.7993774963542819e-04</internalNodes>
      <leafValues>
        -2.5639194250106812e-01 9.8426502943038940e-01</leafValues></_></weakClassifiers></stage4>
</opencv_storage>
