<?xml version="1.0"?>
<opencv_storage>
<stage6>
  <maxWeakCount>7</maxWeakCount>
  <stageThreshold>-1.1146324872970581e+00</stageThreshold>
  <weakClassifiers>
    <_>
      <internalNodes>
        0 -1 25922 3.4101563505828381e-03</internalNodes>
      <leafValues>
        -6.4366233348846436e-01 9.7450751066207886e-01</leafValues></_>
    <_>
      <internalNodes>
        0 -1 21 -3.3864425495266914e-04</internalNodes>
      <leafValues>
        7.7383774518966675e-01 -4.0594100952148438e-01</leafValues></_>
    <_>
      <internalNodes>
        0 -1 157692 1.4782103244215250e-04</internalNodes>
      <leafValues>
        -3.2822597026824951e-01 9.6561145782470703e-01</leafValues></_>
    <_>
      <internalNodes>
        0 -1 43338 -1.1000091582536697e-01</internalNodes>
      <leafValues>
        4.8755756020545959e-01 -6.9814485311508179e-01</leafValues></_>
    <_>
      <internalNodes>
        0 -1 159100 -1.6568021965213120e-04</internalNodes>
      <leafValues>
        7.5575226545333862e-01 -4.0944719314575195e-01</leafValues></_>
    <_>
      <internalNodes>
        0 -1 11581 2.4112134997267276e-04</internalNodes>
      <leafValues>
        -3.5120514035224915e-01 8.0954074859619141e-01</leafValues></_>
    <_>
      <internalNodes>
        0 -1 118559 2.9026016592979431e-02</internalNodes>
      <leafValues>
        5.6124812364578247e-01 -4.9272197484970093e-01</leafValues></_></weakClassifiers></stage6>
</opencv_storage>
