<?xml version="1.0"?>
<opencv_storage>
<cascade>
  <stageType>BOOST</stageType>
  <featureType>HAAR</featureType>
  <height>32</height>
  <width>32</width>
  <stageParams>
    <boostType>GAB</boostType>
    <minHitRate>9.9500000476837158e-01</minHitRate>
    <maxFalseAlarm>5.0000000000000000e-01</maxFalseAlarm>
    <weightTrimRate>9.4999999999999996e-01</weightTrimRate>
    <maxDepth>1</maxDepth>
    <maxWeakCount>100</maxWeakCount></stageParams>
  <featureParams>
    <maxCatCount>0</maxCatCount>
    <featSize>1</featSize>
    <mode>BASIC</mode></featureParams>
  <stageNum>2</stageNum>
  <stages>
    <!-- stage 0 -->
    <_>
      <maxWeakCount>3</maxWeakCount>
      <stageThreshold>-8.7556546926498413e-01</stageThreshold>
      <weakClassifiers>
        <_>
          <internalNodes>
            0 -1 4 1.7836190818343312e-04</internalNodes>
          <leafValues>
            -8.5507243871688843e-01 7.4603176116943359e-01</leafValues></_>
        <_>
          <internalNodes>
            0 -1 3 -2.9119889950379729e-04</internalNodes>
          <leafValues>
            9.8059076070785522e-01 -6.9045096635818481e-01</leafValues></_>
        <_>
          <internalNodes>
            0 -1 0 -2.6444280520081520e-03</internalNodes>
          <leafValues>
            -8.9754867553710938e-01 6.6995793581008911e-01</leafValues></_></weakClassifiers></_>
    <!-- stage 1 -->
    <_>
      <maxWeakCount>2</maxWeakCount>
      <stageThreshold>-1.4153048396110535e-01</stageThreshold>
      <weakClassifiers>
        <_>
          <internalNodes>
            0 -1 2 3.5523844417184591e-04</internalNodes>
          <leafValues>
            -7.8181821107864380e-01 8.3999997377395630e-01</leafValues></_>
        <_>
          <internalNodes>
            0 -1 1 -5.1880627870559692e-03</internalNodes>
          <leafValues>
            -9.2088103294372559e-01 6.4028769731521606e-01</leafValues></_></weakClassifiers></_></stages>
  <features>
    <_>
      <rects>
        <_>
          0 12 30 2 -1.</_>
        <_>
          10 12 10 2 3.</_></rects>
      <tilted>0</tilted></_>
    <_>
      <rects>
        <_>
          20 5 2 21 -1.</_>
        <_>
          20 12 2 7 3.</_></rects>
      <tilted>0</tilted></_>
    <_>
      <rects>
        <_>
          22 28 10 4 -1.</_>
        <_>
          22 30 10 2 2.</_></rects>
      <tilted>0</tilted></_>
    <_>
      <rects>
        <_>
          24 0 8 6 -1.</_>
        <_>
          24 3 8 3 2.</_></rects>
      <tilted>0</tilted></_>
    <_>
      <rects>
        <_>
          27 24 1 6 -1.</_>
        <_>
          27 26 1 2 3.</_></rects>
      <tilted>0</tilted></_></features></cascade>
</opencv_storage>
