<?xml version="1.0"?>
<opencv_storage>
<cascade>
  <stageType>BOOST</stageType>
  <featureType>HAAR</featureType>
  <height>24</height>
  <width>24</width>
  <stageParams>
    <boostType>GAB</boostType>
    <minHitRate>9.9500000476837158e-01</minHitRate>
    <maxFalseAlarm>5.0000000000000000e-01</maxFalseAlarm>
    <weightTrimRate>9.4999999999999996e-01</weightTrimRate>
    <maxDepth>1</maxDepth>
    <maxWeakCount>100</maxWeakCount></stageParams>
  <featureParams>
    <maxCatCount>0</maxCatCount>
    <featSize>1</featSize>
    <mode>BASIC</mode></featureParams>
  <stageNum>7</stageNum>
  <stages>
    <!-- stage 0 -->
    <_>
      <maxWeakCount>4</maxWeakCount>
      <stageThreshold>-8.9497965574264526e-01</stageThreshold>
      <weakClassifiers>
        <_>
          <internalNodes>
            0 -1 9 -4.1337877511978149e-02</internalNodes>
          <leafValues>
            5.5180442333221436e-01 -8.7994247674942017e-01</leafValues></_>
        <_>
          <internalNodes>
            0 -1 28 6.9400423672050238e-04</internalNodes>
          <leafValues>
            -7.8527259826660156e-01 5.3677296638488770e-01</leafValues></_>
        <_>
          <internalNodes>
            0 -1 18 -8.4166511893272400e-02</internalNodes>
          <leafValues>
            -8.5040795803070068e-01 4.3799194693565369e-01</leafValues></_>
        <_>
          <internalNodes>
            0 -1 15 -5.3946021944284439e-04</internalNodes>
          <leafValues>
            3.3224347233772278e-01 -9.8355722427368164e-01</leafValues></_></weakClassifiers></_>
    <!-- stage 1 -->
    <_>
      <maxWeakCount>4</maxWeakCount>
      <stageThreshold>-1.0907704830169678e+00</stageThreshold>
      <weakClassifiers>
        <_>
          <internalNodes>
            0 -1 10 -3.4369762986898422e-02</internalNodes>
          <leafValues>
            3.1726908683776855e-01 -9.1105514764785767e-01</leafValues></_>
        <_>
          <internalNodes>
            0 -1 21 -4.4662773143500090e-04</internalNodes>
          <leafValues>
            9.3028521537780762e-01 -5.2154064178466797e-01</leafValues></_>
        <_>
          <internalNodes>
            0 -1 27 -4.7804851783439517e-04</internalNodes>
          <leafValues>
            7.7238690853118896e-01 -5.0979822874069214e-01</leafValues></_>
        <_>
          <internalNodes>
            0 -1 23 4.3052175897173584e-04</internalNodes>
          <leafValues>
            -3.7670066952705383e-01 8.6239987611770630e-01</leafValues></_></weakClassifiers></_>
    <!-- stage 2 -->
    <_>
      <maxWeakCount>5</maxWeakCount>
      <stageThreshold>-1.7178199291229248e+00</stageThreshold>
      <weakClassifiers>
        <_>
          <internalNodes>
            0 -1 0 -3.4291890915483236e-04</internalNodes>
          <leafValues>
            6.8051707744598389e-01 -6.5466785430908203e-01</leafValues></_>
        <_>
          <internalNodes>
            0 -1 12 1.3160394504666328e-02</internalNodes>
          <leafValues>
            4.0744894742965698e-01 -8.4797346591949463e-01</leafValues></_>
        <_>
          <internalNodes>
            0 -1 2 -2.8785801259800792e-04</internalNodes>
          <leafValues>
            9.4795101881027222e-01 -4.0330454707145691e-01</leafValues></_>
        <_>
          <internalNodes>
            0 -1 30 4.3498571030795574e-03</internalNodes>
          <leafValues>
            -4.1768425703048706e-01 7.3489868640899658e-01</leafValues></_>
        <_>
          <internalNodes>
            0 -1 11 1.5471389517188072e-02</internalNodes>
          <leafValues>
            -6.4961224794387817e-01 5.0052344799041748e-01</leafValues></_></weakClassifiers></_>
    <!-- stage 3 -->
    <_>
      <maxWeakCount>4</maxWeakCount>
      <stageThreshold>-9.6898901462554932e-01</stageThreshold>
      <weakClassifiers>
        <_>
          <internalNodes>
            0 -1 25 -2.1799374371767044e-04</internalNodes>
          <leafValues>
            9.7322058677673340e-01 -5.7789212465286255e-01</leafValues></_>
        <_>
          <internalNodes>
            0 -1 24 4.7890513087622821e-04</internalNodes>
          <leafValues>
            -4.1698461771011353e-01 8.8309490680694580e-01</leafValues></_>
        <_>
          <internalNodes>
            0 -1 1 -3.5847033723257482e-04</internalNodes>
          <leafValues>
            7.5396585464477539e-01 -4.2766380310058594e-01</leafValues></_>
        <_>
          <internalNodes>
            0 -1 14 -4.8570270882919431e-04</internalNodes>
          <leafValues>
            4.7633633017539978e-01 -7.2807818651199341e-01</leafValues></_></weakClassifiers></_>
    <!-- stage 4 -->
    <_>
      <maxWeakCount>5</maxWeakCount>
      <stageThreshold>-1.6399765014648438e+00</stageThreshold>
      <weakClassifiers>
        <_>
          <internalNodes>
            0 -1 25 -2.4538178695365787e-04</internalNodes>
          <leafValues>
            9.5258021354675293e-01 -5.7705527544021606e-01</leafValues></_>
        <_>
          <internalNodes>
            0 -1 16 -5.3053568117320538e-03</internalNodes>
          <leafValues>
            3.6047014594078064e-01 -8.8112485408782959e-01</leafValues></_>
        <_>
          <internalNodes>
            0 -1 31 -4.7146968427114189e-04</internalNodes>
          <leafValues>
            7.7623158693313599e-01 -4.6948185563087463e-01</leafValues></_>
        <_>
          <internalNodes>
            0 -1 19 -6.5202999394387007e-04</internalNodes>
          <leafValues>
            5.8252555131912231e-01 -5.7203251123428345e-01</leafValues></_>
        <_>
          <internalNodes>
            0 -1 22 1.4949896140024066e-03</internalNodes>
          <leafValues>
            -3.8187700510025024e-01 8.2281941175460815e-01</leafValues></_></weakClassifiers></_>
    <!-- stage 5 -->
    <_>
      <maxWeakCount>6</maxWeakCount>
      <stageThreshold>-1.5332624912261963e+00</stageThreshold>
      <weakClassifiers>
        <_>
          <internalNodes>
            0 -1 21 -5.4722034838050604e-04</internalNodes>
          <leafValues>
            7.9833793640136719e-01 -6.1723417043685913e-01</leafValues></_>
        <_>
          <internalNodes>
            0 -1 26 3.4908243105746806e-04</internalNodes>
          <leafValues>
            -5.9071630239486694e-01 6.3472336530685425e-01</leafValues></_>
        <_>
          <internalNodes>
            0 -1 7 -5.8168265968561172e-03</internalNodes>
          <leafValues>
            4.1349622607231140e-01 -8.5083925724029541e-01</leafValues></_>
        <_>
          <internalNodes>
            0 -1 20 6.9721974432468414e-04</internalNodes>
          <leafValues>
            -4.8908853530883789e-01 6.3182497024536133e-01</leafValues></_>
        <_>
          <internalNodes>
            0 -1 29 -2.9434070456773043e-03</internalNodes>
          <leafValues>
            5.7640689611434937e-01 -5.9120780229568481e-01</leafValues></_>
        <_>
          <internalNodes>
            0 -1 13 -2.3520477116107941e-03</internalNodes>
          <leafValues>
            -7.8723073005676270e-01 3.9054477214813232e-01</leafValues></_></weakClassifiers></_>
    <!-- stage 6 -->
    <_>
      <maxWeakCount>7</maxWeakCount>
      <stageThreshold>-1.7312506437301636e+00</stageThreshold>
      <weakClassifiers>
        <_>
          <internalNodes>
            0 -1 4 1.4017288049217314e-04</internalNodes>
          <leafValues>
            -5.7486134767532349e-01 9.4950914382934570e-01</leafValues></_>
        <_>
          <internalNodes>
            0 -1 6 2.5144751998595893e-04</internalNodes>
          <leafValues>
            -4.7154283523559570e-01 7.1474438905715942e-01</leafValues></_>
        <_>
          <internalNodes>
            0 -1 5 6.9851160515099764e-04</internalNodes>
          <leafValues>
            -3.6140868067741394e-01 8.0965763330459595e-01</leafValues></_>
        <_>
          <internalNodes>
            0 -1 32 5.0245027523487806e-04</internalNodes>
          <leafValues>
            -4.0627580881118774e-01 7.8232395648956299e-01</leafValues></_>
        <_>
          <internalNodes>
            0 -1 17 3.1356117688119411e-04</internalNodes>
          <leafValues>
            -8.5226696729660034e-01 3.6613154411315918e-01</leafValues></_>
        <_>
          <internalNodes>
            0 -1 3 -2.0075782231288031e-05</internalNodes>
          <leafValues>
            8.6496776342391968e-01 -3.4054592251777649e-01</leafValues></_>
        <_>
          <internalNodes>
            0 -1 8 9.1666443040594459e-05</internalNodes>
          <leafValues>
            -2.4871957302093506e-01 9.9337100982666016e-01</leafValues></_></weakClassifiers></_></stages>
  <features>
    <_>
      <rects>
        <_>
          0 0 1 10 -1.</_>
        <_>
          0 5 1 5 2.</_></rects>
      <tilted>0</tilted></_>
    <_>
      <rects>
        <_>
          0 0 1 14 -1.</_>
        <_>
          0 7 1 7 2.</_></rects>
      <tilted>0</tilted></_>
    <_>
      <rects>
        <_>
          0 0 8 4 -1.</_>
        <_>
          0 2 8 2 2.</_></rects>
      <tilted>0</tilted></_>
    <_>
      <rects>
        <_>
          0 3 3 9 -1.</_>
        <_>
          0 6 3 3 3.</_></rects>
      <tilted>0</tilted></_>
    <_>
      <rects>
        <_>
          0 20 3 4 -1.</_>
        <_>
          0 22 3 2 2.</_></rects>
      <tilted>0</tilted></_>
    <_>
      <rects>
        <_>
          1 3 18 1 -1.</_>
        <_>
          7 3 6 1 3.</_></rects>
      <tilted>0</tilted></_>
    <_>
      <rects>
        <_>
          2 18 2 6 -1.</_>
        <_>
          2 20 2 2 3.</_></rects>
      <tilted>0</tilted></_>
    <_>
      <rects>
        <_>
          6 7 12 3 -1.</_>
        <_>
          12 7 6 3 2.</_></rects>
      <tilted>0</tilted></_>
    <_>
      <rects>
        <_>
          7 0 2 8 -1.</_>
        <_>
          7 4 2 4 2.</_></rects>
      <tilted>0</tilted></_>
    <_>
      <rects>
        <_>
          7 8 10 10 -1.</_>
        <_>
          7 13 10 5 2.</_></rects>
      <tilted>0</tilted></_>
    <_>
      <rects>
        <_>
          7 9 9 6 -1.</_>
        <_>
          7 12 9 3 2.</_></rects>
      <tilted>0</tilted></_>
    <_>
      <rects>
        <_>
          9 5 8 10 -1.</_>
        <_>
          9 5 4 5 2.</_>
        <_>
          13 10 4 5 2.</_></rects>
      <tilted>0</tilted></_>
    <_>
      <rects>
        <_>
          9 8 4 14 -1.</_>
        <_>
          9 15 4 7 2.</_></rects>
      <tilted>0</tilted></_>
    <_>
      <rects>
        <_>
          10 5 7 12 -1.</_>
        <_>
          10 9 7 4 3.</_></rects>
      <tilted>0</tilted></_>
    <_>
      <rects>
        <_>
          11 10 1 2 -1.</_>
        <_>
          11 11 1 1 2.</_></rects>
      <tilted>0</tilted></_>
    <_>
      <rects>
        <_>
          11 12 3 1 -1.</_>
        <_>
          12 12 1 1 3.</_></rects>
      <tilted>0</tilted></_>
    <_>
      <rects>
        <_>
          12 9 1 6 -1.</_>
        <_>
          12 12 1 3 2.</_></rects>
      <tilted>0</tilted></_>
    <_>
      <rects>
        <_>
          12 12 1 4 -1.</_>
        <_>
          12 14 1 2 2.</_></rects>
      <tilted>0</tilted></_>
    <_>
      <rects>
        <_>
          14 3 4 21 -1.</_>
        <_>
          14 10 4 7 3.</_></rects>
      <tilted>0</tilted></_>
    <_>
      <rects>
        <_>
          14 3 10 14 -1.</_>
        <_>
          14 3 5 7 2.</_>
        <_>
          19 10 5 7 2.</_></rects>
      <tilted>0</tilted></_>
    <_>
      <rects>
        <_>
          18 0 1 6 -1.</_>
        <_>
          18 2 1 2 3.</_></rects>
      <tilted>0</tilted></_>
    <_>
      <rects>
        <_>
          18 0 6 4 -1.</_>
        <_>
          18 2 6 2 2.</_></rects>
      <tilted>0</tilted></_>
    <_>
      <rects>
        <_>
          19 0 1 6 -1.</_>
        <_>
          19 2 1 2 3.</_></rects>
      <tilted>0</tilted></_>
    <_>
      <rects>
        <_>
          19 20 5 4 -1.</_>
        <_>
          19 22 5 2 2.</_></rects>
      <tilted>0</tilted></_>
    <_>
      <rects>
        <_>
          20 0 1 6 -1.</_>
        <_>
          20 2 1 2 3.</_></rects>
      <tilted>0</tilted></_>
    <_>
      <rects>
        <_>
          20 0 4 4 -1.</_>
        <_>
          20 2 4 2 2.</_></rects>
      <tilted>0</tilted></_>
    <_>
      <rects>
        <_>
          20 18 2 6 -1.</_>
        <_>
          20 21 2 3 2.</_></rects>
      <tilted>0</tilted></_>
    <_>
      <rects>
        <_>
          21 1 1 8 -1.</_>
        <_>
          21 5 1 4 2.</_></rects>
      <tilted>0</tilted></_>
    <_>
      <rects>
        <_>
          21 16 3 8 -1.</_>
        <_>
          21 20 3 4 2.</_></rects>
      <tilted>0</tilted></_>
    <_>
      <rects>
        <_>
          22 0 2 20 -1.</_>
        <_>
          22 10 2 10 2.</_></rects>
      <tilted>0</tilted></_>
    <_>
      <rects>
        <_>
          22 14 2 10 -1.</_>
        <_>
          22 19 2 5 2.</_></rects>
      <tilted>0</tilted></_>
    <_>
      <rects>
        <_>
          23 0 1 10 -1.</_>
        <_>
          23 5 1 5 2.</_></rects>
      <tilted>0</tilted></_>
    <_>
      <rects>
        <_>
          23 16 1 8 -1.</_>
        <_>
          23 20 1 4 2.</_></rects>
      <tilted>0</tilted></_></features></cascade>
</opencv_storage>
