<?xml version="1.0"?>
<opencv_storage>
<stage4>
  <maxWeakCount>5</maxWeakCount>
  <stageThreshold>-1.6399765014648438e+00</stageThreshold>
  <weakClassifiers>
    <_>
      <internalNodes>
        0 -1 157758 -2.4538178695365787e-04</internalNodes>
      <leafValues>
        9.5258021354675293e-01 -5.7705527544021606e-01</leafValues></_>
    <_>
      <internalNodes>
        0 -1 125423 -5.3053568117320538e-03</internalNodes>
      <leafValues>
        3.6047014594078064e-01 -8.8112485408782959e-01</leafValues></_>
    <_>
      <internalNodes>
        0 -1 162108 -4.7146968427114189e-04</internalNodes>
      <leafValues>
        7.7623158693313599e-01 -4.6948185563087463e-01</leafValues></_>
    <_>
      <internalNodes>
        0 -1 135320 -6.5202999394387007e-04</internalNodes>
      <leafValues>
        5.8252555131912231e-01 -5.7203251123428345e-01</leafValues></_>
    <_>
      <internalNodes>
        0 -1 155240 1.4949896140024066e-03</internalNodes>
      <leafValues>
        -3.8187700510025024e-01 8.2281941175460815e-01</leafValues></_></weakClassifiers></stage4>
</opencv_storage>
