<?xml version="1.0"?>
<opencv_storage>
<stage3>
  <maxWeakCount>7</maxWeakCount>
  <stageThreshold>-1.3632982969284058e+00</stageThreshold>
  <weakClassifiers>
    <_>
      <internalNodes>
        0 -1 33 2.8549032285809517e-02</internalNodes>
      <leafValues>
        -3.3057850599288940e-01 -8.5271316766738892e-01</leafValues></_>
    <_>
      <internalNodes>
        0 -1 177 5.4268212988972664e-04</internalNodes>
      <leafValues>
        -7.0667201280593872e-01 9.7539857029914856e-02</leafValues></_>
    <_>
      <internalNodes>
        0 -1 37 1.2335355393588543e-02</internalNodes>
      <leafValues>
        3.4297108650207520e-01 -5.5175405740737915e-01</leafValues></_>
    <_>
      <internalNodes>
        0 -1 8 7.8067993745207787e-03</internalNodes>
      <leafValues>
        -8.1486594676971436e-01 2.6474046707153320e-01</leafValues></_>
    <_>
      <internalNodes>
        0 -1 41 1.1439083144068718e-02</internalNodes>
      <leafValues>
        3.0009073019027710e-01 -5.6420719623565674e-01</leafValues></_>
    <_>
      <internalNodes>
        0 -1 91 1.0405309498310089e-02</internalNodes>
      <leafValues>
        -9.6916896104812622e-01 1.0632953047752380e-01</leafValues></_>
    <_>
      <internalNodes>
        0 -1 152 3.9577700197696686e-02</internalNodes>
      <leafValues>
        1.3676624000072479e-01 -7.9005068540573120e-01</leafValues></_></weakClassifiers></stage3>
</opencv_storage>
