<?xml version="1.0"?>
<opencv_storage>
<stage2>
  <maxWeakCount>5</maxWeakCount>
  <stageThreshold>-1.7178199291229248e+00</stageThreshold>
  <weakClassifiers>
    <_>
      <internalNodes>
        0 -1 21 -3.4291890915483236e-04</internalNodes>
      <leafValues>
        6.8051707744598389e-01 -6.5466785430908203e-01</leafValues></_>
    <_>
      <internalNodes>
        0 -1 103349 1.3160394504666328e-02</internalNodes>
      <leafValues>
        4.0744894742965698e-01 -8.4797346591949463e-01</leafValues></_>
    <_>
      <internalNodes>
        0 -1 566 -2.8785801259800792e-04</internalNodes>
      <leafValues>
        9.4795101881027222e-01 -4.0330454707145691e-01</leafValues></_>
    <_>
      <internalNodes>
        0 -1 161970 4.3498571030795574e-03</internalNodes>
      <leafValues>
        -4.1768425703048706e-01 7.3489868640899658e-01</leafValues></_>
    <_>
      <internalNodes>
        0 -1 101895 1.5471389517188072e-02</internalNodes>
      <leafValues>
        -6.4961224794387817e-01 5.0052344799041748e-01</leafValues></_></weakClassifiers></stage2>
</opencv_storage>
