<?xml version="1.0"?>
<opencv_storage>
<cascade>
  <stageType>BOOST</stageType>
  <featureType>HAAR</featureType>
  <height>32</height>
  <width>32</width>
  <stageParams>
    <boostType>GAB</boostType>
    <minHitRate>9.9500000476837158e-01</minHitRate>
    <maxFalseAlarm>5.0000000000000000e-01</maxFalseAlarm>
    <weightTrimRate>9.4999999999999996e-01</weightTrimRate>
    <maxDepth>1</maxDepth>
    <maxWeakCount>100</maxWeakCount></stageParams>
  <featureParams>
    <maxCatCount>0</maxCatCount>
    <featSize>1</featSize>
    <mode>BASIC</mode></featureParams>
  <stageNum>1</stageNum>
  <stages>
    <!-- stage 0 -->
    <_>
      <maxWeakCount>3</maxWeakCount>
      <stageThreshold>-7.9820501804351807e-01</stageThreshold>
      <weakClassifiers>
        <_>
          <internalNodes>
            0 -1 1 5.0319269299507141e-02</internalNodes>
          <leafValues>
            -9.0147781372070312e-01 7.9104477167129517e-01</leafValues></_>
        <_>
          <internalNodes>
            0 -1 0 4.1040413634618744e-05</internalNodes>
          <leafValues>
            -8.1660538911819458e-01 9.0897691249847412e-01</leafValues></_>
        <_>
          <internalNodes>
            0 -1 2 -3.6112935049459338e-04</internalNodes>
          <leafValues>
            9.1987818479537964e-01 -6.9354647397994995e-01</leafValues></_></weakClassifiers></_></stages>
  <features>
    <_>
      <rects>
        <_>
          0 11 6 13 -1.</_>
        <_>
          3 11 3 13 2.</_></rects>
      <tilted>0</tilted></_>
    <_>
      <rects>
        <_>
          8 12 11 15 -1.</_>
        <_>
          8 17 11 5 3.</_></rects>
      <tilted>0</tilted></_>
    <_>
      <rects>
        <_>
          23 0 9 6 -1.</_>
        <_>
          23 3 9 3 2.</_></rects>
      <tilted>0</tilted></_></features></cascade>
</opencv_storage>
