<?xml version="1.0"?>
<opencv_storage>
<cascade>
  <stageType>BOOST</stageType>
  <featureType>HAAR</featureType>
  <height>16</height>
  <width>32</width>
  <stageParams>
    <boostType>GAB</boostType>
    <minHitRate>9.9500000476837158e-01</minHitRate>
    <maxFalseAlarm>5.0000000000000000e-01</maxFalseAlarm>
    <weightTrimRate>9.4999999999999996e-01</weightTrimRate>
    <maxDepth>1</maxDepth>
    <maxWeakCount>100</maxWeakCount></stageParams>
  <featureParams>
    <maxCatCount>0</maxCatCount>
    <featSize>1</featSize>
    <mode>BASIC</mode></featureParams>
  <stageNum>4</stageNum>
  <stages>
    <!-- stage 0 -->
    <_>
      <maxWeakCount>3</maxWeakCount>
      <stageThreshold>-1.2008279561996460e+00</stageThreshold>
      <weakClassifiers>
        <_>
          <internalNodes>
            0 -1 4 -1.5012845396995544e-01</internalNodes>
          <leafValues>
            8.8684582710266113e-01 -9.0476191043853760e-01</leafValues></_>
        <_>
          <internalNodes>
            0 -1 11 -1.4416101294045802e-05</internalNodes>
          <leafValues>
            7.9696434736251831e-01 -7.7717852592468262e-01</leafValues></_>
        <_>
          <internalNodes>
            0 -1 3 -5.3913488984107971e-02</internalNodes>
          <leafValues>
            -9.4829881191253662e-01 4.8111248016357422e-01</leafValues></_></weakClassifiers></_>
    <!-- stage 1 -->
    <_>
      <maxWeakCount>4</maxWeakCount>
      <stageThreshold>-1.1654268503189087e+00</stageThreshold>
      <weakClassifiers>
        <_>
          <internalNodes>
            0 -1 5 -1.5030775964260101e-01</internalNodes>
          <leafValues>
            8.1084841489791870e-01 -8.5609400272369385e-01</leafValues></_>
        <_>
          <internalNodes>
            0 -1 9 2.6473749428987503e-02</internalNodes>
          <leafValues>
            -5.9277057647705078e-01 7.0956122875213623e-01</leafValues></_>
        <_>
          <internalNodes>
            0 -1 12 -3.3119744330178946e-05</internalNodes>
          <leafValues>
            7.9992902278900146e-01 -4.2254704236984253e-01</leafValues></_>
        <_>
          <internalNodes>
            0 -1 0 -1.9562479574233294e-03</internalNodes>
          <leafValues>
            7.0598477125167847e-01 -5.0771367549896240e-01</leafValues></_></weakClassifiers></_>
    <!-- stage 2 -->
    <_>
      <maxWeakCount>4</maxWeakCount>
      <stageThreshold>-9.7978395223617554e-01</stageThreshold>
      <weakClassifiers>
        <_>
          <internalNodes>
            0 -1 8 5.9031814336776733e-02</internalNodes>
          <leafValues>
            -6.8556702136993408e-01 8.5256409645080566e-01</leafValues></_>
        <_>
          <internalNodes>
            0 -1 7 5.3226996213197708e-02</internalNodes>
          <leafValues>
            -8.0926448106765747e-01 5.5463427305221558e-01</leafValues></_>
        <_>
          <internalNodes>
            0 -1 1 2.7219753246754408e-04</internalNodes>
          <leafValues>
            -3.9718285202980042e-01 1.</leafValues></_>
        <_>
          <internalNodes>
            0 -1 2 -3.9342712261714041e-04</internalNodes>
          <leafValues>
            9.1223043203353882e-01 -3.9599108695983887e-01</leafValues></_></weakClassifiers></_>
    <!-- stage 3 -->
    <_>
      <maxWeakCount>5</maxWeakCount>
      <stageThreshold>-1.3836669921875000e+00</stageThreshold>
      <weakClassifiers>
        <_>
          <internalNodes>
            0 -1 6 -2.3907023668289185e-01</internalNodes>
          <leafValues>
            7.7302628755569458e-01 -5.9343433380126953e-01</leafValues></_>
        <_>
          <internalNodes>
            0 -1 13 -5.6203943677246571e-04</internalNodes>
          <leafValues>
            8.9817684888839722e-01 -4.3198645114898682e-01</leafValues></_>
        <_>
          <internalNodes>
            0 -1 0 -6.5410509705543518e-04</internalNodes>
          <leafValues>
            6.6078591346740723e-01 -5.5822890996932983e-01</leafValues></_>
        <_>
          <internalNodes>
            0 -1 10 1.0519742318138015e-05</internalNodes>
          <leafValues>
            6.1381912231445312e-01 -6.4597243070602417e-01</leafValues></_>
        <_>
          <internalNodes>
            0 -1 14 -4.5694972504861653e-04</internalNodes>
          <leafValues>
            8.7048739194869995e-01 -4.8420819640159607e-01</leafValues></_></weakClassifiers></_></stages>
  <features>
    <_>
      <rects>
        <_>
          0 0 22 2 -1.</_>
        <_>
          11 0 11 2 2.</_></rects>
      <tilted>0</tilted></_>
    <_>
      <rects>
        <_>
          0 2 2 12 -1.</_>
        <_>
          1 2 1 12 2.</_></rects>
      <tilted>0</tilted></_>
    <_>
      <rects>
        <_>
          0 15 30 1 -1.</_>
        <_>
          15 15 15 1 2.</_></rects>
      <tilted>0</tilted></_>
    <_>
      <rects>
        <_>
          4 0 8 12 -1.</_>
        <_>
          4 6 8 6 2.</_></rects>
      <tilted>0</tilted></_>
    <_>
      <rects>
        <_>
          4 2 16 12 -1.</_>
        <_>
          12 2 8 12 2.</_></rects>
      <tilted>0</tilted></_>
    <_>
      <rects>
        <_>
          8 0 18 11 -1.</_>
        <_>
          14 0 6 11 3.</_></rects>
      <tilted>0</tilted></_>
    <_>
      <rects>
        <_>
          10 2 15 11 -1.</_>
        <_>
          15 2 5 11 3.</_></rects>
      <tilted>0</tilted></_>
    <_>
      <rects>
        <_>
          14 4 14 6 -1.</_>
        <_>
          21 4 7 6 2.</_></rects>
      <tilted>0</tilted></_>
    <_>
      <rects>
        <_>
          17 3 6 8 -1.</_>
        <_>
          20 3 3 8 2.</_></rects>
      <tilted>0</tilted></_>
    <_>
      <rects>
        <_>
          18 2 4 9 -1.</_>
        <_>
          20 2 2 9 2.</_></rects>
      <tilted>0</tilted></_>
    <_>
      <rects>
        <_>
          21 6 5 10 -1.</_>
        <_>
          21 11 5 5 2.</_></rects>
      <tilted>0</tilted></_>
    <_>
      <rects>
        <_>
          22 6 2 10 -1.</_>
        <_>
          22 11 2 5 2.</_></rects>
      <tilted>0</tilted></_>
    <_>
      <rects>
        <_>
          26 8 1 8 -1.</_>
        <_>
          26 12 1 4 2.</_></rects>
      <tilted>0</tilted></_>
    <_>
      <rects>
        <_>
          28 0 4 16 -1.</_>
        <_>
          28 8 4 8 2.</_></rects>
      <tilted>0</tilted></_>
    <_>
      <rects>
        <_>
          30 0 2 15 -1.</_>
        <_>
          30 5 2 5 3.</_></rects>
      <tilted>0</tilted></_></features></cascade>
</opencv_storage>
