<?xml version="1.0"?>
<opencv_storage>
<cascade>
  <stageType>BOOST</stageType>
  <featureType>HAAR</featureType>
  <height>16</height>
  <width>32</width>
  <stageParams>
    <boostType>GAB</boostType>
    <minHitRate>9.9500000476837158e-01</minHitRate>
    <maxFalseAlarm>5.0000000000000000e-01</maxFalseAlarm>
    <weightTrimRate>9.4999999999999996e-01</weightTrimRate>
    <maxDepth>1</maxDepth>
    <maxWeakCount>100</maxWeakCount></stageParams>
  <featureParams>
    <maxCatCount>0</maxCatCount>
    <featSize>1</featSize>
    <mode>BASIC</mode></featureParams>
  <stageNum>4</stageNum>
  <stages>
    <!-- stage 0 -->
    <_>
      <maxWeakCount>2</maxWeakCount>
      <stageThreshold>-2.9562813043594360e-01</stageThreshold>
      <weakClassifiers>
        <_>
          <internalNodes>
            0 -1 2 -1.7946591973304749e-01</internalNodes>
          <leafValues>
            7.5422424077987671e-01 -8.7082403898239136e-01</leafValues></_>
        <_>
          <internalNodes>
            0 -1 5 1.3979831710457802e-02</internalNodes>
          <leafValues>
            -8.9650434255599976e-01 5.7519590854644775e-01</leafValues></_></weakClassifiers></_>
    <!-- stage 1 -->
    <_>
      <maxWeakCount>4</maxWeakCount>
      <stageThreshold>-4.6898517012596130e-01</stageThreshold>
      <weakClassifiers>
        <_>
          <internalNodes>
            0 -1 10 -8.0229409039020538e-02</internalNodes>
          <leafValues>
            7.1291863918304443e-01 -7.3361521959304810e-01</leafValues></_>
        <_>
          <internalNodes>
            0 -1 3 1.8058462068438530e-02</internalNodes>
          <leafValues>
            -8.1134313344955444e-01 5.4963105916976929e-01</leafValues></_>
        <_>
          <internalNodes>
            0 -1 12 -2.0363533985801041e-04</internalNodes>
          <leafValues>
            5.3256684541702271e-01 -7.5539690256118774e-01</leafValues></_>
        <_>
          <internalNodes>
            0 -1 0 6.4716137945652008e-02</internalNodes>
          <leafValues>
            -7.8148651123046875e-01 5.4340636730194092e-01</leafValues></_></weakClassifiers></_>
    <!-- stage 2 -->
    <_>
      <maxWeakCount>4</maxWeakCount>
      <stageThreshold>-4.0950739383697510e-01</stageThreshold>
      <weakClassifiers>
        <_>
          <internalNodes>
            0 -1 11 -6.8562135100364685e-02</internalNodes>
          <leafValues>
            5.6533700227737427e-01 -8.3378016948699951e-01</leafValues></_>
        <_>
          <internalNodes>
            0 -1 9 6.9480657111853361e-04</internalNodes>
          <leafValues>
            -7.8328961133956909e-01 6.6539704799652100e-01</leafValues></_>
        <_>
          <internalNodes>
            0 -1 7 1.7456474597565830e-04</internalNodes>
          <leafValues>
            -8.7000477313995361e-01 4.5195984840393066e-01</leafValues></_>
        <_>
          <internalNodes>
            0 -1 1 1.7424748837947845e-01</internalNodes>
          <leafValues>
            -6.2648123502731323e-01 7.5560247898101807e-01</leafValues></_></weakClassifiers></_>
    <!-- stage 3 -->
    <_>
      <maxWeakCount>3</maxWeakCount>
      <stageThreshold>-8.7554937601089478e-01</stageThreshold>
      <weakClassifiers>
        <_>
          <internalNodes>
            0 -1 4 -1.0439621284604073e-02</internalNodes>
          <leafValues>
            7.8606158494949341e-01 -7.9710143804550171e-01</leafValues></_>
        <_>
          <internalNodes>
            0 -1 8 4.1080112569034100e-03</internalNodes>
          <leafValues>
            -7.1023333072662354e-01 7.4598664045333862e-01</leafValues></_>
        <_>
          <internalNodes>
            0 -1 6 1.0273459367454052e-02</internalNodes>
          <leafValues>
            -9.1262423992156982e-01 6.3178539276123047e-01</leafValues></_></weakClassifiers></_></stages>
  <features>
    <_>
      <rects>
        <_>
          0 5 16 4 -1.</_>
        <_>
          8 5 8 4 2.</_></rects>
      <tilted>0</tilted></_>
    <_>
      <rects>
        <_>
          1 2 12 14 -1.</_>
        <_>
          7 2 6 14 2.</_></rects>
      <tilted>0</tilted></_>
    <_>
      <rects>
        <_>
          7 4 24 12 -1.</_>
        <_>
          19 4 12 12 2.</_></rects>
      <tilted>0</tilted></_>
    <_>
      <rects>
        <_>
          8 7 15 2 -1.</_>
        <_>
          13 7 5 2 3.</_></rects>
      <tilted>0</tilted></_>
    <_>
      <rects>
        <_>
          9 8 9 5 -1.</_>
        <_>
          12 8 3 5 3.</_></rects>
      <tilted>0</tilted></_>
    <_>
      <rects>
        <_>
          11 7 8 6 -1.</_>
        <_>
          15 7 4 6 2.</_></rects>
      <tilted>0</tilted></_>
    <_>
      <rects>
        <_>
          12 7 9 2 -1.</_>
        <_>
          15 7 3 2 3.</_></rects>
      <tilted>0</tilted></_>
    <_>
      <rects>
        <_>
          14 7 3 2 -1.</_>
        <_>
          15 7 1 2 3.</_></rects>
      <tilted>0</tilted></_>
    <_>
      <rects>
        <_>
          16 5 12 4 -1.</_>
        <_>
          16 7 12 2 2.</_></rects>
      <tilted>0</tilted></_>
    <_>
      <rects>
        <_>
          16 8 3 1 -1.</_>
        <_>
          17 8 1 1 3.</_></rects>
      <tilted>0</tilted></_>
    <_>
      <rects>
        <_>
          16 10 16 5 -1.</_>
        <_>
          24 10 8 5 2.</_></rects>
      <tilted>0</tilted></_>
    <_>
      <rects>
        <_>
          20 7 12 9 -1.</_>
        <_>
          26 7 6 9 2.</_></rects>
      <tilted>0</tilted></_>
    <_>
      <rects>
        <_>
          28 0 4 11 -1.</_>
        <_>
          30 0 2 11 2.</_></rects>
      <tilted>0</tilted></_></features></cascade>
</opencv_storage>
