<?xml version="1.0"?>
<opencv_storage>
<cascade>
  <stageType>BOOST</stageType>
  <featureType>HAAR</featureType>
  <height>16</height>
  <width>32</width>
  <stageParams>
    <boostType>GAB</boostType>
    <minHitRate>9.9500000476837158e-01</minHitRate>
    <maxFalseAlarm>5.0000000000000000e-01</maxFalseAlarm>
    <weightTrimRate>9.4999999999999996e-01</weightTrimRate>
    <maxDepth>1</maxDepth>
    <maxWeakCount>100</maxWeakCount></stageParams>
  <featureParams>
    <maxCatCount>0</maxCatCount>
    <featSize>1</featSize>
    <mode>BASIC</mode></featureParams>
  <stageNum>4</stageNum>
  <stages>
    <!-- stage 0 -->
    <_>
      <maxWeakCount>3</maxWeakCount>
      <stageThreshold>-1.2055701017379761e+00</stageThreshold>
      <weakClassifiers>
        <_>
          <internalNodes>
            0 -1 3 1.9814008474349976e-01</internalNodes>
          <leafValues>
            -9.7315436601638794e-01 8.1929558515548706e-01</leafValues></_>
        <_>
          <internalNodes>
            0 -1 1 1.0435359179973602e-01</internalNodes>
          <leafValues>
            -7.8908002376556396e-01 6.2500780820846558e-01</leafValues></_>
        <_>
          <internalNodes>
            0 -1 11 -1.0625492781400681e-01</internalNodes>
          <leafValues>
            5.5666434764862061e-01 -7.8038406372070312e-01</leafValues></_></weakClassifiers></_>
    <!-- stage 1 -->
    <_>
      <maxWeakCount>4</maxWeakCount>
      <stageThreshold>-5.2827632427215576e-01</stageThreshold>
      <weakClassifiers>
        <_>
          <internalNodes>
            0 -1 2 1.3355025649070740e-01</internalNodes>
          <leafValues>
            -6.8916153907775879e-01 7.1522092819213867e-01</leafValues></_>
        <_>
          <internalNodes>
            0 -1 14 -1.2354820966720581e-02</internalNodes>
          <leafValues>
            6.4601492881774902e-01 -7.4851179122924805e-01</leafValues></_>
        <_>
          <internalNodes>
            0 -1 7 -6.4972380641847849e-04</internalNodes>
          <leafValues>
            -9.2225605249404907e-01 4.3510919809341431e-01</leafValues></_>
        <_>
          <internalNodes>
            0 -1 13 -4.3409122154116631e-03</internalNodes>
          <leafValues>
            4.7428786754608154e-01 -8.4667289257049561e-01</leafValues></_></weakClassifiers></_>
    <!-- stage 2 -->
    <_>
      <maxWeakCount>4</maxWeakCount>
      <stageThreshold>-1.6192249059677124e+00</stageThreshold>
      <weakClassifiers>
        <_>
          <internalNodes>
            0 -1 4 1.9097401527687907e-03</internalNodes>
          <leafValues>
            -7.4603176116943359e-01 6.5098631381988525e-01</leafValues></_>
        <_>
          <internalNodes>
            0 -1 12 -2.0329597592353821e-01</internalNodes>
          <leafValues>
            5.3231739997863770e-01 -8.5811334848403931e-01</leafValues></_>
        <_>
          <internalNodes>
            0 -1 5 2.0546929445117712e-03</internalNodes>
          <leafValues>
            -6.6697877645492554e-01 6.6851800680160522e-01</leafValues></_>
        <_>
          <internalNodes>
            0 -1 8 -1.9173527834936976e-04</internalNodes>
          <leafValues>
            6.2996995449066162e-01 -7.4511909484863281e-01</leafValues></_></weakClassifiers></_>
    <!-- stage 3 -->
    <_>
      <maxWeakCount>4</maxWeakCount>
      <stageThreshold>-4.5474231243133545e-01</stageThreshold>
      <weakClassifiers>
        <_>
          <internalNodes>
            0 -1 0 1.1519841849803925e-01</internalNodes>
          <leafValues>
            -6.8134170770645142e-01 6.8218296766281128e-01</leafValues></_>
        <_>
          <internalNodes>
            0 -1 6 4.3818606063723564e-03</internalNodes>
          <leafValues>
            -8.5239607095718384e-01 5.8755916357040405e-01</leafValues></_>
        <_>
          <internalNodes>
            0 -1 9 -3.0443650757661089e-05</internalNodes>
          <leafValues>
            5.2993452548980713e-01 -7.3521274328231812e-01</leafValues></_>
        <_>
          <internalNodes>
            0 -1 10 -4.0543414652347565e-03</internalNodes>
          <leafValues>
            -8.1446373462677002e-01 5.7209366559982300e-01</leafValues></_></weakClassifiers></_></stages>
  <features>
    <_>
      <rects>
        <_>
          0 0 12 12 -1.</_>
        <_>
          6 0 6 12 2.</_></rects>
      <tilted>0</tilted></_>
    <_>
      <rects>
        <_>
          0 6 14 7 -1.</_>
        <_>
          7 6 7 7 2.</_></rects>
      <tilted>0</tilted></_>
    <_>
      <rects>
        <_>
          0 8 22 5 -1.</_>
        <_>
          11 8 11 5 2.</_></rects>
      <tilted>0</tilted></_>
    <_>
      <rects>
        <_>
          2 8 30 6 -1.</_>
        <_>
          12 8 10 6 3.</_></rects>
      <tilted>0</tilted></_>
    <_>
      <rects>
        <_>
          11 7 6 5 -1.</_>
        <_>
          13 7 2 5 3.</_></rects>
      <tilted>0</tilted></_>
    <_>
      <rects>
        <_>
          11 8 6 2 -1.</_>
        <_>
          11 8 3 1 2.</_>
        <_>
          14 9 3 1 2.</_></rects>
      <tilted>0</tilted></_>
    <_>
      <rects>
        <_>
          11 9 6 5 -1.</_>
        <_>
          14 9 3 5 2.</_></rects>
      <tilted>0</tilted></_>
    <_>
      <rects>
        <_>
          12 8 6 7 -1.</_>
        <_>
          14 8 2 7 3.</_></rects>
      <tilted>0</tilted></_>
    <_>
      <rects>
        <_>
          15 8 2 1 -1.</_>
        <_>
          16 8 1 1 2.</_></rects>
      <tilted>0</tilted></_>
    <_>
      <rects>
        <_>
          16 7 1 3 -1.</_>
        <_>
          16 8 1 1 3.</_></rects>
      <tilted>0</tilted></_>
    <_>
      <rects>
        <_>
          16 8 4 5 -1.</_>
        <_>
          18 8 2 5 2.</_></rects>
      <tilted>0</tilted></_>
    <_>
      <rects>
        <_>
          16 9 16 5 -1.</_>
        <_>
          24 9 8 5 2.</_></rects>
      <tilted>0</tilted></_>
    <_>
      <rects>
        <_>
          18 0 14 15 -1.</_>
        <_>
          25 0 7 15 2.</_></rects>
      <tilted>0</tilted></_>
    <_>
      <rects>
        <_>
          20 10 4 6 -1.</_>
        <_>
          22 10 2 6 2.</_></rects>
      <tilted>0</tilted></_>
    <_>
      <rects>
        <_>
          24 7 8 2 -1.</_>
        <_>
          28 7 4 2 2.</_></rects>
      <tilted>0</tilted></_></features></cascade>
</opencv_storage>
