<?xml version="1.0"?>
<opencv_storage>
<cascade>
  <stageType>BOOST</stageType>
  <featureType>HAAR</featureType>
  <height>16</height>
  <width>32</width>
  <stageParams>
    <boostType>GAB</boostType>
    <minHitRate>9.9500000476837158e-01</minHitRate>
    <maxFalseAlarm>5.0000000000000000e-01</maxFalseAlarm>
    <weightTrimRate>9.4999999999999996e-01</weightTrimRate>
    <maxDepth>1</maxDepth>
    <maxWeakCount>100</maxWeakCount></stageParams>
  <featureParams>
    <maxCatCount>0</maxCatCount>
    <featSize>1</featSize>
    <mode>BASIC</mode></featureParams>
  <stageNum>4</stageNum>
  <stages>
    <!-- stage 0 -->
    <_>
      <maxWeakCount>3</maxWeakCount>
      <stageThreshold>-1.0692409276962280e+00</stageThreshold>
      <weakClassifiers>
        <_>
          <internalNodes>
            0 -1 10 -1.4492360642179847e-03</internalNodes>
          <leafValues>
            7.2574383020401001e-01 -8.9473682641983032e-01</leafValues></_>
        <_>
          <internalNodes>
            0 -1 4 1.6276605427265167e-02</internalNodes>
          <leafValues>
            -7.6296454668045044e-01 6.7411172389984131e-01</leafValues></_>
        <_>
          <internalNodes>
            0 -1 6 2.0769076421856880e-02</internalNodes>
          <leafValues>
            -8.8995879888534546e-01 5.8846050500869751e-01</leafValues></_></weakClassifiers></_>
    <!-- stage 1 -->
    <_>
      <maxWeakCount>4</maxWeakCount>
      <stageThreshold>-1.5530229806900024e+00</stageThreshold>
      <weakClassifiers>
        <_>
          <internalNodes>
            0 -1 3 3.5943902912549675e-04</internalNodes>
          <leafValues>
            -7.0231211185455322e-01 6.8644070625305176e-01</leafValues></_>
        <_>
          <internalNodes>
            0 -1 13 3.1203128397464752e-02</internalNodes>
          <leafValues>
            4.9586004018783569e-01 -8.4144926071166992e-01</leafValues></_>
        <_>
          <internalNodes>
            0 -1 9 5.7941167615354061e-03</internalNodes>
          <leafValues>
            -9.1038274765014648e-01 4.4204795360565186e-01</leafValues></_>
        <_>
          <internalNodes>
            0 -1 1 -3.8502417737618089e-04</internalNodes>
          <leafValues>
            8.8889437913894653e-01 -4.5130950212478638e-01</leafValues></_></weakClassifiers></_>
    <!-- stage 2 -->
    <_>
      <maxWeakCount>2</maxWeakCount>
      <stageThreshold>-4.3186420202255249e-01</stageThreshold>
      <weakClassifiers>
        <_>
          <internalNodes>
            0 -1 12 3.0839741230010986e-02</internalNodes>
          <leafValues>
            6.2755101919174194e-01 -7.9870128631591797e-01</leafValues></_>
        <_>
          <internalNodes>
            0 -1 11 -2.6428079581819475e-04</internalNodes>
          <leafValues>
            3.6683711409568787e-01 -9.1622948646545410e-01</leafValues></_></weakClassifiers></_>
    <!-- stage 3 -->
    <_>
      <maxWeakCount>5</maxWeakCount>
      <stageThreshold>-7.6709371805191040e-01</stageThreshold>
      <weakClassifiers>
        <_>
          <internalNodes>
            0 -1 5 3.8268629461526871e-02</internalNodes>
          <leafValues>
            -7.3623186349868774e-01 7.1549296379089355e-01</leafValues></_>
        <_>
          <internalNodes>
            0 -1 8 8.5480518464464694e-05</internalNodes>
          <leafValues>
            -9.6866190433502197e-01 3.8035637140274048e-01</leafValues></_>
        <_>
          <internalNodes>
            0 -1 2 -6.7129614762961864e-04</internalNodes>
          <leafValues>
            8.5988277196884155e-01 -5.2684026956558228e-01</leafValues></_>
        <_>
          <internalNodes>
            0 -1 0 -3.2880291109904647e-04</internalNodes>
          <leafValues>
            9.6538078784942627e-01 -4.0389761328697205e-01</leafValues></_>
        <_>
          <internalNodes>
            0 -1 7 9.0974681079387665e-02</internalNodes>
          <leafValues>
            5.1951968669891357e-01 -8.6896598339080811e-01</leafValues></_></weakClassifiers></_></stages>
  <features>
    <_>
      <rects>
        <_>
          0 0 1 8 -1.</_>
        <_>
          0 4 1 4 2.</_></rects>
      <tilted>0</tilted></_>
    <_>
      <rects>
        <_>
          0 0 1 14 -1.</_>
        <_>
          0 7 1 7 2.</_></rects>
      <tilted>0</tilted></_>
    <_>
      <rects>
        <_>
          0 0 22 1 -1.</_>
        <_>
          11 0 11 1 2.</_></rects>
      <tilted>0</tilted></_>
    <_>
      <rects>
        <_>
          0 3 18 9 -1.</_>
        <_>
          9 3 9 9 2.</_></rects>
      <tilted>0</tilted></_>
    <_>
      <rects>
        <_>
          1 4 16 8 -1.</_>
        <_>
          9 4 8 8 2.</_></rects>
      <tilted>0</tilted></_>
    <_>
      <rects>
        <_>
          4 6 14 9 -1.</_>
        <_>
          11 6 7 9 2.</_></rects>
      <tilted>0</tilted></_>
    <_>
      <rects>
        <_>
          9 8 12 2 -1.</_>
        <_>
          13 8 4 2 3.</_></rects>
      <tilted>0</tilted></_>
    <_>
      <rects>
        <_>
          10 4 16 12 -1.</_>
        <_>
          10 10 16 6 2.</_></rects>
      <tilted>0</tilted></_>
    <_>
      <rects>
        <_>
          12 7 4 2 -1.</_>
        <_>
          14 7 2 2 2.</_></rects>
      <tilted>0</tilted></_>
    <_>
      <rects>
        <_>
          14 0 3 15 -1.</_>
        <_>
          14 5 3 5 3.</_></rects>
      <tilted>0</tilted></_>
    <_>
      <rects>
        <_>
          14 6 2 10 -1.</_>
        <_>
          14 11 2 5 2.</_></rects>
      <tilted>0</tilted></_>
    <_>
      <rects>
        <_>
          14 8 4 1 -1.</_>
        <_>
          16 8 2 1 2.</_></rects>
      <tilted>0</tilted></_>
    <_>
      <rects>
        <_>
          22 3 10 6 -1.</_>
        <_>
          27 3 5 6 2.</_></rects>
      <tilted>0</tilted></_>
    <_>
      <rects>
        <_>
          22 5 8 7 -1.</_>
        <_>
          26 5 4 7 2.</_></rects>
      <tilted>0</tilted></_></features></cascade>
</opencv_storage>
