<?xml version="1.0"?>
<opencv_storage>
<stage2>
  <maxWeakCount>6</maxWeakCount>
  <stageThreshold>-1.4426240921020508e+00</stageThreshold>
  <weakClassifiers>
    <_>
      <internalNodes>
        0 -1 115 2.8020907193422318e-02</internalNodes>
      <leafValues>
        -7.8531074523925781e-01 -1.5068493783473969e-01</leafValues></_>
    <_>
      <internalNodes>
        0 -1 160 8.4154115756973624e-04</internalNodes>
      <leafValues>
        -8.0964523553848267e-01 8.8247872889041901e-02</leafValues></_>
    <_>
      <internalNodes>
        0 -1 123 1.2639794498682022e-02</internalNodes>
      <leafValues>
        3.2683545351028442e-01 -4.5531556010246277e-01</leafValues></_>
    <_>
      <internalNodes>
        0 -1 205 2.0684521645307541e-02</internalNodes>
      <leafValues>
        -5.6005483865737915e-01 3.1522908806800842e-01</leafValues></_>
    <_>
      <internalNodes>
        0 -1 2 5.7413987815380096e-03</internalNodes>
      <leafValues>
        -9.7302782535552979e-01 1.7792791128158569e-01</leafValues></_>
    <_>
      <internalNodes>
        0 -1 100 4.3869383633136749e-02</internalNodes>
      <leafValues>
        1.1449044942855835e-01 -8.8031166791915894e-01</leafValues></_></weakClassifiers></stage2>
</opencv_storage>
