<?xml version="1.0"?>
<opencv_storage>
<stage3>
  <maxWeakCount>6</maxWeakCount>
  <stageThreshold>-1.6955678462982178e+00</stageThreshold>
  <weakClassifiers>
    <_>
      <internalNodes>
        0 -1 71428 2.7640060579869896e-05</internalNodes>
      <leafValues>
        -5.9627163410186768e-01 9.9194628000259399e-01</leafValues></_>
    <_>
      <internalNodes>
        0 -1 101 -4.8344023525714874e-03</internalNodes>
      <leafValues>
        8.2179898023605347e-01 -4.8598551750183105e-01</leafValues></_>
    <_>
      <internalNodes>
        0 -1 41 -3.9197625592350960e-03</internalNodes>
      <leafValues>
        7.9350692033767700e-01 -4.1409680247306824e-01</leafValues></_>
    <_>
      <internalNodes>
        0 -1 111492 9.5496522262692451e-03</internalNodes>
      <leafValues>
        -7.0115560293197632e-01 4.9523863196372986e-01</leafValues></_>
    <_>
      <internalNodes>
        0 -1 13084 3.3770338632166386e-04</internalNodes>
      <leafValues>
        -3.9410361647605896e-01 7.6599848270416260e-01</leafValues></_>
    <_>
      <internalNodes>
        0 -1 566 -4.2105655302293599e-04</internalNodes>
      <leafValues>
        8.8448506593704224e-01 -3.0034881830215454e-01</leafValues></_></weakClassifiers></stage3>
</opencv_storage>
