<?xml version="1.0"?>
<opencv_storage>
<stage1>
  <maxWeakCount>5</maxWeakCount>
  <stageThreshold>-1.2023301124572754e+00</stageThreshold>
  <weakClassifiers>
    <_>
      <internalNodes>
        0 -1 115 2.8224281966686249e-02</internalNodes>
      <leafValues>
        -7.8861790895462036e-01 -6.8702287971973419e-02</leafValues></_>
    <_>
      <internalNodes>
        0 -1 205 1.2923503294587135e-02</internalNodes>
      <leafValues>
        -9.3297129869461060e-01 9.3410328030586243e-02</leafValues></_>
    <_>
      <internalNodes>
        0 -1 170 3.9256077259778976e-02</internalNodes>
      <leafValues>
        2.2170755267143250e-01 -7.4763488769531250e-01</leafValues></_>
    <_>
      <internalNodes>
        0 -1 190 2.4224616587162018e-02</internalNodes>
      <leafValues>
        2.5504952669143677e-01 -8.1919729709625244e-01</leafValues></_>
    <_>
      <internalNodes>
        0 -1 28 2.8771359473466873e-02</internalNodes>
      <leafValues>
        2.2328901290893555e-01 -7.3445272445678711e-01</leafValues></_></weakClassifiers></stage1>
</opencv_storage>
