<?xml version="1.0"?>
<opencv_storage>
<stage3>
  <maxWeakCount>7</maxWeakCount>
  <stageThreshold>-1.3055658340454102e+00</stageThreshold>
  <weakClassifiers>
    <_>
      <internalNodes>
        0 -1 180 2.3589085787534714e-02</internalNodes>
      <leafValues>
        -8.1294965744018555e-01 -3.3333334326744080e-01</leafValues></_>
    <_>
      <internalNodes>
        0 -1 29 4.1274450719356537e-02</internalNodes>
      <leafValues>
        -8.1674521788954735e-03 -1.</leafValues></_>
    <_>
      <internalNodes>
        0 -1 40 4.8516754060983658e-02</internalNodes>
      <leafValues>
        3.0524304509162903e-01 -4.1026765108108521e-01</leafValues></_>
    <_>
      <internalNodes>
        0 -1 152 3.8826771080493927e-02</internalNodes>
      <leafValues>
        2.0145218074321747e-01 -6.4297753572463989e-01</leafValues></_>
    <_>
      <internalNodes>
        0 -1 176 3.9476328529417515e-03</internalNodes>
      <leafValues>
        -8.4054750204086304e-01 1.3328102231025696e-01</leafValues></_>
    <_>
      <internalNodes>
        0 -1 160 1.4805389568209648e-02</internalNodes>
      <leafValues>
        -4.5097872614860535e-01 3.0702984333038330e-01</leafValues></_>
    <_>
      <internalNodes>
        0 -1 123 2.1533794701099396e-02</internalNodes>
      <leafValues>
        2.0443007349967957e-01 -6.7344629764556885e-01</leafValues></_></weakClassifiers></stage3>
</opencv_storage>
