<?xml version="1.0"?>
<opencv_storage>
<cascade>
  <stageType>BOOST</stageType>
  <featureType>LBP</featureType>
  <height>16</height>
  <width>32</width>
  <stageParams>
    <boostType>GAB</boostType>
    <minHitRate>9.9500000476837158e-01</minHitRate>
    <maxFalseAlarm>5.0000000000000000e-01</maxFalseAlarm>
    <weightTrimRate>9.4999999999999996e-01</weightTrimRate>
    <maxDepth>1</maxDepth>
    <maxWeakCount>100</maxWeakCount></stageParams>
  <featureParams>
    <maxCatCount>256</maxCatCount>
    <featSize>1</featSize></featureParams>
  <stageNum>2</stageNum>
  <stages>
    <!-- stage 0 -->
    <_>
      <maxWeakCount>2</maxWeakCount>
      <stageThreshold>-9.8614573478698730e-02</stageThreshold>
      <weakClassifiers>
        <_>
          <internalNodes>
            0 -1 1 134217728 -1593571840 67108864 -1677600256 33570816
            -297491967 -1073725440 -2233243</internalNodes>
          <leafValues>
            -9.9498748779296875e-01 9.6039605140686035e-01</leafValues></_>
        <_>
          <internalNodes>
            0 -1 2 1409307156 -66722939 33561856 -1031741097 -805285625
            -285344505 -24976894 -67897229</internalNodes>
          <leafValues>
            -1. 8.9637291431427002e-01</leafValues></_></weakClassifiers></_>
    <!-- stage 1 -->
    <_>
      <maxWeakCount>2</maxWeakCount>
      <stageThreshold>-9.4731546938419342e-02</stageThreshold>
      <weakClassifiers>
        <_>
          <internalNodes>
            0 -1 0 0 0 0 0 -2147450752 32768 -2139062136 -2138537848</internalNodes>
          <leafValues>
            -9.3704599142074585e-01 1.</leafValues></_>
        <_>
          <internalNodes>
            0 -1 3 723244383 152273353 -1035960040 -1510345983 201410131
            -2063560422 1866629531 -2081</internalNodes>
          <leafValues>
            -9.8551011085510254e-01 8.4231448173522949e-01</leafValues></_></weakClassifiers></_></stages>
  <features>
    <_>
      <rect>
        0 1 3 5</rect></_>
    <_>
      <rect>
        9 2 6 4</rect></_>
    <_>
      <rect>
        10 4 5 3</rect></_>
    <_>
      <rect>
        13 4 2 2</rect></_></features></cascade>
</opencv_storage>
