<?xml version="1.0"?>
<opencv_storage>
<cascade>
  <stageType>BOOST</stageType>
  <featureType>LBP</featureType>
  <height>16</height>
  <width>32</width>
  <stageParams>
    <boostType>GAB</boostType>
    <minHitRate>9.9500000476837158e-01</minHitRate>
    <maxFalseAlarm>5.0000000000000000e-01</maxFalseAlarm>
    <weightTrimRate>9.4999999999999996e-01</weightTrimRate>
    <maxDepth>1</maxDepth>
    <maxWeakCount>100</maxWeakCount></stageParams>
  <featureParams>
    <maxCatCount>256</maxCatCount>
    <featSize>1</featSize></featureParams>
  <stageNum>2</stageNum>
  <stages>
    <!-- stage 0 -->
    <_>
      <maxWeakCount>2</maxWeakCount>
      <stageThreshold>-1.2501879036426544e-01</stageThreshold>
      <weakClassifiers>
        <_>
          <internalNodes>
            0 -1 0 0 0 0 0 -2147450872 -2147450880 -2139062136
            -2138404726</internalNodes>
          <leafValues>
            -9.3236714601516724e-01 1.</leafValues></_>
        <_>
          <internalNodes>
            0 -1 4 -1073691689 1208546372 -804234240 1073799744
            -1065229816 -935276536 -1073688576 -775896876</internalNodes>
          <leafValues>
            -9.9026125669479370e-01 8.0734837055206299e-01</leafValues></_></weakClassifiers></_>
    <!-- stage 1 -->
    <_>
      <maxWeakCount>3</maxWeakCount>
      <stageThreshold>-1.0773404836654663e+00</stageThreshold>
      <weakClassifiers>
        <_>
          <internalNodes>
            0 -1 1 32768 16384 0 0 128 0 134252682 -2004318070</internalNodes>
          <leafValues>
            -9.3704599142074585e-01 1.</leafValues></_>
        <_>
          <internalNodes>
            0 -1 2 32768 0 0 0 -2147450744 32768 134791560 -2012697890</internalNodes>
          <leafValues>
            -9.0113294124603271e-01 9.3370628356933594e-01</leafValues></_>
        <_>
          <internalNodes>
            0 -1 3 319767189 -1610608639 2 -266860542 -1737600763
            142774302 860107067 -67109001</internalNodes>
          <leafValues>
            -9.2448145151138306e-01 7.6083844900131226e-01</leafValues></_></weakClassifiers></_></stages>
  <features>
    <_>
      <rect>
        0 0 3 5</rect></_>
    <_>
      <rect>
        0 0 4 5</rect></_>
    <_>
      <rect>
        1 2 4 4</rect></_>
    <_>
      <rect>
        10 2 3 3</rect></_>
    <_>
      <rect>
        17 3 2 4</rect></_></features></cascade>
</opencv_storage>
