<?xml version="1.0"?>
<opencv_storage>
<cascade>
  <stageType>BOOST</stageType>
  <featureType>LBP</featureType>
  <height>16</height>
  <width>32</width>
  <stageParams>
    <boostType>GAB</boostType>
    <minHitRate>9.9500000476837158e-01</minHitRate>
    <maxFalseAlarm>5.0000000000000000e-01</maxFalseAlarm>
    <weightTrimRate>9.4999999999999996e-01</weightTrimRate>
    <maxDepth>1</maxDepth>
    <maxWeakCount>100</maxWeakCount></stageParams>
  <featureParams>
    <maxCatCount>256</maxCatCount>
    <featSize>1</featSize></featureParams>
  <stageNum>2</stageNum>
  <stages>
    <!-- stage 0 -->
    <_>
      <maxWeakCount>2</maxWeakCount>
      <stageThreshold>-9.7273409366607666e-02</stageThreshold>
      <weakClassifiers>
        <_>
          <internalNodes>
            0 -1 0 32768 0 0 0 -2147450880 0 -2147450752 -2139062134</internalNodes>
          <leafValues>
            -9.3704599142074585e-01 1.</leafValues></_>
        <_>
          <internalNodes>
            0 -1 3 1114585 574881 268439617 -1073168299 537935956
            -888881055 -1610562191 -34212363</internalNodes>
          <leafValues>
            -9.7122865915298462e-01 8.3977258205413818e-01</leafValues></_></weakClassifiers></_>
    <!-- stage 1 -->
    <_>
      <maxWeakCount>3</maxWeakCount>
      <stageThreshold>-9.6784251928329468e-01</stageThreshold>
      <weakClassifiers>
        <_>
          <internalNodes>
            0 -1 1 32768 0 0 0 32896 32768 -2139062136 -2138404724</internalNodes>
          <leafValues>
            -9.3704599142074585e-01 1.</leafValues></_>
        <_>
          <internalNodes>
            0 -1 2 0 0 0 32768 136 32768 -2138537846 143296714</internalNodes>
          <leafValues>
            -8.6763179302215576e-01 9.3026012182235718e-01</leafValues></_>
        <_>
          <internalNodes>
            0 -1 4 -773851137 22134929 1694597385 -922703339 1090994315
            -2147319550 -1000302453 -3215132</internalNodes>
          <leafValues>
            -9.1159170866012573e-01 8.3683526515960693e-01</leafValues></_></weakClassifiers></_></stages>
  <features>
    <_>
      <rect>
        0 1 2 5</rect></_>
    <_>
      <rect>
        0 1 3 5</rect></_>
    <_>
      <rect>
        0 1 4 3</rect></_>
    <_>
      <rect>
        12 2 3 4</rect></_>
    <_>
      <rect>
        15 5 1 2</rect></_></features></cascade>
</opencv_storage>
