<?xml version="1.0"?>
<opencv_storage>
<cascade>
  <stageType>BOOST</stageType>
  <featureType>LBP</featureType>
  <height>16</height>
  <width>32</width>
  <stageParams>
    <boostType>GAB</boostType>
    <minHitRate>9.9500000476837158e-01</minHitRate>
    <maxFalseAlarm>5.0000000000000000e-01</maxFalseAlarm>
    <weightTrimRate>9.4999999999999996e-01</weightTrimRate>
    <maxDepth>1</maxDepth>
    <maxWeakCount>100</maxWeakCount></stageParams>
  <featureParams>
    <maxCatCount>256</maxCatCount>
    <featSize>1</featSize></featureParams>
  <stageNum>2</stageNum>
  <stages>
    <!-- stage 0 -->
    <_>
      <maxWeakCount>2</maxWeakCount>
      <stageThreshold>-1.6458596289157867e-01</stageThreshold>
      <weakClassifiers>
        <_>
          <internalNodes>
            0 -1 2 -620625961 -2013231744 -1006581299 -1069161763
            -250588912 -334965532 -367402303 -353638592</internalNodes>
          <leafValues>
            -9.8976981639862061e-01 7.9816514253616333e-01</leafValues></_>
        <_>
          <internalNodes>
            0 -1 1 -720514593 -939403953 -1073690533 -632437878
            -2141196079 -1030957868 -1760802752 -523711774</internalNodes>
          <leafValues>
            -9.6275109052658081e-01 8.7942481040954590e-01</leafValues></_></weakClassifiers></_>
    <!-- stage 1 -->
    <_>
      <maxWeakCount>2</maxWeakCount>
      <stageThreshold>-1.8248997628688812e-01</stageThreshold>
      <weakClassifiers>
        <_>
          <internalNodes>
            0 -1 0 -16744376 -1 -128 -1 -22 2139095039 1073741802
            -67108929</internalNodes>
          <leafValues>
            -9.3220341205596924e-01 9.7701150178909302e-01</leafValues></_>
        <_>
          <internalNodes>
            0 -1 3 -262809641 -469445357 -1056948079 -1073231097
            1342267392 -871505877 -251601530 -192088308</internalNodes>
          <leafValues>
            -9.7526234388351440e-01 7.4971342086791992e-01</leafValues></_></weakClassifiers></_></stages>
  <features>
    <_>
      <rect>
        0 2 5 4</rect></_>
    <_>
      <rect>
        10 5 3 3</rect></_>
    <_>
      <rect>
        10 7 4 2</rect></_>
    <_>
      <rect>
        12 6 2 3</rect></_></features></cascade>
</opencv_storage>
