<?xml version="1.0"?>
<opencv_storage>
<cascade>
  <stageType>BOOST</stageType>
  <featureType>LBP</featureType>
  <height>16</height>
  <width>32</width>
  <stageParams>
    <boostType>GAB</boostType>
    <minHitRate>9.9500000476837158e-01</minHitRate>
    <maxFalseAlarm>5.0000000000000000e-01</maxFalseAlarm>
    <weightTrimRate>9.4999999999999996e-01</weightTrimRate>
    <maxDepth>1</maxDepth>
    <maxWeakCount>100</maxWeakCount></stageParams>
  <featureParams>
    <maxCatCount>256</maxCatCount>
    <featSize>1</featSize></featureParams>
  <stageNum>3</stageNum>
  <stages>
    <!-- stage 0 -->
    <_>
      <maxWeakCount>2</maxWeakCount>
      <stageThreshold>-1.7986485362052917e-01</stageThreshold>
      <weakClassifiers>
        <_>
          <internalNodes>
            0 -1 2 -2147434496 -2147483648 0 0 -2147450744 -2147450880
            -2139062136 -2139060088</internalNodes>
          <leafValues>
            -9.2289155721664429e-01 9.7647058963775635e-01</leafValues></_>
        <_>
          <internalNodes>
            0 -1 3 -133834273 1342227589 -1073416955 -1002057727
            1342242963 1610893000 -1743787891 -91696759</internalNodes>
          <leafValues>
            -9.4197773933410645e-01 7.4302673339843750e-01</leafValues></_></weakClassifiers></_>
    <!-- stage 1 -->
    <_>
      <maxWeakCount>3</maxWeakCount>
      <stageThreshold>-1.1046353578567505e+00</stageThreshold>
      <weakClassifiers>
        <_>
          <internalNodes>
            0 -1 0 0 0 0 0 -2147450880 32768 -2139062136 -2138404728</internalNodes>
          <leafValues>
            -9.2289155721664429e-01 9.7647058963775635e-01</leafValues></_>
        <_>
          <internalNodes>
            0 -1 6 -1073725440 -805027840 -1073725440 -251625468
            -1073709056 1073741824 0 -553532412</internalNodes>
          <leafValues>
            -8.6878639459609985e-01 9.3663406372070312e-01</leafValues></_>
        <_>
          <internalNodes>
            0 -1 4 111509695 -1006591871 -1609207705 -804663153 132239
            1624166721 -1199517413 -401412026</internalNodes>
          <leafValues>
            -9.6756637096405029e-01 6.8704265356063843e-01</leafValues></_></weakClassifiers></_>
    <!-- stage 2 -->
    <_>
      <maxWeakCount>3</maxWeakCount>
      <stageThreshold>-9.2385625839233398e-01</stageThreshold>
      <weakClassifiers>
        <_>
          <internalNodes>
            0 -1 1 -134168576 -1 -2244 -129 -2147434353 -2147450880
            -2139062136 -2012706680</internalNodes>
          <leafValues>
            -9.1846525669097900e-01 1.</leafValues></_>
        <_>
          <internalNodes>
            0 -1 7 -1879048192 -805306368 0 -788529152 1073758208
            -1006632960 0 -117424128</internalNodes>
          <leafValues>
            -8.0024731159210205e-01 9.1752386093139648e-01</leafValues></_>
        <_>
          <internalNodes>
            0 -1 5 1107890687 420486095 1090542771 -1779122025
            -889093941 -1733819776 -1438586229 -22284066</internalNodes>
          <leafValues>
            -8.6010003089904785e-01 7.9485625028610229e-01</leafValues></_></weakClassifiers></_></stages>
  <features>
    <_>
      <rect>
        0 1 3 5</rect></_>
    <_>
      <rect>
        0 1 4 5</rect></_>
    <_>
      <rect>
        0 6 3 3</rect></_>
    <_>
      <rect>
        7 7 5 2</rect></_>
    <_>
      <rect>
        11 5 3 3</rect></_>
    <_>
      <rect>
        15 7 1 1</rect></_>
    <_>
      <rect>
        22 4 3 4</rect></_>
    <_>
      <rect>
        26 1 2 5</rect></_></features></cascade>
</opencv_storage>
