<?xml version="1.0"?>
<opencv_storage>
<cascade>
  <stageType>BOOST</stageType>
  <featureType>LBP</featureType>
  <height>16</height>
  <width>32</width>
  <stageParams>
    <boostType>GAB</boostType>
    <minHitRate>9.9500000476837158e-01</minHitRate>
    <maxFalseAlarm>5.0000000000000000e-01</maxFalseAlarm>
    <weightTrimRate>9.4999999999999996e-01</weightTrimRate>
    <maxDepth>1</maxDepth>
    <maxWeakCount>100</maxWeakCount></stageParams>
  <featureParams>
    <maxCatCount>256</maxCatCount>
    <featSize>1</featSize></featureParams>
  <stageNum>2</stageNum>
  <stages>
    <!-- stage 0 -->
    <_>
      <maxWeakCount>2</maxWeakCount>
      <stageThreshold>-8.5994273424148560e-02</stageThreshold>
      <weakClassifiers>
        <_>
          <internalNodes>
            0 -1 1 0 0 0 65537 0 0 2184 -1953527669</internalNodes>
          <leafValues>
            -9.5533496141433716e-01 8.7628865242004395e-01</leafValues></_>
        <_>
          <internalNodes>
            0 -1 3 -805252992 -805306368 17408 -738164736 32768
            -1073709056 0 -1073741824</internalNodes>
          <leafValues>
            -9.2582184076309204e-01 8.6934071779251099e-01</leafValues></_></weakClassifiers></_>
    <!-- stage 1 -->
    <_>
      <maxWeakCount>2</maxWeakCount>
      <stageThreshold>-1.7211909592151642e-01</stageThreshold>
      <weakClassifiers>
        <_>
          <internalNodes>
            0 -1 0 0 0 0 16777216 34954 151519368 35339 -1886682965</internalNodes>
          <leafValues>
            -9.2682927846908569e-01 8.8888889551162720e-01</leafValues></_>
        <_>
          <internalNodes>
            0 -1 2 1224786439 -1040137532 1073758208 -998195136
            1879314438 205521025 -671052800 -859517816</internalNodes>
          <leafValues>
            -9.7441202402114868e-01 7.5471013784408569e-01</leafValues></_></weakClassifiers></_></stages>
  <features>
    <_>
      <rect>
        0 1 8 2</rect></_>
    <_>
      <rect>
        5 0 5 2</rect></_>
    <_>
      <rect>
        6 5 7 3</rect></_>
    <_>
      <rect>
        13 10 5 2</rect></_></features></cascade>
</opencv_storage>
