<?xml version="1.0"?>
<opencv_storage>
<cascade>
  <stageType>BOOST</stageType>
  <featureType>LBP</featureType>
  <height>16</height>
  <width>32</width>
  <stageParams>
    <boostType>GAB</boostType>
    <minHitRate>9.9500000476837158e-01</minHitRate>
    <maxFalseAlarm>5.0000000000000000e-01</maxFalseAlarm>
    <weightTrimRate>9.4999999999999996e-01</weightTrimRate>
    <maxDepth>1</maxDepth>
    <maxWeakCount>100</maxWeakCount></stageParams>
  <featureParams>
    <maxCatCount>256</maxCatCount>
    <featSize>1</featSize></featureParams>
  <stageNum>3</stageNum>
  <stages>
    <!-- stage 0 -->
    <_>
      <maxWeakCount>2</maxWeakCount>
      <stageThreshold>-1.4792554080486298e-01</stageThreshold>
      <weakClassifiers>
        <_>
          <internalNodes>
            0 -1 4 0 0 0 285278208 0 -2147483648 11 -1962211317</internalNodes>
          <leafValues>
            -9.1807228326797485e-01 9.5294117927551270e-01</leafValues></_>
        <_>
          <internalNodes>
            0 -1 6 -1492692001 -1499260995 75763015 -1378950683
            1149587793 -322739981 -393446078 -857735970</internalNodes>
          <leafValues>
            -9.5142769813537598e-01 7.7014672756195068e-01</leafValues></_></weakClassifiers></_>
    <!-- stage 1 -->
    <_>
      <maxWeakCount>3</maxWeakCount>
      <stageThreshold>-1.0066297054290771e+00</stageThreshold>
      <weakClassifiers>
        <_>
          <internalNodes>
            0 -1 1 2064272 -8388608 -4260098 -2 -5242888 -58 -2138404721
            -1886418801</internalNodes>
          <leafValues>
            -9.0023750066757202e-01 1.</leafValues></_>
        <_>
          <internalNodes>
            0 -1 7 -721291501 -1795034624 -805289983 -788479936
            -1073692416 -2113870848 -536788992 -1610563520</internalNodes>
          <leafValues>
            -9.4411832094192505e-01 7.0912307500839233e-01</leafValues></_>
        <_>
          <internalNodes>
            0 -1 3 0 0 0 16842752 -2147483136 -2013265408 134252555
            -1350359025</internalNodes>
          <leafValues>
            -8.1551516056060791e-01 9.0996587276458740e-01</leafValues></_></weakClassifiers></_>
    <!-- stage 2 -->
    <_>
      <maxWeakCount>3</maxWeakCount>
      <stageThreshold>-1.0771943330764771e+00</stageThreshold>
      <weakClassifiers>
        <_>
          <internalNodes>
            0 -1 0 0 0 0 0 557192 -2147483648 -2147450229 -1961916277</internalNodes>
          <leafValues>
            -9.3154036998748779e-01 8.9010989665985107e-01</leafValues></_>
        <_>
          <internalNodes>
            0 -1 2 131074 0 0 32768 143263882 -2147450744 8954024
            -1970501496</internalNodes>
          <leafValues>
            -8.5160619020462036e-01 9.3382501602172852e-01</leafValues></_>
        <_>
          <internalNodes>
            0 -1 5 297610063 332613147 537199827 -647969980 -2010787684
            -1191141117 -1975189372 -121570827</internalNodes>
          <leafValues>
            -9.9516016244888306e-01 7.0595216751098633e-01</leafValues></_></weakClassifiers></_></stages>
  <features>
    <_>
      <rect>
        0 1 7 2</rect></_>
    <_>
      <rect>
        0 2 8 2</rect></_>
    <_>
      <rect>
        0 4 5 1</rect></_>
    <_>
      <rect>
        1 1 10 2</rect></_>
    <_>
      <rect>
        5 0 8 2</rect></_>
    <_>
      <rect>
        13 5 2 1</rect></_>
    <_>
      <rect>
        13 5 3 2</rect></_>
    <_>
      <rect>
        15 4 3 4</rect></_></features></cascade>
</opencv_storage>
