<?xml version="1.0"?>
<opencv_storage>
<cascade>
  <stageType>BOOST</stageType>
  <featureType>LBP</featureType>
  <height>16</height>
  <width>32</width>
  <stageParams>
    <boostType>GAB</boostType>
    <minHitRate>9.9500000476837158e-01</minHitRate>
    <maxFalseAlarm>5.0000000000000000e-01</maxFalseAlarm>
    <weightTrimRate>9.4999999999999996e-01</weightTrimRate>
    <maxDepth>1</maxDepth>
    <maxWeakCount>100</maxWeakCount></stageParams>
  <featureParams>
    <maxCatCount>256</maxCatCount>
    <featSize>1</featSize></featureParams>
  <stageNum>3</stageNum>
  <stages>
    <!-- stage 0 -->
    <_>
      <maxWeakCount>2</maxWeakCount>
      <stageThreshold>-1.9493839144706726e-01</stageThreshold>
      <weakClassifiers>
        <_>
          <internalNodes>
            0 -1 3 0 0 0 16842752 0 0 11 -1895069173</internalNodes>
          <leafValues>
            -9.4594591856002808e-01 9.1397851705551147e-01</leafValues></_>
        <_>
          <internalNodes>
            0 -1 6 -109099169 -1819064033 1360221951 -180232033
            1997488179 -374341608 -937408281 -103547149</internalNodes>
          <leafValues>
            -9.8458176851272583e-01 7.5100755691528320e-01</leafValues></_></weakClassifiers></_>
    <!-- stage 1 -->
    <_>
      <maxWeakCount>2</maxWeakCount>
      <stageThreshold>-1.7035162448883057e-01</stageThreshold>
      <weakClassifiers>
        <_>
          <internalNodes>
            0 -1 0 128 0 0 16777216 0 0 -2147483638 -1958778869</internalNodes>
          <leafValues>
            -9.1826921701431274e-01 9.7619044780731201e-01</leafValues></_>
        <_>
          <internalNodes>
            0 -1 5 1392996815 1360363545 -2147348415 -657211371
            -781956981 -933199853 -448646433 -4194809</internalNodes>
          <leafValues>
            -9.7544735670089722e-01 7.4791759252548218e-01</leafValues></_></weakClassifiers></_>
    <!-- stage 2 -->
    <_>
      <maxWeakCount>3</maxWeakCount>
      <stageThreshold>-9.7781658172607422e-01</stageThreshold>
      <weakClassifiers>
        <_>
          <internalNodes>
            0 -1 4 2133855696 -532736 -257 -1 -131608 -38 -1073938433
            -1148482561</internalNodes>
          <leafValues>
            -9.1846525669097900e-01 1.</leafValues></_>
        <_>
          <internalNodes>
            0 -1 2 -1073688384 -1073741824 0 268435456 -2147450752
            -2147450880 -2147450880 -2147450880</internalNodes>
          <leafValues>
            -9.1980797052383423e-01 9.1944682598114014e-01</leafValues></_>
        <_>
          <internalNodes>
            0 -1 1 -1073686652 1073741892 -2113925120 537037952
            -175601525 -2004293492 -1878517109 -322392920</internalNodes>
          <leafValues>
            -9.2244029045104980e-01 8.6045664548873901e-01</leafValues></_></weakClassifiers></_></stages>
  <features>
    <_>
      <rect>
        0 0 10 2</rect></_>
    <_>
      <rect>
        3 6 7 2</rect></_>
    <_>
      <rect>
        4 10 7 2</rect></_>
    <_>
      <rect>
        7 0 7 2</rect></_>
    <_>
      <rect>
        9 0 4 2</rect></_>
    <_>
      <rect>
        12 4 2 2</rect></_>
    <_>
      <rect>
        15 7 1 1</rect></_></features></cascade>
</opencv_storage>
