<?xml version="1.0"?>
<opencv_storage>
<cascade>
  <stageType>BOOST</stageType>
  <featureType>LBP</featureType>
  <height>16</height>
  <width>32</width>
  <stageParams>
    <boostType>GAB</boostType>
    <minHitRate>9.9500000476837158e-01</minHitRate>
    <maxFalseAlarm>5.0000000000000000e-01</maxFalseAlarm>
    <weightTrimRate>9.4999999999999996e-01</weightTrimRate>
    <maxDepth>1</maxDepth>
    <maxWeakCount>100</maxWeakCount></stageParams>
  <featureParams>
    <maxCatCount>256</maxCatCount>
    <featSize>1</featSize></featureParams>
  <stageNum>2</stageNum>
  <stages>
    <!-- stage 0 -->
    <_>
      <maxWeakCount>2</maxWeakCount>
      <stageThreshold>-3.7389829754829407e-02</stageThreshold>
      <weakClassifiers>
        <_>
          <internalNodes>
            0 -1 1 0 0 0 16842752 0 -2147483648 11 -1886713845</internalNodes>
          <leafValues>
            -9.6551722288131714e-01 9.7872340679168701e-01</leafValues></_>
        <_>
          <internalNodes>
            0 -1 2 16 0 0 262144 -2013134710 -1971158902 134217728
            -268498385</internalNodes>
          <leafValues>
            -9.7089630365371704e-01 9.2812740802764893e-01</leafValues></_></weakClassifiers></_>
    <!-- stage 1 -->
    <_>
      <maxWeakCount>2</maxWeakCount>
      <stageThreshold>1.0071249678730965e-02</stageThreshold>
      <weakClassifiers>
        <_>
          <internalNodes>
            0 -1 0 0 0 0 50397184 0 32896 134776843 -1616148309</internalNodes>
          <leafValues>
            -9.4607841968536377e-01 9.3478262424468994e-01</leafValues></_>
        <_>
          <internalNodes>
            0 -1 3 -1 -4 -1 -524291 2146959341 2146926525 2004353023
            -9078923</internalNodes>
          <leafValues>
            -9.2471134662628174e-01 9.5994645357131958e-01</leafValues></_></weakClassifiers></_></stages>
  <features>
    <_>
      <rect>
        1 0 9 2</rect></_>
    <_>
      <rect>
        2 0 9 2</rect></_>
    <_>
      <rect>
        2 1 9 3</rect></_>
    <_>
      <rect>
        14 0 6 4</rect></_></features></cascade>
</opencv_storage>
