<?xml version="1.0"?>
<opencv_storage>
<cascade>
  <stageType>BOOST</stageType>
  <featureType>HAAR</featureType>
  <height>32</height>
  <width>32</width>
  <stageParams>
    <boostType>GAB</boostType>
    <minHitRate>9.9500000476837158e-01</minHitRate>
    <maxFalseAlarm>5.0000000000000000e-01</maxFalseAlarm>
    <weightTrimRate>9.4999999999999996e-01</weightTrimRate>
    <maxDepth>1</maxDepth>
    <maxWeakCount>100</maxWeakCount></stageParams>
  <featureParams>
    <maxCatCount>0</maxCatCount>
    <featSize>1</featSize>
    <mode>BASIC</mode></featureParams>
  <stageNum>2</stageNum>
  <stages>
    <!-- stage 0 -->
    <_>
      <maxWeakCount>3</maxWeakCount>
      <stageThreshold>-1.0683538913726807e+00</stageThreshold>
      <weakClassifiers>
        <_>
          <internalNodes>
            0 -1 4 2.2895842790603638e-02</internalNodes>
          <leafValues>
            -9.3814432621002197e-01 6.8421053886413574e-01</leafValues></_>
        <_>
          <internalNodes>
            0 -1 3 -2.1497439593076706e-02</internalNodes>
          <leafValues>
            6.8835234642028809e-01 -8.9263373613357544e-01</leafValues></_>
        <_>
          <internalNodes>
            0 -1 1 3.3116705715656281e-02</internalNodes>
          <leafValues>
            -8.4504020214080811e-01 7.6242417097091675e-01</leafValues></_></weakClassifiers></_>
    <!-- stage 1 -->
    <_>
      <maxWeakCount>3</maxWeakCount>
      <stageThreshold>-8.7091422080993652e-01</stageThreshold>
      <weakClassifiers>
        <_>
          <internalNodes>
            0 -1 5 3.1849481165409088e-02</internalNodes>
          <leafValues>
            -8.3098590373992920e-01 8.2456141710281372e-01</leafValues></_>
        <_>
          <internalNodes>
            0 -1 0 2.5373150128871202e-04</internalNodes>
          <leafValues>
            -7.3112541437149048e-01 8.5043841600418091e-01</leafValues></_>
        <_>
          <internalNodes>
            0 -1 2 -3.0586786568164825e-02</internalNodes>
          <leafValues>
            6.9119709730148315e-01 -8.8644701242446899e-01</leafValues></_></weakClassifiers></_></stages>
  <features>
    <_>
      <rects>
        <_>
          1 4 2 16 -1.</_>
        <_>
          1 4 1 8 2.</_>
        <_>
          2 12 1 8 2.</_></rects>
      <tilted>0</tilted></_>
    <_>
      <rects>
        <_>
          7 0 17 24 -1.</_>
        <_>
          7 8 17 8 3.</_></rects>
      <tilted>0</tilted></_>
    <_>
      <rects>
        <_>
          11 14 9 8 -1.</_>
        <_>
          14 14 3 8 3.</_></rects>
      <tilted>0</tilted></_>
    <_>
      <rects>
        <_>
          11 15 9 3 -1.</_>
        <_>
          14 15 3 3 3.</_></rects>
      <tilted>0</tilted></_>
    <_>
      <rects>
        <_>
          13 15 12 4 -1.</_>
        <_>
          17 15 4 4 3.</_></rects>
      <tilted>0</tilted></_>
    <_>
      <rects>
        <_>
          15 16 9 3 -1.</_>
        <_>
          18 16 3 3 3.</_></rects>
      <tilted>0</tilted></_></features></cascade>
</opencv_storage>
