<?xml version="1.0"?>
<opencv_storage>
<stage6>
  <maxWeakCount>8</maxWeakCount>
  <stageThreshold>-1.5197057723999023e+00</stageThreshold>
  <weakClassifiers>
    <_>
      <internalNodes>
        0 -1 246 -2.3089244496077299e-04</internalNodes>
      <leafValues>
        1. -5.6985872983932495e-01</leafValues></_>
    <_>
      <internalNodes>
        0 -1 5938 4.2503904551267624e-03</internalNodes>
      <leafValues>
        -3.5576224327087402e-01 7.6523643732070923e-01</leafValues></_>
    <_>
      <internalNodes>
        0 -1 157758 -3.7203979445621371e-04</internalNodes>
      <leafValues>
        9.5683062076568604e-01 -2.5179731845855713e-01</leafValues></_>
    <_>
      <internalNodes>
        0 -1 50543 -7.8397634206339717e-04</internalNodes>
      <leafValues>
        6.6186738014221191e-01 -3.7152373790740967e-01</leafValues></_>
    <_>
      <internalNodes>
        0 -1 86523 -8.4617594256997108e-03</internalNodes>
      <leafValues>
        3.9614418148994446e-01 -8.8056856393814087e-01</leafValues></_>
    <_>
      <internalNodes>
        0 -1 161067 1.0402589396107942e-04</internalNodes>
      <leafValues>
        -4.0748217701911926e-01 8.1657671928405762e-01</leafValues></_>
    <_>
      <internalNodes>
        0 -1 7620 2.1657896286342293e-04</internalNodes>
      <leafValues>
        -3.5019618272781372e-01 7.6595288515090942e-01</leafValues></_>
    <_>
      <internalNodes>
        0 -1 135819 -1.5223002061247826e-02</internalNodes>
      <leafValues>
        -8.1785750389099121e-01 4.1100722551345825e-01</leafValues></_></weakClassifiers></stage6>
</opencv_storage>
