<?xml version="1.0"?>
<opencv_storage>
<stage3>
  <maxWeakCount>7</maxWeakCount>
  <stageThreshold>-1.3441174030303955e+00</stageThreshold>
  <weakClassifiers>
    <_>
      <internalNodes>
        0 -1 112266 4.6106047928333282e-02</internalNodes>
      <leafValues>
        -6.6549605131149292e-01 7.1468144655227661e-01</leafValues></_>
    <_>
      <internalNodes>
        0 -1 70897 2.4718773784115911e-04</internalNodes>
      <leafValues>
        -3.6664491891860962e-01 9.1630178689956665e-01</leafValues></_>
    <_>
      <internalNodes>
        0 -1 162108 -6.9518311647698283e-04</internalNodes>
      <leafValues>
        7.4900007247924805e-01 -4.3002673983573914e-01</leafValues></_>
    <_>
      <internalNodes>
        0 -1 126063 -1.9539735512807965e-04</internalNodes>
      <leafValues>
        4.3645447492599487e-01 -7.9056972265243530e-01</leafValues></_>
    <_>
      <internalNodes>
        0 -1 3617 7.7343790326267481e-04</internalNodes>
      <leafValues>
        -3.3730971813201904e-01 8.8046669960021973e-01</leafValues></_>
    <_>
      <internalNodes>
        0 -1 25820 -3.7141446955502033e-04</internalNodes>
      <leafValues>
        7.5901639461517334e-01 -3.3842051029205322e-01</leafValues></_>
    <_>
      <internalNodes>
        0 -1 83976 -1.1688835918903351e-02</internalNodes>
      <leafValues>
        4.3325141072273254e-01 -7.4011081457138062e-01</leafValues></_></weakClassifiers></stage3>
</opencv_storage>
