<?xml version="1.0"?>
<opencv_storage>
<stage3>
  <maxWeakCount>7</maxWeakCount>
  <stageThreshold>-1.2978632450103760e+00</stageThreshold>
  <weakClassifiers>
    <_>
      <internalNodes>
        0 -1 193 7.9880669713020325e-02</internalNodes>
      <leafValues>
        -7.0574712753295898e-01 1.0769230872392654e-01</leafValues></_>
    <_>
      <internalNodes>
        0 -1 161 7.5191054493188858e-03</internalNodes>
      <leafValues>
        -8.7662625312805176e-01 9.1823056340217590e-02</leafValues></_>
    <_>
      <internalNodes>
        0 -1 107 4.0123075246810913e-02</internalNodes>
      <leafValues>
        -6.1129128932952881e-01 2.6283735036849976e-01</leafValues></_>
    <_>
      <internalNodes>
        0 -1 10 2.0031929016113281e-02</internalNodes>
      <leafValues>
        2.6943260431289673e-01 -6.2618499994277954e-01</leafValues></_>
    <_>
      <internalNodes>
        0 -1 145 2.6575282216072083e-02</internalNodes>
      <leafValues>
        1.8042577803134918e-01 -8.4332746267318726e-01</leafValues></_>
    <_>
      <internalNodes>
        0 -1 153 2.7278929483145475e-03</internalNodes>
      <leafValues>
        -5.7417255640029907e-01 2.7478978037834167e-01</leafValues></_>
    <_>
      <internalNodes>
        0 -1 15 1.5612818300724030e-02</internalNodes>
      <leafValues>
        2.4794603884220123e-01 -5.5010145902633667e-01</leafValues></_></weakClassifiers></stage3>
</opencv_storage>
