<?xml version="1.0"?>
<opencv_storage>
<stage3>
  <maxWeakCount>5</maxWeakCount>
  <stageThreshold>-5.1133435964584351e-01</stageThreshold>
  <weakClassifiers>
    <_>
      <internalNodes>
        0 -1 92334 1.3077656331006438e-04</internalNodes>
      <leafValues>
        -3.9581257104873657e-01 1.</leafValues></_>
    <_>
      <internalNodes>
        0 -1 90689 -4.3993163853883743e-04</internalNodes>
      <leafValues>
        6.0652023553848267e-01 -6.6618859767913818e-01</leafValues></_>
    <_>
      <internalNodes>
        0 -1 102598 1.1438842193456367e-04</internalNodes>
      <leafValues>
        -7.9074949026107788e-01 4.9009510874748230e-01</leafValues></_>
    <_>
      <internalNodes>
        0 -1 227 -3.9834063500165939e-04</internalNodes>
      <leafValues>
        7.9639607667922974e-01 -5.4252755641937256e-01</leafValues></_>
    <_>
      <internalNodes>
        0 -1 41142 -1.2911472469568253e-02</internalNodes>
      <leafValues>
        -6.3681769371032715e-01 6.1123502254486084e-01</leafValues></_></weakClassifiers></stage3>
</opencv_storage>
