<?xml version="1.0"?>
<opencv_storage>
<stage4>
  <maxWeakCount>7</maxWeakCount>
  <stageThreshold>-1.3927447795867920e+00</stageThreshold>
  <weakClassifiers>
    <_>
      <internalNodes>
        0 -1 175 8.4859713912010193e-02</internalNodes>
      <leafValues>
        -6.8602150678634644e-01 5.4285717010498047e-01</leafValues></_>
    <_>
      <internalNodes>
        0 -1 69 2.1559976041316986e-02</internalNodes>
      <leafValues>
        1.6684320569038391e-01 -5.8808130025863647e-01</leafValues></_>
    <_>
      <internalNodes>
        0 -1 111 3.3235706388950348e-02</internalNodes>
      <leafValues>
        2.5052446126937866e-01 -6.9155538082122803e-01</leafValues></_>
    <_>
      <internalNodes>
        0 -1 122 2.1448927000164986e-03</internalNodes>
      <leafValues>
        -8.7875038385391235e-01 1.7057186365127563e-01</leafValues></_>
    <_>
      <internalNodes>
        0 -1 133 1.9298056140542030e-02</internalNodes>
      <leafValues>
        -4.7430095076560974e-01 2.8272038698196411e-01</leafValues></_>
    <_>
      <internalNodes>
        0 -1 8 3.6992240697145462e-02</internalNodes>
      <leafValues>
        -3.1526654958724976e-01 4.8017930984497070e-01</leafValues></_>
    <_>
      <internalNodes>
        0 -1 56 2.8422091156244278e-02</internalNodes>
      <leafValues>
        -3.5846138000488281e-01 4.4604325294494629e-01</leafValues></_></weakClassifiers></stage4>
</opencv_storage>
