<?xml version="1.0"?>
<opencv_storage>
<cascade>
  <stageType>BOOST</stageType>
  <featureType>HAAR</featureType>
  <height>32</height>
  <width>32</width>
  <stageParams>
    <boostType>GAB</boostType>
    <minHitRate>9.9500000476837158e-01</minHitRate>
    <maxFalseAlarm>5.0000000000000000e-01</maxFalseAlarm>
    <weightTrimRate>9.4999999999999996e-01</weightTrimRate>
    <maxDepth>1</maxDepth>
    <maxWeakCount>100</maxWeakCount></stageParams>
  <featureParams>
    <maxCatCount>0</maxCatCount>
    <featSize>1</featSize>
    <mode>BASIC</mode></featureParams>
  <stageNum>2</stageNum>
  <stages>
    <!-- stage 0 -->
    <_>
      <maxWeakCount>3</maxWeakCount>
      <stageThreshold>-7.6704210042953491e-01</stageThreshold>
      <weakClassifiers>
        <_>
          <internalNodes>
            0 -1 3 -6.1344608664512634e-02</internalNodes>
          <leafValues>
            6.7567569017410278e-01 -9.1836732625961304e-01</leafValues></_>
        <_>
          <internalNodes>
            0 -1 1 1.7787422984838486e-04</internalNodes>
          <leafValues>
            -8.0649048089981079e-01 8.2431763410568237e-01</leafValues></_>
        <_>
          <internalNodes>
            0 -1 4 -3.2787441741675138e-03</internalNodes>
          <leafValues>
            9.8799484968185425e-01 -6.3622730970382690e-01</leafValues></_></weakClassifiers></_>
    <!-- stage 1 -->
    <_>
      <maxWeakCount>2</maxWeakCount>
      <stageThreshold>-2.1767184138298035e-01</stageThreshold>
      <weakClassifiers>
        <_>
          <internalNodes>
            0 -1 0 -1.2211797293275595e-03</internalNodes>
          <leafValues>
            6.8421053886413574e-01 -7.9342722892761230e-01</leafValues></_>
        <_>
          <internalNodes>
            0 -1 2 2.0264623686671257e-02</internalNodes>
          <leafValues>
            -8.6881643533706665e-01 5.7575541734695435e-01</leafValues></_></weakClassifiers></_></stages>
  <features>
    <_>
      <rects>
        <_>
          0 1 1 14 -1.</_>
        <_>
          0 8 1 7 2.</_></rects>
      <tilted>0</tilted></_>
    <_>
      <rects>
        <_>
          0 7 16 5 -1.</_>
        <_>
          8 7 8 5 2.</_></rects>
      <tilted>0</tilted></_>
    <_>
      <rects>
        <_>
          3 8 12 15 -1.</_>
        <_>
          7 8 4 15 3.</_></rects>
      <tilted>0</tilted></_>
    <_>
      <rects>
        <_>
          15 10 4 15 -1.</_>
        <_>
          15 15 4 5 3.</_></rects>
      <tilted>0</tilted></_>
    <_>
      <rects>
        <_>
          30 0 2 12 -1.</_>
        <_>
          30 6 2 6 2.</_></rects>
      <tilted>0</tilted></_></features></cascade>
</opencv_storage>
