<?xml version="1.0"?>
<opencv_storage>
<stage2>
  <maxWeakCount>6</maxWeakCount>
  <stageThreshold>-9.6563065052032471e-01</stageThreshold>
  <weakClassifiers>
    <_>
      <internalNodes>
        0 -1 107354 2.3593695004819892e-05</internalNodes>
      <leafValues>
        -6.2630510330200195e-01 9.9630767107009888e-01</leafValues></_>
    <_>
      <internalNodes>
        0 -1 162108 -4.5365630649030209e-04</internalNodes>
      <leafValues>
        8.1186479330062866e-01 -5.3927767276763916e-01</leafValues></_>
    <_>
      <internalNodes>
        0 -1 101 -4.4552786275744438e-03</internalNodes>
      <leafValues>
        8.3598470687866211e-01 -4.0981137752532959e-01</leafValues></_>
    <_>
      <internalNodes>
        0 -1 13080 4.6549001126550138e-04</internalNodes>
      <leafValues>
        -3.6675333976745605e-01 8.4995299577713013e-01</leafValues></_>
    <_>
      <internalNodes>
        0 -1 103826 -1.2872504070401192e-02</internalNodes>
      <leafValues>
        -7.6046943664550781e-01 4.4479221105575562e-01</leafValues></_>
    <_>
      <internalNodes>
        0 -1 126391 -4.8121344298124313e-03</internalNodes>
      <leafValues>
        5.3172463178634644e-01 -5.8989500999450684e-01</leafValues></_></weakClassifiers></stage2>
</opencv_storage>
