<?xml version="1.0"?>
<opencv_storage>
<stage5>
  <maxWeakCount>5</maxWeakCount>
  <stageThreshold>-1.0526286363601685e+00</stageThreshold>
  <weakClassifiers>
    <_>
      <internalNodes>
        0 -1 38016 1.7516061780042946e-04</internalNodes>
      <leafValues>
        -6.4531207084655762e-01 9.8146003484725952e-01</leafValues></_>
    <_>
      <internalNodes>
        0 -1 87625 6.3731800764799118e-03</internalNodes>
      <leafValues>
        -8.9008003473281860e-01 5.2585053443908691e-01</leafValues></_>
    <_>
      <internalNodes>
        0 -1 263 -1.0483905207365751e-03</internalNodes>
      <leafValues>
        7.5605815649032593e-01 -5.5096733570098877e-01</leafValues></_>
    <_>
      <internalNodes>
        0 -1 87364 1.4430334558710456e-03</internalNodes>
      <leafValues>
        -9.6283042430877686e-01 3.8566872477531433e-01</leafValues></_>
    <_>
      <internalNodes>
        0 -1 86072 -5.7143766433000565e-02</internalNodes>
      <leafValues>
        6.7989844083786011e-01 -6.5896344184875488e-01</leafValues></_></weakClassifiers></stage5>
</opencv_storage>
