<?xml version="1.0"?>
<opencv_storage>
<stage2>
  <maxWeakCount>5</maxWeakCount>
  <stageThreshold>-1.3371955156326294e+00</stageThreshold>
  <weakClassifiers>
    <_>
      <internalNodes>
        0 -1 7498 5.9963615058222786e-05</internalNodes>
      <leafValues>
        -7.8380054235458374e-01 8.1046009063720703e-01</leafValues></_>
    <_>
      <internalNodes>
        0 -1 55403 -3.7965901196002960e-02</internalNodes>
      <leafValues>
        7.3901414871215820e-01 -6.7082524299621582e-01</leafValues></_>
    <_>
      <internalNodes>
        0 -1 35026 1.0664308443665504e-02</internalNodes>
      <leafValues>
        -8.1251525878906250e-01 5.9162104129791260e-01</leafValues></_>
    <_>
      <internalNodes>
        0 -1 95316 -4.8613017424941063e-03</internalNodes>
      <leafValues>
        4.7722670435905457e-01 -8.2986772060394287e-01</leafValues></_>
    <_>
      <internalNodes>
        0 -1 95447 2.0443953573703766e-02</internalNodes>
      <leafValues>
        -8.5952377319335938e-01 4.5271882414817810e-01</leafValues></_></weakClassifiers></stage2>
</opencv_storage>
