<?xml version="1.0"?>
<opencv_storage>
<cascade>
  <stageType>BOOST</stageType>
  <featureType>HAAR</featureType>
  <height>32</height>
  <width>32</width>
  <stageParams>
    <boostType>GAB</boostType>
    <minHitRate>9.9500000476837158e-01</minHitRate>
    <maxFalseAlarm>5.0000000000000000e-01</maxFalseAlarm>
    <weightTrimRate>9.4999999999999996e-01</weightTrimRate>
    <maxDepth>1</maxDepth>
    <maxWeakCount>100</maxWeakCount></stageParams>
  <featureParams>
    <maxCatCount>0</maxCatCount>
    <featSize>1</featSize>
    <mode>BASIC</mode></featureParams>
  <stageNum>2</stageNum>
  <stages>
    <!-- stage 0 -->
    <_>
      <maxWeakCount>3</maxWeakCount>
      <stageThreshold>-1.1523823738098145e+00</stageThreshold>
      <weakClassifiers>
        <_>
          <internalNodes>
            0 -1 1 1.1429892765590921e-04</internalNodes>
          <leafValues>
            -8.7735849618911743e-01 9.6551722288131714e-01</leafValues></_>
        <_>
          <internalNodes>
            0 -1 5 3.4057699143886566e-02</internalNodes>
          <leafValues>
            -8.5264015197753906e-01 8.9787238836288452e-01</leafValues></_>
        <_>
          <internalNodes>
            0 -1 3 3.2689042389392853e-02</internalNodes>
          <leafValues>
            5.7761627435684204e-01 -9.2875504493713379e-01</leafValues></_></weakClassifiers></_>
    <!-- stage 1 -->
    <_>
      <maxWeakCount>3</maxWeakCount>
      <stageThreshold>-9.3104225397109985e-01</stageThreshold>
      <weakClassifiers>
        <_>
          <internalNodes>
            0 -1 2 1.6860754112713039e-04</internalNodes>
          <leafValues>
            -8.7439614534378052e-01 8.0952382087707520e-01</leafValues></_>
        <_>
          <internalNodes>
            0 -1 4 6.1316918581724167e-02</internalNodes>
          <leafValues>
            -8.4344363212585449e-01 5.6613755226135254e-01</leafValues></_>
        <_>
          <internalNodes>
            0 -1 0 -2.5119865313172340e-04</internalNodes>
          <leafValues>
            9.0035331249237061e-01 -6.2278372049331665e-01</leafValues></_></weakClassifiers></_></stages>
  <features>
    <_>
      <rects>
        <_>
          0 0 6 12 -1.</_>
        <_>
          3 0 3 12 2.</_></rects>
      <tilted>0</tilted></_>
    <_>
      <rects>
        <_>
          0 9 6 13 -1.</_>
        <_>
          3 9 3 13 2.</_></rects>
      <tilted>0</tilted></_>
    <_>
      <rects>
        <_>
          0 9 6 16 -1.</_>
        <_>
          3 9 3 16 2.</_></rects>
      <tilted>0</tilted></_>
    <_>
      <rects>
        <_>
          9 10 9 22 -1.</_>
        <_>
          9 21 9 11 2.</_></rects>
      <tilted>0</tilted></_>
    <_>
      <rects>
        <_>
          13 12 12 18 -1.</_>
        <_>
          13 12 6 9 2.</_>
        <_>
          19 21 6 9 2.</_></rects>
      <tilted>0</tilted></_>
    <_>
      <rects>
        <_>
          17 11 6 18 -1.</_>
        <_>
          17 11 3 9 2.</_>
        <_>
          20 20 3 9 2.</_></rects>
      <tilted>0</tilted></_></features></cascade>
</opencv_storage>
