<?xml version="1.0"?>
<opencv_storage>
<stage2>
  <maxWeakCount>5</maxWeakCount>
  <stageThreshold>-4.8723676800727844e-01</stageThreshold>
  <weakClassifiers>
    <_>
      <internalNodes>
        0 -1 2710 2.3868420976214111e-04</internalNodes>
      <leafValues>
        -3.9581257104873657e-01 1.</leafValues></_>
    <_>
      <internalNodes>
        0 -1 81538 2.5821740564424545e-05</internalNodes>
      <leafValues>
        -7.8502619266510010e-01 5.5996906757354736e-01</leafValues></_>
    <_>
      <internalNodes>
        0 -1 74 -3.0015860102139413e-04</internalNodes>
      <leafValues>
        1. -4.1518431901931763e-01</leafValues></_>
    <_>
      <internalNodes>
        0 -1 91048 -4.3441687012091279e-04</internalNodes>
      <leafValues>
        4.7461417317390442e-01 -8.5382735729217529e-01</leafValues></_>
    <_>
      <internalNodes>
        0 -1 19718 1.9035032391548157e-01</internalNodes>
      <leafValues>
        -6.1438441276550293e-01 6.3417214155197144e-01</leafValues></_></weakClassifiers></stage2>
</opencv_storage>
