<?xml version="1.0"?>
<opencv_storage>
<stage2>
  <maxWeakCount>7</maxWeakCount>
  <stageThreshold>-1.2454813718795776e+00</stageThreshold>
  <weakClassifiers>
    <_>
      <internalNodes>
        0 -1 7498 5.0466725951991975e-05</internalNodes>
      <leafValues>
        -7.8236043453216553e-01 7.1661722660064697e-01</leafValues></_>
    <_>
      <internalNodes>
        0 -1 89845 1.5769057790748775e-04</internalNodes>
      <leafValues>
        -4.3110692501068115e-01 9.1363292932510376e-01</leafValues></_>
    <_>
      <internalNodes>
        0 -1 126349 3.3835601061582565e-04</internalNodes>
      <leafValues>
        -8.2604223489761353e-01 3.7953498959541321e-01</leafValues></_>
    <_>
      <internalNodes>
        0 -1 256 -4.0446093771606684e-04</internalNodes>
      <leafValues>
        6.9222283363342285e-01 -4.4693452119827271e-01</leafValues></_>
    <_>
      <internalNodes>
        0 -1 61148 1.5466214972548187e-04</internalNodes>
      <leafValues>
        -2.7782875299453735e-01 9.9547767639160156e-01</leafValues></_>
    <_>
      <internalNodes>
        0 -1 162108 -5.6929595302790403e-04</internalNodes>
      <leafValues>
        7.8821474313735962e-01 -2.9387670755386353e-01</leafValues></_>
    <_>
      <internalNodes>
        0 -1 111205 -2.3266769130714238e-04</internalNodes>
      <leafValues>
        6.2835723161697388e-01 -4.7500053048133850e-01</leafValues></_></weakClassifiers></stage2>
</opencv_storage>
