<?xml version="1.0"?>
<opencv_storage>
<stage4>
  <maxWeakCount>5</maxWeakCount>
  <stageThreshold>-1.0260770320892334e+00</stageThreshold>
  <weakClassifiers>
    <_>
      <internalNodes>
        0 -1 38018 3.8292456883937120e-04</internalNodes>
      <leafValues>
        -6.7599236965179443e-01 7.4321216344833374e-01</leafValues></_>
    <_>
      <internalNodes>
        0 -1 86822 -3.8505761767737567e-04</internalNodes>
      <leafValues>
        4.4948628544807434e-01 -7.5433236360549927e-01</leafValues></_>
    <_>
      <internalNodes>
        0 -1 51729 -4.3490797281265259e-02</internalNodes>
      <leafValues>
        -8.3473509550094604e-01 3.3119308948516846e-01</leafValues></_>
    <_>
      <internalNodes>
        0 -1 406 -3.1318078981712461e-04</internalNodes>
      <leafValues>
        9.4631862640380859e-01 -3.6865973472595215e-01</leafValues></_>
    <_>
      <internalNodes>
        0 -1 96144 -8.4061920642852783e-03</internalNodes>
      <leafValues>
        -7.2760426998138428e-01 4.4171446561813354e-01</leafValues></_></weakClassifiers></stage4>
</opencv_storage>
