<?xml version="1.0"?>
<opencv_storage>
<stage0>
  <maxWeakCount>5</maxWeakCount>
  <stageThreshold>-1.2547450065612793e+00</stageThreshold>
  <weakClassifiers>
    <_>
      <internalNodes>
        0 -1 199 1.3078817166388035e-02</internalNodes>
      <leafValues>
        -1.3705584406852722e-01 -9.0099012851715088e-01</leafValues></_>
    <_>
      <internalNodes>
        0 -1 160 1.5316640492528677e-03</internalNodes>
      <leafValues>
        -8.9386594295501709e-01 1.7820776998996735e-01</leafValues></_>
    <_>
      <internalNodes>
        0 -1 105 1.1925823986530304e-02</internalNodes>
      <leafValues>
        2.8505054116249084e-01 -7.5606018304824829e-01</leafValues></_>
    <_>
      <internalNodes>
        0 -1 190 2.6768295094370842e-02</internalNodes>
      <leafValues>
        3.0917030572891235e-01 -9.5068681240081787e-01</leafValues></_>
    <_>
      <internalNodes>
        0 -1 11 3.6063138395547867e-02</internalNodes>
      <leafValues>
        -8.1764090061187744e-01 2.2306670248508453e-01</leafValues></_></weakClassifiers></stage0>
</opencv_storage>
