<?xml version="1.0"?>
<opencv_storage>
<cascade>
  <stageType>BOOST</stageType>
  <featureType>HAAR</featureType>
  <height>16</height>
  <width>32</width>
  <stageParams>
    <boostType>GAB</boostType>
    <minHitRate>9.9500000476837158e-01</minHitRate>
    <maxFalseAlarm>5.0000000000000000e-01</maxFalseAlarm>
    <weightTrimRate>9.4999999999999996e-01</weightTrimRate>
    <maxDepth>1</maxDepth>
    <maxWeakCount>100</maxWeakCount></stageParams>
  <featureParams>
    <maxCatCount>0</maxCatCount>
    <featSize>1</featSize>
    <mode>BASIC</mode></featureParams>
  <stageNum>4</stageNum>
  <stages>
    <!-- stage 0 -->
    <_>
      <maxWeakCount>3</maxWeakCount>
      <stageThreshold>-8.7779021263122559e-01</stageThreshold>
      <weakClassifiers>
        <_>
          <internalNodes>
            0 -1 8 -3.5253647714853287e-02</internalNodes>
          <leafValues>
            6.6666668653488159e-01 -7.8260868787765503e-01</leafValues></_>
        <_>
          <internalNodes>
            0 -1 5 3.0981261283159256e-02</internalNodes>
          <leafValues>
            -5.6130546331405640e-01 7.0481258630752563e-01</leafValues></_>
        <_>
          <internalNodes>
            0 -1 14 1.3356915675103664e-02</internalNodes>
          <leafValues>
            -7.3214215040206909e-01 4.6612399816513062e-01</leafValues></_></weakClassifiers></_>
    <!-- stage 1 -->
    <_>
      <maxWeakCount>3</maxWeakCount>
      <stageThreshold>-6.3723802566528320e-01</stageThreshold>
      <weakClassifiers>
        <_>
          <internalNodes>
            0 -1 6 5.3887933492660522e-02</internalNodes>
          <leafValues>
            -6.2736535072326660e-01 6.0448807477951050e-01</leafValues></_>
        <_>
          <internalNodes>
            0 -1 13 -3.1212664907798171e-04</internalNodes>
          <leafValues>
            4.3752992153167725e-01 -7.7596390247344971e-01</leafValues></_>
        <_>
          <internalNodes>
            0 -1 3 -1.8839664990082383e-03</internalNodes>
          <leafValues>
            8.8358777761459351e-01 -4.4740262627601624e-01</leafValues></_></weakClassifiers></_>
    <!-- stage 2 -->
    <_>
      <maxWeakCount>5</maxWeakCount>
      <stageThreshold>-1.3687742948532104e+00</stageThreshold>
      <weakClassifiers>
        <_>
          <internalNodes>
            0 -1 12 1.1630684137344360e-02</internalNodes>
          <leafValues>
            -7.2698414325714111e-01 5.9480518102645874e-01</leafValues></_>
        <_>
          <internalNodes>
            0 -1 11 9.9943857640028000e-03</internalNodes>
          <leafValues>
            -7.3399865627288818e-01 4.5571884512901306e-01</leafValues></_>
        <_>
          <internalNodes>
            0 -1 1 -9.6881680656224489e-04</internalNodes>
          <leafValues>
            9.6837574243545532e-01 -3.9438444375991821e-01</leafValues></_>
        <_>
          <internalNodes>
            0 -1 2 7.9796963836997747e-04</internalNodes>
          <leafValues>
            -4.0232419967651367e-01 9.0993672609329224e-01</leafValues></_>
        <_>
          <internalNodes>
            0 -1 10 1.8553823465481400e-03</internalNodes>
          <leafValues>
            -4.2334368824958801e-01 6.5100532770156860e-01</leafValues></_></weakClassifiers></_>
    <!-- stage 3 -->
    <_>
      <maxWeakCount>6</maxWeakCount>
      <stageThreshold>-6.8702286481857300e-01</stageThreshold>
      <weakClassifiers>
        <_>
          <internalNodes>
            0 -1 16 2.1265352552291006e-04</internalNodes>
          <leafValues>
            -4.3075245618820190e-01 8.1780540943145752e-01</leafValues></_>
        <_>
          <internalNodes>
            0 -1 15 -5.2047689678147435e-05</internalNodes>
          <leafValues>
            8.3623260259628296e-01 -3.6261850595474243e-01</leafValues></_>
        <_>
          <internalNodes>
            0 -1 0 6.3318741740658879e-04</internalNodes>
          <leafValues>
            -2.8558096289634705e-01 1.</leafValues></_>
        <_>
          <internalNodes>
            0 -1 9 -1.1022801045328379e-03</internalNodes>
          <leafValues>
            4.5600384473800659e-01 -7.5407260656356812e-01</leafValues></_>
        <_>
          <internalNodes>
            0 -1 7 3.2337434822693467e-04</internalNodes>
          <leafValues>
            -4.2198246717453003e-01 8.2994151115417480e-01</leafValues></_>
        <_>
          <internalNodes>
            0 -1 4 -2.7156341075897217e-01</internalNodes>
          <leafValues>
            -8.8279092311859131e-01 4.5980921387672424e-01</leafValues></_></weakClassifiers></_></stages>
  <features>
    <_>
      <rects>
        <_>
          0 3 2 12 -1.</_>
        <_>
          1 3 1 12 2.</_></rects>
      <tilted>0</tilted></_>
    <_>
      <rects>
        <_>
          0 15 26 1 -1.</_>
        <_>
          13 15 13 1 2.</_></rects>
      <tilted>0</tilted></_>
    <_>
      <rects>
        <_>
          0 15 30 1 -1.</_>
        <_>
          15 15 15 1 2.</_></rects>
      <tilted>0</tilted></_>
    <_>
      <rects>
        <_>
          1 0 30 1 -1.</_>
        <_>
          11 0 10 1 3.</_></rects>
      <tilted>0</tilted></_>
    <_>
      <rects>
        <_>
          2 3 29 12 -1.</_>
        <_>
          2 7 29 4 3.</_></rects>
      <tilted>0</tilted></_>
    <_>
      <rects>
        <_>
          3 3 10 10 -1.</_>
        <_>
          8 3 5 10 2.</_></rects>
      <tilted>0</tilted></_>
    <_>
      <rects>
        <_>
          3 8 15 6 -1.</_>
        <_>
          8 8 5 6 3.</_></rects>
      <tilted>0</tilted></_>
    <_>
      <rects>
        <_>
          6 0 24 1 -1.</_>
        <_>
          18 0 12 1 2.</_></rects>
      <tilted>0</tilted></_>
    <_>
      <rects>
        <_>
          7 8 18 3 -1.</_>
        <_>
          13 8 6 3 3.</_></rects>
      <tilted>0</tilted></_>
    <_>
      <rects>
        <_>
          8 10 12 1 -1.</_>
        <_>
          14 10 6 1 2.</_></rects>
      <tilted>0</tilted></_>
    <_>
      <rects>
        <_>
          13 1 4 5 -1.</_>
        <_>
          15 1 2 5 2.</_></rects>
      <tilted>0</tilted></_>
    <_>
      <rects>
        <_>
          13 10 18 1 -1.</_>
        <_>
          19 10 6 1 3.</_></rects>
      <tilted>0</tilted></_>
    <_>
      <rects>
        <_>
          14 5 6 5 -1.</_>
        <_>
          16 5 2 5 3.</_></rects>
      <tilted>0</tilted></_>
    <_>
      <rects>
        <_>
          16 7 1 3 -1.</_>
        <_>
          16 8 1 1 3.</_></rects>
      <tilted>0</tilted></_>
    <_>
      <rects>
        <_>
          18 6 12 5 -1.</_>
        <_>
          22 6 4 5 3.</_></rects>
      <tilted>0</tilted></_>
    <_>
      <rects>
        <_>
          23 8 1 8 -1.</_>
        <_>
          23 12 1 4 2.</_></rects>
      <tilted>0</tilted></_>
    <_>
      <rects>
        <_>
          25 0 6 3 -1.</_>
        <_>
          28 0 3 3 2.</_></rects>
      <tilted>0</tilted></_></features></cascade>
</opencv_storage>
