<?xml version="1.0"?>
<opencv_storage>
<cascade>
  <stageType>BOOST</stageType>
  <featureType>HAAR</featureType>
  <height>24</height>
  <width>24</width>
  <stageParams>
    <boostType>GAB</boostType>
    <minHitRate>9.9500000476837158e-01</minHitRate>
    <maxFalseAlarm>5.0000000000000000e-01</maxFalseAlarm>
    <weightTrimRate>9.4999999999999996e-01</weightTrimRate>
    <maxDepth>1</maxDepth>
    <maxWeakCount>100</maxWeakCount></stageParams>
  <featureParams>
    <maxCatCount>0</maxCatCount>
    <featSize>1</featSize>
    <mode>BASIC</mode></featureParams>
  <stageNum>6</stageNum>
  <stages>
    <!-- stage 0 -->
    <_>
      <maxWeakCount>5</maxWeakCount>
      <stageThreshold>-1.1786994934082031e+00</stageThreshold>
      <weakClassifiers>
        <_>
          <internalNodes>
            0 -1 5 -4.7560816165059805e-04</internalNodes>
          <leafValues>
            9.5767837762832642e-01 -6.2401306629180908e-01</leafValues></_>
        <_>
          <internalNodes>
            0 -1 7 3.9046513848006725e-05</internalNodes>
          <leafValues>
            -4.3931636214256287e-01 8.9248985052108765e-01</leafValues></_>
        <_>
          <internalNodes>
            0 -1 35 4.8728927504271269e-04</internalNodes>
          <leafValues>
            -5.0202167034149170e-01 6.8852883577346802e-01</leafValues></_>
        <_>
          <internalNodes>
            0 -1 19 5.0666544120758772e-04</internalNodes>
          <leafValues>
            -4.0961229801177979e-01 6.7984300851821899e-01</leafValues></_>
        <_>
          <internalNodes>
            0 -1 32 -5.1241769688203931e-04</internalNodes>
          <leafValues>
            9.6316885948181152e-01 -2.9319140315055847e-01</leafValues></_></weakClassifiers></_>
    <!-- stage 1 -->
    <_>
      <maxWeakCount>6</maxWeakCount>
      <stageThreshold>-1.2137697935104370e+00</stageThreshold>
      <weakClassifiers>
        <_>
          <internalNodes>
            0 -1 4 -5.2345090080052614e-04</internalNodes>
          <leafValues>
            9.0205562114715576e-01 -6.1148923635482788e-01</leafValues></_>
        <_>
          <internalNodes>
            0 -1 27 1.1634625494480133e-02</internalNodes>
          <leafValues>
            -5.9521919488906860e-01 5.6032162904739380e-01</leafValues></_>
        <_>
          <internalNodes>
            0 -1 13 3.3005259931087494e-02</internalNodes>
          <leafValues>
            -5.4519736766815186e-01 5.9876620769500732e-01</leafValues></_>
        <_>
          <internalNodes>
            0 -1 0 -3.7099525798112154e-04</internalNodes>
          <leafValues>
            7.1239078044891357e-01 -4.3376249074935913e-01</leafValues></_>
        <_>
          <internalNodes>
            0 -1 22 -5.1801954396069050e-04</internalNodes>
          <leafValues>
            7.2058618068695068e-01 -4.4714909791946411e-01</leafValues></_>
        <_>
          <internalNodes>
            0 -1 8 -5.7977493852376938e-02</internalNodes>
          <leafValues>
            -8.9265125989913940e-01 3.6389401555061340e-01</leafValues></_></weakClassifiers></_>
    <!-- stage 2 -->
    <_>
      <maxWeakCount>7</maxWeakCount>
      <stageThreshold>-9.6888059377670288e-01</stageThreshold>
      <weakClassifiers>
        <_>
          <internalNodes>
            0 -1 14 1.8639475456438959e-04</internalNodes>
          <leafValues>
            -5.9038096666336060e-01 8.5732167959213257e-01</leafValues></_>
        <_>
          <internalNodes>
            0 -1 4 -5.6465284433215857e-04</internalNodes>
          <leafValues>
            8.7543505430221558e-01 -3.7862503528594971e-01</leafValues></_>
        <_>
          <internalNodes>
            0 -1 36 -3.1440396560356021e-04</internalNodes>
          <leafValues>
            8.1427150964736938e-01 -3.5554543137550354e-01</leafValues></_>
        <_>
          <internalNodes>
            0 -1 29 1.8479397112969309e-04</internalNodes>
          <leafValues>
            -2.6799598336219788e-01 9.5327413082122803e-01</leafValues></_>
        <_>
          <internalNodes>
            0 -1 21 5.9055086225271225e-02</internalNodes>
          <leafValues>
            -8.3396923542022705e-01 3.8093906641006470e-01</leafValues></_>
        <_>
          <internalNodes>
            0 -1 16 6.1644008383154869e-04</internalNodes>
          <leafValues>
            -3.9888283610343933e-01 7.4426865577697754e-01</leafValues></_>
        <_>
          <internalNodes>
            0 -1 37 6.4761796966195107e-04</internalNodes>
          <leafValues>
            -4.3219247460365295e-01 7.1336746215820312e-01</leafValues></_></weakClassifiers></_>
    <!-- stage 3 -->
    <_>
      <maxWeakCount>7</maxWeakCount>
      <stageThreshold>-1.7752652168273926e+00</stageThreshold>
      <weakClassifiers>
        <_>
          <internalNodes>
            0 -1 20 3.7329609040170908e-04</internalNodes>
          <leafValues>
            -5.8315390348434448e-01 8.5076528787612915e-01</leafValues></_>
        <_>
          <internalNodes>
            0 -1 18 -1.7982145771384239e-02</internalNodes>
          <leafValues>
            5.0115048885345459e-01 -5.8218109607696533e-01</leafValues></_>
        <_>
          <internalNodes>
            0 -1 0 -2.9090354219079018e-03</internalNodes>
          <leafValues>
            8.4063118696212769e-01 -3.4305188059806824e-01</leafValues></_>
        <_>
          <internalNodes>
            0 -1 6 -5.7566121220588684e-02</internalNodes>
          <leafValues>
            5.2421450614929199e-01 -4.8750448226928711e-01</leafValues></_>
        <_>
          <internalNodes>
            0 -1 10 3.0826015863567591e-03</internalNodes>
          <leafValues>
            -3.2367789745330811e-01 8.1238412857055664e-01</leafValues></_>
        <_>
          <internalNodes>
            0 -1 31 3.8233530358411372e-04</internalNodes>
          <leafValues>
            -2.2416888177394867e-01 9.4054657220840454e-01</leafValues></_>
        <_>
          <internalNodes>
            0 -1 33 -2.0055542699992657e-04</internalNodes>
          <leafValues>
            7.4573957920074463e-01 -3.1485870480537415e-01</leafValues></_></weakClassifiers></_>
    <!-- stage 4 -->
    <_>
      <maxWeakCount>8</maxWeakCount>
      <stageThreshold>-1.9368952512741089e+00</stageThreshold>
      <weakClassifiers>
        <_>
          <internalNodes>
            0 -1 2 -2.8512190328910947e-04</internalNodes>
          <leafValues>
            9.8946577310562134e-01 -5.6250816583633423e-01</leafValues></_>
        <_>
          <internalNodes>
            0 -1 9 -2.8489857912063599e-02</internalNodes>
          <leafValues>
            4.8637855052947998e-01 -6.3281637430191040e-01</leafValues></_>
        <_>
          <internalNodes>
            0 -1 15 -2.6638904819265008e-04</internalNodes>
          <leafValues>
            9.6874767541885376e-01 -3.3489233255386353e-01</leafValues></_>
        <_>
          <internalNodes>
            0 -1 24 1.6227636486291885e-02</internalNodes>
          <leafValues>
            -4.1589760780334473e-01 5.4739332199096680e-01</leafValues></_>
        <_>
          <internalNodes>
            0 -1 30 2.9929299489594996e-04</internalNodes>
          <leafValues>
            -2.5456568598747253e-01 9.3361806869506836e-01</leafValues></_>
        <_>
          <internalNodes>
            0 -1 25 -7.1782432496547699e-04</internalNodes>
          <leafValues>
            4.8569685220718384e-01 -4.6358373761177063e-01</leafValues></_>
        <_>
          <internalNodes>
            0 -1 11 1.1968118633376434e-04</internalNodes>
          <leafValues>
            -2.6542186737060547e-01 8.1273996829986572e-01</leafValues></_>
        <_>
          <internalNodes>
            0 -1 1 -4.3888972140848637e-03</internalNodes>
          <leafValues>
            8.0400615930557251e-01 -1.9539320468902588e-01</leafValues></_></weakClassifiers></_>
    <!-- stage 5 -->
    <_>
      <maxWeakCount>8</maxWeakCount>
      <stageThreshold>-1.8329746723175049e+00</stageThreshold>
      <weakClassifiers>
        <_>
          <internalNodes>
            0 -1 23 2.8726184609695338e-05</internalNodes>
          <leafValues>
            -5.6067109107971191e-01 1.</leafValues></_>
        <_>
          <internalNodes>
            0 -1 2 -2.2739119594916701e-04</internalNodes>
          <leafValues>
            9.8172420263290405e-01 -2.5680750608444214e-01</leafValues></_>
        <_>
          <internalNodes>
            0 -1 12 2.4000034318305552e-04</internalNodes>
          <leafValues>
            -1.9049543142318726e-01 9.8373419046401978e-01</leafValues></_>
        <_>
          <internalNodes>
            0 -1 17 -1.8394937505945563e-03</internalNodes>
          <leafValues>
            3.8721528649330139e-01 -6.6685795783996582e-01</leafValues></_>
        <_>
          <internalNodes>
            0 -1 34 2.2236247605178505e-04</internalNodes>
          <leafValues>
            -3.3396044373512268e-01 7.2437244653701782e-01</leafValues></_>
        <_>
          <internalNodes>
            0 -1 3 -1.6037198947742581e-03</internalNodes>
          <leafValues>
            5.7365697622299194e-01 -3.7333548069000244e-01</leafValues></_>
        <_>
          <internalNodes>
            0 -1 26 2.3685634369030595e-04</internalNodes>
          <leafValues>
            -4.0917247533798218e-01 6.0016608238220215e-01</leafValues></_>
        <_>
          <internalNodes>
            0 -1 28 5.4307596292346716e-04</internalNodes>
          <leafValues>
            -2.8020599484443665e-01 7.9179197549819946e-01</leafValues></_></weakClassifiers></_></stages>
  <features>
    <_>
      <rects>
        <_>
          0 0 1 10 -1.</_>
        <_>
          0 5 1 5 2.</_></rects>
      <tilted>0</tilted></_>
    <_>
      <rects>
        <_>
          0 0 1 12 -1.</_>
        <_>
          0 6 1 6 2.</_></rects>
      <tilted>0</tilted></_>
    <_>
      <rects>
        <_>
          0 0 4 4 -1.</_>
        <_>
          0 2 4 2 2.</_></rects>
      <tilted>0</tilted></_>
    <_>
      <rects>
        <_>
          0 0 4 15 -1.</_>
        <_>
          0 5 4 5 3.</_></rects>
      <tilted>0</tilted></_>
    <_>
      <rects>
        <_>
          0 0 8 4 -1.</_>
        <_>
          0 2 8 2 2.</_></rects>
      <tilted>0</tilted></_>
    <_>
      <rects>
        <_>
          0 0 9 4 -1.</_>
        <_>
          0 2 9 2 2.</_></rects>
      <tilted>0</tilted></_>
    <_>
      <rects>
        <_>
          0 5 12 8 -1.</_>
        <_>
          6 5 6 8 2.</_></rects>
      <tilted>0</tilted></_>
    <_>
      <rects>
        <_>
          0 8 4 12 -1.</_>
        <_>
          2 8 2 12 2.</_></rects>
      <tilted>0</tilted></_>
    <_>
      <rects>
        <_>
          0 8 18 12 -1.</_>
        <_>
          0 8 9 6 2.</_>
        <_>
          9 14 9 6 2.</_></rects>
      <tilted>0</tilted></_>
    <_>
      <rects>
        <_>
          0 9 12 3 -1.</_>
        <_>
          6 9 6 3 2.</_></rects>
      <tilted>0</tilted></_>
    <_>
      <rects>
        <_>
          0 14 1 10 -1.</_>
        <_>
          0 19 1 5 2.</_></rects>
      <tilted>0</tilted></_>
    <_>
      <rects>
        <_>
          0 16 6 1 -1.</_>
        <_>
          3 16 3 1 2.</_></rects>
      <tilted>0</tilted></_>
    <_>
      <rects>
        <_>
          0 20 3 4 -1.</_>
        <_>
          0 22 3 2 2.</_></rects>
      <tilted>0</tilted></_>
    <_>
      <rects>
        <_>
          1 9 8 12 -1.</_>
        <_>
          1 9 4 6 2.</_>
        <_>
          5 15 4 6 2.</_></rects>
      <tilted>0</tilted></_>
    <_>
      <rects>
        <_>
          2 0 1 16 -1.</_>
        <_>
          2 8 1 8 2.</_></rects>
      <tilted>0</tilted></_>
    <_>
      <rects>
        <_>
          2 14 2 10 -1.</_>
        <_>
          2 19 2 5 2.</_></rects>
      <tilted>0</tilted></_>
    <_>
      <rects>
        <_>
          2 21 18 1 -1.</_>
        <_>
          8 21 6 1 3.</_></rects>
      <tilted>0</tilted></_>
    <_>
      <rects>
        <_>
          6 15 8 1 -1.</_>
        <_>
          10 15 4 1 2.</_></rects>
      <tilted>0</tilted></_>
    <_>
      <rects>
        <_>
          7 14 12 4 -1.</_>
        <_>
          11 14 4 4 3.</_></rects>
      <tilted>0</tilted></_>
    <_>
      <rects>
        <_>
          8 0 1 6 -1.</_>
        <_>
          8 2 1 2 3.</_></rects>
      <tilted>0</tilted></_>
    <_>
      <rects>
        <_>
          8 0 3 3 -1.</_>
        <_>
          8 1 3 1 3.</_></rects>
      <tilted>0</tilted></_>
    <_>
      <rects>
        <_>
          8 9 8 12 -1.</_>
        <_>
          8 15 8 6 2.</_></rects>
      <tilted>0</tilted></_>
    <_>
      <rects>
        <_>
          8 20 14 2 -1.</_>
        <_>
          15 20 7 2 2.</_></rects>
      <tilted>0</tilted></_>
    <_>
      <rects>
        <_>
          10 0 11 6 -1.</_>
        <_>
          10 3 11 3 2.</_></rects>
      <tilted>0</tilted></_>
    <_>
      <rects>
        <_>
          10 11 6 3 -1.</_>
        <_>
          12 11 2 3 3.</_></rects>
      <tilted>0</tilted></_>
    <_>
      <rects>
        <_>
          11 2 1 6 -1.</_>
        <_>
          11 5 1 3 2.</_></rects>
      <tilted>0</tilted></_>
    <_>
      <rects>
        <_>
          14 2 1 6 -1.</_>
        <_>
          14 4 1 2 3.</_></rects>
      <tilted>0</tilted></_>
    <_>
      <rects>
        <_>
          14 12 4 3 -1.</_>
        <_>
          16 12 2 3 2.</_></rects>
      <tilted>0</tilted></_>
    <_>
      <rects>
        <_>
          15 0 1 6 -1.</_>
        <_>
          15 2 1 2 3.</_></rects>
      <tilted>0</tilted></_>
    <_>
      <rects>
        <_>
          15 0 5 8 -1.</_>
        <_>
          15 4 5 4 2.</_></rects>
      <tilted>0</tilted></_>
    <_>
      <rects>
        <_>
          16 0 1 8 -1.</_>
        <_>
          16 4 1 4 2.</_></rects>
      <tilted>0</tilted></_>
    <_>
      <rects>
        <_>
          16 0 2 8 -1.</_>
        <_>
          16 4 2 4 2.</_></rects>
      <tilted>0</tilted></_>
    <_>
      <rects>
        <_>
          18 0 6 4 -1.</_>
        <_>
          18 2 6 2 2.</_></rects>
      <tilted>0</tilted></_>
    <_>
      <rects>
        <_>
          21 0 1 8 -1.</_>
        <_>
          21 4 1 4 2.</_></rects>
      <tilted>0</tilted></_>
    <_>
      <rects>
        <_>
          21 3 1 6 -1.</_>
        <_>
          21 5 1 2 3.</_></rects>
      <tilted>0</tilted></_>
    <_>
      <rects>
        <_>
          21 16 1 8 -1.</_>
        <_>
          21 20 1 4 2.</_></rects>
      <tilted>0</tilted></_>
    <_>
      <rects>
        <_>
          23 0 1 10 -1.</_>
        <_>
          23 5 1 5 2.</_></rects>
      <tilted>0</tilted></_>
    <_>
      <rects>
        <_>
          23 14 1 10 -1.</_>
        <_>
          23 19 1 5 2.</_></rects>
      <tilted>0</tilted></_></features></cascade>
</opencv_storage>
