<?xml version="1.0"?>
<opencv_storage>
<stage2>
  <maxWeakCount>5</maxWeakCount>
  <stageThreshold>-1.2099758386611938e+00</stageThreshold>
  <weakClassifiers>
    <_>
      <internalNodes>
        0 -1 184 1.0841931402683258e-01</internalNodes>
      <leafValues>
        -6.5488564968109131e-01 7.8947371244430542e-01</leafValues></_>
    <_>
      <internalNodes>
        0 -1 70 2.2664945572614670e-02</internalNodes>
      <leafValues>
        -5.6054890155792236e-01 3.1783378124237061e-01</leafValues></_>
    <_>
      <internalNodes>
        0 -1 143 1.8350720405578613e-02</internalNodes>
      <leafValues>
        -8.0050879716873169e-01 2.4443031847476959e-01</leafValues></_>
    <_>
      <internalNodes>
        0 -1 90 2.6866968721151352e-02</internalNodes>
      <leafValues>
        -4.7742655873298645e-01 4.0241661667823792e-01</leafValues></_>
    <_>
      <internalNodes>
        0 -1 140 3.9713717997074127e-02</internalNodes>
      <leafValues>
        2.3845498263835907e-01 -8.6693108081817627e-01</leafValues></_></weakClassifiers></stage2>
</opencv_storage>
