<?xml version="1.0"?>
<opencv_storage>
<stage3>
  <maxWeakCount>7</maxWeakCount>
  <stageThreshold>-1.7752652168273926e+00</stageThreshold>
  <weakClassifiers>
    <_>
      <internalNodes>
        0 -1 89987 3.7329609040170908e-04</internalNodes>
      <leafValues>
        -5.8315390348434448e-01 8.5076528787612915e-01</leafValues></_>
    <_>
      <internalNodes>
        0 -1 88345 -1.7982145771384239e-02</internalNodes>
      <leafValues>
        5.0115048885345459e-01 -5.8218109607696533e-01</leafValues></_>
    <_>
      <internalNodes>
        0 -1 21 -2.9090354219079018e-03</internalNodes>
      <leafValues>
        8.4063118696212769e-01 -3.4305188059806824e-01</leafValues></_>
    <_>
      <internalNodes>
        0 -1 5328 -5.7566121220588684e-02</internalNodes>
      <leafValues>
        5.2421450614929199e-01 -4.8750448226928711e-01</leafValues></_>
    <_>
      <internalNodes>
        0 -1 11052 3.0826015863567591e-03</internalNodes>
      <leafValues>
        -3.2367789745330811e-01 8.1238412857055664e-01</leafValues></_>
    <_>
      <internalNodes>
        0 -1 144132 3.8233530358411372e-04</internalNodes>
      <leafValues>
        -2.2416888177394867e-01 9.4054657220840454e-01</leafValues></_>
    <_>
      <internalNodes>
        0 -1 159748 -2.0055542699992657e-04</internalNodes>
      <leafValues>
        7.4573957920074463e-01 -3.1485870480537415e-01</leafValues></_></weakClassifiers></stage3>
</opencv_storage>
