<?xml version="1.0"?>
<opencv_storage>
<stage2>
  <maxWeakCount>5</maxWeakCount>
  <stageThreshold>-1.3687742948532104e+00</stageThreshold>
  <weakClassifiers>
    <_>
      <internalNodes>
        0 -1 90052 1.1630684137344360e-02</internalNodes>
      <leafValues>
        -7.2698414325714111e-01 5.9480518102645874e-01</leafValues></_>
    <_>
      <internalNodes>
        0 -1 87072 9.9943857640028000e-03</internalNodes>
      <leafValues>
        -7.3399865627288818e-01 4.5571884512901306e-01</leafValues></_>
    <_>
      <internalNodes>
        0 -1 7884 -9.6881680656224489e-04</internalNodes>
      <leafValues>
        9.6837574243545532e-01 -3.9438444375991821e-01</leafValues></_>
    <_>
      <internalNodes>
        0 -1 7886 7.9796963836997747e-04</internalNodes>
      <leafValues>
        -4.0232419967651367e-01 9.0993672609329224e-01</leafValues></_>
    <_>
      <internalNodes>
        0 -1 83668 1.8553823465481400e-03</internalNodes>
      <leafValues>
        -4.2334368824958801e-01 6.5100532770156860e-01</leafValues></_></weakClassifiers></stage2>
</opencv_storage>
