<?xml version="1.0"?>
<opencv_storage>
<stage3>
  <maxWeakCount>6</maxWeakCount>
  <stageThreshold>-1.1421315670013428e+00</stageThreshold>
  <weakClassifiers>
    <_>
      <internalNodes>
        0 -1 119 9.8797427490353584e-03</internalNodes>
      <leafValues>
        -2.8409090638160706e-01 -7.7160495519638062e-01</leafValues></_>
    <_>
      <internalNodes>
        0 -1 42 1.3175183907151222e-02</internalNodes>
      <leafValues>
        1.3580290973186493e-01 -5.8250284194946289e-01</leafValues></_>
    <_>
      <internalNodes>
        0 -1 19 2.3138407617807388e-02</internalNodes>
      <leafValues>
        1.2399981170892715e-01 -9.2588818073272705e-01</leafValues></_>
    <_>
      <internalNodes>
        0 -1 90 2.0507380366325378e-02</internalNodes>
      <leafValues>
        -5.1815670728683472e-01 2.4307310581207275e-01</leafValues></_>
    <_>
      <internalNodes>
        0 -1 72 4.8565110191702843e-03</internalNodes>
      <leafValues>
        -8.3754068613052368e-01 1.4106366038322449e-01</leafValues></_>
    <_>
      <internalNodes>
        0 -1 97 1.6248025000095367e-02</internalNodes>
      <leafValues>
        -5.2337580919265747e-01 2.3914307355880737e-01</leafValues></_></weakClassifiers></stage3>
</opencv_storage>
