<?xml version="1.0"?>
<opencv_storage>
<cascade>
  <stageType>BOOST</stageType>
  <featureType>HAAR</featureType>
  <height>24</height>
  <width>24</width>
  <stageParams>
    <boostType>GAB</boostType>
    <minHitRate>9.9500000476837158e-01</minHitRate>
    <maxFalseAlarm>5.0000000000000000e-01</maxFalseAlarm>
    <weightTrimRate>9.4999999999999996e-01</weightTrimRate>
    <maxDepth>1</maxDepth>
    <maxWeakCount>100</maxWeakCount></stageParams>
  <featureParams>
    <maxCatCount>0</maxCatCount>
    <featSize>1</featSize>
    <mode>BASIC</mode></featureParams>
  <stageNum>6</stageNum>
  <stages>
    <!-- stage 0 -->
    <_>
      <maxWeakCount>4</maxWeakCount>
      <stageThreshold>-1.5316221714019775e+00</stageThreshold>
      <weakClassifiers>
        <_>
          <internalNodes>
            0 -1 13 7.7814340591430664e-02</internalNodes>
          <leafValues>
            -9.0524590015411377e-01 8.6965519189834595e-01</leafValues></_>
        <_>
          <internalNodes>
            0 -1 7 2.3518165107816458e-05</internalNodes>
          <leafValues>
            -7.0953971147537231e-01 9.6259295940399170e-01</leafValues></_>
        <_>
          <internalNodes>
            0 -1 22 -5.0481133162975311e-02</internalNodes>
          <leafValues>
            7.2897011041641235e-01 -7.9230308532714844e-01</leafValues></_>
        <_>
          <internalNodes>
            0 -1 0 -3.8020007195882499e-04</internalNodes>
          <leafValues>
            8.7546646595001221e-01 -4.6956163644790649e-01</leafValues></_></weakClassifiers></_>
    <!-- stage 1 -->
    <_>
      <maxWeakCount>5</maxWeakCount>
      <stageThreshold>-1.9928002357482910e+00</stageThreshold>
      <weakClassifiers>
        <_>
          <internalNodes>
            0 -1 6 2.5053685021703131e-05</internalNodes>
          <leafValues>
            -8.0387830734252930e-01 7.8998869657516479e-01</leafValues></_>
        <_>
          <internalNodes>
            0 -1 15 7.3863342404365540e-02</internalNodes>
          <leafValues>
            -7.3173755407333374e-01 6.9954806566238403e-01</leafValues></_>
        <_>
          <internalNodes>
            0 -1 9 4.7643912694184110e-05</internalNodes>
          <leafValues>
            -5.0238525867462158e-01 8.6110675334930420e-01</leafValues></_>
        <_>
          <internalNodes>
            0 -1 19 -1.8922243267297745e-02</internalNodes>
          <leafValues>
            -8.9174956083297729e-01 4.4468826055526733e-01</leafValues></_>
        <_>
          <internalNodes>
            0 -1 28 -2.7390115428715944e-04</internalNodes>
          <leafValues>
            8.0590486526489258e-01 -4.9433520436286926e-01</leafValues></_></weakClassifiers></_>
    <!-- stage 2 -->
    <_>
      <maxWeakCount>5</maxWeakCount>
      <stageThreshold>-1.5947747230529785e+00</stageThreshold>
      <weakClassifiers>
        <_>
          <internalNodes>
            0 -1 9 4.0325176087208092e-05</internalNodes>
          <leafValues>
            -7.9353529214859009e-01 5.4642510414123535e-01</leafValues></_>
        <_>
          <internalNodes>
            0 -1 24 6.1203368008136749e-02</internalNodes>
          <leafValues>
            -7.2358155250549316e-01 6.2029051780700684e-01</leafValues></_>
        <_>
          <internalNodes>
            0 -1 11 -1.3466882592183538e-05</internalNodes>
          <leafValues>
            -5.1041138172149658e-01 6.9650453329086304e-01</leafValues></_>
        <_>
          <internalNodes>
            0 -1 3 -3.8400257471948862e-04</internalNodes>
          <leafValues>
            9.1478115320205688e-01 -3.1614854931831360e-01</leafValues></_>
        <_>
          <internalNodes>
            0 -1 12 -8.8381255045533180e-04</internalNodes>
          <leafValues>
            7.4890208244323730e-01 -3.7143570184707642e-01</leafValues></_></weakClassifiers></_>
    <!-- stage 3 -->
    <_>
      <maxWeakCount>7</maxWeakCount>
      <stageThreshold>-1.3707127571105957e+00</stageThreshold>
      <weakClassifiers>
        <_>
          <internalNodes>
            0 -1 17 3.2806430681375787e-05</internalNodes>
          <leafValues>
            -6.3131380081176758e-01 9.8912388086318970e-01</leafValues></_>
        <_>
          <internalNodes>
            0 -1 1 -8.8541768491268158e-04</internalNodes>
          <leafValues>
            8.1883770227432251e-01 -4.8592400550842285e-01</leafValues></_>
        <_>
          <internalNodes>
            0 -1 27 -1.6961837536655366e-04</internalNodes>
          <leafValues>
            9.6734881401062012e-01 -3.3259996771812439e-01</leafValues></_>
        <_>
          <internalNodes>
            0 -1 16 -6.4463064074516296e-02</internalNodes>
          <leafValues>
            4.5855078101158142e-01 -8.0696511268615723e-01</leafValues></_>
        <_>
          <internalNodes>
            0 -1 10 2.7323132599121891e-05</internalNodes>
          <leafValues>
            -5.1392257213592529e-01 7.2767418622970581e-01</leafValues></_>
        <_>
          <internalNodes>
            0 -1 28 -3.0623958446085453e-04</internalNodes>
          <leafValues>
            7.3009592294692993e-01 -3.8326406478881836e-01</leafValues></_>
        <_>
          <internalNodes>
            0 -1 23 -3.0852250754833221e-02</internalNodes>
          <leafValues>
            5.1776087284088135e-01 -5.8672136068344116e-01</leafValues></_></weakClassifiers></_>
    <!-- stage 4 -->
    <_>
      <maxWeakCount>5</maxWeakCount>
      <stageThreshold>-1.3339718580245972e+00</stageThreshold>
      <weakClassifiers>
        <_>
          <internalNodes>
            0 -1 5 2.9546734367613681e-05</internalNodes>
          <leafValues>
            -7.9254007339477539e-01 8.5270702838897705e-01</leafValues></_>
        <_>
          <internalNodes>
            0 -1 20 2.6378353140898980e-05</internalNodes>
          <leafValues>
            -4.4551688432693481e-01 9.9101841449737549e-01</leafValues></_>
        <_>
          <internalNodes>
            0 -1 29 4.4183360296301544e-04</internalNodes>
          <leafValues>
            -3.6119696497917175e-01 9.6989804506301880e-01</leafValues></_>
        <_>
          <internalNodes>
            0 -1 14 -1.9768580794334412e-02</internalNodes>
          <leafValues>
            -4.8365598917007446e-01 6.3456678390502930e-01</leafValues></_>
        <_>
          <internalNodes>
            0 -1 26 -5.7518889661878347e-04</internalNodes>
          <leafValues>
            8.4730041027069092e-01 -3.6928474903106689e-01</leafValues></_></weakClassifiers></_>
    <!-- stage 5 -->
    <_>
      <maxWeakCount>6</maxWeakCount>
      <stageThreshold>-2.0257840156555176e+00</stageThreshold>
      <weakClassifiers>
        <_>
          <internalNodes>
            0 -1 4 1.0387014481239021e-04</internalNodes>
          <leafValues>
            -6.3198691606521606e-01 1.</leafValues></_>
        <_>
          <internalNodes>
            0 -1 8 2.7646388844004832e-05</internalNodes>
          <leafValues>
            -5.5057168006896973e-01 7.3814761638641357e-01</leafValues></_>
        <_>
          <internalNodes>
            0 -1 25 3.9344298420473933e-04</internalNodes>
          <leafValues>
            -7.5272727012634277e-01 4.8810389637947083e-01</leafValues></_>
        <_>
          <internalNodes>
            0 -1 21 2.5446268409723416e-05</internalNodes>
          <leafValues>
            -3.6164081096649170e-01 1.</leafValues></_>
        <_>
          <internalNodes>
            0 -1 2 -5.2798946853727102e-04</internalNodes>
          <leafValues>
            7.0284944772720337e-01 -4.1953167319297791e-01</leafValues></_>
        <_>
          <internalNodes>
            0 -1 18 -5.8514578267931938e-04</internalNodes>
          <leafValues>
            6.0368055105209351e-01 -5.5015671253204346e-01</leafValues></_></weakClassifiers></_></stages>
  <features>
    <_>
      <rects>
        <_>
          0 0 1 10 -1.</_>
        <_>
          0 5 1 5 2.</_></rects>
      <tilted>0</tilted></_>
    <_>
      <rects>
        <_>
          0 0 5 12 -1.</_>
        <_>
          0 4 5 4 3.</_></rects>
      <tilted>0</tilted></_>
    <_>
      <rects>
        <_>
          0 0 5 15 -1.</_>
        <_>
          0 5 5 5 3.</_></rects>
      <tilted>0</tilted></_>
    <_>
      <rects>
        <_>
          0 0 8 4 -1.</_>
        <_>
          0 2 8 2 2.</_></rects>
      <tilted>0</tilted></_>
    <_>
      <rects>
        <_>
          0 1 6 8 -1.</_>
        <_>
          0 1 3 4 2.</_>
        <_>
          3 5 3 4 2.</_></rects>
      <tilted>0</tilted></_>
    <_>
      <rects>
        <_>
          0 6 6 13 -1.</_>
        <_>
          3 6 3 13 2.</_></rects>
      <tilted>0</tilted></_>
    <_>
      <rects>
        <_>
          0 6 8 11 -1.</_>
        <_>
          4 6 4 11 2.</_></rects>
      <tilted>0</tilted></_>
    <_>
      <rects>
        <_>
          0 7 6 10 -1.</_>
        <_>
          3 7 3 10 2.</_></rects>
      <tilted>0</tilted></_>
    <_>
      <rects>
        <_>
          0 7 6 12 -1.</_>
        <_>
          3 7 3 12 2.</_></rects>
      <tilted>0</tilted></_>
    <_>
      <rects>
        <_>
          0 8 4 9 -1.</_>
        <_>
          2 8 2 9 2.</_></rects>
      <tilted>0</tilted></_>
    <_>
      <rects>
        <_>
          0 8 6 10 -1.</_>
        <_>
          3 8 3 10 2.</_></rects>
      <tilted>0</tilted></_>
    <_>
      <rects>
        <_>
          0 8 10 5 -1.</_>
        <_>
          5 8 5 5 2.</_></rects>
      <tilted>0</tilted></_>
    <_>
      <rects>
        <_>
          0 12 4 12 -1.</_>
        <_>
          0 16 4 4 3.</_></rects>
      <tilted>0</tilted></_>
    <_>
      <rects>
        <_>
          1 7 15 8 -1.</_>
        <_>
          6 7 5 8 3.</_></rects>
      <tilted>0</tilted></_>
    <_>
      <rects>
        <_>
          2 4 8 15 -1.</_>
        <_>
          6 4 4 15 2.</_></rects>
      <tilted>0</tilted></_>
    <_>
      <rects>
        <_>
          3 7 12 8 -1.</_>
        <_>
          7 7 4 8 3.</_></rects>
      <tilted>0</tilted></_>
    <_>
      <rects>
        <_>
          5 5 10 9 -1.</_>
        <_>
          10 5 5 9 2.</_></rects>
      <tilted>0</tilted></_>
    <_>
      <rects>
        <_>
          6 0 11 6 -1.</_>
        <_>
          6 3 11 3 2.</_></rects>
      <tilted>0</tilted></_>
    <_>
      <rects>
        <_>
          6 9 3 14 -1.</_>
        <_>
          6 16 3 7 2.</_></rects>
      <tilted>0</tilted></_>
    <_>
      <rects>
        <_>
          7 3 5 10 -1.</_>
        <_>
          7 8 5 5 2.</_></rects>
      <tilted>0</tilted></_>
    <_>
      <rects>
        <_>
          8 0 9 6 -1.</_>
        <_>
          8 3 9 3 2.</_></rects>
      <tilted>0</tilted></_>
    <_>
      <rects>
        <_>
          8 0 12 6 -1.</_>
        <_>
          8 3 12 3 2.</_></rects>
      <tilted>0</tilted></_>
    <_>
      <rects>
        <_>
          9 9 9 5 -1.</_>
        <_>
          12 9 3 5 3.</_></rects>
      <tilted>0</tilted></_>
    <_>
      <rects>
        <_>
          10 9 4 6 -1.</_>
        <_>
          12 9 2 6 2.</_></rects>
      <tilted>0</tilted></_>
    <_>
      <rects>
        <_>
          12 1 8 14 -1.</_>
        <_>
          12 1 4 7 2.</_>
        <_>
          16 8 4 7 2.</_></rects>
      <tilted>0</tilted></_>
    <_>
      <rects>
        <_>
          15 9 1 8 -1.</_>
        <_>
          15 13 1 4 2.</_></rects>
      <tilted>0</tilted></_>
    <_>
      <rects>
        <_>
          21 0 1 10 -1.</_>
        <_>
          21 5 1 5 2.</_></rects>
      <tilted>0</tilted></_>
    <_>
      <rects>
        <_>
          21 10 1 14 -1.</_>
        <_>
          21 17 1 7 2.</_></rects>
      <tilted>0</tilted></_>
    <_>
      <rects>
        <_>
          23 0 1 10 -1.</_>
        <_>
          23 5 1 5 2.</_></rects>
      <tilted>0</tilted></_>
    <_>
      <rects>
        <_>
          23 16 1 8 -1.</_>
        <_>
          23 20 1 4 2.</_></rects>
      <tilted>0</tilted></_></features></cascade>
</opencv_storage>
