<?xml version="1.0"?>
<opencv_storage>
<cascade>
  <stageType>BOOST</stageType>
  <featureType>HOG</featureType>
  <height>24</height>
  <width>24</width>
  <stageParams>
    <boostType>GAB</boostType>
    <minHitRate>9.9500000476837158e-01</minHitRate>
    <maxFalseAlarm>5.0000000000000000e-01</maxFalseAlarm>
    <weightTrimRate>9.4999999999999996e-01</weightTrimRate>
    <maxDepth>1</maxDepth>
    <maxWeakCount>100</maxWeakCount></stageParams>
  <featureParams>
    <maxCatCount>0</maxCatCount>
    <featSize>36</featSize></featureParams>
  <stageNum>9</stageNum>
  <stages>
    <!-- stage 0 -->
    <_>
      <maxWeakCount>3</maxWeakCount>
      <stageThreshold>-7.8568089008331299e-01</stageThreshold>
      <weakClassifiers>
        <_>
          <internalNodes>
            0 -1 24 3.3839330077171326e-02</internalNodes>
          <leafValues>
            -7.2473382949829102e-01 6.7368000745773315e-01</leafValues></_>
        <_>
          <internalNodes>
            0 -1 0 1.4708722941577435e-02</internalNodes>
          <leafValues>
            -5.5590659379959106e-01 8.2463014125823975e-01</leafValues></_>
        <_>
          <internalNodes>
            0 -1 29 2.1011130884289742e-02</internalNodes>
          <leafValues>
            4.9495953321456909e-01 -8.5000431537628174e-01</leafValues></_></weakClassifiers></_>
    <!-- stage 1 -->
    <_>
      <maxWeakCount>5</maxWeakCount>
      <stageThreshold>-1.2939041852951050e+00</stageThreshold>
      <weakClassifiers>
        <_>
          <internalNodes>
            0 -1 24 2.5034900754690170e-02</internalNodes>
          <leafValues>
            -7.9634261131286621e-01 2.9881733655929565e-01</leafValues></_>
        <_>
          <internalNodes>
            0 -1 1 4.0547084063291550e-03</internalNodes>
          <leafValues>
            -7.0967566967010498e-01 5.6937104463577271e-01</leafValues></_>
        <_>
          <internalNodes>
            0 -1 4 1.4018671587109566e-02</internalNodes>
          <leafValues>
            4.4632318615913391e-01 -7.3854243755340576e-01</leafValues></_>
        <_>
          <internalNodes>
            0 -1 18 2.5439023971557617e-02</internalNodes>
          <leafValues>
            3.9357128739356995e-01 -6.3647413253784180e-01</leafValues></_>
        <_>
          <internalNodes>
            0 -1 36 1.1782323941588402e-02</internalNodes>
          <leafValues>
            -5.3807467222213745e-01 4.9605149030685425e-01</leafValues></_></weakClassifiers></_>
    <!-- stage 2 -->
    <_>
      <maxWeakCount>7</maxWeakCount>
      <stageThreshold>-1.5413223505020142e+00</stageThreshold>
      <weakClassifiers>
        <_>
          <internalNodes>
            0 -1 14 1.1124767363071442e-02</internalNodes>
          <leafValues>
            3.1430289149284363e-01 -7.1332865953445435e-01</leafValues></_>
        <_>
          <internalNodes>
            0 -1 24 1.5224065631628036e-02</internalNodes>
          <leafValues>
            -8.2014423608779907e-01 2.9267349839210510e-01</leafValues></_>
        <_>
          <internalNodes>
            0 -1 0 3.6964567843824625e-03</internalNodes>
          <leafValues>
            -6.5276688337326050e-01 4.9163568019866943e-01</leafValues></_>
        <_>
          <internalNodes>
            0 -1 17 2.6267794892191887e-02</internalNodes>
          <leafValues>
            2.7712494134902954e-01 -8.1981533765792847e-01</leafValues></_>
        <_>
          <internalNodes>
            0 -1 9 6.0190411750227213e-04</internalNodes>
          <leafValues>
            -6.8478518724441528e-01 3.3470264077186584e-01</leafValues></_>
        <_>
          <internalNodes>
            0 -1 3 2.6610016822814941e-02</internalNodes>
          <leafValues>
            -3.5585588216781616e-01 7.6269304752349854e-01</leafValues></_>
        <_>
          <internalNodes>
            0 -1 32 2.2353753447532654e-02</internalNodes>
          <leafValues>
            3.7306818366050720e-01 -5.9162461757659912e-01</leafValues></_></weakClassifiers></_>
    <!-- stage 3 -->
    <_>
      <maxWeakCount>8</maxWeakCount>
      <stageThreshold>-1.6212853193283081e+00</stageThreshold>
      <weakClassifiers>
        <_>
          <internalNodes>
            0 -1 3 3.7579182535409927e-02</internalNodes>
          <leafValues>
            -5.4103630781173706e-01 6.7994773387908936e-01</leafValues></_>
        <_>
          <internalNodes>
            0 -1 26 1.7104208469390869e-02</internalNodes>
          <leafValues>
            -3.8873142004013062e-01 6.8590164184570312e-01</leafValues></_>
        <_>
          <internalNodes>
            0 -1 16 1.8564207479357719e-02</internalNodes>
          <leafValues>
            2.7954155206680298e-01 -7.7225995063781738e-01</leafValues></_>
        <_>
          <internalNodes>
            0 -1 36 1.0085636749863625e-03</internalNodes>
          <leafValues>
            -7.7487254142761230e-01 2.6096323132514954e-01</leafValues></_>
        <_>
          <internalNodes>
            0 -1 24 1.0189365595579147e-02</internalNodes>
          <leafValues>
            -7.6637369394302368e-01 2.3360753059387207e-01</leafValues></_>
        <_>
          <internalNodes>
            0 -1 1 4.8689795657992363e-03</internalNodes>
          <leafValues>
            -5.5916732549667358e-01 4.3652510643005371e-01</leafValues></_>
        <_>
          <internalNodes>
            0 -1 23 2.5518827140331268e-02</internalNodes>
          <leafValues>
            4.2071440815925598e-01 -4.7278183698654175e-01</leafValues></_>
        <_>
          <internalNodes>
            0 -1 20 9.1741941869258881e-03</internalNodes>
          <leafValues>
            6.0215497016906738e-01 -3.1366145610809326e-01</leafValues></_></weakClassifiers></_>
    <!-- stage 4 -->
    <_>
      <maxWeakCount>8</maxWeakCount>
      <stageThreshold>-1.4943646192550659e+00</stageThreshold>
      <weakClassifiers>
        <_>
          <internalNodes>
            0 -1 10 1.5709646046161652e-02</internalNodes>
          <leafValues>
            -6.4340579509735107e-01 3.2523429393768311e-01</leafValues></_>
        <_>
          <internalNodes>
            0 -1 24 4.8807963728904724e-02</internalNodes>
          <leafValues>
            -3.8410806655883789e-01 6.2538915872573853e-01</leafValues></_>
        <_>
          <internalNodes>
            0 -1 3 9.0638018446043134e-04</internalNodes>
          <leafValues>
            -6.9008678197860718e-01 3.1771609187126160e-01</leafValues></_>
        <_>
          <internalNodes>
            0 -1 18 2.0157812163233757e-02</internalNodes>
          <leafValues>
            3.6243695020675659e-01 -5.9047740697860718e-01</leafValues></_>
        <_>
          <internalNodes>
            0 -1 29 2.3626027628779411e-02</internalNodes>
          <leafValues>
            1.8188148736953735e-01 -8.9804667234420776e-01</leafValues></_>
        <_>
          <internalNodes>
            0 -1 0 1.7175305634737015e-02</internalNodes>
          <leafValues>
            -3.4755951166152954e-01 6.5337681770324707e-01</leafValues></_>
        <_>
          <internalNodes>
            0 -1 36 3.0200663954019547e-02</internalNodes>
          <leafValues>
            -3.0699306726455688e-01 6.1440223455429077e-01</leafValues></_>
        <_>
          <internalNodes>
            0 -1 25 3.2297126017510891e-03</internalNodes>
          <leafValues>
            -5.7842200994491577e-01 3.3347019553184509e-01</leafValues></_></weakClassifiers></_>
    <!-- stage 5 -->
    <_>
      <maxWeakCount>10</maxWeakCount>
      <stageThreshold>-1.8887432813644409e+00</stageThreshold>
      <weakClassifiers>
        <_>
          <internalNodes>
            0 -1 10 3.0425652861595154e-02</internalNodes>
          <leafValues>
            -5.0776517391204834e-01 6.1198288202285767e-01</leafValues></_>
        <_>
          <internalNodes>
            0 -1 24 6.0306839644908905e-02</internalNodes>
          <leafValues>
            -2.6977473497390747e-01 7.2766113281250000e-01</leafValues></_>
        <_>
          <internalNodes>
            0 -1 36 2.3359032347798347e-02</internalNodes>
          <leafValues>
            -3.3607733249664307e-01 5.3103041648864746e-01</leafValues></_>
        <_>
          <internalNodes>
            0 -1 4 3.4044280648231506e-02</internalNodes>
          <leafValues>
            2.2669683396816254e-01 -8.3986878395080566e-01</leafValues></_>
        <_>
          <internalNodes>
            0 -1 0 1.6881208866834641e-02</internalNodes>
          <leafValues>
            -3.6271873116493225e-01 4.4772303104400635e-01</leafValues></_>
        <_>
          <internalNodes>
            0 -1 24 2.6894621551036835e-02</internalNodes>
          <leafValues>
            -4.7299391031265259e-01 3.2995301485061646e-01</leafValues></_>
        <_>
          <internalNodes>
            0 -1 22 5.0960350781679153e-02</internalNodes>
          <leafValues>
            -2.8350609540939331e-01 5.8031457662582397e-01</leafValues></_>
        <_>
          <internalNodes>
            0 -1 21 2.4834819138050079e-02</internalNodes>
          <leafValues>
            -2.9722553491592407e-01 5.0609791278839111e-01</leafValues></_>
        <_>
          <internalNodes>
            0 -1 7 9.6506654517725110e-04</internalNodes>
          <leafValues>
            -8.8698095083236694e-01 2.0882414281368256e-01</leafValues></_>
        <_>
          <internalNodes>
            0 -1 31 8.7744100019335747e-03</internalNodes>
          <leafValues>
            1.9189980626106262e-01 -5.9752613306045532e-01</leafValues></_></weakClassifiers></_>
    <!-- stage 6 -->
    <_>
      <maxWeakCount>10</maxWeakCount>
      <stageThreshold>-1.7449334859848022e+00</stageThreshold>
      <weakClassifiers>
        <_>
          <internalNodes>
            0 -1 1 1.9131451845169067e-02</internalNodes>
          <leafValues>
            -5.4715365171432495e-01 4.1938725113868713e-01</leafValues></_>
        <_>
          <internalNodes>
            0 -1 3 5.1531892269849777e-02</internalNodes>
          <leafValues>
            -2.5817993283271790e-01 8.2422918081283569e-01</leafValues></_>
        <_>
          <internalNodes>
            0 -1 27 2.7649175375699997e-02</internalNodes>
          <leafValues>
            3.1968572735786438e-01 -6.1020565032958984e-01</leafValues></_>
        <_>
          <internalNodes>
            0 -1 8 3.2684162259101868e-02</internalNodes>
          <leafValues>
            -3.1047028303146362e-01 5.8436262607574463e-01</leafValues></_>
        <_>
          <internalNodes>
            0 -1 35 4.7842925414443016e-03</internalNodes>
          <leafValues>
            -3.9467015862464905e-01 4.1041144728660583e-01</leafValues></_>
        <_>
          <internalNodes>
            0 -1 20 7.3896478861570358e-03</internalNodes>
          <leafValues>
            6.4265722036361694e-01 -3.0490654706954956e-01</leafValues></_>
        <_>
          <internalNodes>
            0 -1 3 6.5972475567832589e-04</internalNodes>
          <leafValues>
            -6.7745304107666016e-01 2.8481319546699524e-01</leafValues></_>
        <_>
          <internalNodes>
            0 -1 24 1.7176445573568344e-02</internalNodes>
          <leafValues>
            -6.5864408016204834e-01 2.3139542341232300e-01</leafValues></_>
        <_>
          <internalNodes>
            0 -1 30 5.7132367044687271e-02</internalNodes>
          <leafValues>
            -3.6761146783828735e-01 4.0255260467529297e-01</leafValues></_>
        <_>
          <internalNodes>
            0 -1 13 1.3406805694103241e-02</internalNodes>
          <leafValues>
            4.8746955394744873e-01 -3.3055025339126587e-01</leafValues></_></weakClassifiers></_>
    <!-- stage 7 -->
    <_>
      <maxWeakCount>11</maxWeakCount>
      <stageThreshold>-1.6073874235153198e+00</stageThreshold>
      <weakClassifiers>
        <_>
          <internalNodes>
            0 -1 26 3.0801737681031227e-02</internalNodes>
          <leafValues>
            -4.6993374824523926e-01 7.5824177265167236e-01</leafValues></_>
        <_>
          <internalNodes>
            0 -1 36 1.5902418643236160e-02</internalNodes>
          <leafValues>
            -4.6920964121818542e-01 4.2813017964363098e-01</leafValues></_>
        <_>
          <internalNodes>
            0 -1 15 1.5353228896856308e-02</internalNodes>
          <leafValues>
            3.0542162060737610e-01 -5.8916741609573364e-01</leafValues></_>
        <_>
          <internalNodes>
            0 -1 33 6.1797719448804855e-02</internalNodes>
          <leafValues>
            2.6791241765022278e-01 -6.1146843433380127e-01</leafValues></_>
        <_>
          <internalNodes>
            0 -1 24 6.6125422716140747e-02</internalNodes>
          <leafValues>
            -2.2395265102386475e-01 7.9318171739578247e-01</leafValues></_>
        <_>
          <internalNodes>
            0 -1 17 1.8346175551414490e-02</internalNodes>
          <leafValues>
            2.4487793445587158e-01 -6.0823935270309448e-01</leafValues></_>
        <_>
          <internalNodes>
            0 -1 10 1.8891070038080215e-02</internalNodes>
          <leafValues>
            -2.8167670965194702e-01 5.3395944833755493e-01</leafValues></_>
        <_>
          <internalNodes>
            0 -1 2 3.8526612333953381e-03</internalNodes>
          <leafValues>
            -3.6370894312858582e-01 3.1968930363655090e-01</leafValues></_>
        <_>
          <internalNodes>
            0 -1 5 6.6993236541748047e-03</internalNodes>
          <leafValues>
            2.1565261483192444e-01 -6.2228238582611084e-01</leafValues></_>
        <_>
          <internalNodes>
            0 -1 11 5.8971166610717773e-02</internalNodes>
          <leafValues>
            -1.8937440216541290e-01 8.2024192810058594e-01</leafValues></_>
        <_>
          <internalNodes>
            0 -1 6 1.4103004708886147e-02</internalNodes>
          <leafValues>
            2.3598492145538330e-01 -6.5963733196258545e-01</leafValues></_></weakClassifiers></_>
    <!-- stage 8 -->
    <_>
      <maxWeakCount>13</maxWeakCount>
      <stageThreshold>-1.5578795671463013e+00</stageThreshold>
      <weakClassifiers>
        <_>
          <internalNodes>
            0 -1 36 4.7850344330072403e-02</internalNodes>
          <leafValues>
            -4.6742424368858337e-01 6.4999997615814209e-01</leafValues></_>
        <_>
          <internalNodes>
            0 -1 9 6.1683082021772861e-03</internalNodes>
          <leafValues>
            -5.3406506776809692e-01 3.3311727643013000e-01</leafValues></_>
        <_>
          <internalNodes>
            0 -1 0 8.3183022215962410e-03</internalNodes>
          <leafValues>
            -4.7887831926345825e-01 3.5325318574905396e-01</leafValues></_>
        <_>
          <internalNodes>
            0 -1 26 3.7730033509433270e-03</internalNodes>
          <leafValues>
            -4.5415848493576050e-01 3.7804651260375977e-01</leafValues></_>
        <_>
          <internalNodes>
            0 -1 3 4.4776313006877899e-02</internalNodes>
          <leafValues>
            -2.5936692953109741e-01 7.1014851331710815e-01</leafValues></_>
        <_>
          <internalNodes>
            0 -1 12 8.7319850921630859e-02</internalNodes>
          <leafValues>
            1.9678622484207153e-01 -7.4367612600326538e-01</leafValues></_>
        <_>
          <internalNodes>
            0 -1 19 1.0592143982648849e-02</internalNodes>
          <leafValues>
            5.0581169128417969e-01 -3.6139133572578430e-01</leafValues></_>
        <_>
          <internalNodes>
            0 -1 29 1.7319031059741974e-02</internalNodes>
          <leafValues>
            2.0379944145679474e-01 -7.1612763404846191e-01</leafValues></_>
        <_>
          <internalNodes>
            0 -1 34 6.3201435841619968e-03</internalNodes>
          <leafValues>
            -4.3096086382865906e-01 3.9120677113533020e-01</leafValues></_>
        <_>
          <internalNodes>
            0 -1 31 1.6844820231199265e-02</internalNodes>
          <leafValues>
            1.6668833792209625e-01 -8.0440765619277954e-01</leafValues></_>
        <_>
          <internalNodes>
            0 -1 28 3.6149751394987106e-03</internalNodes>
          <leafValues>
            -8.2483524084091187e-01 1.3581135869026184e-01</leafValues></_>
        <_>
          <internalNodes>
            0 -1 11 5.1200054585933685e-02</internalNodes>
          <leafValues>
            -1.7637045681476593e-01 7.7404481172561646e-01</leafValues></_>
        <_>
          <internalNodes>
            0 -1 24 6.8829944357275963e-03</internalNodes>
          <leafValues>
            -8.3339822292327881e-01 1.5724138915538788e-01</leafValues></_></weakClassifiers></_></stages>
  <features>
    <_>
      <rect>
        0 0 8 8 0</rect></_>
    <_>
      <rect>
        0 0 8 8 2</rect></_>
    <_>
      <rect>
        0 0 8 8 3</rect></_>
    <_>
      <rect>
        0 0 8 8 4</rect></_>
    <_>
      <rect>
        0 0 8 8 19</rect></_>
    <_>
      <rect>
        0 4 8 8 5</rect></_>
    <_>
      <rect>
        0 4 8 8 19</rect></_>
    <_>
      <rect>
        0 4 8 8 22</rect></_>
    <_>
      <rect>
        0 8 8 8 22</rect></_>
    <_>
      <rect>
        0 8 8 8 23</rect></_>
    <_>
      <rect>
        0 8 8 8 25</rect></_>
    <_>
      <rect>
        0 8 8 8 26</rect></_>
    <_>
      <rect>
        0 8 8 8 28</rect></_>
    <_>
      <rect>
        4 0 8 8 19</rect></_>
    <_>
      <rect>
        4 0 8 8 20</rect></_>
    <_>
      <rect>
        4 0 8 8 21</rect></_>
    <_>
      <rect>
        4 0 8 8 23</rect></_>
    <_>
      <rect>
        4 0 8 8 24</rect></_>
    <_>
      <rect>
        4 4 8 8 1</rect></_>
    <_>
      <rect>
        4 4 8 8 3</rect></_>
    <_>
      <rect>
        4 4 8 8 4</rect></_>
    <_>
      <rect>
        4 4 8 8 16</rect></_>
    <_>
      <rect>
        4 4 8 8 27</rect></_>
    <_>
      <rect>
        4 8 8 8 1</rect></_>
    <_>
      <rect>
        8 0 8 8 13</rect></_>
    <_>
      <rect>
        8 0 8 8 14</rect></_>
    <_>
      <rect>
        8 0 8 8 16</rect></_>
    <_>
      <rect>
        8 0 8 8 28</rect></_>
    <_>
      <rect>
        8 0 8 8 31</rect></_>
    <_>
      <rect>
        8 0 8 8 33</rect></_>
    <_>
      <rect>
        8 4 8 8 18</rect></_>
    <_>
      <rect>
        8 4 8 8 34</rect></_>
    <_>
      <rect>
        8 8 8 8 10</rect></_>
    <_>
      <rect>
        8 8 8 8 19</rect></_>
    <_>
      <rect>
        8 8 8 8 29</rect></_>
    <_>
      <rect>
        8 8 8 8 30</rect></_>
    <_>
      <rect>
        8 8 8 8 31</rect></_></features></cascade>
</opencv_storage>
