<?xml version="1.0"?>
<opencv_storage>
<cascade>
  <stageType>BOOST</stageType>
  <featureType>HOG</featureType>
  <height>24</height>
  <width>24</width>
  <stageParams>
    <boostType>GAB</boostType>
    <minHitRate>9.9500000476837158e-01</minHitRate>
    <maxFalseAlarm>5.0000000000000000e-01</maxFalseAlarm>
    <weightTrimRate>9.4999999999999996e-01</weightTrimRate>
    <maxDepth>1</maxDepth>
    <maxWeakCount>100</maxWeakCount></stageParams>
  <featureParams>
    <maxCatCount>0</maxCatCount>
    <featSize>36</featSize></featureParams>
  <stageNum>9</stageNum>
  <stages>
    <!-- stage 0 -->
    <_>
      <maxWeakCount>3</maxWeakCount>
      <stageThreshold>-1.0739436149597168e+00</stageThreshold>
      <weakClassifiers>
        <_>
          <internalNodes>
            0 -1 22 2.7573082596063614e-02</internalNodes>
          <leafValues>
            -7.9480069875717163e-01 4.9102166295051575e-01</leafValues></_>
        <_>
          <internalNodes>
            0 -1 30 3.2540448009967804e-02</internalNodes>
          <leafValues>
            4.3376302719116211e-01 -7.8189802169799805e-01</leafValues></_>
        <_>
          <internalNodes>
            0 -1 0 3.4294142387807369e-03</internalNodes>
          <leafValues>
            -7.0961797237396240e-01 5.0275510549545288e-01</leafValues></_></weakClassifiers></_>
    <!-- stage 1 -->
    <_>
      <maxWeakCount>5</maxWeakCount>
      <stageThreshold>-1.1930353641510010e+00</stageThreshold>
      <weakClassifiers>
        <_>
          <internalNodes>
            0 -1 26 2.1833321079611778e-02</internalNodes>
          <leafValues>
            -7.5429147481918335e-01 4.8463046550750732e-01</leafValues></_>
        <_>
          <internalNodes>
            0 -1 1 5.1002614200115204e-03</internalNodes>
          <leafValues>
            -6.9959831237792969e-01 4.3494284152984619e-01</leafValues></_>
        <_>
          <internalNodes>
            0 -1 22 3.0306538566946983e-02</internalNodes>
          <leafValues>
            -6.0392183065414429e-01 5.9012854099273682e-01</leafValues></_>
        <_>
          <internalNodes>
            0 -1 29 2.2729877382516861e-03</internalNodes>
          <leafValues>
            -6.9109058380126953e-01 5.0466972589492798e-01</leafValues></_>
        <_>
          <internalNodes>
            0 -1 36 1.1488247662782669e-02</internalNodes>
          <leafValues>
            -6.5207964181900024e-01 4.2132565379142761e-01</leafValues></_></weakClassifiers></_>
    <!-- stage 2 -->
    <_>
      <maxWeakCount>7</maxWeakCount>
      <stageThreshold>-1.3848234415054321e+00</stageThreshold>
      <weakClassifiers>
        <_>
          <internalNodes>
            0 -1 27 2.9194524977356195e-03</internalNodes>
          <leafValues>
            -8.0818760395050049e-01 3.1735581159591675e-01</leafValues></_>
        <_>
          <internalNodes>
            0 -1 23 3.7472613155841827e-02</internalNodes>
          <leafValues>
            -5.8736872673034668e-01 4.0713393688201904e-01</leafValues></_>
        <_>
          <internalNodes>
            0 -1 4 1.9758466631174088e-02</internalNodes>
          <leafValues>
            -7.5214153528213501e-01 3.2931247353553772e-01</leafValues></_>
        <_>
          <internalNodes>
            0 -1 17 4.2968295514583588e-02</internalNodes>
          <leafValues>
            -6.0198295116424561e-01 4.7944954037666321e-01</leafValues></_>
        <_>
          <internalNodes>
            0 -1 35 6.7987227812409401e-03</internalNodes>
          <leafValues>
            -7.3619866371154785e-01 3.4524700045585632e-01</leafValues></_>
        <_>
          <internalNodes>
            0 -1 26 1.6419652849435806e-02</internalNodes>
          <leafValues>
            -5.6296175718307495e-01 4.8080924153327942e-01</leafValues></_>
        <_>
          <internalNodes>
            0 -1 0 1.2982417829334736e-02</internalNodes>
          <leafValues>
            -4.5570993423461914e-01 6.0406887531280518e-01</leafValues></_></weakClassifiers></_>
    <!-- stage 3 -->
    <_>
      <maxWeakCount>5</maxWeakCount>
      <stageThreshold>-9.1218489408493042e-01</stageThreshold>
      <weakClassifiers>
        <_>
          <internalNodes>
            0 -1 8 3.7724503781646490e-03</internalNodes>
          <leafValues>
            -7.6915091276168823e-01 1.6853933036327362e-01</leafValues></_>
        <_>
          <internalNodes>
            0 -1 6 2.8851093724370003e-02</internalNodes>
          <leafValues>
            2.2700968384742737e-01 -8.6392837762832642e-01</leafValues></_>
        <_>
          <internalNodes>
            0 -1 31 2.9661009088158607e-02</internalNodes>
          <leafValues>
            1.9178950786590576e-01 -8.2516759634017944e-01</leafValues></_>
        <_>
          <internalNodes>
            0 -1 1 6.1315926723182201e-04</internalNodes>
          <leafValues>
            -6.8923765420913696e-01 3.6196151375770569e-01</leafValues></_>
        <_>
          <internalNodes>
            0 -1 28 9.5225797849707305e-05</internalNodes>
          <leafValues>
            -7.5120294094085693e-01 2.8065234422683716e-01</leafValues></_></weakClassifiers></_>
    <!-- stage 4 -->
    <_>
      <maxWeakCount>7</maxWeakCount>
      <stageThreshold>-1.2377845048904419e+00</stageThreshold>
      <weakClassifiers>
        <_>
          <internalNodes>
            0 -1 3 2.7876585721969604e-02</internalNodes>
          <leafValues>
            -5.5653858184814453e-01 5.8097392320632935e-01</leafValues></_>
        <_>
          <internalNodes>
            0 -1 35 1.0250343009829521e-02</internalNodes>
          <leafValues>
            -6.4728271961212158e-01 3.2017385959625244e-01</leafValues></_>
        <_>
          <internalNodes>
            0 -1 29 1.4732838608324528e-02</internalNodes>
          <leafValues>
            -4.0795931220054626e-01 6.3639169931411743e-01</leafValues></_>
        <_>
          <internalNodes>
            0 -1 12 2.1305298432707787e-02</internalNodes>
          <leafValues>
            3.0770576000213623e-01 -7.1071565151214600e-01</leafValues></_>
        <_>
          <internalNodes>
            0 -1 17 3.1549356877803802e-02</internalNodes>
          <leafValues>
            -6.7213481664657593e-01 3.1248655915260315e-01</leafValues></_>
        <_>
          <internalNodes>
            0 -1 19 5.7305216789245605e-02</internalNodes>
          <leafValues>
            2.4006357789039612e-01 -7.7155071496963501e-01</leafValues></_>
        <_>
          <internalNodes>
            0 -1 26 3.0645299702882767e-02</internalNodes>
          <leafValues>
            -4.0620914101600647e-01 5.3216165304183960e-01</leafValues></_></weakClassifiers></_>
    <!-- stage 5 -->
    <_>
      <maxWeakCount>8</maxWeakCount>
      <stageThreshold>-1.4073007106781006e+00</stageThreshold>
      <weakClassifiers>
        <_>
          <internalNodes>
            0 -1 0 1.7390925437211990e-02</internalNodes>
          <leafValues>
            -5.9706962108612061e-01 3.7254902720451355e-01</leafValues></_>
        <_>
          <internalNodes>
            0 -1 33 1.1041162535548210e-02</internalNodes>
          <leafValues>
            -7.5897961854934692e-01 2.4693827331066132e-01</leafValues></_>
        <_>
          <internalNodes>
            0 -1 26 1.2398287653923035e-02</internalNodes>
          <leafValues>
            -6.8102782964706421e-01 3.3675879240036011e-01</leafValues></_>
        <_>
          <internalNodes>
            0 -1 34 1.7652147216722369e-03</internalNodes>
          <leafValues>
            -8.1658983230590820e-01 2.2338971495628357e-01</leafValues></_>
        <_>
          <internalNodes>
            0 -1 5 3.5925701260566711e-02</internalNodes>
          <leafValues>
            -6.9632381200790405e-01 2.5221693515777588e-01</leafValues></_>
        <_>
          <internalNodes>
            0 -1 20 4.8225641250610352e-02</internalNodes>
          <leafValues>
            -5.9928631782531738e-01 2.7463421225547791e-01</leafValues></_>
        <_>
          <internalNodes>
            0 -1 32 1.6367798671126366e-02</internalNodes>
          <leafValues>
            2.9348301887512207e-01 -6.1014676094055176e-01</leafValues></_>
        <_>
          <internalNodes>
            0 -1 9 1.4491889625787735e-02</internalNodes>
          <leafValues>
            -3.9175468683242798e-01 4.6509918570518494e-01</leafValues></_></weakClassifiers></_>
    <!-- stage 6 -->
    <_>
      <maxWeakCount>9</maxWeakCount>
      <stageThreshold>-1.3182040452957153e+00</stageThreshold>
      <weakClassifiers>
        <_>
          <internalNodes>
            0 -1 3 3.7829745560884476e-02</internalNodes>
          <leafValues>
            -5.0162822008132935e-01 6.4323508739471436e-01</leafValues></_>
        <_>
          <internalNodes>
            0 -1 27 3.7453154800459743e-04</internalNodes>
          <leafValues>
            -7.2395288944244385e-01 2.8240793943405151e-01</leafValues></_>
        <_>
          <internalNodes>
            0 -1 1 4.0580751374363899e-03</internalNodes>
          <leafValues>
            -6.0700547695159912e-01 2.8463399410247803e-01</leafValues></_>
        <_>
          <internalNodes>
            0 -1 23 3.3853150904178619e-02</internalNodes>
          <leafValues>
            -4.8607125878334045e-01 3.7987881898880005e-01</leafValues></_>
        <_>
          <internalNodes>
            0 -1 13 5.2221622318029404e-02</internalNodes>
          <leafValues>
            -4.3800693750381470e-01 3.9321732521057129e-01</leafValues></_>
        <_>
          <internalNodes>
            0 -1 17 6.3758879899978638e-02</internalNodes>
          <leafValues>
            -2.4348624050617218e-01 6.4089548587799072e-01</leafValues></_>
        <_>
          <internalNodes>
            0 -1 26 1.8538059666752815e-02</internalNodes>
          <leafValues>
            -4.7583922743797302e-01 3.4791690111160278e-01</leafValues></_>
        <_>
          <internalNodes>
            0 -1 24 2.8992120642215014e-03</internalNodes>
          <leafValues>
            -7.2344011068344116e-01 2.4576640129089355e-01</leafValues></_>
        <_>
          <internalNodes>
            0 -1 25 1.7290564253926277e-02</internalNodes>
          <leafValues>
            -6.9614154100418091e-01 2.5703939795494080e-01</leafValues></_></weakClassifiers></_>
    <!-- stage 7 -->
    <_>
      <maxWeakCount>11</maxWeakCount>
      <stageThreshold>-1.7689430713653564e+00</stageThreshold>
      <weakClassifiers>
        <_>
          <internalNodes>
            0 -1 0 2.2306881844997406e-02</internalNodes>
          <leafValues>
            -5.4380625486373901e-01 5.2338027954101562e-01</leafValues></_>
        <_>
          <internalNodes>
            0 -1 26 4.1623704135417938e-02</internalNodes>
          <leafValues>
            -2.8848761320114136e-01 6.7816573381423950e-01</leafValues></_>
        <_>
          <internalNodes>
            0 -1 18 1.9871328026056290e-02</internalNodes>
          <leafValues>
            -6.8959331512451172e-01 2.8271871805191040e-01</leafValues></_>
        <_>
          <internalNodes>
            0 -1 9 3.4329548943787813e-03</internalNodes>
          <leafValues>
            -5.5030137300491333e-01 3.2858243584632874e-01</leafValues></_>
        <_>
          <internalNodes>
            0 -1 16 2.4804543703794479e-02</internalNodes>
          <leafValues>
            2.9294443130493164e-01 -7.5793159008026123e-01</leafValues></_>
        <_>
          <internalNodes>
            0 -1 21 2.6880785822868347e-02</internalNodes>
          <leafValues>
            -5.4571920633316040e-01 2.9412338137626648e-01</leafValues></_>
        <_>
          <internalNodes>
            0 -1 15 1.6821514815092087e-02</internalNodes>
          <leafValues>
            4.5755797624588013e-01 -3.2703310251235962e-01</leafValues></_>
        <_>
          <internalNodes>
            0 -1 7 3.5519968718290329e-02</internalNodes>
          <leafValues>
            -2.7775388956069946e-01 6.6006338596343994e-01</leafValues></_>
        <_>
          <internalNodes>
            0 -1 10 2.3527313023805618e-03</internalNodes>
          <leafValues>
            -6.4192754030227661e-01 2.7790322899818420e-01</leafValues></_>
        <_>
          <internalNodes>
            0 -1 2 6.1444344464689493e-04</internalNodes>
          <leafValues>
            -5.3559291362762451e-01 3.0212235450744629e-01</leafValues></_>
        <_>
          <internalNodes>
            0 -1 11 2.1282248198986053e-02</internalNodes>
          <leafValues>
            -4.3328070640563965e-01 4.6258515119552612e-01</leafValues></_></weakClassifiers></_>
    <!-- stage 8 -->
    <_>
      <maxWeakCount>11</maxWeakCount>
      <stageThreshold>-1.3183012008666992e+00</stageThreshold>
      <weakClassifiers>
        <_>
          <internalNodes>
            0 -1 9 1.6962181776762009e-02</internalNodes>
          <leafValues>
            -5.7902997732162476e-01 2.6207682490348816e-01</leafValues></_>
        <_>
          <internalNodes>
            0 -1 22 3.7405986338853836e-02</internalNodes>
          <leafValues>
            -4.2448619008064270e-01 4.6847650408744812e-01</leafValues></_>
        <_>
          <internalNodes>
            0 -1 14 6.3427105545997620e-02</internalNodes>
          <leafValues>
            -5.2876430749893188e-01 4.1300952434539795e-01</leafValues></_>
        <_>
          <internalNodes>
            0 -1 36 1.5158013440668583e-02</internalNodes>
          <leafValues>
            -5.3369855880737305e-01 3.6710870265960693e-01</leafValues></_>
        <_>
          <internalNodes>
            0 -1 29 1.4317734166979790e-04</internalNodes>
          <leafValues>
            -7.4723899364471436e-01 2.3644040524959564e-01</leafValues></_>
        <_>
          <internalNodes>
            0 -1 3 2.4452263489365578e-02</internalNodes>
          <leafValues>
            -2.7711936831474304e-01 6.7369353771209717e-01</leafValues></_>
        <_>
          <internalNodes>
            0 -1 17 2.6260066777467728e-02</internalNodes>
          <leafValues>
            -7.5245755910873413e-01 2.1121902763843536e-01</leafValues></_>
        <_>
          <internalNodes>
            0 -1 0 1.2367926537990570e-02</internalNodes>
          <leafValues>
            -4.1918215155601501e-01 4.0569159388542175e-01</leafValues></_>
        <_>
          <internalNodes>
            0 -1 19 4.6829733997583389e-02</internalNodes>
          <leafValues>
            3.0499494075775146e-01 -6.5248525142669678e-01</leafValues></_>
        <_>
          <internalNodes>
            0 -1 26 3.2763808965682983e-02</internalNodes>
          <leafValues>
            -3.9578035473823547e-01 5.4954189062118530e-01</leafValues></_>
        <_>
          <internalNodes>
            0 -1 32 1.0770810768008232e-02</internalNodes>
          <leafValues>
            3.4510377049446106e-01 -4.5465961098670959e-01</leafValues></_></weakClassifiers></_></stages>
  <features>
    <_>
      <rect>
        0 0 8 8 0</rect></_>
    <_>
      <rect>
        0 0 8 8 2</rect></_>
    <_>
      <rect>
        0 0 8 8 3</rect></_>
    <_>
      <rect>
        0 0 8 8 4</rect></_>
    <_>
      <rect>
        0 0 8 8 12</rect></_>
    <_>
      <rect>
        0 0 8 8 13</rect></_>
    <_>
      <rect>
        0 0 8 8 19</rect></_>
    <_>
      <rect>
        0 8 8 8 22</rect></_>
    <_>
      <rect>
        0 8 8 8 23</rect></_>
    <_>
      <rect>
        0 8 8 8 25</rect></_>
    <_>
      <rect>
        0 8 8 8 34</rect></_>
    <_>
      <rect>
        4 0 8 8 14</rect></_>
    <_>
      <rect>
        4 0 8 8 24</rect></_>
    <_>
      <rect>
        4 0 8 8 27</rect></_>
    <_>
      <rect>
        4 0 8 8 28</rect></_>
    <_>
      <rect>
        4 4 8 8 22</rect></_>
    <_>
      <rect>
        4 4 8 8 24</rect></_>
    <_>
      <rect>
        4 4 8 8 29</rect></_>
    <_>
      <rect>
        4 4 8 8 30</rect></_>
    <_>
      <rect>
        4 8 8 8 1</rect></_>
    <_>
      <rect>
        4 8 8 8 10</rect></_>
    <_>
      <rect>
        4 8 8 8 11</rect></_>
    <_>
      <rect>
        4 8 8 8 30</rect></_>
    <_>
      <rect>
        4 8 8 8 31</rect></_>
    <_>
      <rect>
        4 8 8 8 32</rect></_>
    <_>
      <rect>
        8 0 8 8 3</rect></_>
    <_>
      <rect>
        8 0 8 8 13</rect></_>
    <_>
      <rect>
        8 0 8 8 14</rect></_>
    <_>
      <rect>
        8 0 8 8 15</rect></_>
    <_>
      <rect>
        8 0 8 8 16</rect></_>
    <_>
      <rect>
        8 0 8 8 24</rect></_>
    <_>
      <rect>
        8 0 8 8 33</rect></_>
    <_>
      <rect>
        8 4 8 8 10</rect></_>
    <_>
      <rect>
        8 4 8 8 31</rect></_>
    <_>
      <rect>
        8 8 8 8 29</rect></_>
    <_>
      <rect>
        8 8 8 8 30</rect></_>
    <_>
      <rect>
        8 8 8 8 31</rect></_></features></cascade>
</opencv_storage>
