<?xml version="1.0"?>
<opencv_storage>
<cascade>
  <stageType>BOOST</stageType>
  <featureType>HOG</featureType>
  <height>24</height>
  <width>24</width>
  <stageParams>
    <boostType>GAB</boostType>
    <minHitRate>9.9500000476837158e-01</minHitRate>
    <maxFalseAlarm>5.0000000000000000e-01</maxFalseAlarm>
    <weightTrimRate>9.4999999999999996e-01</weightTrimRate>
    <maxDepth>1</maxDepth>
    <maxWeakCount>100</maxWeakCount></stageParams>
  <featureParams>
    <maxCatCount>0</maxCatCount>
    <featSize>36</featSize></featureParams>
  <stageNum>8</stageNum>
  <stages>
    <!-- stage 0 -->
    <_>
      <maxWeakCount>3</maxWeakCount>
      <stageThreshold>-9.9532532691955566e-01</stageThreshold>
      <weakClassifiers>
        <_>
          <internalNodes>
            0 -1 11 2.2418983280658722e-02</internalNodes>
          <leafValues>
            4.7184774279594421e-01 -9.1719377040863037e-01</leafValues></_>
        <_>
          <internalNodes>
            0 -1 21 2.8462070971727371e-02</internalNodes>
          <leafValues>
            -7.1861344575881958e-01 6.3102453947067261e-01</leafValues></_>
        <_>
          <internalNodes>
            0 -1 1 4.9609458073973656e-03</internalNodes>
          <leafValues>
            -7.0915603637695312e-01 6.7540174722671509e-01</leafValues></_></weakClassifiers></_>
    <!-- stage 1 -->
    <_>
      <maxWeakCount>4</maxWeakCount>
      <stageThreshold>-1.8050752878189087e+00</stageThreshold>
      <weakClassifiers>
        <_>
          <internalNodes>
            0 -1 8 4.6889074146747589e-02</internalNodes>
          <leafValues>
            -8.1476891040802002e-01 4.7748285531997681e-01</leafValues></_>
        <_>
          <internalNodes>
            0 -1 0 1.6141554340720177e-02</internalNodes>
          <leafValues>
            -6.2492698431015015e-01 7.2733807563781738e-01</leafValues></_>
        <_>
          <internalNodes>
            0 -1 11 2.9374968260526657e-02</internalNodes>
          <leafValues>
            4.1809824109077454e-01 -8.9077842235565186e-01</leafValues></_>
        <_>
          <internalNodes>
            0 -1 16 1.8135532736778259e-02</internalNodes>
          <leafValues>
            4.0660485625267029e-01 -8.2686603069305420e-01</leafValues></_></weakClassifiers></_>
    <!-- stage 2 -->
    <_>
      <maxWeakCount>4</maxWeakCount>
      <stageThreshold>-9.8238837718963623e-01</stageThreshold>
      <weakClassifiers>
        <_>
          <internalNodes>
            0 -1 5 4.7515421174466610e-03</internalNodes>
          <leafValues>
            -8.4967601299285889e-01 2.1372997760772705e-01</leafValues></_>
        <_>
          <internalNodes>
            0 -1 20 2.3903250694274902e-02</internalNodes>
          <leafValues>
            -6.8036985397338867e-01 4.4397574663162231e-01</leafValues></_>
        <_>
          <internalNodes>
            0 -1 22 2.4959309957921505e-03</internalNodes>
          <leafValues>
            -7.8320801258087158e-01 3.3882305026054382e-01</leafValues></_>
        <_>
          <internalNodes>
            0 -1 3 1.3705191668123007e-03</internalNodes>
          <leafValues>
            -8.5457152128219604e-01 4.3305274844169617e-01</leafValues></_></weakClassifiers></_>
    <!-- stage 3 -->
    <_>
      <maxWeakCount>5</maxWeakCount>
      <stageThreshold>-1.0685683488845825e+00</stageThreshold>
      <weakClassifiers>
        <_>
          <internalNodes>
            0 -1 3 2.9399901628494263e-02</internalNodes>
          <leafValues>
            -5.9651094675064087e-01 6.5539109706878662e-01</leafValues></_>
        <_>
          <internalNodes>
            0 -1 24 4.9630880355834961e-02</internalNodes>
          <leafValues>
            4.1636708378791809e-01 -8.0085831880569458e-01</leafValues></_>
        <_>
          <internalNodes>
            0 -1 23 1.6112536191940308e-02</internalNodes>
          <leafValues>
            -5.0716012716293335e-01 6.9623517990112305e-01</leafValues></_>
        <_>
          <internalNodes>
            0 -1 27 2.9268232174217701e-03</internalNodes>
          <leafValues>
            -7.5773006677627563e-01 4.5355722308158875e-01</leafValues></_>
        <_>
          <internalNodes>
            0 -1 21 1.3501870445907116e-02</internalNodes>
          <leafValues>
            -7.5273650884628296e-01 3.9029589295387268e-01</leafValues></_></weakClassifiers></_>
    <!-- stage 4 -->
    <_>
      <maxWeakCount>5</maxWeakCount>
      <stageThreshold>-1.5000660419464111e+00</stageThreshold>
      <weakClassifiers>
        <_>
          <internalNodes>
            0 -1 1 3.9788605645298958e-03</internalNodes>
          <leafValues>
            -7.9572737216949463e-01 2.2301101684570312e-01</leafValues></_>
        <_>
          <internalNodes>
            0 -1 11 1.5345130115747452e-02</internalNodes>
          <leafValues>
            3.7641802430152893e-01 -6.9624131917953491e-01</leafValues></_>
        <_>
          <internalNodes>
            0 -1 25 6.8406052887439728e-02</internalNodes>
          <leafValues>
            2.6981970667839050e-01 -8.8903802633285522e-01</leafValues></_>
        <_>
          <internalNodes>
            0 -1 28 4.3236082419753075e-03</internalNodes>
          <leafValues>
            -7.1351325511932373e-01 3.5599663853645325e-01</leafValues></_>
        <_>
          <internalNodes>
            0 -1 14 3.1481899321079254e-02</internalNodes>
          <leafValues>
            -5.5472296476364136e-01 5.2179461717605591e-01</leafValues></_></weakClassifiers></_>
    <!-- stage 5 -->
    <_>
      <maxWeakCount>8</maxWeakCount>
      <stageThreshold>-1.3342401981353760e+00</stageThreshold>
      <weakClassifiers>
        <_>
          <internalNodes>
            0 -1 2 4.6275770291686058e-03</internalNodes>
          <leafValues>
            -7.4814814329147339e-01 2.1653746068477631e-01</leafValues></_>
        <_>
          <internalNodes>
            0 -1 12 2.4860648438334465e-02</internalNodes>
          <leafValues>
            2.4970351159572601e-01 -8.3485281467437744e-01</leafValues></_>
        <_>
          <internalNodes>
            0 -1 6 1.5563729219138622e-02</internalNodes>
          <leafValues>
            -5.0268661975860596e-01 5.5116796493530273e-01</leafValues></_>
        <_>
          <internalNodes>
            0 -1 10 2.0405786111950874e-02</internalNodes>
          <leafValues>
            3.9263316988945007e-01 -6.8191248178482056e-01</leafValues></_>
        <_>
          <internalNodes>
            0 -1 29 1.1490762233734131e-02</internalNodes>
          <leafValues>
            -5.3296422958374023e-01 4.7379693388938904e-01</leafValues></_>
        <_>
          <internalNodes>
            0 -1 21 2.4928014725446701e-02</internalNodes>
          <leafValues>
            -6.5030342340469360e-01 4.0027680993080139e-01</leafValues></_>
        <_>
          <internalNodes>
            0 -1 17 1.8105717375874519e-02</internalNodes>
          <leafValues>
            -6.9739300012588501e-01 2.5072053074836731e-01</leafValues></_>
        <_>
          <internalNodes>
            0 -1 19 1.8083494156599045e-02</internalNodes>
          <leafValues>
            -7.4528902769088745e-01 3.3507296442985535e-01</leafValues></_></weakClassifiers></_>
    <!-- stage 6 -->
    <_>
      <maxWeakCount>6</maxWeakCount>
      <stageThreshold>-1.2464407682418823e+00</stageThreshold>
      <weakClassifiers>
        <_>
          <internalNodes>
            0 -1 3 1.4785001054406166e-02</internalNodes>
          <leafValues>
            -6.9211113452911377e-01 4.8721694946289062e-01</leafValues></_>
        <_>
          <internalNodes>
            0 -1 0 2.4184625595808029e-02</internalNodes>
          <leafValues>
            -4.3032342195510864e-01 7.4637156724929810e-01</leafValues></_>
        <_>
          <internalNodes>
            0 -1 9 1.9249161705374718e-02</internalNodes>
          <leafValues>
            -3.9475575089454651e-01 5.8021211624145508e-01</leafValues></_>
        <_>
          <internalNodes>
            0 -1 4 3.4919790923595428e-02</internalNodes>
          <leafValues>
            -2.6884356141090393e-01 7.0805567502975464e-01</leafValues></_>
        <_>
          <internalNodes>
            0 -1 13 1.4616278931498528e-02</internalNodes>
          <leafValues>
            3.7046188116073608e-01 -5.9532701969146729e-01</leafValues></_>
        <_>
          <internalNodes>
            0 -1 15 2.2663474082946777e-02</internalNodes>
          <leafValues>
            3.3720168471336365e-01 -8.0583661794662476e-01</leafValues></_></weakClassifiers></_>
    <!-- stage 7 -->
    <_>
      <maxWeakCount>8</maxWeakCount>
      <stageThreshold>-1.3519210815429688e+00</stageThreshold>
      <weakClassifiers>
        <_>
          <internalNodes>
            0 -1 0 1.8877986818552017e-02</internalNodes>
          <leafValues>
            -6.3458192348480225e-01 3.7972316145896912e-01</leafValues></_>
        <_>
          <internalNodes>
            0 -1 3 4.1652239859104156e-02</internalNodes>
          <leafValues>
            -3.4087496995925903e-01 8.6337566375732422e-01</leafValues></_>
        <_>
          <internalNodes>
            0 -1 26 2.0241988822817802e-03</internalNodes>
          <leafValues>
            -6.6091930866241455e-01 3.3238080143928528e-01</leafValues></_>
        <_>
          <internalNodes>
            0 -1 7 3.0146318022161722e-03</internalNodes>
          <leafValues>
            -7.8432685136795044e-01 2.4747158586978912e-01</leafValues></_>
        <_>
          <internalNodes>
            0 -1 11 3.5311803221702576e-02</internalNodes>
          <leafValues>
            1.5225419402122498e-01 -9.5428907871246338e-01</leafValues></_>
        <_>
          <internalNodes>
            0 -1 23 4.3056895956397057e-03</internalNodes>
          <leafValues>
            -6.3542383909225464e-01 2.9522919654846191e-01</leafValues></_>
        <_>
          <internalNodes>
            0 -1 1 4.5838617370463908e-04</internalNodes>
          <leafValues>
            -6.5635532140731812e-01 3.6758643388748169e-01</leafValues></_>
        <_>
          <internalNodes>
            0 -1 18 1.1578189209103584e-02</internalNodes>
          <leafValues>
            -7.4744462966918945e-01 2.5158458948135376e-01</leafValues></_></weakClassifiers></_></stages>
  <features>
    <_>
      <rect>
        0 0 8 8 0</rect></_>
    <_>
      <rect>
        0 0 8 8 2</rect></_>
    <_>
      <rect>
        0 0 8 8 3</rect></_>
    <_>
      <rect>
        0 0 8 8 4</rect></_>
    <_>
      <rect>
        0 8 8 8 22</rect></_>
    <_>
      <rect>
        0 8 8 8 23</rect></_>
    <_>
      <rect>
        0 8 8 8 25</rect></_>
    <_>
      <rect>
        0 8 8 8 27</rect></_>
    <_>
      <rect>
        4 0 8 8 13</rect></_>
    <_>
      <rect>
        4 0 8 8 16</rect></_>
    <_>
      <rect>
        4 0 8 8 18</rect></_>
    <_>
      <rect>
        4 0 8 8 19</rect></_>
    <_>
      <rect>
        4 0 8 8 20</rect></_>
    <_>
      <rect>
        4 0 8 8 24</rect></_>
    <_>
      <rect>
        4 4 8 8 12</rect></_>
    <_>
      <rect>
        4 4 8 8 19</rect></_>
    <_>
      <rect>
        4 8 8 8 6</rect></_>
    <_>
      <rect>
        4 8 8 8 12</rect></_>
    <_>
      <rect>
        4 8 8 8 14</rect></_>
    <_>
      <rect>
        4 8 8 8 29</rect></_>
    <_>
      <rect>
        4 8 8 8 30</rect></_>
    <_>
      <rect>
        8 0 8 8 13</rect></_>
    <_>
      <rect>
        8 0 8 8 14</rect></_>
    <_>
      <rect>
        8 0 8 8 16</rect></_>
    <_>
      <rect>
        8 0 8 8 19</rect></_>
    <_>
      <rect>
        8 0 8 8 26</rect></_>
    <_>
      <rect>
        8 0 8 8 29</rect></_>
    <_>
      <rect>
        8 8 8 8 29</rect></_>
    <_>
      <rect>
        8 8 8 8 30</rect></_>
    <_>
      <rect>
        8 8 8 8 31</rect></_></features></cascade>
</opencv_storage>
