<?xml version="1.0"?>
<opencv_storage>
<cascade>
  <stageType>BOOST</stageType>
  <featureType>HOG</featureType>
  <height>24</height>
  <width>24</width>
  <stageParams>
    <boostType>GAB</boostType>
    <minHitRate>9.9500000476837158e-01</minHitRate>
    <maxFalseAlarm>5.0000000000000000e-01</maxFalseAlarm>
    <weightTrimRate>9.4999999999999996e-01</weightTrimRate>
    <maxDepth>1</maxDepth>
    <maxWeakCount>100</maxWeakCount></stageParams>
  <featureParams>
    <maxCatCount>0</maxCatCount>
    <featSize>36</featSize></featureParams>
  <stageNum>9</stageNum>
  <stages>
    <!-- stage 0 -->
    <_>
      <maxWeakCount>4</maxWeakCount>
      <stageThreshold>-1.7594720125198364e+00</stageThreshold>
      <weakClassifiers>
        <_>
          <internalNodes>
            0 -1 29 2.9011555016040802e-02</internalNodes>
          <leafValues>
            -7.5212556123733521e-01 5.5478501319885254e-01</leafValues></_>
        <_>
          <internalNodes>
            0 -1 1 4.0984833613038063e-03</internalNodes>
          <leafValues>
            -7.1674418449401855e-01 5.7807677984237671e-01</leafValues></_>
        <_>
          <internalNodes>
            0 -1 5 1.6025457531213760e-02</internalNodes>
          <leafValues>
            4.7513616085052490e-01 -7.3365354537963867e-01</leafValues></_>
        <_>
          <internalNodes>
            0 -1 29 9.6306987106800079e-03</internalNodes>
          <leafValues>
            -8.5176962614059448e-01 3.2832235097885132e-01</leafValues></_></weakClassifiers></_>
    <!-- stage 1 -->
    <_>
      <maxWeakCount>5</maxWeakCount>
      <stageThreshold>-1.3919255733489990e+00</stageThreshold>
      <weakClassifiers>
        <_>
          <internalNodes>
            0 -1 0 1.4833945780992508e-02</internalNodes>
          <leafValues>
            -6.4018404483795166e-01 4.7338709235191345e-01</leafValues></_>
        <_>
          <internalNodes>
            0 -1 29 1.9050840288400650e-02</internalNodes>
          <leafValues>
            -7.5836801528930664e-01 4.1907060146331787e-01</leafValues></_>
        <_>
          <internalNodes>
            0 -1 40 1.2071459554135799e-02</internalNodes>
          <leafValues>
            -7.2480034828186035e-01 4.0883871912956238e-01</leafValues></_>
        <_>
          <internalNodes>
            0 -1 16 1.3662143610417843e-02</internalNodes>
          <leafValues>
            -7.4171221256256104e-01 5.2030640840530396e-01</leafValues></_>
        <_>
          <internalNodes>
            0 -1 32 2.1563157439231873e-02</internalNodes>
          <leafValues>
            2.9570049047470093e-01 -7.2284865379333496e-01</leafValues></_></weakClassifiers></_>
    <!-- stage 2 -->
    <_>
      <maxWeakCount>7</maxWeakCount>
      <stageThreshold>-1.8678022623062134e+00</stageThreshold>
      <weakClassifiers>
        <_>
          <internalNodes>
            0 -1 3 3.3525750041007996e-02</internalNodes>
          <leafValues>
            -5.7160246372222900e-01 7.6448595523834229e-01</leafValues></_>
        <_>
          <internalNodes>
            0 -1 39 4.8035169020295143e-03</internalNodes>
          <leafValues>
            -7.6028162240982056e-01 3.8667315244674683e-01</leafValues></_>
        <_>
          <internalNodes>
            0 -1 31 3.3734340686351061e-03</internalNodes>
          <leafValues>
            -7.0263254642486572e-01 4.8985064029693604e-01</leafValues></_>
        <_>
          <internalNodes>
            0 -1 29 3.9561152458190918e-02</internalNodes>
          <leafValues>
            -3.8120740652084351e-01 5.7638716697692871e-01</leafValues></_>
        <_>
          <internalNodes>
            0 -1 5 2.9093369841575623e-02</internalNodes>
          <leafValues>
            3.3154755830764771e-01 -7.4605095386505127e-01</leafValues></_>
        <_>
          <internalNodes>
            0 -1 0 3.0369353480637074e-03</internalNodes>
          <leafValues>
            -6.0958862304687500e-01 3.5635453462600708e-01</leafValues></_>
        <_>
          <internalNodes>
            0 -1 12 2.3827465251088142e-02</internalNodes>
          <leafValues>
            -3.2099190354347229e-01 5.6118029356002808e-01</leafValues></_></weakClassifiers></_>
    <!-- stage 3 -->
    <_>
      <maxWeakCount>8</maxWeakCount>
      <stageThreshold>-1.2309920787811279e+00</stageThreshold>
      <weakClassifiers>
        <_>
          <internalNodes>
            0 -1 40 2.9774742200970650e-02</internalNodes>
          <leafValues>
            -5.9762960672378540e-01 4.5955556631088257e-01</leafValues></_>
        <_>
          <internalNodes>
            0 -1 30 3.3118356950581074e-03</internalNodes>
          <leafValues>
            -6.7964565753936768e-01 3.4284698963165283e-01</leafValues></_>
        <_>
          <internalNodes>
            0 -1 0 3.7365746684372425e-03</internalNodes>
          <leafValues>
            -6.0855746269226074e-01 4.1133522987365723e-01</leafValues></_>
        <_>
          <internalNodes>
            0 -1 29 4.2833995074033737e-02</internalNodes>
          <leafValues>
            -3.6594653129577637e-01 6.0008394718170166e-01</leafValues></_>
        <_>
          <internalNodes>
            0 -1 39 4.0897903963923454e-03</internalNodes>
          <leafValues>
            -7.1104496717453003e-01 3.3201679587364197e-01</leafValues></_>
        <_>
          <internalNodes>
            0 -1 6 1.8537901341915131e-02</internalNodes>
          <leafValues>
            2.4576811492443085e-01 -7.7444994449615479e-01</leafValues></_>
        <_>
          <internalNodes>
            0 -1 22 1.7340250313282013e-02</internalNodes>
          <leafValues>
            -7.6482897996902466e-01 1.9285582005977631e-01</leafValues></_>
        <_>
          <internalNodes>
            0 -1 21 2.8555825352668762e-02</internalNodes>
          <leafValues>
            -5.9053248167037964e-01 2.7071556448936462e-01</leafValues></_></weakClassifiers></_>
    <!-- stage 4 -->
    <_>
      <maxWeakCount>8</maxWeakCount>
      <stageThreshold>-1.1749391555786133e+00</stageThreshold>
      <weakClassifiers>
        <_>
          <internalNodes>
            0 -1 3 4.3536044657230377e-02</internalNodes>
          <leafValues>
            -5.1347833871841431e-01 7.1385312080383301e-01</leafValues></_>
        <_>
          <internalNodes>
            0 -1 29 2.4678580462932587e-02</internalNodes>
          <leafValues>
            -5.7981258630752563e-01 3.4397831559181213e-01</leafValues></_>
        <_>
          <internalNodes>
            0 -1 1 5.7012774050235748e-03</internalNodes>
          <leafValues>
            -5.9706270694732666e-01 3.8091790676116943e-01</leafValues></_>
        <_>
          <internalNodes>
            0 -1 32 2.6951098814606667e-02</internalNodes>
          <leafValues>
            2.8138896822929382e-01 -7.6525992155075073e-01</leafValues></_>
        <_>
          <internalNodes>
            0 -1 14 1.3897679746150970e-02</internalNodes>
          <leafValues>
            -4.3412473797798157e-01 3.9233708381652832e-01</leafValues></_>
        <_>
          <internalNodes>
            0 -1 19 7.7945194207131863e-03</internalNodes>
          <leafValues>
            3.8810533285140991e-01 -4.9679344892501831e-01</leafValues></_>
        <_>
          <internalNodes>
            0 -1 40 7.1055311709642410e-03</internalNodes>
          <leafValues>
            -7.5218385457992554e-01 2.7994489669799805e-01</leafValues></_>
        <_>
          <internalNodes>
            0 -1 29 1.1992191895842552e-02</internalNodes>
          <leafValues>
            -7.5769358873367310e-01 1.8949966132640839e-01</leafValues></_></weakClassifiers></_>
    <!-- stage 5 -->
    <_>
      <maxWeakCount>9</maxWeakCount>
      <stageThreshold>-1.3650745153427124e+00</stageThreshold>
      <weakClassifiers>
        <_>
          <internalNodes>
            0 -1 3 2.4027854204177856e-02</internalNodes>
          <leafValues>
            -6.1509883403778076e-01 5.0154119729995728e-01</leafValues></_>
        <_>
          <internalNodes>
            0 -1 0 1.8097441643476486e-02</internalNodes>
          <leafValues>
            -3.9121574163436890e-01 5.8230185508728027e-01</leafValues></_>
        <_>
          <internalNodes>
            0 -1 15 1.7778467386960983e-02</internalNodes>
          <leafValues>
            -3.5892018675804138e-01 5.2017241716384888e-01</leafValues></_>
        <_>
          <internalNodes>
            0 -1 8 2.8509041294455528e-02</internalNodes>
          <leafValues>
            -4.9117052555084229e-01 3.7810584902763367e-01</leafValues></_>
        <_>
          <internalNodes>
            0 -1 38 1.2193404138088226e-02</internalNodes>
          <leafValues>
            -4.2248913645744324e-01 3.7875911593437195e-01</leafValues></_>
        <_>
          <internalNodes>
            0 -1 10 4.0095090866088867e-02</internalNodes>
          <leafValues>
            -5.0329965353012085e-01 3.2951140403747559e-01</leafValues></_>
        <_>
          <internalNodes>
            0 -1 29 8.3447415381669998e-03</internalNodes>
          <leafValues>
            -9.0161037445068359e-01 1.8780094385147095e-01</leafValues></_>
        <_>
          <internalNodes>
            0 -1 3 1.1904418934136629e-03</internalNodes>
          <leafValues>
            -7.4336534738540649e-01 2.0720493793487549e-01</leafValues></_>
        <_>
          <internalNodes>
            0 -1 4 1.9492175430059433e-02</internalNodes>
          <leafValues>
            -5.3619724512100220e-01 3.0519637465476990e-01</leafValues></_></weakClassifiers></_>
    <!-- stage 6 -->
    <_>
      <maxWeakCount>11</maxWeakCount>
      <stageThreshold>-1.5609942674636841e+00</stageThreshold>
      <weakClassifiers>
        <_>
          <internalNodes>
            0 -1 35 8.1237666308879852e-03</internalNodes>
          <leafValues>
            -5.5139819160103798e-03 -7.5777661800384521e-01</leafValues></_>
        <_>
          <internalNodes>
            0 -1 12 3.6268886178731918e-02</internalNodes>
          <leafValues>
            -3.0311074852943420e-01 5.9460198879241943e-01</leafValues></_>
        <_>
          <internalNodes>
            0 -1 39 1.1555507779121399e-02</internalNodes>
          <leafValues>
            -4.3444690108299255e-01 3.8625979423522949e-01</leafValues></_>
        <_>
          <internalNodes>
            0 -1 18 1.9469900056719780e-02</internalNodes>
          <leafValues>
            1.7726750671863556e-01 -7.6738804578781128e-01</leafValues></_>
        <_>
          <internalNodes>
            0 -1 3 1.5335418283939362e-02</internalNodes>
          <leafValues>
            -3.8883143663406372e-01 5.4907494783401489e-01</leafValues></_>
        <_>
          <internalNodes>
            0 -1 31 1.4581171795725822e-02</internalNodes>
          <leafValues>
            -3.5396838188171387e-01 5.1537954807281494e-01</leafValues></_>
        <_>
          <internalNodes>
            0 -1 25 2.0396495237946510e-02</internalNodes>
          <leafValues>
            2.4993592500686646e-01 -6.7662978172302246e-01</leafValues></_>
        <_>
          <internalNodes>
            0 -1 9 2.4691037833690643e-02</internalNodes>
          <leafValues>
            1.9354355335235596e-01 -7.2691500186920166e-01</leafValues></_>
        <_>
          <internalNodes>
            0 -1 0 1.4749603345990181e-02</internalNodes>
          <leafValues>
            -3.5198011994361877e-01 3.6758926510810852e-01</leafValues></_>
        <_>
          <internalNodes>
            0 -1 28 3.8948543369770050e-03</internalNodes>
          <leafValues>
            -4.7587472200393677e-01 3.1682360172271729e-01</leafValues></_>
        <_>
          <internalNodes>
            0 -1 27 2.4104467593133450e-03</internalNodes>
          <leafValues>
            -5.2201861143112183e-01 2.3173692822456360e-01</leafValues></_></weakClassifiers></_>
    <!-- stage 7 -->
    <_>
      <maxWeakCount>13</maxWeakCount>
      <stageThreshold>-1.5793242454528809e+00</stageThreshold>
      <weakClassifiers>
        <_>
          <internalNodes>
            0 -1 3 5.1877424120903015e-02</internalNodes>
          <leafValues>
            -4.6438601613044739e-01 5.4716980457305908e-01</leafValues></_>
        <_>
          <internalNodes>
            0 -1 13 5.4395466577261686e-04</internalNodes>
          <leafValues>
            -5.9698277711868286e-01 2.4211423099040985e-01</leafValues></_>
        <_>
          <internalNodes>
            0 -1 35 1.0110758244991302e-02</internalNodes>
          <leafValues>
            2.2501011192798615e-01 -5.9304869174957275e-01</leafValues></_>
        <_>
          <internalNodes>
            0 -1 33 4.9411311745643616e-02</internalNodes>
          <leafValues>
            1.9334056973457336e-01 -8.1205826997756958e-01</leafValues></_>
        <_>
          <internalNodes>
            0 -1 2 2.7185822837054729e-03</internalNodes>
          <leafValues>
            -4.4970107078552246e-01 3.1237959861755371e-01</leafValues></_>
        <_>
          <internalNodes>
            0 -1 11 3.9270035922527313e-02</internalNodes>
          <leafValues>
            -4.4591036438941956e-01 3.4871941804885864e-01</leafValues></_>
        <_>
          <internalNodes>
            0 -1 17 1.3379380106925964e-02</internalNodes>
          <leafValues>
            4.9421149492263794e-01 -3.2045638561248779e-01</leafValues></_>
        <_>
          <internalNodes>
            0 -1 20 1.9908700138330460e-02</internalNodes>
          <leafValues>
            -3.8302734494209290e-01 3.7868800759315491e-01</leafValues></_>
        <_>
          <internalNodes>
            0 -1 25 7.4564237147569656e-03</internalNodes>
          <leafValues>
            2.9531630873680115e-01 -4.1528376936912537e-01</leafValues></_>
        <_>
          <internalNodes>
            0 -1 29 1.8037281930446625e-02</internalNodes>
          <leafValues>
            -6.5464353561401367e-01 2.2262609004974365e-01</leafValues></_>
        <_>
          <internalNodes>
            0 -1 24 1.7543658614158630e-02</internalNodes>
          <leafValues>
            -5.7623219490051270e-01 2.5067797303199768e-01</leafValues></_>
        <_>
          <internalNodes>
            0 -1 0 1.1197712272405624e-02</internalNodes>
          <leafValues>
            -3.6637145280838013e-01 4.1359233856201172e-01</leafValues></_>
        <_>
          <internalNodes>
            0 -1 7 2.9909025877714157e-02</internalNodes>
          <leafValues>
            -4.4410777091979980e-01 3.4142333269119263e-01</leafValues></_></weakClassifiers></_>
    <!-- stage 8 -->
    <_>
      <maxWeakCount>12</maxWeakCount>
      <stageThreshold>-1.5123943090438843e+00</stageThreshold>
      <weakClassifiers>
        <_>
          <internalNodes>
            0 -1 26 1.8058333545923233e-02</internalNodes>
          <leafValues>
            -5.2106493711471558e-01 4.6526560187339783e-01</leafValues></_>
        <_>
          <internalNodes>
            0 -1 40 4.4694092124700546e-02</internalNodes>
          <leafValues>
            -2.7260994911193848e-01 7.6091361045837402e-01</leafValues></_>
        <_>
          <internalNodes>
            0 -1 14 2.3490693420171738e-02</internalNodes>
          <leafValues>
            -2.4832037091255188e-01 6.6716897487640381e-01</leafValues></_>
        <_>
          <internalNodes>
            0 -1 23 2.5823395699262619e-02</internalNodes>
          <leafValues>
            -4.4237631559371948e-01 3.9495861530303955e-01</leafValues></_>
        <_>
          <internalNodes>
            0 -1 40 4.8160650767385960e-03</internalNodes>
          <leafValues>
            -8.2262343168258667e-01 1.7750805616378784e-01</leafValues></_>
        <_>
          <internalNodes>
            0 -1 34 2.9447328299283981e-02</internalNodes>
          <leafValues>
            5.9957116842269897e-01 -3.2451546192169189e-01</leafValues></_>
        <_>
          <internalNodes>
            0 -1 22 1.4821946620941162e-02</internalNodes>
          <leafValues>
            -8.2091075181961060e-01 2.1857802569866180e-01</leafValues></_>
        <_>
          <internalNodes>
            0 -1 0 1.0998295620083809e-02</internalNodes>
          <leafValues>
            -3.8899362087249756e-01 4.0525627136230469e-01</leafValues></_>
        <_>
          <internalNodes>
            0 -1 18 2.0796895027160645e-02</internalNodes>
          <leafValues>
            2.0621477067470551e-01 -8.2707273960113525e-01</leafValues></_>
        <_>
          <internalNodes>
            0 -1 3 5.3815878927707672e-02</internalNodes>
          <leafValues>
            -2.7793976664543152e-01 9.0834546089172363e-01</leafValues></_>
        <_>
          <internalNodes>
            0 -1 36 1.0707326233386993e-02</internalNodes>
          <leafValues>
            3.3511316776275635e-01 -4.9642935395240784e-01</leafValues></_>
        <_>
          <internalNodes>
            0 -1 37 4.3660439550876617e-03</internalNodes>
          <leafValues>
            -8.4558045864105225e-01 1.4381030201911926e-01</leafValues></_></weakClassifiers></_></stages>
  <features>
    <_>
      <rect>
        0 0 8 8 0</rect></_>
    <_>
      <rect>
        0 0 8 8 2</rect></_>
    <_>
      <rect>
        0 0 8 8 3</rect></_>
    <_>
      <rect>
        0 0 8 8 4</rect></_>
    <_>
      <rect>
        0 0 8 8 17</rect></_>
    <_>
      <rect>
        0 0 8 8 19</rect></_>
    <_>
      <rect>
        0 0 8 8 24</rect></_>
    <_>
      <rect>
        0 4 8 8 9</rect></_>
    <_>
      <rect>
        0 4 8 8 30</rect></_>
    <_>
      <rect>
        0 8 8 8 1</rect></_>
    <_>
      <rect>
        0 8 8 8 9</rect></_>
    <_>
      <rect>
        0 8 8 8 11</rect></_>
    <_>
      <rect>
        0 8 8 8 22</rect></_>
    <_>
      <rect>
        0 8 8 8 23</rect></_>
    <_>
      <rect>
        0 8 8 8 25</rect></_>
    <_>
      <rect>
        4 0 8 8 16</rect></_>
    <_>
      <rect>
        4 0 8 8 17</rect></_>
    <_>
      <rect>
        4 4 8 8 3</rect></_>
    <_>
      <rect>
        4 4 8 8 5</rect></_>
    <_>
      <rect>
        4 4 8 8 6</rect></_>
    <_>
      <rect>
        4 4 8 8 16</rect></_>
    <_>
      <rect>
        4 4 8 8 17</rect></_>
    <_>
      <rect>
        4 4 8 8 22</rect></_>
    <_>
      <rect>
        4 4 8 8 27</rect></_>
    <_>
      <rect>
        4 4 8 8 30</rect></_>
    <_>
      <rect>
        4 8 8 8 19</rect></_>
    <_>
      <rect>
        4 8 8 8 34</rect></_>
    <_>
      <rect>
        8 0 8 8 7</rect></_>
    <_>
      <rect>
        8 0 8 8 12</rect></_>
    <_>
      <rect>
        8 0 8 8 13</rect></_>
    <_>
      <rect>
        8 0 8 8 14</rect></_>
    <_>
      <rect>
        8 0 8 8 16</rect></_>
    <_>
      <rect>
        8 0 8 8 28</rect></_>
    <_>
      <rect>
        8 0 8 8 33</rect></_>
    <_>
      <rect>
        8 4 8 8 4</rect></_>
    <_>
      <rect>
        8 4 8 8 10</rect></_>
    <_>
      <rect>
        8 4 8 8 11</rect></_>
    <_>
      <rect>
        8 8 8 8 13</rect></_>
    <_>
      <rect>
        8 8 8 8 27</rect></_>
    <_>
      <rect>
        8 8 8 8 30</rect></_>
    <_>
      <rect>
        8 8 8 8 31</rect></_></features></cascade>
</opencv_storage>
