<?xml version="1.0"?>
<opencv_storage>
<cascade>
  <stageType>BOOST</stageType>
  <featureType>HOG</featureType>
  <height>24</height>
  <width>24</width>
  <stageParams>
    <boostType>GAB</boostType>
    <minHitRate>9.9500000476837158e-01</minHitRate>
    <maxFalseAlarm>5.0000000000000000e-01</maxFalseAlarm>
    <weightTrimRate>9.4999999999999996e-01</weightTrimRate>
    <maxDepth>1</maxDepth>
    <maxWeakCount>100</maxWeakCount></stageParams>
  <featureParams>
    <maxCatCount>0</maxCatCount>
    <featSize>36</featSize></featureParams>
  <stageNum>9</stageNum>
  <stages>
    <!-- stage 0 -->
    <_>
      <maxWeakCount>3</maxWeakCount>
      <stageThreshold>-1.0174703598022461e+00</stageThreshold>
      <weakClassifiers>
        <_>
          <internalNodes>
            0 -1 19 2.7899317443370819e-02</internalNodes>
          <leafValues>
            3.5753461718559265e-01 -8.4490430355072021e-01</leafValues></_>
        <_>
          <internalNodes>
            0 -1 2 3.1537460163235664e-03</internalNodes>
          <leafValues>
            -7.5492107868194580e-01 5.1947480440139771e-01</leafValues></_>
        <_>
          <internalNodes>
            0 -1 29 2.5410089641809464e-02</internalNodes>
          <leafValues>
            -6.2008392810821533e-01 6.9528687000274658e-01</leafValues></_></weakClassifiers></_>
    <!-- stage 1 -->
    <_>
      <maxWeakCount>5</maxWeakCount>
      <stageThreshold>-1.2536422014236450e+00</stageThreshold>
      <weakClassifiers>
        <_>
          <internalNodes>
            0 -1 26 2.7346231043338776e-02</internalNodes>
          <leafValues>
            -7.0465117692947388e-01 4.1677853465080261e-01</leafValues></_>
        <_>
          <internalNodes>
            0 -1 0 1.4599984511733055e-02</internalNodes>
          <leafValues>
            -5.0231170654296875e-01 6.4784860610961914e-01</leafValues></_>
        <_>
          <internalNodes>
            0 -1 29 1.4937538653612137e-02</internalNodes>
          <leafValues>
            -7.0657229423522949e-01 5.2789008617401123e-01</leafValues></_>
        <_>
          <internalNodes>
            0 -1 7 2.3189291357994080e-02</internalNodes>
          <leafValues>
            3.9180588722229004e-01 -8.0834710597991943e-01</leafValues></_>
        <_>
          <internalNodes>
            0 -1 36 6.1807152815163136e-04</internalNodes>
          <leafValues>
            -7.7721881866455078e-01 3.1807982921600342e-01</leafValues></_></weakClassifiers></_>
    <!-- stage 2 -->
    <_>
      <maxWeakCount>6</maxWeakCount>
      <stageThreshold>-1.3944319486618042e+00</stageThreshold>
      <weakClassifiers>
        <_>
          <internalNodes>
            0 -1 4 3.7540823221206665e-02</internalNodes>
          <leafValues>
            -5.1950079202651978e-01 7.6146787405014038e-01</leafValues></_>
        <_>
          <internalNodes>
            0 -1 30 2.9526092112064362e-03</internalNodes>
          <leafValues>
            -6.3304823637008667e-01 4.6599024534225464e-01</leafValues></_>
        <_>
          <internalNodes>
            0 -1 0 2.9645375907421112e-03</internalNodes>
          <leafValues>
            -7.2873044013977051e-01 4.0594255924224854e-01</leafValues></_>
        <_>
          <internalNodes>
            0 -1 19 4.0222827345132828e-02</internalNodes>
          <leafValues>
            3.1983384490013123e-01 -8.4142905473709106e-01</leafValues></_>
        <_>
          <internalNodes>
            0 -1 29 3.6859292536973953e-02</internalNodes>
          <leafValues>
            -3.9793357253074646e-01 6.7992144823074341e-01</leafValues></_>
        <_>
          <internalNodes>
            0 -1 27 1.5335079282522202e-02</internalNodes>
          <leafValues>
            -4.0994343161582947e-01 5.6494718790054321e-01</leafValues></_></weakClassifiers></_>
    <!-- stage 3 -->
    <_>
      <maxWeakCount>5</maxWeakCount>
      <stageThreshold>-1.0297352075576782e+00</stageThreshold>
      <weakClassifiers>
        <_>
          <internalNodes>
            0 -1 4 1.6189545392990112e-02</internalNodes>
          <leafValues>
            -6.4879566431045532e-01 4.5808967947959900e-01</leafValues></_>
        <_>
          <internalNodes>
            0 -1 17 6.6640181466937065e-04</internalNodes>
          <leafValues>
            -6.9261234998703003e-01 3.5636633634567261e-01</leafValues></_>
        <_>
          <internalNodes>
            0 -1 25 1.4932024292647839e-02</internalNodes>
          <leafValues>
            -6.3801831007003784e-01 3.5616943240165710e-01</leafValues></_>
        <_>
          <internalNodes>
            0 -1 37 3.4690860193222761e-03</internalNodes>
          <leafValues>
            -7.1438878774642944e-01 3.3274728059768677e-01</leafValues></_>
        <_>
          <internalNodes>
            0 -1 5 2.6165176182985306e-02</internalNodes>
          <leafValues>
            -3.2644075155258179e-01 6.6989213228225708e-01</leafValues></_></weakClassifiers></_>
    <!-- stage 4 -->
    <_>
      <maxWeakCount>9</maxWeakCount>
      <stageThreshold>-1.5803687572479248e+00</stageThreshold>
      <weakClassifiers>
        <_>
          <internalNodes>
            0 -1 3 1.0558734647929668e-03</internalNodes>
          <leafValues>
            -8.0910950899124146e-01 3.1814612448215485e-02</leafValues></_>
        <_>
          <internalNodes>
            0 -1 29 2.3066982626914978e-02</internalNodes>
          <leafValues>
            -5.8271557092666626e-01 3.7173190712928772e-01</leafValues></_>
        <_>
          <internalNodes>
            0 -1 14 3.7229910492897034e-02</internalNodes>
          <leafValues>
            -5.7301688194274902e-01 3.2520470023155212e-01</leafValues></_>
        <_>
          <internalNodes>
            0 -1 28 1.9213542342185974e-02</internalNodes>
          <leafValues>
            -6.2979978322982788e-01 3.7262463569641113e-01</leafValues></_>
        <_>
          <internalNodes>
            0 -1 2 4.0630586445331573e-03</internalNodes>
          <leafValues>
            -5.9611821174621582e-01 3.6655429005622864e-01</leafValues></_>
        <_>
          <internalNodes>
            0 -1 19 2.2217448800802231e-02</internalNodes>
          <leafValues>
            3.3068609237670898e-01 -5.2109044790267944e-01</leafValues></_>
        <_>
          <internalNodes>
            0 -1 12 3.1247988343238831e-02</internalNodes>
          <leafValues>
            -4.7890439629554749e-01 3.8292443752288818e-01</leafValues></_>
        <_>
          <internalNodes>
            0 -1 6 3.8079910445958376e-03</internalNodes>
          <leafValues>
            -6.3275080919265747e-01 2.5942894816398621e-01</leafValues></_>
        <_>
          <internalNodes>
            0 -1 31 1.5027128159999847e-02</internalNodes>
          <leafValues>
            -3.1861323118209839e-01 5.4736047983169556e-01</leafValues></_></weakClassifiers></_>
    <!-- stage 5 -->
    <_>
      <maxWeakCount>9</maxWeakCount>
      <stageThreshold>-1.2937077283859253e+00</stageThreshold>
      <weakClassifiers>
        <_>
          <internalNodes>
            0 -1 4 2.5388989597558975e-02</internalNodes>
          <leafValues>
            -5.6582468748092651e-01 3.5594713687896729e-01</leafValues></_>
        <_>
          <internalNodes>
            0 -1 29 9.1513171792030334e-03</internalNodes>
          <leafValues>
            -7.7954572439193726e-01 2.4807892739772797e-01</leafValues></_>
        <_>
          <internalNodes>
            0 -1 0 1.4686614274978638e-02</internalNodes>
          <leafValues>
            -4.4869118928909302e-01 4.9357059597969055e-01</leafValues></_>
        <_>
          <internalNodes>
            0 -1 21 2.7337221428751945e-02</internalNodes>
          <leafValues>
            3.0578935146331787e-01 -7.0505315065383911e-01</leafValues></_>
        <_>
          <internalNodes>
            0 -1 35 2.7460465207695961e-02</internalNodes>
          <leafValues>
            -5.6450396776199341e-01 2.6314306259155273e-01</leafValues></_>
        <_>
          <internalNodes>
            0 -1 24 2.0601592957973480e-02</internalNodes>
          <leafValues>
            -6.8857079744338989e-01 2.4818772077560425e-01</leafValues></_>
        <_>
          <internalNodes>
            0 -1 27 2.1569948643445969e-02</internalNodes>
          <leafValues>
            -3.3448606729507446e-01 5.1074743270874023e-01</leafValues></_>
        <_>
          <internalNodes>
            0 -1 16 2.5107407942414284e-02</internalNodes>
          <leafValues>
            -2.9801380634307861e-01 5.9631556272506714e-01</leafValues></_>
        <_>
          <internalNodes>
            0 -1 1 4.7125882701948285e-04</internalNodes>
          <leafValues>
            -4.8278257250785828e-01 3.2379421591758728e-01</leafValues></_></weakClassifiers></_>
    <!-- stage 6 -->
    <_>
      <maxWeakCount>11</maxWeakCount>
      <stageThreshold>-1.6042320728302002e+00</stageThreshold>
      <weakClassifiers>
        <_>
          <internalNodes>
            0 -1 29 3.9565704762935638e-02</internalNodes>
          <leafValues>
            -5.5770641565322876e-01 3.6817973852157593e-01</leafValues></_>
        <_>
          <internalNodes>
            0 -1 18 1.3796607032418251e-02</internalNodes>
          <leafValues>
            -4.2589154839515686e-01 4.2495456337928772e-01</leafValues></_>
        <_>
          <internalNodes>
            0 -1 22 4.4486798346042633e-02</internalNodes>
          <leafValues>
            2.5203749537467957e-01 -7.1249002218246460e-01</leafValues></_>
        <_>
          <internalNodes>
            0 -1 7 2.5290913879871368e-02</internalNodes>
          <leafValues>
            2.2887115180492401e-01 -7.8989571332931519e-01</leafValues></_>
        <_>
          <internalNodes>
            0 -1 36 2.1208599209785461e-03</internalNodes>
          <leafValues>
            -7.7983969449996948e-01 1.7227783799171448e-01</leafValues></_>
        <_>
          <internalNodes>
            0 -1 31 8.3030061796307564e-04</internalNodes>
          <leafValues>
            -4.8588624596595764e-01 2.6811727881431580e-01</leafValues></_>
        <_>
          <internalNodes>
            0 -1 4 2.3604994639754295e-03</internalNodes>
          <leafValues>
            -6.1744213104248047e-01 2.6182731986045837e-01</leafValues></_>
        <_>
          <internalNodes>
            0 -1 9 8.4071280434727669e-03</internalNodes>
          <leafValues>
            1.8065249919891357e-01 -6.8800425529479980e-01</leafValues></_>
        <_>
          <internalNodes>
            0 -1 32 9.0156961232423782e-03</internalNodes>
          <leafValues>
            1.9616943597793579e-01 -6.5870434045791626e-01</leafValues></_>
        <_>
          <internalNodes>
            0 -1 29 4.3431278318166733e-03</internalNodes>
          <leafValues>
            -6.9807100296020508e-01 1.7168484628200531e-01</leafValues></_>
        <_>
          <internalNodes>
            0 -1 0 2.7299528010189533e-03</internalNodes>
          <leafValues>
            -6.0698938369750977e-01 2.6541006565093994e-01</leafValues></_></weakClassifiers></_>
    <!-- stage 7 -->
    <_>
      <maxWeakCount>13</maxWeakCount>
      <stageThreshold>-1.5651451349258423e+00</stageThreshold>
      <weakClassifiers>
        <_>
          <internalNodes>
            0 -1 17 4.0526194497942924e-03</internalNodes>
          <leafValues>
            -7.3273342847824097e-01 5.6421514600515366e-02</leafValues></_>
        <_>
          <internalNodes>
            0 -1 29 2.7099700644612312e-02</internalNodes>
          <leafValues>
            -4.4323319196701050e-01 2.8350609540939331e-01</leafValues></_>
        <_>
          <internalNodes>
            0 -1 19 1.9512735307216644e-02</internalNodes>
          <leafValues>
            3.6812525987625122e-01 -4.6193042397499084e-01</leafValues></_>
        <_>
          <internalNodes>
            0 -1 4 2.1107478067278862e-02</internalNodes>
          <leafValues>
            -2.7588048577308655e-01 5.8986365795135498e-01</leafValues></_>
        <_>
          <internalNodes>
            0 -1 25 2.4125104770064354e-02</internalNodes>
          <leafValues>
            -4.4068926572799683e-01 4.0868583321571350e-01</leafValues></_>
        <_>
          <internalNodes>
            0 -1 37 3.3417384838685393e-04</internalNodes>
          <leafValues>
            -7.9094117879867554e-01 1.8785597383975983e-01</leafValues></_>
        <_>
          <internalNodes>
            0 -1 8 1.8284602090716362e-02</internalNodes>
          <leafValues>
            2.6410540938377380e-01 -6.7937326431274414e-01</leafValues></_>
        <_>
          <internalNodes>
            0 -1 15 9.5678992569446564e-02</internalNodes>
          <leafValues>
            1.6870386898517609e-01 -7.7151423692703247e-01</leafValues></_>
        <_>
          <internalNodes>
            0 -1 2 5.0787755753844976e-04</internalNodes>
          <leafValues>
            -6.2864530086517334e-01 1.9930379092693329e-01</leafValues></_>
        <_>
          <internalNodes>
            0 -1 27 1.1569070629775524e-02</internalNodes>
          <leafValues>
            -4.3423807621002197e-01 3.0077454447746277e-01</leafValues></_>
        <_>
          <internalNodes>
            0 -1 29 1.2505365535616875e-02</internalNodes>
          <leafValues>
            -6.0856163501739502e-01 2.2829322516918182e-01</leafValues></_>
        <_>
          <internalNodes>
            0 -1 23 2.3135768249630928e-02</internalNodes>
          <leafValues>
            -5.2211034297943115e-01 2.5752386450767517e-01</leafValues></_>
        <_>
          <internalNodes>
            0 -1 33 1.8147837370634079e-02</internalNodes>
          <leafValues>
            -7.2459912300109863e-01 1.8783210217952728e-01</leafValues></_></weakClassifiers></_>
    <!-- stage 8 -->
    <_>
      <maxWeakCount>13</maxWeakCount>
      <stageThreshold>-1.4338259696960449e+00</stageThreshold>
      <weakClassifiers>
        <_>
          <internalNodes>
            0 -1 4 4.4792339205741882e-02</internalNodes>
          <leafValues>
            -4.8235592246055603e-01 7.1301245689392090e-01</leafValues></_>
        <_>
          <internalNodes>
            0 -1 0 1.8645323812961578e-02</internalNodes>
          <leafValues>
            -3.6070147156715393e-01 5.9549850225448608e-01</leafValues></_>
        <_>
          <internalNodes>
            0 -1 29 1.7750460654497147e-02</internalNodes>
          <leafValues>
            -5.7961463928222656e-01 3.1316852569580078e-01</leafValues></_>
        <_>
          <internalNodes>
            0 -1 34 1.5748843550682068e-02</internalNodes>
          <leafValues>
            2.2117193043231964e-01 -7.8519260883331299e-01</leafValues></_>
        <_>
          <internalNodes>
            0 -1 13 7.9246990382671356e-02</internalNodes>
          <leafValues>
            1.2756307423114777e-01 -8.1520313024520874e-01</leafValues></_>
        <_>
          <internalNodes>
            0 -1 27 2.7572548016905785e-02</internalNodes>
          <leafValues>
            -2.3442369699478149e-01 6.2443482875823975e-01</leafValues></_>
        <_>
          <internalNodes>
            0 -1 3 1.0739166755229235e-03</internalNodes>
          <leafValues>
            -5.2845364809036255e-01 2.3656034469604492e-01</leafValues></_>
        <_>
          <internalNodes>
            0 -1 29 4.8087798058986664e-02</internalNodes>
          <leafValues>
            -1.9188264012336731e-01 7.5876015424728394e-01</leafValues></_>
        <_>
          <internalNodes>
            0 -1 11 2.3022880777716637e-02</internalNodes>
          <leafValues>
            2.6293510198593140e-01 -5.2665221691131592e-01</leafValues></_>
        <_>
          <internalNodes>
            0 -1 17 2.9512244509533048e-04</internalNodes>
          <leafValues>
            -6.2954419851303101e-01 2.2439546883106232e-01</leafValues></_>
        <_>
          <internalNodes>
            0 -1 10 8.2964394241571426e-03</internalNodes>
          <leafValues>
            2.0372578501701355e-01 -6.2528079748153687e-01</leafValues></_>
        <_>
          <internalNodes>
            0 -1 5 4.2446613311767578e-02</internalNodes>
          <leafValues>
            -1.6892060637474060e-01 8.0936664342880249e-01</leafValues></_>
        <_>
          <internalNodes>
            0 -1 20 4.4220104813575745e-02</internalNodes>
          <leafValues>
            2.1088995039463043e-01 -7.5973010063171387e-01</leafValues></_></weakClassifiers></_></stages>
  <features>
    <_>
      <rect>
        0 0 8 8 0</rect></_>
    <_>
      <rect>
        0 0 8 8 1</rect></_>
    <_>
      <rect>
        0 0 8 8 2</rect></_>
    <_>
      <rect>
        0 0 8 8 3</rect></_>
    <_>
      <rect>
        0 0 8 8 4</rect></_>
    <_>
      <rect>
        0 0 8 8 8</rect></_>
    <_>
      <rect>
        0 0 8 8 9</rect></_>
    <_>
      <rect>
        0 0 8 8 19</rect></_>
    <_>
      <rect>
        0 0 8 8 24</rect></_>
    <_>
      <rect>
        0 4 8 8 5</rect></_>
    <_>
      <rect>
        0 4 8 8 20</rect></_>
    <_>
      <rect>
        0 4 8 8 24</rect></_>
    <_>
      <rect>
        0 4 8 8 30</rect></_>
    <_>
      <rect>
        0 8 8 8 10</rect></_>
    <_>
      <rect>
        0 8 8 8 14</rect></_>
    <_>
      <rect>
        0 8 8 8 17</rect></_>
    <_>
      <rect>
        0 8 8 8 22</rect></_>
    <_>
      <rect>
        0 8 8 8 23</rect></_>
    <_>
      <rect>
        0 8 8 8 25</rect></_>
    <_>
      <rect>
        4 0 8 8 28</rect></_>
    <_>
      <rect>
        4 4 8 8 17</rect></_>
    <_>
      <rect>
        4 4 8 8 19</rect></_>
    <_>
      <rect>
        4 4 8 8 24</rect></_>
    <_>
      <rect>
        4 4 8 8 34</rect></_>
    <_>
      <rect>
        4 8 8 8 14</rect></_>
    <_>
      <rect>
        4 8 8 8 27</rect></_>
    <_>
      <rect>
        4 8 8 8 30</rect></_>
    <_>
      <rect>
        8 0 8 8 0</rect></_>
    <_>
      <rect>
        8 0 8 8 3</rect></_>
    <_>
      <rect>
        8 0 8 8 13</rect></_>
    <_>
      <rect>
        8 0 8 8 14</rect></_>
    <_>
      <rect>
        8 0 8 8 16</rect></_>
    <_>
      <rect>
        8 4 8 8 10</rect></_>
    <_>
      <rect>
        8 4 8 8 21</rect></_>
    <_>
      <rect>
        8 8 8 8 11</rect></_>
    <_>
      <rect>
        8 8 8 8 21</rect></_>
    <_>
      <rect>
        8 8 8 8 29</rect></_>
    <_>
      <rect>
        8 8 8 8 30</rect></_></features></cascade>
</opencv_storage>
