<?xml version="1.0"?>
<opencv_storage>
<cascade>
  <stageType>BOOST</stageType>
  <featureType>HOG</featureType>
  <height>24</height>
  <width>24</width>
  <stageParams>
    <boostType>GAB</boostType>
    <minHitRate>9.9500000476837158e-01</minHitRate>
    <maxFalseAlarm>5.0000000000000000e-01</maxFalseAlarm>
    <weightTrimRate>9.4999999999999996e-01</weightTrimRate>
    <maxDepth>1</maxDepth>
    <maxWeakCount>100</maxWeakCount></stageParams>
  <featureParams>
    <maxCatCount>0</maxCatCount>
    <featSize>36</featSize></featureParams>
  <stageNum>9</stageNum>
  <stages>
    <!-- stage 0 -->
    <_>
      <maxWeakCount>5</maxWeakCount>
      <stageThreshold>-2.1576745510101318e+00</stageThreshold>
      <weakClassifiers>
        <_>
          <internalNodes>
            0 -1 19 3.0580181628465652e-02</internalNodes>
          <leafValues>
            -7.6493442058563232e-01 6.1105209589004517e-01</leafValues></_>
        <_>
          <internalNodes>
            0 -1 0 1.3327224180102348e-02</internalNodes>
          <leafValues>
            -5.9060806035995483e-01 7.7792650461196899e-01</leafValues></_>
        <_>
          <internalNodes>
            0 -1 15 3.3767905086278915e-02</internalNodes>
          <leafValues>
            -6.4641416072845459e-01 6.3375341892242432e-01</leafValues></_>
        <_>
          <internalNodes>
            0 -1 6 4.6412446536123753e-03</internalNodes>
          <leafValues>
            -8.1916117668151855e-01 4.1821429133415222e-01</leafValues></_>
        <_>
          <internalNodes>
            0 -1 30 1.7397247254848480e-02</internalNodes>
          <leafValues>
            -6.1672437191009521e-01 5.8138120174407959e-01</leafValues></_></weakClassifiers></_>
    <!-- stage 1 -->
    <_>
      <maxWeakCount>5</maxWeakCount>
      <stageThreshold>-1.1558921337127686e+00</stageThreshold>
      <weakClassifiers>
        <_>
          <internalNodes>
            0 -1 5 3.3653732389211655e-02</internalNodes>
          <leafValues>
            -6.7461562156677246e-01 4.9504950642585754e-01</leafValues></_>
        <_>
          <internalNodes>
            0 -1 1 5.6972303427755833e-03</internalNodes>
          <leafValues>
            -6.3669431209564209e-01 5.5825978517532349e-01</leafValues></_>
        <_>
          <internalNodes>
            0 -1 9 1.9587498158216476e-02</internalNodes>
          <leafValues>
            4.8235324025154114e-01 -6.9885081052780151e-01</leafValues></_>
        <_>
          <internalNodes>
            0 -1 28 4.6282829716801643e-03</internalNodes>
          <leafValues>
            -7.5835078954696655e-01 3.3319213986396790e-01</leafValues></_>
        <_>
          <internalNodes>
            0 -1 19 2.0626619458198547e-02</internalNodes>
          <leafValues>
            -6.4858871698379517e-01 5.5970907211303711e-01</leafValues></_></weakClassifiers></_>
    <!-- stage 2 -->
    <_>
      <maxWeakCount>5</maxWeakCount>
      <stageThreshold>-1.2976464033126831e+00</stageThreshold>
      <weakClassifiers>
        <_>
          <internalNodes>
            0 -1 15 4.8838563263416290e-02</internalNodes>
          <leafValues>
            -6.4492309093475342e-01 4.7679999470710754e-01</leafValues></_>
        <_>
          <internalNodes>
            0 -1 0 3.2466682605445385e-03</internalNodes>
          <leafValues>
            -6.6098731756210327e-01 4.0325802564620972e-01</leafValues></_>
        <_>
          <internalNodes>
            0 -1 19 1.0806938633322716e-02</internalNodes>
          <leafValues>
            -8.4335571527481079e-01 4.1167038679122925e-01</leafValues></_>
        <_>
          <internalNodes>
            0 -1 30 2.3815952241420746e-02</internalNodes>
          <leafValues>
            -5.5908411741256714e-01 5.1132529973983765e-01</leafValues></_>
        <_>
          <internalNodes>
            0 -1 7 3.3840655814856291e-03</internalNodes>
          <leafValues>
            -7.8835755586624146e-01 3.4645843505859375e-01</leafValues></_></weakClassifiers></_>
    <!-- stage 3 -->
    <_>
      <maxWeakCount>5</maxWeakCount>
      <stageThreshold>-1.8856608867645264e+00</stageThreshold>
      <weakClassifiers>
        <_>
          <internalNodes>
            0 -1 0 1.6290083527565002e-02</internalNodes>
          <leafValues>
            -6.7070800065994263e-01 6.3863736391067505e-01</leafValues></_>
        <_>
          <internalNodes>
            0 -1 25 2.7055697515606880e-02</internalNodes>
          <leafValues>
            -6.9301611185073853e-01 5.2203500270843506e-01</leafValues></_>
        <_>
          <internalNodes>
            0 -1 2 3.2147645950317383e-02</internalNodes>
          <leafValues>
            -3.5524392127990723e-01 7.9943329095840454e-01</leafValues></_>
        <_>
          <internalNodes>
            0 -1 20 6.6355681046843529e-03</internalNodes>
          <leafValues>
            -5.6792169809341431e-01 4.9307182431221008e-01</leafValues></_>
        <_>
          <internalNodes>
            0 -1 29 4.7260541468858719e-03</internalNodes>
          <leafValues>
            -7.5344842672348022e-01 3.6113786697387695e-01</leafValues></_></weakClassifiers></_>
    <!-- stage 4 -->
    <_>
      <maxWeakCount>8</maxWeakCount>
      <stageThreshold>-1.7836265563964844e+00</stageThreshold>
      <weakClassifiers>
        <_>
          <internalNodes>
            0 -1 19 4.0001295506954193e-02</internalNodes>
          <leafValues>
            -6.3447749614715576e-01 4.7402861714363098e-01</leafValues></_>
        <_>
          <internalNodes>
            0 -1 0 4.0795300155878067e-03</internalNodes>
          <leafValues>
            -6.5128588676452637e-01 3.8502842187881470e-01</leafValues></_>
        <_>
          <internalNodes>
            0 -1 2 4.2236953973770142e-02</internalNodes>
          <leafValues>
            -3.0489811301231384e-01 8.1570601463317871e-01</leafValues></_>
        <_>
          <internalNodes>
            0 -1 6 6.4039174467325211e-03</internalNodes>
          <leafValues>
            -7.0921897888183594e-01 3.2428482174873352e-01</leafValues></_>
        <_>
          <internalNodes>
            0 -1 15 3.9875864982604980e-02</internalNodes>
          <leafValues>
            -4.8551777005195618e-01 4.7715696692466736e-01</leafValues></_>
        <_>
          <internalNodes>
            0 -1 21 1.2690160423517227e-02</internalNodes>
          <leafValues>
            -3.0719983577728271e-01 6.4299237728118896e-01</leafValues></_>
        <_>
          <internalNodes>
            0 -1 30 3.7858575582504272e-02</internalNodes>
          <leafValues>
            -2.6798707246780396e-01 6.8422669172286987e-01</leafValues></_>
        <_>
          <internalNodes>
            0 -1 14 3.2355610281229019e-02</internalNodes>
          <leafValues>
            -4.1921994090080261e-01 3.7068277597427368e-01</leafValues></_></weakClassifiers></_>
    <!-- stage 5 -->
    <_>
      <maxWeakCount>11</maxWeakCount>
      <stageThreshold>-1.4530177116394043e+00</stageThreshold>
      <weakClassifiers>
        <_>
          <internalNodes>
            0 -1 19 3.0273199081420898e-02</internalNodes>
          <leafValues>
            -7.2422111034393311e-01 1.4981366693973541e-01</leafValues></_>
        <_>
          <internalNodes>
            0 -1 2 9.5460860757157207e-04</internalNodes>
          <leafValues>
            -8.1427305936813354e-01 2.3085168004035950e-01</leafValues></_>
        <_>
          <internalNodes>
            0 -1 9 2.5247063487768173e-02</internalNodes>
          <leafValues>
            1.9449461996555328e-01 -7.3912811279296875e-01</leafValues></_>
        <_>
          <internalNodes>
            0 -1 0 2.3002881556749344e-02</internalNodes>
          <leafValues>
            -3.0914595723152161e-01 6.6668164730072021e-01</leafValues></_>
        <_>
          <internalNodes>
            0 -1 30 1.4728147536516190e-02</internalNodes>
          <leafValues>
            -6.3448089361190796e-01 3.3343449234962463e-01</leafValues></_>
        <_>
          <internalNodes>
            0 -1 10 1.1262472718954086e-02</internalNodes>
          <leafValues>
            3.6458104848861694e-01 -5.3961753845214844e-01</leafValues></_>
        <_>
          <internalNodes>
            0 -1 21 1.4402412809431553e-02</internalNodes>
          <leafValues>
            -3.2600602507591248e-01 5.3659904003143311e-01</leafValues></_>
        <_>
          <internalNodes>
            0 -1 12 3.6851495504379272e-02</internalNodes>
          <leafValues>
            -4.7448959946632385e-01 4.0748193860054016e-01</leafValues></_>
        <_>
          <internalNodes>
            0 -1 1 4.1004770901054144e-04</internalNodes>
          <leafValues>
            -5.4517292976379395e-01 2.9518446326255798e-01</leafValues></_>
        <_>
          <internalNodes>
            0 -1 11 2.1177606657147408e-02</internalNodes>
          <leafValues>
            -5.6675678491592407e-01 3.0869889259338379e-01</leafValues></_>
        <_>
          <internalNodes>
            0 -1 3 4.3069515377283096e-02</internalNodes>
          <leafValues>
            -2.0009405910968781e-01 8.7017422914505005e-01</leafValues></_></weakClassifiers></_>
    <!-- stage 6 -->
    <_>
      <maxWeakCount>10</maxWeakCount>
      <stageThreshold>-1.7693506479263306e+00</stageThreshold>
      <weakClassifiers>
        <_>
          <internalNodes>
            0 -1 2 5.2891723811626434e-02</internalNodes>
          <leafValues>
            -4.9285349249839783e-01 7.4054980278015137e-01</leafValues></_>
        <_>
          <internalNodes>
            0 -1 20 3.7976026069372892e-03</internalNodes>
          <leafValues>
            -5.6472843885421753e-01 3.4619343280792236e-01</leafValues></_>
        <_>
          <internalNodes>
            0 -1 1 1.9407443702220917e-02</internalNodes>
          <leafValues>
            -3.4366318583488464e-01 6.5705460309982300e-01</leafValues></_>
        <_>
          <internalNodes>
            0 -1 19 4.8827145248651505e-02</internalNodes>
          <leafValues>
            -2.2837103903293610e-01 6.3873803615570068e-01</leafValues></_>
        <_>
          <internalNodes>
            0 -1 27 2.2986941039562225e-02</internalNodes>
          <leafValues>
            2.8830799460411072e-01 -5.8559286594390869e-01</leafValues></_>
        <_>
          <internalNodes>
            0 -1 7 1.3597061857581139e-02</internalNodes>
          <leafValues>
            -4.0890508890151978e-01 3.3670431375503540e-01</leafValues></_>
        <_>
          <internalNodes>
            0 -1 24 2.1739011630415916e-02</internalNodes>
          <leafValues>
            -4.8574379086494446e-01 3.2604783773422241e-01</leafValues></_>
        <_>
          <internalNodes>
            0 -1 4 3.1666524708271027e-02</internalNodes>
          <leafValues>
            -3.7893423438072205e-01 4.5189636945724487e-01</leafValues></_>
        <_>
          <internalNodes>
            0 -1 3 2.2542536258697510e-02</internalNodes>
          <leafValues>
            -2.9301223158836365e-01 5.0447118282318115e-01</leafValues></_>
        <_>
          <internalNodes>
            0 -1 25 2.4585586041212082e-02</internalNodes>
          <leafValues>
            -5.8970355987548828e-01 3.0404838919639587e-01</leafValues></_></weakClassifiers></_>
    <!-- stage 7 -->
    <_>
      <maxWeakCount>10</maxWeakCount>
      <stageThreshold>-1.6200176477432251e+00</stageThreshold>
      <weakClassifiers>
        <_>
          <internalNodes>
            0 -1 2 4.6436998993158340e-02</internalNodes>
          <leafValues>
            -5.0927287340164185e-01 5.4285717010498047e-01</leafValues></_>
        <_>
          <internalNodes>
            0 -1 21 3.2891002483665943e-03</internalNodes>
          <leafValues>
            -5.1315355300903320e-01 3.3028218150138855e-01</leafValues></_>
        <_>
          <internalNodes>
            0 -1 0 1.5256118029356003e-02</internalNodes>
          <leafValues>
            -3.7993484735488892e-01 4.1984477639198303e-01</leafValues></_>
        <_>
          <internalNodes>
            0 -1 5 3.3184513449668884e-02</internalNodes>
          <leafValues>
            -3.9794436097145081e-01 5.0390863418579102e-01</leafValues></_>
        <_>
          <internalNodes>
            0 -1 30 7.4273496866226196e-03</internalNodes>
          <leafValues>
            -8.2334071397781372e-01 2.6220935583114624e-01</leafValues></_>
        <_>
          <internalNodes>
            0 -1 19 1.6553010791540146e-03</internalNodes>
          <leafValues>
            -9.0386515855789185e-01 1.3304026424884796e-01</leafValues></_>
        <_>
          <internalNodes>
            0 -1 25 4.0150009095668793e-02</internalNodes>
          <leafValues>
            -3.7103122472763062e-01 4.8290380835533142e-01</leafValues></_>
        <_>
          <internalNodes>
            0 -1 22 3.0029790475964546e-02</internalNodes>
          <leafValues>
            4.7384250164031982e-01 -2.9456579685211182e-01</leafValues></_>
        <_>
          <internalNodes>
            0 -1 17 9.8879756405949593e-03</internalNodes>
          <leafValues>
            3.6588573455810547e-01 -4.1031360626220703e-01</leafValues></_>
        <_>
          <internalNodes>
            0 -1 10 2.2149607539176941e-02</internalNodes>
          <leafValues>
            1.7145101726055145e-01 -8.3642184734344482e-01</leafValues></_></weakClassifiers></_>
    <!-- stage 8 -->
    <_>
      <maxWeakCount>14</maxWeakCount>
      <stageThreshold>-1.7933398485183716e+00</stageThreshold>
      <weakClassifiers>
        <_>
          <internalNodes>
            0 -1 0 3.1538151204586029e-02</internalNodes>
          <leafValues>
            -5.0109350681304932e-01 7.2942137718200684e-01</leafValues></_>
        <_>
          <internalNodes>
            0 -1 2 2.5163047015666962e-02</internalNodes>
          <leafValues>
            -3.5591611266136169e-01 5.3803700208663940e-01</leafValues></_>
        <_>
          <internalNodes>
            0 -1 19 1.8207417801022530e-02</internalNodes>
          <leafValues>
            -6.4970147609710693e-01 2.4387235939502716e-01</leafValues></_>
        <_>
          <internalNodes>
            0 -1 26 2.0213652402162552e-02</internalNodes>
          <leafValues>
            -3.3196282386779785e-01 4.5424723625183105e-01</leafValues></_>
        <_>
          <internalNodes>
            0 -1 7 1.7090022563934326e-02</internalNodes>
          <leafValues>
            -3.1093585491180420e-01 4.8423919081687927e-01</leafValues></_>
        <_>
          <internalNodes>
            0 -1 15 6.2494564801454544e-02</internalNodes>
          <leafValues>
            -2.4656389653682709e-01 7.9561698436737061e-01</leafValues></_>
        <_>
          <internalNodes>
            0 -1 0 7.6275407336652279e-03</internalNodes>
          <leafValues>
            -3.9712399244308472e-01 4.5902088284492493e-01</leafValues></_>
        <_>
          <internalNodes>
            0 -1 18 5.7712875306606293e-02</internalNodes>
          <leafValues>
            -2.4258863925933838e-01 6.7739737033843994e-01</leafValues></_>
        <_>
          <internalNodes>
            0 -1 8 3.8771882653236389e-02</internalNodes>
          <leafValues>
            -2.3912563920021057e-01 7.1383017301559448e-01</leafValues></_>
        <_>
          <internalNodes>
            0 -1 23 4.9404360353946686e-02</internalNodes>
          <leafValues>
            2.6123785972595215e-01 -5.3419178724288940e-01</leafValues></_>
        <_>
          <internalNodes>
            0 -1 3 3.8854718208312988e-02</internalNodes>
          <leafValues>
            -2.1112328767776489e-01 7.4336230754852295e-01</leafValues></_>
        <_>
          <internalNodes>
            0 -1 13 1.7486594617366791e-02</internalNodes>
          <leafValues>
            -3.7155729532241821e-01 3.7174585461616516e-01</leafValues></_>
        <_>
          <internalNodes>
            0 -1 30 4.2311355471611023e-02</internalNodes>
          <leafValues>
            -2.4356852471828461e-01 6.0181808471679688e-01</leafValues></_>
        <_>
          <internalNodes>
            0 -1 16 2.8126189485192299e-02</internalNodes>
          <leafValues>
            -4.4633850455284119e-01 3.2150205969810486e-01</leafValues></_></weakClassifiers></_></stages>
  <features>
    <_>
      <rect>
        0 0 8 8 0</rect></_>
    <_>
      <rect>
        0 0 8 8 2</rect></_>
    <_>
      <rect>
        0 0 8 8 4</rect></_>
    <_>
      <rect>
        0 0 8 8 8</rect></_>
    <_>
      <rect>
        0 0 8 8 13</rect></_>
    <_>
      <rect>
        0 8 8 8 22</rect></_>
    <_>
      <rect>
        0 8 8 8 23</rect></_>
    <_>
      <rect>
        0 8 8 8 25</rect></_>
    <_>
      <rect>
        0 8 8 8 26</rect></_>
    <_>
      <rect>
        4 4 8 8 1</rect></_>
    <_>
      <rect>
        4 4 8 8 6</rect></_>
    <_>
      <rect>
        4 4 8 8 21</rect></_>
    <_>
      <rect>
        4 4 8 8 22</rect></_>
    <_>
      <rect>
        4 4 8 8 25</rect></_>
    <_>
      <rect>
        4 4 8 8 29</rect></_>
    <_>
      <rect>
        4 4 8 8 30</rect></_>
    <_>
      <rect>
        4 8 8 8 11</rect></_>
    <_>
      <rect>
        4 8 8 8 19</rect></_>
    <_>
      <rect>
        4 8 8 8 22</rect></_>
    <_>
      <rect>
        8 0 8 8 13</rect></_>
    <_>
      <rect>
        8 0 8 8 14</rect></_>
    <_>
      <rect>
        8 0 8 8 16</rect></_>
    <_>
      <rect>
        8 4 8 8 4</rect></_>
    <_>
      <rect>
        8 4 8 8 26</rect></_>
    <_>
      <rect>
        8 4 8 8 29</rect></_>
    <_>
      <rect>
        8 4 8 8 30</rect></_>
    <_>
      <rect>
        8 4 8 8 32</rect></_>
    <_>
      <rect>
        8 8 8 8 19</rect></_>
    <_>
      <rect>
        8 8 8 8 29</rect></_>
    <_>
      <rect>
        8 8 8 8 30</rect></_>
    <_>
      <rect>
        8 8 8 8 31</rect></_></features></cascade>
</opencv_storage>
