<?xml version="1.0"?>
<opencv_storage>
<cascade>
  <stageType>BOOST</stageType>
  <featureType>HAAR</featureType>
  <height>24</height>
  <width>24</width>
  <stageParams>
    <boostType>GAB</boostType>
    <minHitRate>9.9500000476837158e-01</minHitRate>
    <maxFalseAlarm>5.0000000000000000e-01</maxFalseAlarm>
    <weightTrimRate>9.4999999999999996e-01</weightTrimRate>
    <maxDepth>1</maxDepth>
    <maxWeakCount>100</maxWeakCount></stageParams>
  <featureParams>
    <maxCatCount>0</maxCatCount>
    <featSize>1</featSize>
    <mode>BASIC</mode></featureParams>
  <stageNum>8</stageNum>
  <stages>
    <!-- stage 0 -->
    <_>
      <maxWeakCount>3</maxWeakCount>
      <stageThreshold>-1.0095859766006470e+00</stageThreshold>
      <weakClassifiers>
        <_>
          <internalNodes>
            0 -1 29 -2.3584516718983650e-02</internalNodes>
          <leafValues>
            5.7636564970016479e-01 -9.3643754720687866e-01</leafValues></_>
        <_>
          <internalNodes>
            0 -1 23 4.7468896955251694e-03</internalNodes>
          <leafValues>
            -8.6968779563903809e-01 5.7558238506317139e-01</leafValues></_>
        <_>
          <internalNodes>
            0 -1 0 -5.6683056754991412e-04</internalNodes>
          <leafValues>
            7.9653936624526978e-01 -6.0445493459701538e-01</leafValues></_></weakClassifiers></_>
    <!-- stage 1 -->
    <_>
      <maxWeakCount>4</maxWeakCount>
      <stageThreshold>-1.1210961341857910e+00</stageThreshold>
      <weakClassifiers>
        <_>
          <internalNodes>
            0 -1 9 1.0654721700120717e-04</internalNodes>
          <leafValues>
            -6.7890840768814087e-01 7.9441022872924805e-01</leafValues></_>
        <_>
          <internalNodes>
            0 -1 21 1.4789760112762451e-02</internalNodes>
          <leafValues>
            -8.2739734649658203e-01 4.9555355310440063e-01</leafValues></_>
        <_>
          <internalNodes>
            0 -1 5 -4.0788605110719800e-04</internalNodes>
          <leafValues>
            8.9681482315063477e-01 -4.5465722680091858e-01</leafValues></_>
        <_>
          <internalNodes>
            0 -1 3 -4.4263624586164951e-03</internalNodes>
          <leafValues>
            8.3986687660217285e-01 -4.3081089854240417e-01</leafValues></_></weakClassifiers></_>
    <!-- stage 2 -->
    <_>
      <maxWeakCount>6</maxWeakCount>
      <stageThreshold>-1.2952371835708618e+00</stageThreshold>
      <weakClassifiers>
        <_>
          <internalNodes>
            0 -1 13 2.3821150534786284e-04</internalNodes>
          <leafValues>
            -6.1181890964508057e-01 9.3341553211212158e-01</leafValues></_>
        <_>
          <internalNodes>
            0 -1 30 -2.1607602015137672e-02</internalNodes>
          <leafValues>
            5.2165645360946655e-01 -7.5783002376556396e-01</leafValues></_>
        <_>
          <internalNodes>
            0 -1 27 -2.1816011518239975e-02</internalNodes>
          <leafValues>
            -8.6185449361801147e-01 3.9845487475395203e-01</leafValues></_>
        <_>
          <internalNodes>
            0 -1 8 7.4807449709624052e-04</internalNodes>
          <leafValues>
            -4.1010159254074097e-01 9.6960735321044922e-01</leafValues></_>
        <_>
          <internalNodes>
            0 -1 3 -4.7336630523204803e-03</internalNodes>
          <leafValues>
            8.0844062566757202e-01 -4.0932634472846985e-01</leafValues></_>
        <_>
          <internalNodes>
            0 -1 25 -1.5639543998986483e-03</internalNodes>
          <leafValues>
            -8.0948406457901001e-01 4.9538481235504150e-01</leafValues></_></weakClassifiers></_>
    <!-- stage 3 -->
    <_>
      <maxWeakCount>6</maxWeakCount>
      <stageThreshold>-1.6955678462982178e+00</stageThreshold>
      <weakClassifiers>
        <_>
          <internalNodes>
            0 -1 22 2.7640060579869896e-05</internalNodes>
          <leafValues>
            -5.9627163410186768e-01 9.9194628000259399e-01</leafValues></_>
        <_>
          <internalNodes>
            0 -1 3 -4.8344023525714874e-03</internalNodes>
          <leafValues>
            8.2179898023605347e-01 -4.8598551750183105e-01</leafValues></_>
        <_>
          <internalNodes>
            0 -1 2 -3.9197625592350960e-03</internalNodes>
          <leafValues>
            7.9350692033767700e-01 -4.1409680247306824e-01</leafValues></_>
        <_>
          <internalNodes>
            0 -1 26 9.5496522262692451e-03</internalNodes>
          <leafValues>
            -7.0115560293197632e-01 4.9523863196372986e-01</leafValues></_>
        <_>
          <internalNodes>
            0 -1 14 3.3770338632166386e-04</internalNodes>
          <leafValues>
            -3.9410361647605896e-01 7.6599848270416260e-01</leafValues></_>
        <_>
          <internalNodes>
            0 -1 6 -4.2105655302293599e-04</internalNodes>
          <leafValues>
            8.8448506593704224e-01 -3.0034881830215454e-01</leafValues></_></weakClassifiers></_>
    <!-- stage 4 -->
    <_>
      <maxWeakCount>5</maxWeakCount>
      <stageThreshold>-1.2890729904174805e+00</stageThreshold>
      <weakClassifiers>
        <_>
          <internalNodes>
            0 -1 20 2.7333089747116901e-05</internalNodes>
          <leafValues>
            -5.9462696313858032e-01 9.9324780702590942e-01</leafValues></_>
        <_>
          <internalNodes>
            0 -1 33 -3.1983392545953393e-04</internalNodes>
          <leafValues>
            7.3949754238128662e-01 -4.8310849070549011e-01</leafValues></_>
        <_>
          <internalNodes>
            0 -1 28 -4.6147465705871582e-02</internalNodes>
          <leafValues>
            5.6051617860794067e-01 -5.9287726879119873e-01</leafValues></_>
        <_>
          <internalNodes>
            0 -1 17 4.7982097021304071e-04</internalNodes>
          <leafValues>
            -4.1881802678108215e-01 7.0510065555572510e-01</leafValues></_>
        <_>
          <internalNodes>
            0 -1 15 -5.7136628311127424e-04</internalNodes>
          <leafValues>
            8.6864215135574341e-01 -3.2356092333793640e-01</leafValues></_></weakClassifiers></_>
    <!-- stage 5 -->
    <_>
      <maxWeakCount>5</maxWeakCount>
      <stageThreshold>-1.2585467100143433e+00</stageThreshold>
      <weakClassifiers>
        <_>
          <internalNodes>
            0 -1 22 2.7640060579869896e-05</internalNodes>
          <leafValues>
            -5.9866577386856079e-01 9.8803985118865967e-01</leafValues></_>
        <_>
          <internalNodes>
            0 -1 1 -3.2145064324140549e-03</internalNodes>
          <leafValues>
            7.3410725593566895e-01 -4.7662502527236938e-01</leafValues></_>
        <_>
          <internalNodes>
            0 -1 7 -1.8111583776772022e-03</internalNodes>
          <leafValues>
            7.7622085809707642e-01 -3.7991660833358765e-01</leafValues></_>
        <_>
          <internalNodes>
            0 -1 16 -9.5862913876771927e-03</internalNodes>
          <leafValues>
            5.2975314855575562e-01 -5.8864367008209229e-01</leafValues></_>
        <_>
          <internalNodes>
            0 -1 12 1.3179316010791808e-04</internalNodes>
          <leafValues>
            -3.3309248089790344e-01 8.3877187967300415e-01</leafValues></_></weakClassifiers></_>
    <!-- stage 6 -->
    <_>
      <maxWeakCount>4</maxWeakCount>
      <stageThreshold>-1.0307049751281738e+00</stageThreshold>
      <weakClassifiers>
        <_>
          <internalNodes>
            0 -1 22 2.7640060579869896e-05</internalNodes>
          <leafValues>
            -5.9925144910812378e-01 9.7630017995834351e-01</leafValues></_>
        <_>
          <internalNodes>
            0 -1 11 4.4962111860513687e-04</internalNodes>
          <leafValues>
            -4.8032909631729126e-01 7.0123088359832764e-01</leafValues></_>
        <_>
          <internalNodes>
            0 -1 24 -1.1478759348392487e-02</internalNodes>
          <leafValues>
            4.4825422763824463e-01 -7.3917526006698608e-01</leafValues></_>
        <_>
          <internalNodes>
            0 -1 32 -7.5453997123986483e-04</internalNodes>
          <leafValues>
            8.1865346431732178e-01 -3.9350914955139160e-01</leafValues></_></weakClassifiers></_>
    <!-- stage 7 -->
    <_>
      <maxWeakCount>5</maxWeakCount>
      <stageThreshold>-1.3059506416320801e+00</stageThreshold>
      <weakClassifiers>
        <_>
          <internalNodes>
            0 -1 19 2.7682490326697007e-05</internalNodes>
          <leafValues>
            -5.9383714199066162e-01 1.</leafValues></_>
        <_>
          <internalNodes>
            0 -1 4 -6.0579215642064810e-04</internalNodes>
          <leafValues>
            6.1149501800537109e-01 -6.2523818016052246e-01</leafValues></_>
        <_>
          <internalNodes>
            0 -1 18 -1.9452145323157310e-02</internalNodes>
          <leafValues>
            -5.3572541475296021e-01 6.3322651386260986e-01</leafValues></_>
        <_>
          <internalNodes>
            0 -1 10 1.0476529132574797e-04</internalNodes>
          <leafValues>
            -3.0627173185348511e-01 8.9713764190673828e-01</leafValues></_>
        <_>
          <internalNodes>
            0 -1 31 2.6363955112174153e-04</internalNodes>
          <leafValues>
            -3.2606577873229980e-01 7.5512188673019409e-01</leafValues></_></weakClassifiers></_></stages>
  <features>
    <_>
      <rects>
        <_>
          0 0 1 12 -1.</_>
        <_>
          0 6 1 6 2.</_></rects>
      <tilted>0</tilted></_>
    <_>
      <rects>
        <_>
          0 0 1 14 -1.</_>
        <_>
          0 7 1 7 2.</_></rects>
      <tilted>0</tilted></_>
    <_>
      <rects>
        <_>
          0 0 1 18 -1.</_>
        <_>
          0 9 1 9 2.</_></rects>
      <tilted>0</tilted></_>
    <_>
      <rects>
        <_>
          0 0 2 10 -1.</_>
        <_>
          0 5 2 5 2.</_></rects>
      <tilted>0</tilted></_>
    <_>
      <rects>
        <_>
          0 0 4 8 -1.</_>
        <_>
          0 4 4 4 2.</_></rects>
      <tilted>0</tilted></_>
    <_>
      <rects>
        <_>
          0 0 10 4 -1.</_>
        <_>
          5 0 5 4 2.</_></rects>
      <tilted>0</tilted></_>
    <_>
      <rects>
        <_>
          0 0 8 4 -1.</_>
        <_>
          0 2 8 2 2.</_></rects>
      <tilted>0</tilted></_>
    <_>
      <rects>
        <_>
          0 0 24 4 -1.</_>
        <_>
          0 2 24 2 2.</_></rects>
      <tilted>0</tilted></_>
    <_>
      <rects>
        <_>
          0 3 24 1 -1.</_>
        <_>
          8 3 8 1 3.</_></rects>
      <tilted>0</tilted></_>
    <_>
      <rects>
        <_>
          0 14 4 4 -1.</_>
        <_>
          2 14 2 4 2.</_></rects>
      <tilted>0</tilted></_>
    <_>
      <rects>
        <_>
          0 15 6 4 -1.</_>
        <_>
          3 15 3 4 2.</_></rects>
      <tilted>0</tilted></_>
    <_>
      <rects>
        <_>
          0 16 1 8 -1.</_>
        <_>
          0 20 1 4 2.</_></rects>
      <tilted>0</tilted></_>
    <_>
      <rects>
        <_>
          0 19 10 1 -1.</_>
        <_>
          5 19 5 1 2.</_></rects>
      <tilted>0</tilted></_>
    <_>
      <rects>
        <_>
          0 20 4 4 -1.</_>
        <_>
          0 22 4 2 2.</_></rects>
      <tilted>0</tilted></_>
    <_>
      <rects>
        <_>
          0 20 7 4 -1.</_>
        <_>
          0 22 7 2 2.</_></rects>
      <tilted>0</tilted></_>
    <_>
      <rects>
        <_>
          1 0 4 12 -1.</_>
        <_>
          1 4 4 4 3.</_></rects>
      <tilted>0</tilted></_>
    <_>
      <rects>
        <_>
          2 9 9 5 -1.</_>
        <_>
          5 9 3 5 3.</_></rects>
      <tilted>0</tilted></_>
    <_>
      <rects>
        <_>
          2 20 21 2 -1.</_>
        <_>
          9 20 7 2 3.</_></rects>
      <tilted>0</tilted></_>
    <_>
      <rects>
        <_>
          3 8 21 11 -1.</_>
        <_>
          10 8 7 11 3.</_></rects>
      <tilted>0</tilted></_>
    <_>
      <rects>
        <_>
          4 0 15 6 -1.</_>
        <_>
          4 3 15 3 2.</_></rects>
      <tilted>0</tilted></_>
    <_>
      <rects>
        <_>
          5 0 14 6 -1.</_>
        <_>
          5 3 14 3 2.</_></rects>
      <tilted>0</tilted></_>
    <_>
      <rects>
        <_>
          5 3 18 9 -1.</_>
        <_>
          11 3 6 9 3.</_></rects>
      <tilted>0</tilted></_>
    <_>
      <rects>
        <_>
          6 0 13 6 -1.</_>
        <_>
          6 3 13 3 2.</_></rects>
      <tilted>0</tilted></_>
    <_>
      <rects>
        <_>
          6 10 18 3 -1.</_>
        <_>
          12 10 6 3 3.</_></rects>
      <tilted>0</tilted></_>
    <_>
      <rects>
        <_>
          7 11 8 4 -1.</_>
        <_>
          7 11 4 2 2.</_>
        <_>
          11 13 4 2 2.</_></rects>
      <tilted>0</tilted></_>
    <_>
      <rects>
        <_>
          9 10 8 8 -1.</_>
        <_>
          13 10 4 8 2.</_></rects>
      <tilted>0</tilted></_>
    <_>
      <rects>
        <_>
          10 9 6 4 -1.</_>
        <_>
          12 9 2 4 3.</_></rects>
      <tilted>0</tilted></_>
    <_>
      <rects>
        <_>
          11 4 6 8 -1.</_>
        <_>
          11 8 6 4 2.</_></rects>
      <tilted>0</tilted></_>
    <_>
      <rects>
        <_>
          11 9 3 9 -1.</_>
        <_>
          11 12 3 3 3.</_></rects>
      <tilted>0</tilted></_>
    <_>
      <rects>
        <_>
          11 9 4 6 -1.</_>
        <_>
          11 12 4 3 2.</_></rects>
      <tilted>0</tilted></_>
    <_>
      <rects>
        <_>
          11 11 4 6 -1.</_>
        <_>
          11 13 4 2 3.</_></rects>
      <tilted>0</tilted></_>
    <_>
      <rects>
        <_>
          20 17 1 6 -1.</_>
        <_>
          20 19 1 2 3.</_></rects>
      <tilted>0</tilted></_>
    <_>
      <rects>
        <_>
          21 0 3 6 -1.</_>
        <_>
          21 3 3 3 2.</_></rects>
      <tilted>0</tilted></_>
    <_>
      <rects>
        <_>
          23 0 1 10 -1.</_>
        <_>
          23 5 1 5 2.</_></rects>
      <tilted>0</tilted></_></features></cascade>
</opencv_storage>
