<?xml version="1.0"?>
<opencv_storage>
<cascade>
  <stageType>BOOST</stageType>
  <featureType>HOG</featureType>
  <height>24</height>
  <width>24</width>
  <stageParams>
    <boostType>GAB</boostType>
    <minHitRate>9.9500000476837158e-01</minHitRate>
    <maxFalseAlarm>5.0000000000000000e-01</maxFalseAlarm>
    <weightTrimRate>9.4999999999999996e-01</weightTrimRate>
    <maxDepth>1</maxDepth>
    <maxWeakCount>100</maxWeakCount></stageParams>
  <featureParams>
    <maxCatCount>0</maxCatCount>
    <featSize>36</featSize></featureParams>
  <stageNum>9</stageNum>
  <stages>
    <!-- stage 0 -->
    <_>
      <maxWeakCount>3</maxWeakCount>
      <stageThreshold>-1.0891443490982056e+00</stageThreshold>
      <weakClassifiers>
        <_>
          <internalNodes>
            0 -1 17 2.7803204953670502e-02</internalNodes>
          <leafValues>
            -8.2385385036468506e-01 5.5659788846969604e-01</leafValues></_>
        <_>
          <internalNodes>
            0 -1 1 3.3178301528096199e-03</internalNodes>
          <leafValues>
            -7.8222376108169556e-01 5.7116699218750000e-01</leafValues></_>
        <_>
          <internalNodes>
            0 -1 23 3.8211189210414886e-02</internalNodes>
          <leafValues>
            5.4787707328796387e-01 -8.3645749092102051e-01</leafValues></_></weakClassifiers></_>
    <!-- stage 1 -->
    <_>
      <maxWeakCount>4</maxWeakCount>
      <stageThreshold>-1.9056887626647949e+00</stageThreshold>
      <weakClassifiers>
        <_>
          <internalNodes>
            0 -1 9 2.4344086647033691e-02</internalNodes>
          <leafValues>
            -7.4640744924545288e-01 4.5867097377777100e-01</leafValues></_>
        <_>
          <internalNodes>
            0 -1 26 4.0382039733231068e-03</internalNodes>
          <leafValues>
            -9.1482162475585938e-01 3.5465541481971741e-01</leafValues></_>
        <_>
          <internalNodes>
            0 -1 18 2.8970879502594471e-03</internalNodes>
          <leafValues>
            -8.5743868350982666e-01 4.5092460513114929e-01</leafValues></_>
        <_>
          <internalNodes>
            0 -1 30 2.6520511601120234e-03</internalNodes>
          <leafValues>
            -6.9538426399230957e-01 4.5621827244758606e-01</leafValues></_></weakClassifiers></_>
    <!-- stage 2 -->
    <_>
      <maxWeakCount>5</maxWeakCount>
      <stageThreshold>-1.5851938724517822e+00</stageThreshold>
      <weakClassifiers>
        <_>
          <internalNodes>
            0 -1 27 1.0060474276542664e-02</internalNodes>
          <leafValues>
            -8.2852363586425781e-01 2.2807016968727112e-01</leafValues></_>
        <_>
          <internalNodes>
            0 -1 17 2.2952757775783539e-02</internalNodes>
          <leafValues>
            -8.0312865972518921e-01 4.3246069550514221e-01</leafValues></_>
        <_>
          <internalNodes>
            0 -1 14 3.6730237305164337e-02</internalNodes>
          <leafValues>
            3.0499204993247986e-01 -8.8863754272460938e-01</leafValues></_>
        <_>
          <internalNodes>
            0 -1 0 2.6919571682810783e-03</internalNodes>
          <leafValues>
            -6.5852153301239014e-01 5.3332751989364624e-01</leafValues></_>
        <_>
          <internalNodes>
            0 -1 28 7.3750858427956700e-04</internalNodes>
          <leafValues>
            -6.9856566190719604e-01 4.1758671402931213e-01</leafValues></_></weakClassifiers></_>
    <!-- stage 3 -->
    <_>
      <maxWeakCount>5</maxWeakCount>
      <stageThreshold>-1.5911991596221924e+00</stageThreshold>
      <weakClassifiers>
        <_>
          <internalNodes>
            0 -1 9 2.7690749615430832e-02</internalNodes>
          <leafValues>
            -6.9506728649139404e-01 3.9778450131416321e-01</leafValues></_>
        <_>
          <internalNodes>
            0 -1 6 5.3074331954121590e-03</internalNodes>
          <leafValues>
            -8.9280223846435547e-01 2.9821133613586426e-01</leafValues></_>
        <_>
          <internalNodes>
            0 -1 27 1.0473027825355530e-02</internalNodes>
          <leafValues>
            -7.0730346441268921e-01 4.7306090593338013e-01</leafValues></_>
        <_>
          <internalNodes>
            0 -1 24 4.9343764781951904e-02</internalNodes>
          <leafValues>
            3.5606968402862549e-01 -7.4983000755310059e-01</leafValues></_>
        <_>
          <internalNodes>
            0 -1 4 5.5966742336750031e-02</internalNodes>
          <leafValues>
            2.8540313243865967e-01 -8.4310948848724365e-01</leafValues></_></weakClassifiers></_>
    <!-- stage 4 -->
    <_>
      <maxWeakCount>5</maxWeakCount>
      <stageThreshold>-1.3055464029312134e+00</stageThreshold>
      <weakClassifiers>
        <_>
          <internalNodes>
            0 -1 25 1.8055291846394539e-02</internalNodes>
          <leafValues>
            -7.2761970758438110e-01 3.6897403001785278e-01</leafValues></_>
        <_>
          <internalNodes>
            0 -1 3 1.8740382045507431e-02</internalNodes>
          <leafValues>
            -5.3183752298355103e-01 5.8633708953857422e-01</leafValues></_>
        <_>
          <internalNodes>
            0 -1 19 2.8691976331174374e-03</internalNodes>
          <leafValues>
            -7.3058784008026123e-01 4.4700682163238525e-01</leafValues></_>
        <_>
          <internalNodes>
            0 -1 21 6.1700165271759033e-02</internalNodes>
          <leafValues>
            3.3311650156974792e-01 -8.3410286903381348e-01</leafValues></_>
        <_>
          <internalNodes>
            0 -1 8 1.2799493968486786e-02</internalNodes>
          <leafValues>
            -6.2142407894134521e-01 3.5138210654258728e-01</leafValues></_></weakClassifiers></_>
    <!-- stage 5 -->
    <_>
      <maxWeakCount>7</maxWeakCount>
      <stageThreshold>-1.3552961349487305e+00</stageThreshold>
      <weakClassifiers>
        <_>
          <internalNodes>
            0 -1 12 4.5451428741216660e-02</internalNodes>
          <leafValues>
            -5.8218389749526978e-01 5.1568627357482910e-01</leafValues></_>
        <_>
          <internalNodes>
            0 -1 2 8.2243949873372912e-04</internalNodes>
          <leafValues>
            -7.0348763465881348e-01 3.5810908675193787e-01</leafValues></_>
        <_>
          <internalNodes>
            0 -1 17 3.3576983958482742e-02</internalNodes>
          <leafValues>
            -5.5393320322036743e-01 5.2433431148529053e-01</leafValues></_>
        <_>
          <internalNodes>
            0 -1 29 4.3363714939914644e-04</internalNodes>
          <leafValues>
            -6.5837287902832031e-01 3.6218461394309998e-01</leafValues></_>
        <_>
          <internalNodes>
            0 -1 7 1.4170015230774879e-02</internalNodes>
          <leafValues>
            -5.6394648551940918e-01 4.6435499191284180e-01</leafValues></_>
        <_>
          <internalNodes>
            0 -1 24 5.3667418658733368e-02</internalNodes>
          <leafValues>
            2.5123909115791321e-01 -7.8528934717178345e-01</leafValues></_>
        <_>
          <internalNodes>
            0 -1 5 2.3814421147108078e-02</internalNodes>
          <leafValues>
            -4.8084089159965515e-01 4.3483141064643860e-01</leafValues></_></weakClassifiers></_>
    <!-- stage 6 -->
    <_>
      <maxWeakCount>8</maxWeakCount>
      <stageThreshold>-1.1563924551010132e+00</stageThreshold>
      <weakClassifiers>
        <_>
          <internalNodes>
            0 -1 3 3.7334151566028595e-02</internalNodes>
          <leafValues>
            -5.1926606893539429e-01 7.0218980312347412e-01</leafValues></_>
        <_>
          <internalNodes>
            0 -1 0 1.3327133841812611e-02</internalNodes>
          <leafValues>
            -4.4094893336296082e-01 5.3510367870330811e-01</leafValues></_>
        <_>
          <internalNodes>
            0 -1 17 1.3841592706739902e-02</internalNodes>
          <leafValues>
            -8.5438489913940430e-01 2.8173571825027466e-01</leafValues></_>
        <_>
          <internalNodes>
            0 -1 27 4.5288074761629105e-03</internalNodes>
          <leafValues>
            -8.5281300544738770e-01 3.2102304697036743e-01</leafValues></_>
        <_>
          <internalNodes>
            0 -1 20 5.0010427832603455e-02</internalNodes>
          <leafValues>
            1.5945956110954285e-01 -8.2172423601150513e-01</leafValues></_>
        <_>
          <internalNodes>
            0 -1 13 2.8141200542449951e-02</internalNodes>
          <leafValues>
            -4.6052560210227966e-01 5.2157729864120483e-01</leafValues></_>
        <_>
          <internalNodes>
            0 -1 9 1.2877324596047401e-02</internalNodes>
          <leafValues>
            -6.4248126745223999e-01 2.7564945816993713e-01</leafValues></_>
        <_>
          <internalNodes>
            0 -1 1 4.0876353159546852e-03</internalNodes>
          <leafValues>
            -5.7665532827377319e-01 4.1035524010658264e-01</leafValues></_></weakClassifiers></_>
    <!-- stage 7 -->
    <_>
      <maxWeakCount>8</maxWeakCount>
      <stageThreshold>-1.1781831979751587e+00</stageThreshold>
      <weakClassifiers>
        <_>
          <internalNodes>
            0 -1 17 6.4854212105274200e-02</internalNodes>
          <leafValues>
            -4.9339371919631958e-01 8.7464386224746704e-01</leafValues></_>
        <_>
          <internalNodes>
            0 -1 18 4.2440928518772125e-03</internalNodes>
          <leafValues>
            -7.5804483890533447e-01 2.8406295180320740e-01</leafValues></_>
        <_>
          <internalNodes>
            0 -1 16 8.0992328003048897e-03</internalNodes>
          <leafValues>
            -6.5745615959167480e-01 3.0589964985847473e-01</leafValues></_>
        <_>
          <internalNodes>
            0 -1 12 2.8127683326601982e-02</internalNodes>
          <leafValues>
            -5.5628120899200439e-01 4.2639985680580139e-01</leafValues></_>
        <_>
          <internalNodes>
            0 -1 25 2.2434333339333534e-02</internalNodes>
          <leafValues>
            -4.4556516408920288e-01 5.1103764772415161e-01</leafValues></_>
        <_>
          <internalNodes>
            0 -1 22 1.5291307121515274e-02</internalNodes>
          <leafValues>
            -6.1887526512145996e-01 4.0388149023056030e-01</leafValues></_>
        <_>
          <internalNodes>
            0 -1 3 1.0453969007357955e-03</internalNodes>
          <leafValues>
            -8.4902215003967285e-01 1.6032631695270538e-01</leafValues></_>
        <_>
          <internalNodes>
            0 -1 11 2.0636955276131630e-02</internalNodes>
          <leafValues>
            2.9021281003952026e-01 -7.8436779975891113e-01</leafValues></_></weakClassifiers></_>
    <!-- stage 8 -->
    <_>
      <maxWeakCount>9</maxWeakCount>
      <stageThreshold>-1.5520251989364624e+00</stageThreshold>
      <weakClassifiers>
        <_>
          <internalNodes>
            0 -1 3 3.2155804336071014e-02</internalNodes>
          <leafValues>
            -5.4556667804718018e-01 5.7604229450225830e-01</leafValues></_>
        <_>
          <internalNodes>
            0 -1 7 2.5259319692850113e-02</internalNodes>
          <leafValues>
            -3.9009821414947510e-01 5.7277935743331909e-01</leafValues></_>
        <_>
          <internalNodes>
            0 -1 25 1.1208329349756241e-02</internalNodes>
          <leafValues>
            -6.9932109117507935e-01 3.1639751791954041e-01</leafValues></_>
        <_>
          <internalNodes>
            0 -1 10 1.3407686725258827e-02</internalNodes>
          <leafValues>
            -3.5700380802154541e-01 6.0286676883697510e-01</leafValues></_>
        <_>
          <internalNodes>
            0 -1 12 3.5084739327430725e-02</internalNodes>
          <leafValues>
            -3.8565650582313538e-01 5.3811299800872803e-01</leafValues></_>
        <_>
          <internalNodes>
            0 -1 31 3.1789556145668030e-02</internalNodes>
          <leafValues>
            -3.5645830631256104e-01 5.8228892087936401e-01</leafValues></_>
        <_>
          <internalNodes>
            0 -1 17 3.7491600960493088e-02</internalNodes>
          <leafValues>
            -3.4510129690170288e-01 5.6706196069717407e-01</leafValues></_>
        <_>
          <internalNodes>
            0 -1 15 5.3805090487003326e-02</internalNodes>
          <leafValues>
            2.8871718049049377e-01 -7.8645873069763184e-01</leafValues></_>
        <_>
          <internalNodes>
            0 -1 2 4.1415756568312645e-03</internalNodes>
          <leafValues>
            -5.7712000608444214e-01 3.2038146257400513e-01</leafValues></_></weakClassifiers></_></stages>
  <features>
    <_>
      <rect>
        0 0 8 8 0</rect></_>
    <_>
      <rect>
        0 0 8 8 2</rect></_>
    <_>
      <rect>
        0 0 8 8 3</rect></_>
    <_>
      <rect>
        0 0 8 8 4</rect></_>
    <_>
      <rect>
        0 0 8 8 28</rect></_>
    <_>
      <rect>
        0 8 8 8 22</rect></_>
    <_>
      <rect>
        0 8 8 8 23</rect></_>
    <_>
      <rect>
        0 8 8 8 25</rect></_>
    <_>
      <rect>
        0 8 8 8 34</rect></_>
    <_>
      <rect>
        4 0 8 8 12</rect></_>
    <_>
      <rect>
        4 0 8 8 16</rect></_>
    <_>
      <rect>
        4 4 8 8 6</rect></_>
    <_>
      <rect>
        4 4 8 8 12</rect></_>
    <_>
      <rect>
        4 4 8 8 18</rect></_>
    <_>
      <rect>
        4 8 8 8 10</rect></_>
    <_>
      <rect>
        4 8 8 8 17</rect></_>
    <_>
      <rect>
        4 8 8 8 34</rect></_>
    <_>
      <rect>
        8 0 8 8 13</rect></_>
    <_>
      <rect>
        8 0 8 8 14</rect></_>
    <_>
      <rect>
        8 0 8 8 16</rect></_>
    <_>
      <rect>
        8 0 8 8 19</rect></_>
    <_>
      <rect>
        8 0 8 8 24</rect></_>
    <_>
      <rect>
        8 4 8 8 31</rect></_>
    <_>
      <rect>
        8 8 8 8 1</rect></_>
    <_>
      <rect>
        8 8 8 8 8</rect></_>
    <_>
      <rect>
        8 8 8 8 27</rect></_>
    <_>
      <rect>
        8 8 8 8 29</rect></_>
    <_>
      <rect>
        8 8 8 8 30</rect></_>
    <_>
      <rect>
        8 8 8 8 32</rect></_>
    <_>
      <rect>
        8 8 8 8 33</rect></_>
    <_>
      <rect>
        8 8 8 8 34</rect></_>
    <_>
      <rect>
        8 8 8 8 35</rect></_></features></cascade>
</opencv_storage>
