<?xml version="1.0"?>
<opencv_storage>
<cascade>
  <stageType>BOOST</stageType>
  <featureType>HAAR</featureType>
  <height>24</height>
  <width>24</width>
  <stageParams>
    <boostType>GAB</boostType>
    <minHitRate>9.9500000476837158e-01</minHitRate>
    <maxFalseAlarm>5.0000000000000000e-01</maxFalseAlarm>
    <weightTrimRate>9.4999999999999996e-01</weightTrimRate>
    <maxDepth>1</maxDepth>
    <maxWeakCount>100</maxWeakCount></stageParams>
  <featureParams>
    <maxCatCount>0</maxCatCount>
    <featSize>1</featSize>
    <mode>BASIC</mode></featureParams>
  <stageNum>5</stageNum>
  <stages>
    <!-- stage 0 -->
    <_>
      <maxWeakCount>3</maxWeakCount>
      <stageThreshold>-8.9542698860168457e-01</stageThreshold>
      <weakClassifiers>
        <_>
          <internalNodes>
            0 -1 3 -2.7932111173868179e-02</internalNodes>
          <leafValues>
            -9.2817866802215576e-01 7.5534594058990479e-01</leafValues></_>
        <_>
          <internalNodes>
            0 -1 13 -2.7029909193515778e-02</internalNodes>
          <leafValues>
            6.8547838926315308e-01 -9.4019895792007446e-01</leafValues></_>
        <_>
          <internalNodes>
            0 -1 10 7.5296440627425909e-05</internalNodes>
          <leafValues>
            -6.5272665023803711e-01 9.9497240781784058e-01</leafValues></_></weakClassifiers></_>
    <!-- stage 1 -->
    <_>
      <maxWeakCount>5</maxWeakCount>
      <stageThreshold>-1.0241408348083496e+00</stageThreshold>
      <weakClassifiers>
        <_>
          <internalNodes>
            0 -1 5 2.7598212473094463e-03</internalNodes>
          <leafValues>
            -8.8576644659042358e-01 5.2670454978942871e-01</leafValues></_>
        <_>
          <internalNodes>
            0 -1 8 6.3467079598922282e-05</internalNodes>
          <leafValues>
            -6.0236281156539917e-01 9.8380047082901001e-01</leafValues></_>
        <_>
          <internalNodes>
            0 -1 0 -4.4339487794786692e-04</internalNodes>
          <leafValues>
            8.2285654544830322e-01 -6.4544415473937988e-01</leafValues></_>
        <_>
          <internalNodes>
            0 -1 11 1.5496917068958282e-02</internalNodes>
          <leafValues>
            -8.4221071004867554e-01 5.5204015970230103e-01</leafValues></_>
        <_>
          <internalNodes>
            0 -1 15 2.8484154492616653e-02</internalNodes>
          <leafValues>
            5.5739235877990723e-01 -8.0362731218338013e-01</leafValues></_></weakClassifiers></_>
    <!-- stage 2 -->
    <_>
      <maxWeakCount>4</maxWeakCount>
      <stageThreshold>-1.1628661155700684e+00</stageThreshold>
      <weakClassifiers>
        <_>
          <internalNodes>
            0 -1 7 2.0782132196472958e-05</internalNodes>
          <leafValues>
            -6.8756192922592163e-01 9.6171754598617554e-01</leafValues></_>
        <_>
          <internalNodes>
            0 -1 14 -2.7179941534996033e-02</internalNodes>
          <leafValues>
            6.0562574863433838e-01 -7.4993944168090820e-01</leafValues></_>
        <_>
          <internalNodes>
            0 -1 1 -5.0437692552804947e-03</internalNodes>
          <leafValues>
            7.9667997360229492e-01 -5.7501989603042603e-01</leafValues></_>
        <_>
          <internalNodes>
            0 -1 16 -1.1715535219991580e-04</internalNodes>
          <leafValues>
            8.4965521097183228e-01 -4.3868410587310791e-01</leafValues></_></weakClassifiers></_>
    <!-- stage 3 -->
    <_>
      <maxWeakCount>4</maxWeakCount>
      <stageThreshold>-1.4354034662246704e+00</stageThreshold>
      <weakClassifiers>
        <_>
          <internalNodes>
            0 -1 7 2.0782132196472958e-05</internalNodes>
          <leafValues>
            -6.8610632419586182e-01 8.9820361137390137e-01</leafValues></_>
        <_>
          <internalNodes>
            0 -1 4 -1.1066600680351257e-02</internalNodes>
          <leafValues>
            -6.5934717655181885e-01 6.6031974554061890e-01</leafValues></_>
        <_>
          <internalNodes>
            0 -1 12 -1.4117405749857426e-02</internalNodes>
          <leafValues>
            5.0181323289871216e-01 -8.7548863887786865e-01</leafValues></_>
        <_>
          <internalNodes>
            0 -1 17 -2.3966036678757519e-04</internalNodes>
          <leafValues>
            6.4508265256881714e-01 -5.9176313877105713e-01</leafValues></_></weakClassifiers></_>
    <!-- stage 4 -->
    <_>
      <maxWeakCount>6</maxWeakCount>
      <stageThreshold>-2.1275777816772461e+00</stageThreshold>
      <weakClassifiers>
        <_>
          <internalNodes>
            0 -1 2 -6.8168994039297104e-03</internalNodes>
          <leafValues>
            -7.7609294652938843e-01 6.4655482769012451e-01</leafValues></_>
        <_>
          <internalNodes>
            0 -1 8 6.3467079598922282e-05</internalNodes>
          <leafValues>
            -5.2106368541717529e-01 8.6920332908630371e-01</leafValues></_>
        <_>
          <internalNodes>
            0 -1 0 -3.7929085083305836e-03</internalNodes>
          <leafValues>
            8.2437044382095337e-01 -4.9017968773841858e-01</leafValues></_>
        <_>
          <internalNodes>
            0 -1 6 -3.8079582154750824e-03</internalNodes>
          <leafValues>
            -9.3550705909729004e-01 4.3512171506881714e-01</leafValues></_>
        <_>
          <internalNodes>
            0 -1 18 3.3154257107526064e-04</internalNodes>
          <leafValues>
            -4.8718535900115967e-01 8.0700784921646118e-01</leafValues></_>
        <_>
          <internalNodes>
            0 -1 9 -4.5289139961823821e-04</internalNodes>
          <leafValues>
            9.5180583000183105e-01 -3.0781617760658264e-01</leafValues></_></weakClassifiers></_></stages>
  <features>
    <_>
      <rects>
        <_>
          0 0 1 12 -1.</_>
        <_>
          0 6 1 6 2.</_></rects>
      <tilted>0</tilted></_>
    <_>
      <rects>
        <_>
          0 0 2 10 -1.</_>
        <_>
          0 5 2 5 2.</_></rects>
      <tilted>0</tilted></_>
    <_>
      <rects>
        <_>
          0 4 10 18 -1.</_>
        <_>
          5 4 5 18 2.</_></rects>
      <tilted>0</tilted></_>
    <_>
      <rects>
        <_>
          0 5 12 14 -1.</_>
        <_>
          6 5 6 14 2.</_></rects>
      <tilted>0</tilted></_>
    <_>
      <rects>
        <_>
          0 6 10 13 -1.</_>
        <_>
          5 6 5 13 2.</_></rects>
      <tilted>0</tilted></_>
    <_>
      <rects>
        <_>
          0 14 24 8 -1.</_>
        <_>
          8 14 8 8 3.</_></rects>
      <tilted>0</tilted></_>
    <_>
      <rects>
        <_>
          4 14 8 3 -1.</_>
        <_>
          8 14 4 3 2.</_></rects>
      <tilted>0</tilted></_>
    <_>
      <rects>
        <_>
          7 0 11 8 -1.</_>
        <_>
          7 4 11 4 2.</_></rects>
      <tilted>0</tilted></_>
    <_>
      <rects>
        <_>
          8 0 9 8 -1.</_>
        <_>
          8 4 9 4 2.</_></rects>
      <tilted>0</tilted></_>
    <_>
      <rects>
        <_>
          8 20 16 3 -1.</_>
        <_>
          16 20 8 3 2.</_></rects>
      <tilted>0</tilted></_>
    <_>
      <rects>
        <_>
          9 0 8 8 -1.</_>
        <_>
          9 4 8 4 2.</_></rects>
      <tilted>0</tilted></_>
    <_>
      <rects>
        <_>
          10 11 3 9 -1.</_>
        <_>
          10 14 3 3 3.</_></rects>
      <tilted>0</tilted></_>
    <_>
      <rects>
        <_>
          11 10 4 4 -1.</_>
        <_>
          11 12 4 2 2.</_></rects>
      <tilted>0</tilted></_>
    <_>
      <rects>
        <_>
          11 10 4 6 -1.</_>
        <_>
          11 12 4 2 3.</_></rects>
      <tilted>0</tilted></_>
    <_>
      <rects>
        <_>
          13 10 3 6 -1.</_>
        <_>
          13 12 3 2 3.</_></rects>
      <tilted>0</tilted></_>
    <_>
      <rects>
        <_>
          16 7 8 12 -1.</_>
        <_>
          20 7 4 12 2.</_></rects>
      <tilted>0</tilted></_>
    <_>
      <rects>
        <_>
          23 0 1 8 -1.</_>
        <_>
          23 4 1 4 2.</_></rects>
      <tilted>0</tilted></_>
    <_>
      <rects>
        <_>
          23 0 1 10 -1.</_>
        <_>
          23 5 1 5 2.</_></rects>
      <tilted>0</tilted></_>
    <_>
      <rects>
        <_>
          23 16 1 8 -1.</_>
        <_>
          23 20 1 4 2.</_></rects>
      <tilted>0</tilted></_></features></cascade>
</opencv_storage>
