<?xml version="1.0"?>
<opencv_storage>
<cascade>
  <stageType>BOOST</stageType>
  <featureType>HOG</featureType>
  <height>24</height>
  <width>24</width>
  <stageParams>
    <boostType>GAB</boostType>
    <minHitRate>9.9500000476837158e-01</minHitRate>
    <maxFalseAlarm>5.0000000000000000e-01</maxFalseAlarm>
    <weightTrimRate>9.4999999999999996e-01</weightTrimRate>
    <maxDepth>1</maxDepth>
    <maxWeakCount>100</maxWeakCount></stageParams>
  <featureParams>
    <maxCatCount>0</maxCatCount>
    <featSize>36</featSize></featureParams>
  <stageNum>7</stageNum>
  <stages>
    <!-- stage 0 -->
    <_>
      <maxWeakCount>5</maxWeakCount>
      <stageThreshold>-1.4819943904876709e+00</stageThreshold>
      <weakClassifiers>
        <_>
          <internalNodes>
            0 -1 19 3.4022711217403412e-02</internalNodes>
          <leafValues>
            -6.9712555408477783e-01 6.7280334234237671e-01</leafValues></_>
        <_>
          <internalNodes>
            0 -1 1 3.2260969746857882e-03</internalNodes>
          <leafValues>
            -8.0107069015502930e-01 5.9000563621520996e-01</leafValues></_>
        <_>
          <internalNodes>
            0 -1 13 6.7340000532567501e-04</internalNodes>
          <leafValues>
            -8.9223158359527588e-01 3.5886198282241821e-01</leafValues></_>
        <_>
          <internalNodes>
            0 -1 26 1.1453250423073769e-02</internalNodes>
          <leafValues>
            -7.1687722206115723e-01 4.8722055554389954e-01</leafValues></_>
        <_>
          <internalNodes>
            0 -1 4 6.8753950297832489e-02</internalNodes>
          <leafValues>
            3.7421709299087524e-01 -8.5702782869338989e-01</leafValues></_></weakClassifiers></_>
    <!-- stage 1 -->
    <_>
      <maxWeakCount>7</maxWeakCount>
      <stageThreshold>-1.5138723850250244e+00</stageThreshold>
      <weakClassifiers>
        <_>
          <internalNodes>
            0 -1 0 1.1877820827066898e-02</internalNodes>
          <leafValues>
            -7.0558047294616699e-01 5.0651228427886963e-01</leafValues></_>
        <_>
          <internalNodes>
            0 -1 19 2.8906382620334625e-02</internalNodes>
          <leafValues>
            -6.2699872255325317e-01 5.9969389438629150e-01</leafValues></_>
        <_>
          <internalNodes>
            0 -1 27 1.7551377415657043e-02</internalNodes>
          <leafValues>
            -7.3842865228652954e-01 5.2780610322952271e-01</leafValues></_>
        <_>
          <internalNodes>
            0 -1 16 2.9995445162057877e-02</internalNodes>
          <leafValues>
            -5.4025489091873169e-01 5.1811075210571289e-01</leafValues></_>
        <_>
          <internalNodes>
            0 -1 2 1.1608295608311892e-03</internalNodes>
          <leafValues>
            -6.9819116592407227e-01 3.9507958292961121e-01</leafValues></_>
        <_>
          <internalNodes>
            0 -1 14 3.0712536536157131e-03</internalNodes>
          <leafValues>
            -7.5773984193801880e-01 3.5759073495864868e-01</leafValues></_>
        <_>
          <internalNodes>
            0 -1 18 4.5562151819467545e-02</internalNodes>
          <leafValues>
            3.4472000598907471e-01 -7.2153115272521973e-01</leafValues></_></weakClassifiers></_>
    <!-- stage 2 -->
    <_>
      <maxWeakCount>6</maxWeakCount>
      <stageThreshold>-9.0946406126022339e-01</stageThreshold>
      <weakClassifiers>
        <_>
          <internalNodes>
            0 -1 3 3.5155542194843292e-02</internalNodes>
          <leafValues>
            -5.8830934762954712e-01 6.5278530120849609e-01</leafValues></_>
        <_>
          <internalNodes>
            0 -1 21 3.2754982821643353e-03</internalNodes>
          <leafValues>
            -6.3477766513824463e-01 5.2527427673339844e-01</leafValues></_>
        <_>
          <internalNodes>
            0 -1 0 2.9183141887187958e-03</internalNodes>
          <leafValues>
            -7.0176297426223755e-01 4.1397270560264587e-01</leafValues></_>
        <_>
          <internalNodes>
            0 -1 12 2.3889712989330292e-02</internalNodes>
          <leafValues>
            -5.6578207015991211e-01 5.1922571659088135e-01</leafValues></_>
        <_>
          <internalNodes>
            0 -1 26 5.4750861600041389e-03</internalNodes>
          <leafValues>
            -8.6332100629806519e-01 3.4159755706787109e-01</leafValues></_>
        <_>
          <internalNodes>
            0 -1 19 1.5461381990462542e-03</internalNodes>
          <leafValues>
            -9.1630643606185913e-01 2.7356237173080444e-01</leafValues></_></weakClassifiers></_>
    <!-- stage 3 -->
    <_>
      <maxWeakCount>6</maxWeakCount>
      <stageThreshold>-1.2807732820510864e+00</stageThreshold>
      <weakClassifiers>
        <_>
          <internalNodes>
            0 -1 15 1.1845915578305721e-02</internalNodes>
          <leafValues>
            3.7588652968406677e-01 -7.3284697532653809e-01</leafValues></_>
        <_>
          <internalNodes>
            0 -1 3 1.3658497482538223e-02</internalNodes>
          <leafValues>
            -6.5528422594070435e-01 3.1707128882408142e-01</leafValues></_>
        <_>
          <internalNodes>
            0 -1 20 4.3342304416000843e-03</internalNodes>
          <leafValues>
            -6.2413960695266724e-01 3.9649310708045959e-01</leafValues></_>
        <_>
          <internalNodes>
            0 -1 25 2.6796504389494658e-03</internalNodes>
          <leafValues>
            -7.8681039810180664e-01 3.2144850492477417e-01</leafValues></_>
        <_>
          <internalNodes>
            0 -1 17 5.0422042608261108e-02</internalNodes>
          <leafValues>
            2.6222720742225647e-01 -8.9750814437866211e-01</leafValues></_>
        <_>
          <internalNodes>
            0 -1 8 2.2062987089157104e-02</internalNodes>
          <leafValues>
            2.8372520208358765e-01 -7.6420283317565918e-01</leafValues></_></weakClassifiers></_>
    <!-- stage 4 -->
    <_>
      <maxWeakCount>7</maxWeakCount>
      <stageThreshold>-1.2952046394348145e+00</stageThreshold>
      <weakClassifiers>
        <_>
          <internalNodes>
            0 -1 27 3.7485502660274506e-02</internalNodes>
          <leafValues>
            -5.8777713775634766e-01 3.9759036898612976e-01</leafValues></_>
        <_>
          <internalNodes>
            0 -1 0 1.5899449586868286e-02</internalNodes>
          <leafValues>
            -4.4393199682235718e-01 5.6316381692886353e-01</leafValues></_>
        <_>
          <internalNodes>
            0 -1 16 2.3268437013030052e-02</internalNodes>
          <leafValues>
            -6.2864041328430176e-01 3.8574355840682983e-01</leafValues></_>
        <_>
          <internalNodes>
            0 -1 5 5.9726193547248840e-02</internalNodes>
          <leafValues>
            3.0816331505775452e-01 -7.0295912027359009e-01</leafValues></_>
        <_>
          <internalNodes>
            0 -1 6 2.5726404041051865e-02</internalNodes>
          <leafValues>
            2.6236623525619507e-01 -6.8918514251708984e-01</leafValues></_>
        <_>
          <internalNodes>
            0 -1 21 1.3712516054511070e-02</internalNodes>
          <leafValues>
            -3.3639627695083618e-01 6.1141872406005859e-01</leafValues></_>
        <_>
          <internalNodes>
            0 -1 3 1.7161977011710405e-03</internalNodes>
          <leafValues>
            -9.3891674280166626e-01 2.4936158955097198e-01</leafValues></_></weakClassifiers></_>
    <!-- stage 5 -->
    <_>
      <maxWeakCount>8</maxWeakCount>
      <stageThreshold>-1.2792634963989258e+00</stageThreshold>
      <weakClassifiers>
        <_>
          <internalNodes>
            0 -1 19 3.7131644785404205e-02</internalNodes>
          <leafValues>
            -6.3833868503570557e-01 3.6350363492965698e-01</leafValues></_>
        <_>
          <internalNodes>
            0 -1 16 3.8847126066684723e-02</internalNodes>
          <leafValues>
            -4.0379720926284790e-01 5.5920541286468506e-01</leafValues></_>
        <_>
          <internalNodes>
            0 -1 0 1.2785883620381355e-02</internalNodes>
          <leafValues>
            -4.4787314534187317e-01 4.3011063337326050e-01</leafValues></_>
        <_>
          <internalNodes>
            0 -1 14 2.4220338091254234e-03</internalNodes>
          <leafValues>
            -7.0305472612380981e-01 2.5952115654945374e-01</leafValues></_>
        <_>
          <internalNodes>
            0 -1 23 1.3993419706821442e-02</internalNodes>
          <leafValues>
            -6.0213524103164673e-01 3.0041202902793884e-01</leafValues></_>
        <_>
          <internalNodes>
            0 -1 11 6.4624547958374023e-02</internalNodes>
          <leafValues>
            2.3348489403724670e-01 -8.4338361024856567e-01</leafValues></_>
        <_>
          <internalNodes>
            0 -1 7 2.1606430411338806e-02</internalNodes>
          <leafValues>
            2.8140988945960999e-01 -5.6670677661895752e-01</leafValues></_>
        <_>
          <internalNodes>
            0 -1 10 1.0910855606198311e-02</internalNodes>
          <leafValues>
            -6.7704278230667114e-01 2.3734956979751587e-01</leafValues></_></weakClassifiers></_>
    <!-- stage 6 -->
    <_>
      <maxWeakCount>11</maxWeakCount>
      <stageThreshold>-1.8720657825469971e+00</stageThreshold>
      <weakClassifiers>
        <_>
          <internalNodes>
            0 -1 19 2.0283821970224380e-02</internalNodes>
          <leafValues>
            -8.0165290832519531e-01 1.0594315081834793e-01</leafValues></_>
        <_>
          <internalNodes>
            0 -1 22 1.7171259969472885e-02</internalNodes>
          <leafValues>
            -7.0914322137832642e-01 1.9544796645641327e-01</leafValues></_>
        <_>
          <internalNodes>
            0 -1 19 6.7802082048729062e-04</internalNodes>
          <leafValues>
            -9.4093459844589233e-01 1.6586668789386749e-01</leafValues></_>
        <_>
          <internalNodes>
            0 -1 15 1.5385160222649574e-02</internalNodes>
          <leafValues>
            3.1596079468727112e-01 -6.1066412925720215e-01</leafValues></_>
        <_>
          <internalNodes>
            0 -1 8 2.6461083441972733e-02</internalNodes>
          <leafValues>
            2.2634649276733398e-01 -7.6707690954208374e-01</leafValues></_>
        <_>
          <internalNodes>
            0 -1 24 1.9563857931643724e-03</internalNodes>
          <leafValues>
            -6.8713450431823730e-01 2.5415405631065369e-01</leafValues></_>
        <_>
          <internalNodes>
            0 -1 21 1.4232974499464035e-02</internalNodes>
          <leafValues>
            -3.3234542608261108e-01 6.0851955413818359e-01</leafValues></_>
        <_>
          <internalNodes>
            0 -1 3 2.5488356128334999e-02</internalNodes>
          <leafValues>
            -4.2306903004646301e-01 5.9693062305450439e-01</leafValues></_>
        <_>
          <internalNodes>
            0 -1 9 1.7520004883408546e-02</internalNodes>
          <leafValues>
            -4.7156128287315369e-01 3.6002102494239807e-01</leafValues></_>
        <_>
          <internalNodes>
            0 -1 0 2.0622286945581436e-02</internalNodes>
          <leafValues>
            -3.0244043469429016e-01 6.3607484102249146e-01</leafValues></_>
        <_>
          <internalNodes>
            0 -1 17 4.2783260345458984e-02</internalNodes>
          <leafValues>
            2.4251578748226166e-01 -7.3389792442321777e-01</leafValues></_></weakClassifiers></_></stages>
  <features>
    <_>
      <rect>
        0 0 8 8 0</rect></_>
    <_>
      <rect>
        0 0 8 8 2</rect></_>
    <_>
      <rect>
        0 0 8 8 3</rect></_>
    <_>
      <rect>
        0 0 8 8 4</rect></_>
    <_>
      <rect>
        0 0 8 8 28</rect></_>
    <_>
      <rect>
        0 0 8 8 35</rect></_>
    <_>
      <rect>
        0 4 8 8 10</rect></_>
    <_>
      <rect>
        0 4 8 8 14</rect></_>
    <_>
      <rect>
        0 4 8 8 15</rect></_>
    <_>
      <rect>
        0 4 8 8 21</rect></_>
    <_>
      <rect>
        0 8 8 8 5</rect></_>
    <_>
      <rect>
        0 8 8 8 17</rect></_>
    <_>
      <rect>
        0 8 8 8 22</rect></_>
    <_>
      <rect>
        0 8 8 8 23</rect></_>
    <_>
      <rect>
        0 8 8 8 25</rect></_>
    <_>
      <rect>
        4 4 8 8 17</rect></_>
    <_>
      <rect>
        4 4 8 8 21</rect></_>
    <_>
      <rect>
        4 4 8 8 28</rect></_>
    <_>
      <rect>
        4 8 8 8 17</rect></_>
    <_>
      <rect>
        8 0 8 8 13</rect></_>
    <_>
      <rect>
        8 0 8 8 14</rect></_>
    <_>
      <rect>
        8 0 8 8 16</rect></_>
    <_>
      <rect>
        8 4 8 8 30</rect></_>
    <_>
      <rect>
        8 4 8 8 32</rect></_>
    <_>
      <rect>
        8 8 8 8 27</rect></_>
    <_>
      <rect>
        8 8 8 8 29</rect></_>
    <_>
      <rect>
        8 8 8 8 30</rect></_>
    <_>
      <rect>
        8 8 8 8 31</rect></_></features></cascade>
</opencv_storage>
