<?xml version="1.0"?>
<opencv_storage>
<cascade>
  <stageType>BOOST</stageType>
  <featureType>HOG</featureType>
  <height>24</height>
  <width>24</width>
  <stageParams>
    <boostType>GAB</boostType>
    <minHitRate>9.9500000476837158e-01</minHitRate>
    <maxFalseAlarm>5.0000000000000000e-01</maxFalseAlarm>
    <weightTrimRate>9.4999999999999996e-01</weightTrimRate>
    <maxDepth>1</maxDepth>
    <maxWeakCount>100</maxWeakCount></stageParams>
  <featureParams>
    <maxCatCount>0</maxCatCount>
    <featSize>36</featSize></featureParams>
  <stageNum>9</stageNum>
  <stages>
    <!-- stage 0 -->
    <_>
      <maxWeakCount>3</maxWeakCount>
      <stageThreshold>-8.1149715185165405e-01</stageThreshold>
      <weakClassifiers>
        <_>
          <internalNodes>
            0 -1 0 1.2885075993835926e-02</internalNodes>
          <leafValues>
            -7.4849730730056763e-01 6.4675128459930420e-01</leafValues></_>
        <_>
          <internalNodes>
            0 -1 17 2.9456496238708496e-02</internalNodes>
          <leafValues>
            -6.7973655462265015e-01 7.4640083312988281e-01</leafValues></_>
        <_>
          <internalNodes>
            0 -1 25 2.0021688193082809e-02</internalNodes>
          <leafValues>
            -7.7284145355224609e-01 6.1673671007156372e-01</leafValues></_></weakClassifiers></_>
    <!-- stage 1 -->
    <_>
      <maxWeakCount>5</maxWeakCount>
      <stageThreshold>-1.1093068122863770e+00</stageThreshold>
      <weakClassifiers>
        <_>
          <internalNodes>
            0 -1 24 1.9257612526416779e-02</internalNodes>
          <leafValues>
            -7.4731278419494629e-01 3.7323307991027832e-01</leafValues></_>
        <_>
          <internalNodes>
            0 -1 17 8.7899249047040939e-03</internalNodes>
          <leafValues>
            -8.5014486312866211e-01 3.9458942413330078e-01</leafValues></_>
        <_>
          <internalNodes>
            0 -1 1 4.1080312803387642e-03</internalNodes>
          <leafValues>
            -7.5350171327590942e-01 4.7452059388160706e-01</leafValues></_>
        <_>
          <internalNodes>
            0 -1 6 2.1192662417888641e-02</internalNodes>
          <leafValues>
            4.8394608497619629e-01 -7.4284380674362183e-01</leafValues></_>
        <_>
          <internalNodes>
            0 -1 3 4.3689496815204620e-02</internalNodes>
          <leafValues>
            -3.6407187581062317e-01 8.7594389915466309e-01</leafValues></_></weakClassifiers></_>
    <!-- stage 2 -->
    <_>
      <maxWeakCount>7</maxWeakCount>
      <stageThreshold>-1.7118072509765625e+00</stageThreshold>
      <weakClassifiers>
        <_>
          <internalNodes>
            0 -1 17 4.0560424327850342e-02</internalNodes>
          <leafValues>
            -6.4483737945556641e-01 5.5994844436645508e-01</leafValues></_>
        <_>
          <internalNodes>
            0 -1 0 1.6153566539287567e-02</internalNodes>
          <leafValues>
            -5.4110997915267944e-01 6.4929562807083130e-01</leafValues></_>
        <_>
          <internalNodes>
            0 -1 25 3.9592280983924866e-02</internalNodes>
          <leafValues>
            -3.9547532796859741e-01 7.0602267980575562e-01</leafValues></_>
        <_>
          <internalNodes>
            0 -1 18 5.2284514531493187e-03</internalNodes>
          <leafValues>
            -4.9422982335090637e-01 5.9791982173919678e-01</leafValues></_>
        <_>
          <internalNodes>
            0 -1 24 1.0071494616568089e-02</internalNodes>
          <leafValues>
            -7.3900830745697021e-01 3.4991937875747681e-01</leafValues></_>
        <_>
          <internalNodes>
            0 -1 4 7.1807533502578735e-02</internalNodes>
          <leafValues>
            3.1283259391784668e-01 -8.5885632038116455e-01</leafValues></_>
        <_>
          <internalNodes>
            0 -1 3 4.7781057655811310e-02</internalNodes>
          <leafValues>
            -2.9890665411949158e-01 8.1225818395614624e-01</leafValues></_></weakClassifiers></_>
    <!-- stage 3 -->
    <_>
      <maxWeakCount>5</maxWeakCount>
      <stageThreshold>-1.0466456413269043e+00</stageThreshold>
      <weakClassifiers>
        <_>
          <internalNodes>
            0 -1 8 3.8165844976902008e-02</internalNodes>
          <leafValues>
            -5.8248966932296753e-01 5.4604929685592651e-01</leafValues></_>
        <_>
          <internalNodes>
            0 -1 0 3.4832130186259747e-03</internalNodes>
          <leafValues>
            -7.7127730846405029e-01 3.5423880815505981e-01</leafValues></_>
        <_>
          <internalNodes>
            0 -1 17 1.0563809191808105e-03</internalNodes>
          <leafValues>
            -8.8278526067733765e-01 3.1058067083358765e-01</leafValues></_>
        <_>
          <internalNodes>
            0 -1 3 3.7765573710203171e-02</internalNodes>
          <leafValues>
            -4.0913555026054382e-01 7.2806727886199951e-01</leafValues></_>
        <_>
          <internalNodes>
            0 -1 23 1.4949496835470200e-02</internalNodes>
          <leafValues>
            -5.5986362695693970e-01 4.7352597117424011e-01</leafValues></_></weakClassifiers></_>
    <!-- stage 4 -->
    <_>
      <maxWeakCount>6</maxWeakCount>
      <stageThreshold>-1.1367739439010620e+00</stageThreshold>
      <weakClassifiers>
        <_>
          <internalNodes>
            0 -1 17 3.3722043037414551e-02</internalNodes>
          <leafValues>
            -6.9768637418746948e-01 3.3838862180709839e-01</leafValues></_>
        <_>
          <internalNodes>
            0 -1 9 1.4185152947902679e-02</internalNodes>
          <leafValues>
            -5.2467024326324463e-01 4.8433506488800049e-01</leafValues></_>
        <_>
          <internalNodes>
            0 -1 2 5.5907294154167175e-03</internalNodes>
          <leafValues>
            -7.0292466878890991e-01 3.8251203298568726e-01</leafValues></_>
        <_>
          <internalNodes>
            0 -1 21 1.0084962472319603e-02</internalNodes>
          <leafValues>
            3.3922719955444336e-01 -6.5095108747482300e-01</leafValues></_>
        <_>
          <internalNodes>
            0 -1 17 1.0536661138758063e-03</internalNodes>
          <leafValues>
            -8.3138382434844971e-01 2.4842424690723419e-01</leafValues></_>
        <_>
          <internalNodes>
            0 -1 5 6.3120469450950623e-02</internalNodes>
          <leafValues>
            2.7165862917900085e-01 -6.9289559125900269e-01</leafValues></_></weakClassifiers></_>
    <!-- stage 5 -->
    <_>
      <maxWeakCount>8</maxWeakCount>
      <stageThreshold>-1.4969507455825806e+00</stageThreshold>
      <weakClassifiers>
        <_>
          <internalNodes>
            0 -1 25 3.8424834609031677e-02</internalNodes>
          <leafValues>
            -6.5222948789596558e-01 3.9409404993057251e-01</leafValues></_>
        <_>
          <internalNodes>
            0 -1 19 1.1297319084405899e-02</internalNodes>
          <leafValues>
            -4.5646750926971436e-01 6.3659310340881348e-01</leafValues></_>
        <_>
          <internalNodes>
            0 -1 24 2.6400264352560043e-02</internalNodes>
          <leafValues>
            -3.6202526092529297e-01 6.5756767988204956e-01</leafValues></_>
        <_>
          <internalNodes>
            0 -1 8 9.4461825210601091e-04</internalNodes>
          <leafValues>
            -8.7510067224502563e-01 2.1084147691726685e-01</leafValues></_>
        <_>
          <internalNodes>
            0 -1 3 1.2016197666525841e-02</internalNodes>
          <leafValues>
            -6.3363969326019287e-01 2.9354962706565857e-01</leafValues></_>
        <_>
          <internalNodes>
            0 -1 4 5.9725418686866760e-02</internalNodes>
          <leafValues>
            2.4489709734916687e-01 -6.3431411981582642e-01</leafValues></_>
        <_>
          <internalNodes>
            0 -1 0 1.2723416090011597e-02</internalNodes>
          <leafValues>
            -4.9265342950820923e-01 4.0297076106071472e-01</leafValues></_>
        <_>
          <internalNodes>
            0 -1 17 5.7196393609046936e-02</internalNodes>
          <leafValues>
            -2.5129809975624084e-01 8.2147938013076782e-01</leafValues></_></weakClassifiers></_>
    <!-- stage 6 -->
    <_>
      <maxWeakCount>10</maxWeakCount>
      <stageThreshold>-1.4157532453536987e+00</stageThreshold>
      <weakClassifiers>
        <_>
          <internalNodes>
            0 -1 24 2.9930898919701576e-02</internalNodes>
          <leafValues>
            -5.6923079490661621e-01 4.0689656138420105e-01</leafValues></_>
        <_>
          <internalNodes>
            0 -1 25 4.8495139926671982e-02</internalNodes>
          <leafValues>
            -3.4577268362045288e-01 6.7140048742294312e-01</leafValues></_>
        <_>
          <internalNodes>
            0 -1 19 3.4882561303675175e-03</internalNodes>
          <leafValues>
            -5.1051092147827148e-01 4.3767392635345459e-01</leafValues></_>
        <_>
          <internalNodes>
            0 -1 16 2.5080487132072449e-02</internalNodes>
          <leafValues>
            -5.2260106801986694e-01 3.4079071879386902e-01</leafValues></_>
        <_>
          <internalNodes>
            0 -1 13 5.3020525723695755e-02</internalNodes>
          <leafValues>
            -2.0246374607086182e-01 6.7186319828033447e-01</leafValues></_>
        <_>
          <internalNodes>
            0 -1 0 2.7720257639884949e-02</internalNodes>
          <leafValues>
            -2.8889048099517822e-01 7.0210188627243042e-01</leafValues></_>
        <_>
          <internalNodes>
            0 -1 20 7.0430904626846313e-02</internalNodes>
          <leafValues>
            2.8775411844253540e-01 -7.1838045120239258e-01</leafValues></_>
        <_>
          <internalNodes>
            0 -1 22 1.3706430792808533e-02</internalNodes>
          <leafValues>
            -4.5459011197090149e-01 3.3623662590980530e-01</leafValues></_>
        <_>
          <internalNodes>
            0 -1 11 1.3477452099323273e-02</internalNodes>
          <leafValues>
            2.9173520207405090e-01 -5.1077830791473389e-01</leafValues></_>
        <_>
          <internalNodes>
            0 -1 25 7.0100803859531879e-03</internalNodes>
          <leafValues>
            -9.0679037570953369e-01 1.6723302006721497e-01</leafValues></_></weakClassifiers></_>
    <!-- stage 7 -->
    <_>
      <maxWeakCount>9</maxWeakCount>
      <stageThreshold>-1.3025561571121216e+00</stageThreshold>
      <weakClassifiers>
        <_>
          <internalNodes>
            0 -1 17 4.2767968028783798e-02</internalNodes>
          <leafValues>
            -6.1564213037490845e-01 4.3080726265907288e-01</leafValues></_>
        <_>
          <internalNodes>
            0 -1 9 1.7793856561183929e-02</internalNodes>
          <leafValues>
            -4.5693308115005493e-01 5.1753276586532593e-01</leafValues></_>
        <_>
          <internalNodes>
            0 -1 1 1.5397058799862862e-02</internalNodes>
          <leafValues>
            -3.6006227135658264e-01 4.6543705463409424e-01</leafValues></_>
        <_>
          <internalNodes>
            0 -1 3 5.1525011658668518e-02</internalNodes>
          <leafValues>
            -2.2981147468090057e-01 8.0924749374389648e-01</leafValues></_>
        <_>
          <internalNodes>
            0 -1 18 4.8336246982216835e-03</internalNodes>
          <leafValues>
            -4.1994291543960571e-01 4.1599577665328979e-01</leafValues></_>
        <_>
          <internalNodes>
            0 -1 21 1.8121026456356049e-02</internalNodes>
          <leafValues>
            2.8078931570053101e-01 -8.0290019512176514e-01</leafValues></_>
        <_>
          <internalNodes>
            0 -1 12 3.7894463166594505e-03</internalNodes>
          <leafValues>
            -6.1607253551483154e-01 1.9520546495914459e-01</leafValues></_>
        <_>
          <internalNodes>
            0 -1 8 5.3574480116367340e-02</internalNodes>
          <leafValues>
            -1.8614278733730316e-01 9.1831463575363159e-01</leafValues></_>
        <_>
          <internalNodes>
            0 -1 7 1.8479049205780029e-02</internalNodes>
          <leafValues>
            5.6822472810745239e-01 -2.3673132061958313e-01</leafValues></_></weakClassifiers></_>
    <!-- stage 8 -->
    <_>
      <maxWeakCount>9</maxWeakCount>
      <stageThreshold>-1.2773864269256592e+00</stageThreshold>
      <weakClassifiers>
        <_>
          <internalNodes>
            0 -1 17 1.6782499849796295e-02</internalNodes>
          <leafValues>
            -8.1598645448684692e-01 7.7999591827392578e-02</leafValues></_>
        <_>
          <internalNodes>
            0 -1 3 4.0637053549289703e-02</internalNodes>
          <leafValues>
            -3.6645755171775818e-01 5.8764886856079102e-01</leafValues></_>
        <_>
          <internalNodes>
            0 -1 24 1.6083911061286926e-02</internalNodes>
          <leafValues>
            -5.6682741641998291e-01 3.5019642114639282e-01</leafValues></_>
        <_>
          <internalNodes>
            0 -1 19 1.2724295258522034e-02</internalNodes>
          <leafValues>
            -3.0985799431800842e-01 5.9460848569869995e-01</leafValues></_>
        <_>
          <internalNodes>
            0 -1 14 7.3766894638538361e-03</internalNodes>
          <leafValues>
            2.8774112462997437e-01 -6.7510002851486206e-01</leafValues></_>
        <_>
          <internalNodes>
            0 -1 17 4.3344352161511779e-04</internalNodes>
          <leafValues>
            -8.5599297285079956e-01 1.8786469101905823e-01</leafValues></_>
        <_>
          <internalNodes>
            0 -1 15 2.2902304306626320e-02</internalNodes>
          <leafValues>
            2.6318603754043579e-01 -5.2904373407363892e-01</leafValues></_>
        <_>
          <internalNodes>
            0 -1 10 3.3040896058082581e-02</internalNodes>
          <leafValues>
            -2.3317398130893707e-01 7.5543576478958130e-01</leafValues></_>
        <_>
          <internalNodes>
            0 -1 8 1.9646853208541870e-02</internalNodes>
          <leafValues>
            -5.1241886615753174e-01 3.6587640643119812e-01</leafValues></_></weakClassifiers></_></stages>
  <features>
    <_>
      <rect>
        0 0 8 8 0</rect></_>
    <_>
      <rect>
        0 0 8 8 2</rect></_>
    <_>
      <rect>
        0 0 8 8 3</rect></_>
    <_>
      <rect>
        0 0 8 8 4</rect></_>
    <_>
      <rect>
        0 0 8 8 28</rect></_>
    <_>
      <rect>
        0 0 8 8 35</rect></_>
    <_>
      <rect>
        0 4 8 8 10</rect></_>
    <_>
      <rect>
        0 4 8 8 17</rect></_>
    <_>
      <rect>
        0 8 8 8 22</rect></_>
    <_>
      <rect>
        0 8 8 8 25</rect></_>
    <_>
      <rect>
        0 8 8 8 26</rect></_>
    <_>
      <rect>
        0 8 8 8 33</rect></_>
    <_>
      <rect>
        4 0 8 8 0</rect></_>
    <_>
      <rect>
        4 0 8 8 4</rect></_>
    <_>
      <rect>
        4 0 8 8 10</rect></_>
    <_>
      <rect>
        4 4 8 8 17</rect></_>
    <_>
      <rect>
        4 4 8 8 30</rect></_>
    <_>
      <rect>
        8 0 8 8 13</rect></_>
    <_>
      <rect>
        8 0 8 8 14</rect></_>
    <_>
      <rect>
        8 0 8 8 16</rect></_>
    <_>
      <rect>
        8 0 8 8 19</rect></_>
    <_>
      <rect>
        8 8 8 8 19</rect></_>
    <_>
      <rect>
        8 8 8 8 27</rect></_>
    <_>
      <rect>
        8 8 8 8 29</rect></_>
    <_>
      <rect>
        8 8 8 8 30</rect></_>
    <_>
      <rect>
        8 8 8 8 31</rect></_></features></cascade>
</opencv_storage>
