<?xml version="1.0"?>
<opencv_storage>
<cascade>
  <stageType>BOOST</stageType>
  <featureType>HOG</featureType>
  <height>24</height>
  <width>24</width>
  <stageParams>
    <boostType>GAB</boostType>
    <minHitRate>9.9500000476837158e-01</minHitRate>
    <maxFalseAlarm>5.0000000000000000e-01</maxFalseAlarm>
    <weightTrimRate>9.4999999999999996e-01</weightTrimRate>
    <maxDepth>1</maxDepth>
    <maxWeakCount>100</maxWeakCount></stageParams>
  <featureParams>
    <maxCatCount>0</maxCatCount>
    <featSize>36</featSize></featureParams>
  <stageNum>9</stageNum>
  <stages>
    <!-- stage 0 -->
    <_>
      <maxWeakCount>5</maxWeakCount>
      <stageThreshold>-1.1448551416397095e+00</stageThreshold>
      <weakClassifiers>
        <_>
          <internalNodes>
            0 -1 22 3.2006010413169861e-02</internalNodes>
          <leafValues>
            -8.0785596370697021e-01 6.6989618539810181e-01</leafValues></_>
        <_>
          <internalNodes>
            0 -1 1 5.9957103803753853e-03</internalNodes>
          <leafValues>
            -7.2318798303604126e-01 5.9569108486175537e-01</leafValues></_>
        <_>
          <internalNodes>
            0 -1 23 2.7050876524299383e-03</internalNodes>
          <leafValues>
            -7.3727357387542725e-01 4.5198085904121399e-01</leafValues></_>
        <_>
          <internalNodes>
            0 -1 3 3.3981814980506897e-02</internalNodes>
          <leafValues>
            -4.1196790337562561e-01 9.0181016921997070e-01</leafValues></_>
        <_>
          <internalNodes>
            0 -1 25 8.4779188036918640e-02</internalNodes>
          <leafValues>
            3.4617581963539124e-01 -9.5574241876602173e-01</leafValues></_></weakClassifiers></_>
    <!-- stage 1 -->
    <_>
      <maxWeakCount>5</maxWeakCount>
      <stageThreshold>-1.9918637275695801e+00</stageThreshold>
      <weakClassifiers>
        <_>
          <internalNodes>
            0 -1 0 1.4300479553639889e-02</internalNodes>
          <leafValues>
            -6.9173043966293335e-01 6.8848949670791626e-01</leafValues></_>
        <_>
          <internalNodes>
            0 -1 22 3.8269739598035812e-02</internalNodes>
          <leafValues>
            -6.2008869647979736e-01 6.9887071847915649e-01</leafValues></_>
        <_>
          <internalNodes>
            0 -1 27 4.5830607414245605e-02</internalNodes>
          <leafValues>
            4.4893771409988403e-01 -6.9562119245529175e-01</leafValues></_>
        <_>
          <internalNodes>
            0 -1 3 1.4913135673850775e-03</internalNodes>
          <leafValues>
            -7.3221093416213989e-01 3.7526226043701172e-01</leafValues></_>
        <_>
          <internalNodes>
            0 -1 29 1.5954028815031052e-02</internalNodes>
          <leafValues>
            -6.3243240118026733e-01 4.4468048214912415e-01</leafValues></_></weakClassifiers></_>
    <!-- stage 2 -->
    <_>
      <maxWeakCount>7</maxWeakCount>
      <stageThreshold>-1.5173945426940918e+00</stageThreshold>
      <weakClassifiers>
        <_>
          <internalNodes>
            0 -1 22 5.0275847315788269e-02</internalNodes>
          <leafValues>
            -6.1740893125534058e-01 6.0940498113632202e-01</leafValues></_>
        <_>
          <internalNodes>
            0 -1 0 3.7721991539001465e-03</internalNodes>
          <leafValues>
            -6.7382669448852539e-01 5.1126712560653687e-01</leafValues></_>
        <_>
          <internalNodes>
            0 -1 16 2.8228927403688431e-02</internalNodes>
          <leafValues>
            -6.2168550491333008e-01 4.6621698141098022e-01</leafValues></_>
        <_>
          <internalNodes>
            0 -1 30 4.0456270799040794e-03</internalNodes>
          <leafValues>
            -5.9667766094207764e-01 4.1888734698295593e-01</leafValues></_>
        <_>
          <internalNodes>
            0 -1 24 1.4623790979385376e-02</internalNodes>
          <leafValues>
            -3.7891182303428650e-01 6.4578115940093994e-01</leafValues></_>
        <_>
          <internalNodes>
            0 -1 9 3.1356953084468842e-02</internalNodes>
          <leafValues>
            -3.7009111046791077e-01 6.1708223819732666e-01</leafValues></_>
        <_>
          <internalNodes>
            0 -1 4 2.5370554998517036e-02</internalNodes>
          <leafValues>
            -2.7839580178260803e-01 7.1651417016983032e-01</leafValues></_></weakClassifiers></_>
    <!-- stage 3 -->
    <_>
      <maxWeakCount>7</maxWeakCount>
      <stageThreshold>-1.2768216133117676e+00</stageThreshold>
      <weakClassifiers>
        <_>
          <internalNodes>
            0 -1 3 4.8783496022224426e-02</internalNodes>
          <leafValues>
            -5.1913136243820190e-01 8.0379748344421387e-01</leafValues></_>
        <_>
          <internalNodes>
            0 -1 22 2.4808406829833984e-02</internalNodes>
          <leafValues>
            -7.0725458860397339e-01 3.8075178861618042e-01</leafValues></_>
        <_>
          <internalNodes>
            0 -1 1 7.8637283295392990e-03</internalNodes>
          <leafValues>
            -6.2599694728851318e-01 4.8205029964447021e-01</leafValues></_>
        <_>
          <internalNodes>
            0 -1 10 6.6961545962840319e-04</internalNodes>
          <leafValues>
            -8.1689107418060303e-01 3.2543271780014038e-01</leafValues></_>
        <_>
          <internalNodes>
            0 -1 19 2.4062024429440498e-02</internalNodes>
          <leafValues>
            -6.0404759645462036e-01 2.9918256402015686e-01</leafValues></_>
        <_>
          <internalNodes>
            0 -1 4 2.9410399496555328e-02</internalNodes>
          <leafValues>
            -3.0014115571975708e-01 7.0686298608779907e-01</leafValues></_>
        <_>
          <internalNodes>
            0 -1 18 5.0413217395544052e-02</internalNodes>
          <leafValues>
            3.0540463328361511e-01 -7.3814511299133301e-01</leafValues></_></weakClassifiers></_>
    <!-- stage 4 -->
    <_>
      <maxWeakCount>8</maxWeakCount>
      <stageThreshold>-1.6200383901596069e+00</stageThreshold>
      <weakClassifiers>
        <_>
          <internalNodes>
            0 -1 22 5.6474316865205765e-02</internalNodes>
          <leafValues>
            -5.7108706235885620e-01 5.6167286634445190e-01</leafValues></_>
        <_>
          <internalNodes>
            0 -1 0 1.7209284007549286e-02</internalNodes>
          <leafValues>
            -4.4978666305541992e-01 6.1247444152832031e-01</leafValues></_>
        <_>
          <internalNodes>
            0 -1 27 4.0992967784404755e-02</internalNodes>
          <leafValues>
            3.3637920022010803e-01 -5.9988141059875488e-01</leafValues></_>
        <_>
          <internalNodes>
            0 -1 26 6.7318879067897797e-02</internalNodes>
          <leafValues>
            2.3205305635929108e-01 -8.8746434450149536e-01</leafValues></_>
        <_>
          <internalNodes>
            0 -1 11 1.5200305730104446e-02</internalNodes>
          <leafValues>
            -4.9049702286720276e-01 4.4546559453010559e-01</leafValues></_>
        <_>
          <internalNodes>
            0 -1 31 2.9481835663318634e-02</internalNodes>
          <leafValues>
            -2.9159179329872131e-01 7.1593707799911499e-01</leafValues></_>
        <_>
          <internalNodes>
            0 -1 24 3.2912991009652615e-03</internalNodes>
          <leafValues>
            -5.7130080461502075e-01 3.4366843104362488e-01</leafValues></_>
        <_>
          <internalNodes>
            0 -1 28 3.9114840328693390e-02</internalNodes>
          <leafValues>
            2.0708405971527100e-01 -7.6912814378738403e-01</leafValues></_></weakClassifiers></_>
    <!-- stage 5 -->
    <_>
      <maxWeakCount>8</maxWeakCount>
      <stageThreshold>-1.5417031049728394e+00</stageThreshold>
      <weakClassifiers>
        <_>
          <internalNodes>
            0 -1 3 5.3899526596069336e-02</internalNodes>
          <leafValues>
            -4.9681204557418823e-01 7.7374786138534546e-01</leafValues></_>
        <_>
          <internalNodes>
            0 -1 0 2.4318117648363113e-02</internalNodes>
          <leafValues>
            -3.1414180994033813e-01 6.1799216270446777e-01</leafValues></_>
        <_>
          <internalNodes>
            0 -1 22 1.3814900070428848e-02</internalNodes>
          <leafValues>
            -8.6077851057052612e-01 2.5624322891235352e-01</leafValues></_>
        <_>
          <internalNodes>
            0 -1 1 5.1727413665503263e-04</internalNodes>
          <leafValues>
            -6.0004538297653198e-01 3.9493307471275330e-01</leafValues></_>
        <_>
          <internalNodes>
            0 -1 9 3.7298046052455902e-02</internalNodes>
          <leafValues>
            -4.1985145211219788e-01 5.4182183742523193e-01</leafValues></_>
        <_>
          <internalNodes>
            0 -1 14 8.3394572138786316e-03</internalNodes>
          <leafValues>
            3.3781901001930237e-01 -4.9507489800453186e-01</leafValues></_>
        <_>
          <internalNodes>
            0 -1 32 2.5232280604541302e-03</internalNodes>
          <leafValues>
            -7.2850441932678223e-01 3.3127087354660034e-01</leafValues></_>
        <_>
          <internalNodes>
            0 -1 8 2.0184895023703575e-02</internalNodes>
          <leafValues>
            -5.3808349370956421e-01 2.6449012756347656e-01</leafValues></_></weakClassifiers></_>
    <!-- stage 6 -->
    <_>
      <maxWeakCount>10</maxWeakCount>
      <stageThreshold>-1.5680732727050781e+00</stageThreshold>
      <weakClassifiers>
        <_>
          <internalNodes>
            0 -1 3 3.8078084588050842e-02</internalNodes>
          <leafValues>
            -5.5026382207870483e-01 4.3231001496315002e-01</leafValues></_>
        <_>
          <internalNodes>
            0 -1 27 5.7910203933715820e-02</internalNodes>
          <leafValues>
            2.0868568122386932e-01 -8.3638006448745728e-01</leafValues></_>
        <_>
          <internalNodes>
            0 -1 24 2.3135602474212646e-02</internalNodes>
          <leafValues>
            -3.1449812650680542e-01 5.8705651760101318e-01</leafValues></_>
        <_>
          <internalNodes>
            0 -1 2 3.4069962566718459e-04</internalNodes>
          <leafValues>
            -4.9264025688171387e-01 3.7246957421302795e-01</leafValues></_>
        <_>
          <internalNodes>
            0 -1 20 3.8571044802665710e-02</internalNodes>
          <leafValues>
            -5.1309645175933838e-01 3.9436781406402588e-01</leafValues></_>
        <_>
          <internalNodes>
            0 -1 22 6.0220524668693542e-02</internalNodes>
          <leafValues>
            -2.3881362378597260e-01 7.2767966985702515e-01</leafValues></_>
        <_>
          <internalNodes>
            0 -1 17 1.9918654114007950e-02</internalNodes>
          <leafValues>
            -5.0158679485321045e-01 3.8098925352096558e-01</leafValues></_>
        <_>
          <internalNodes>
            0 -1 0 1.1313627474009991e-02</internalNodes>
          <leafValues>
            -3.8841992616653442e-01 4.0704506635665894e-01</leafValues></_>
        <_>
          <internalNodes>
            0 -1 23 4.1254283860325813e-03</internalNodes>
          <leafValues>
            -5.7698136568069458e-01 3.0229735374450684e-01</leafValues></_>
        <_>
          <internalNodes>
            0 -1 3 7.3425786104053259e-04</internalNodes>
          <leafValues>
            -7.2219157218933105e-01 1.7528814077377319e-01</leafValues></_></weakClassifiers></_>
    <!-- stage 7 -->
    <_>
      <maxWeakCount>11</maxWeakCount>
      <stageThreshold>-1.4886411428451538e+00</stageThreshold>
      <weakClassifiers>
        <_>
          <internalNodes>
            0 -1 9 5.1629204303026199e-02</internalNodes>
          <leafValues>
            -5.2021348476409912e-01 5.9734219312667847e-01</leafValues></_>
        <_>
          <internalNodes>
            0 -1 13 1.1073028668761253e-02</internalNodes>
          <leafValues>
            3.3591681718826294e-01 -5.7786881923675537e-01</leafValues></_>
        <_>
          <internalNodes>
            0 -1 30 1.0100840590894222e-02</internalNodes>
          <leafValues>
            -4.0990647673606873e-01 5.0131064653396606e-01</leafValues></_>
        <_>
          <internalNodes>
            0 -1 8 1.2403951957821846e-02</internalNodes>
          <leafValues>
            -7.0192384719848633e-01 2.5235691666603088e-01</leafValues></_>
        <_>
          <internalNodes>
            0 -1 4 2.2115646861493587e-03</internalNodes>
          <leafValues>
            -6.5916883945465088e-01 2.7390909194946289e-01</leafValues></_>
        <_>
          <internalNodes>
            0 -1 20 3.3474650233983994e-02</internalNodes>
          <leafValues>
            -5.6356853246688843e-01 3.0133092403411865e-01</leafValues></_>
        <_>
          <internalNodes>
            0 -1 12 3.2663822639733553e-03</internalNodes>
          <leafValues>
            -4.7776633501052856e-01 3.3518767356872559e-01</leafValues></_>
        <_>
          <internalNodes>
            0 -1 22 3.7823714315891266e-02</internalNodes>
          <leafValues>
            -4.2994192242622375e-01 4.0522789955139160e-01</leafValues></_>
        <_>
          <internalNodes>
            0 -1 2 5.1252264529466629e-03</internalNodes>
          <leafValues>
            -4.6449407935142517e-01 4.0637665987014771e-01</leafValues></_>
        <_>
          <internalNodes>
            0 -1 29 1.9099820405244827e-02</internalNodes>
          <leafValues>
            -4.5972472429275513e-01 3.1026268005371094e-01</leafValues></_>
        <_>
          <internalNodes>
            0 -1 5 4.6026490628719330e-02</internalNodes>
          <leafValues>
            3.1589761376380920e-01 -4.7371533513069153e-01</leafValues></_></weakClassifiers></_>
    <!-- stage 8 -->
    <_>
      <maxWeakCount>11</maxWeakCount>
      <stageThreshold>-1.4545819759368896e+00</stageThreshold>
      <weakClassifiers>
        <_>
          <internalNodes>
            0 -1 9 6.3468717038631439e-02</internalNodes>
          <leafValues>
            -4.7310757637023926e-01 8.2644629478454590e-01</leafValues></_>
        <_>
          <internalNodes>
            0 -1 0 1.4335229992866516e-02</internalNodes>
          <leafValues>
            -4.4124087691307068e-01 5.0409716367721558e-01</leafValues></_>
        <_>
          <internalNodes>
            0 -1 14 8.5102608427405357e-03</internalNodes>
          <leafValues>
            3.6815232038497925e-01 -5.9946590662002563e-01</leafValues></_>
        <_>
          <internalNodes>
            0 -1 15 9.0725524351000786e-03</internalNodes>
          <leafValues>
            6.1610502004623413e-01 -2.7909454703330994e-01</leafValues></_>
        <_>
          <internalNodes>
            0 -1 6 1.4143789187073708e-02</internalNodes>
          <leafValues>
            -3.8539195060729980e-01 4.5598962903022766e-01</leafValues></_>
        <_>
          <internalNodes>
            0 -1 29 9.6452832221984863e-03</internalNodes>
          <leafValues>
            -7.6964730024337769e-01 2.6941198110580444e-01</leafValues></_>
        <_>
          <internalNodes>
            0 -1 3 5.1717704627662897e-04</internalNodes>
          <leafValues>
            -8.0812102556228638e-01 2.0106232166290283e-01</leafValues></_>
        <_>
          <internalNodes>
            0 -1 24 3.0971713364124298e-02</internalNodes>
          <leafValues>
            -2.3757867515087128e-01 7.4495077133178711e-01</leafValues></_>
        <_>
          <internalNodes>
            0 -1 22 5.1603857427835464e-02</internalNodes>
          <leafValues>
            -2.3094454407691956e-01 5.9484046697616577e-01</leafValues></_>
        <_>
          <internalNodes>
            0 -1 21 2.9977862723171711e-03</internalNodes>
          <leafValues>
            -6.7333024740219116e-01 2.0716205239295959e-01</leafValues></_>
        <_>
          <internalNodes>
            0 -1 7 1.4799944125115871e-02</internalNodes>
          <leafValues>
            6.1899894475936890e-01 -2.5533470511436462e-01</leafValues></_></weakClassifiers></_></stages>
  <features>
    <_>
      <rect>
        0 0 8 8 0</rect></_>
    <_>
      <rect>
        0 0 8 8 2</rect></_>
    <_>
      <rect>
        0 0 8 8 3</rect></_>
    <_>
      <rect>
        0 0 8 8 4</rect></_>
    <_>
      <rect>
        0 0 8 8 8</rect></_>
    <_>
      <rect>
        0 0 8 8 35</rect></_>
    <_>
      <rect>
        0 4 8 8 3</rect></_>
    <_>
      <rect>
        0 4 8 8 17</rect></_>
    <_>
      <rect>
        0 4 8 8 25</rect></_>
    <_>
      <rect>
        0 8 8 8 22</rect></_>
    <_>
      <rect>
        0 8 8 8 23</rect></_>
    <_>
      <rect>
        0 8 8 8 25</rect></_>
    <_>
      <rect>
        4 0 8 8 16</rect></_>
    <_>
      <rect>
        4 4 8 8 5</rect></_>
    <_>
      <rect>
        4 4 8 8 6</rect></_>
    <_>
      <rect>
        4 4 8 8 8</rect></_>
    <_>
      <rect>
        4 4 8 8 12</rect></_>
    <_>
      <rect>
        4 4 8 8 25</rect></_>
    <_>
      <rect>
        4 4 8 8 28</rect></_>
    <_>
      <rect>
        4 4 8 8 30</rect></_>
    <_>
      <rect>
        4 8 8 8 12</rect></_>
    <_>
      <rect>
        8 0 8 8 8</rect></_>
    <_>
      <rect>
        8 0 8 8 13</rect></_>
    <_>
      <rect>
        8 0 8 8 14</rect></_>
    <_>
      <rect>
        8 0 8 8 16</rect></_>
    <_>
      <rect>
        8 0 8 8 19</rect></_>
    <_>
      <rect>
        8 0 8 8 24</rect></_>
    <_>
      <rect>
        8 0 8 8 26</rect></_>
    <_>
      <rect>
        8 4 8 8 1</rect></_>
    <_>
      <rect>
        8 4 8 8 16</rect></_>
    <_>
      <rect>
        8 8 8 8 30</rect></_>
    <_>
      <rect>
        8 8 8 8 31</rect></_>
    <_>
      <rect>
        8 8 8 8 35</rect></_></features></cascade>
</opencv_storage>
