<?xml version="1.0"?>
<opencv_storage>
<cascade>
  <stageType>BOOST</stageType>
  <featureType>HOG</featureType>
  <height>24</height>
  <width>24</width>
  <stageParams>
    <boostType>GAB</boostType>
    <minHitRate>9.9500000476837158e-01</minHitRate>
    <maxFalseAlarm>5.0000000000000000e-01</maxFalseAlarm>
    <weightTrimRate>9.4999999999999996e-01</weightTrimRate>
    <maxDepth>1</maxDepth>
    <maxWeakCount>100</maxWeakCount></stageParams>
  <featureParams>
    <maxCatCount>0</maxCatCount>
    <featSize>36</featSize></featureParams>
  <stageNum>8</stageNum>
  <stages>
    <!-- stage 0 -->
    <_>
      <maxWeakCount>5</maxWeakCount>
      <stageThreshold>-1.5883518457412720e+00</stageThreshold>
      <weakClassifiers>
        <_>
          <internalNodes>
            0 -1 15 3.1090810894966125e-02</internalNodes>
          <leafValues>
            -7.7438533306121826e-01 6.5502339601516724e-01</leafValues></_>
        <_>
          <internalNodes>
            0 -1 3 1.4875505119562149e-02</internalNodes>
          <leafValues>
            -7.7185201644897461e-01 6.1533993482589722e-01</leafValues></_>
        <_>
          <internalNodes>
            0 -1 0 3.4955758601427078e-03</internalNodes>
          <leafValues>
            -7.2295057773590088e-01 4.9488854408264160e-01</leafValues></_>
        <_>
          <internalNodes>
            0 -1 5 7.1950435638427734e-02</internalNodes>
          <leafValues>
            3.8701590895652771e-01 -8.5666388273239136e-01</leafValues></_>
        <_>
          <internalNodes>
            0 -1 15 1.7996208043769002e-03</internalNodes>
          <leafValues>
            -8.8411581516265869e-01 2.9382026195526123e-01</leafValues></_></weakClassifiers></_>
    <!-- stage 1 -->
    <_>
      <maxWeakCount>5</maxWeakCount>
      <stageThreshold>-1.2501128911972046e+00</stageThreshold>
      <weakClassifiers>
        <_>
          <internalNodes>
            0 -1 3 3.5516880452632904e-02</internalNodes>
          <leafValues>
            -6.2468445301055908e-01 7.7754008769989014e-01</leafValues></_>
        <_>
          <internalNodes>
            0 -1 15 3.3967070281505585e-02</internalNodes>
          <leafValues>
            -5.6213611364364624e-01 6.7004275321960449e-01</leafValues></_>
        <_>
          <internalNodes>
            0 -1 1 7.3762889951467514e-04</internalNodes>
          <leafValues>
            -8.1605976819992065e-01 5.5397540330886841e-01</leafValues></_>
        <_>
          <internalNodes>
            0 -1 21 3.1346809118986130e-03</internalNodes>
          <leafValues>
            -8.6304700374603271e-01 2.9346996545791626e-01</leafValues></_>
        <_>
          <internalNodes>
            0 -1 10 2.8170999139547348e-03</internalNodes>
          <leafValues>
            -7.1887201070785522e-01 4.5929747819900513e-01</leafValues></_></weakClassifiers></_>
    <!-- stage 2 -->
    <_>
      <maxWeakCount>7</maxWeakCount>
      <stageThreshold>-1.3238329887390137e+00</stageThreshold>
      <weakClassifiers>
        <_>
          <internalNodes>
            0 -1 3 4.0822025388479233e-02</internalNodes>
          <leafValues>
            -5.7841253280639648e-01 7.0547145605087280e-01</leafValues></_>
        <_>
          <internalNodes>
            0 -1 15 2.1277736872434616e-02</internalNodes>
          <leafValues>
            -7.1564197540283203e-01 4.3867811560630798e-01</leafValues></_>
        <_>
          <internalNodes>
            0 -1 0 1.2827396392822266e-02</internalNodes>
          <leafValues>
            -5.2623689174652100e-01 6.7245143651962280e-01</leafValues></_>
        <_>
          <internalNodes>
            0 -1 12 1.9800085574388504e-02</internalNodes>
          <leafValues>
            2.8560990095138550e-01 -8.7267899513244629e-01</leafValues></_>
        <_>
          <internalNodes>
            0 -1 17 2.5182054378092289e-04</internalNodes>
          <leafValues>
            -5.8265066146850586e-01 3.6407682299613953e-01</leafValues></_>
        <_>
          <internalNodes>
            0 -1 3 2.7333837933838367e-03</internalNodes>
          <leafValues>
            -8.9617246389389038e-01 2.8818175196647644e-01</leafValues></_>
        <_>
          <internalNodes>
            0 -1 8 2.8660571202635765e-02</internalNodes>
          <leafValues>
            -4.1137591004371643e-01 6.0339653491973877e-01</leafValues></_></weakClassifiers></_>
    <!-- stage 3 -->
    <_>
      <maxWeakCount>7</maxWeakCount>
      <stageThreshold>-1.2150689363479614e+00</stageThreshold>
      <weakClassifiers>
        <_>
          <internalNodes>
            0 -1 8 4.3695017695426941e-02</internalNodes>
          <leafValues>
            -5.6755268573760986e-01 6.4462333917617798e-01</leafValues></_>
        <_>
          <internalNodes>
            0 -1 22 5.0107268616557121e-03</internalNodes>
          <leafValues>
            -7.3793274164199829e-01 2.6063850522041321e-01</leafValues></_>
        <_>
          <internalNodes>
            0 -1 15 1.1472952319309115e-03</internalNodes>
          <leafValues>
            -9.3529736995697021e-01 2.6502162218093872e-01</leafValues></_>
        <_>
          <internalNodes>
            0 -1 3 3.3099628984928131e-02</internalNodes>
          <leafValues>
            -4.2706260085105896e-01 5.8137732744216919e-01</leafValues></_>
        <_>
          <internalNodes>
            0 -1 17 1.3849804177880287e-02</internalNodes>
          <leafValues>
            -3.6058387160301208e-01 6.9396638870239258e-01</leafValues></_>
        <_>
          <internalNodes>
            0 -1 0 4.2542298324406147e-03</internalNodes>
          <leafValues>
            -5.3627651929855347e-01 5.0781089067459106e-01</leafValues></_>
        <_>
          <internalNodes>
            0 -1 11 1.1698798276484013e-02</internalNodes>
          <leafValues>
            -6.6282677650451660e-01 3.4262564778327942e-01</leafValues></_></weakClassifiers></_>
    <!-- stage 4 -->
    <_>
      <maxWeakCount>9</maxWeakCount>
      <stageThreshold>-1.5293799638748169e+00</stageThreshold>
      <weakClassifiers>
        <_>
          <internalNodes>
            0 -1 15 5.0405062735080719e-02</internalNodes>
          <leafValues>
            -5.6749194860458374e-01 5.7104265689849854e-01</leafValues></_>
        <_>
          <internalNodes>
            0 -1 23 2.2508088499307632e-02</internalNodes>
          <leafValues>
            -5.4496997594833374e-01 4.3534338474273682e-01</leafValues></_>
        <_>
          <internalNodes>
            0 -1 16 5.2680317312479019e-03</internalNodes>
          <leafValues>
            -5.2090644836425781e-01 4.3671947717666626e-01</leafValues></_>
        <_>
          <internalNodes>
            0 -1 21 5.3695915266871452e-03</internalNodes>
          <leafValues>
            -7.4352777004241943e-01 2.8378081321716309e-01</leafValues></_>
        <_>
          <internalNodes>
            0 -1 14 4.0692690759897232e-02</internalNodes>
          <leafValues>
            -4.3564426898956299e-01 5.1577419042587280e-01</leafValues></_>
        <_>
          <internalNodes>
            0 -1 8 1.4393171295523643e-02</internalNodes>
          <leafValues>
            -5.8016926050186157e-01 3.2513719797134399e-01</leafValues></_>
        <_>
          <internalNodes>
            0 -1 6 5.8587387204170227e-02</internalNodes>
          <leafValues>
            3.5980138182640076e-01 -5.4413658380508423e-01</leafValues></_>
        <_>
          <internalNodes>
            0 -1 1 5.0428854301571846e-03</internalNodes>
          <leafValues>
            -5.8004450798034668e-01 3.0374470353126526e-01</leafValues></_>
        <_>
          <internalNodes>
            0 -1 18 7.5288534164428711e-02</internalNodes>
          <leafValues>
            2.2064054012298584e-01 -7.9293179512023926e-01</leafValues></_></weakClassifiers></_>
    <!-- stage 5 -->
    <_>
      <maxWeakCount>7</maxWeakCount>
      <stageThreshold>-1.3511865139007568e+00</stageThreshold>
      <weakClassifiers>
        <_>
          <internalNodes>
            0 -1 15 3.9522066712379456e-02</internalNodes>
          <leafValues>
            -6.5079367160797119e-01 2.5883477926254272e-01</leafValues></_>
        <_>
          <internalNodes>
            0 -1 2 4.7240396961569786e-03</internalNodes>
          <leafValues>
            -6.7503631114959717e-01 2.7803435921669006e-01</leafValues></_>
        <_>
          <internalNodes>
            0 -1 3 5.4310835897922516e-02</internalNodes>
          <leafValues>
            -2.3278586566448212e-01 8.5160356760025024e-01</leafValues></_>
        <_>
          <internalNodes>
            0 -1 15 1.5132171101868153e-03</internalNodes>
          <leafValues>
            -9.1212606430053711e-01 2.5092527270317078e-01</leafValues></_>
        <_>
          <internalNodes>
            0 -1 0 2.2720452398061752e-02</internalNodes>
          <leafValues>
            -3.4899532794952393e-01 7.3177194595336914e-01</leafValues></_>
        <_>
          <internalNodes>
            0 -1 23 7.2046620771288872e-03</internalNodes>
          <leafValues>
            -8.5398125648498535e-01 2.9965069890022278e-01</leafValues></_>
        <_>
          <internalNodes>
            0 -1 13 1.3789273798465729e-02</internalNodes>
          <leafValues>
            2.0640999078750610e-01 -7.3897629976272583e-01</leafValues></_></weakClassifiers></_>
    <!-- stage 6 -->
    <_>
      <maxWeakCount>9</maxWeakCount>
      <stageThreshold>-1.6275647878646851e+00</stageThreshold>
      <weakClassifiers>
        <_>
          <internalNodes>
            0 -1 15 3.3846788108348846e-02</internalNodes>
          <leafValues>
            -7.0981132984161377e-01 2.0594593882560730e-01</leafValues></_>
        <_>
          <internalNodes>
            0 -1 6 7.6885104179382324e-02</internalNodes>
          <leafValues>
            1.6203117370605469e-01 -7.7906703948974609e-01</leafValues></_>
        <_>
          <internalNodes>
            0 -1 7 1.5947930514812469e-02</internalNodes>
          <leafValues>
            -6.1867684125900269e-01 2.3246982693672180e-01</leafValues></_>
        <_>
          <internalNodes>
            0 -1 8 4.1150242090225220e-02</internalNodes>
          <leafValues>
            -2.6047468185424805e-01 6.9090592861175537e-01</leafValues></_>
        <_>
          <internalNodes>
            0 -1 0 1.1371744796633720e-02</internalNodes>
          <leafValues>
            -4.2317572236061096e-01 4.4245287775993347e-01</leafValues></_>
        <_>
          <internalNodes>
            0 -1 10 4.6842003939673305e-04</internalNodes>
          <leafValues>
            -7.1506971120834351e-01 2.8136125206947327e-01</leafValues></_>
        <_>
          <internalNodes>
            0 -1 3 4.0739230811595917e-02</internalNodes>
          <leafValues>
            -3.6886897683143616e-01 5.8221095800399780e-01</leafValues></_>
        <_>
          <internalNodes>
            0 -1 17 1.4168957248330116e-02</internalNodes>
          <leafValues>
            -2.3181480169296265e-01 6.1060792207717896e-01</leafValues></_>
        <_>
          <internalNodes>
            0 -1 11 3.4523136913776398e-02</internalNodes>
          <leafValues>
            -2.6423108577728271e-01 6.0032010078430176e-01</leafValues></_></weakClassifiers></_>
    <!-- stage 7 -->
    <_>
      <maxWeakCount>10</maxWeakCount>
      <stageThreshold>-1.2397727966308594e+00</stageThreshold>
      <weakClassifiers>
        <_>
          <internalNodes>
            0 -1 23 4.3270517140626907e-02</internalNodes>
          <leafValues>
            -5.3271543979644775e-01 4.8051947355270386e-01</leafValues></_>
        <_>
          <internalNodes>
            0 -1 17 1.3114308938384056e-02</internalNodes>
          <leafValues>
            -3.8255295157432556e-01 5.2724570035934448e-01</leafValues></_>
        <_>
          <internalNodes>
            0 -1 19 1.7902515828609467e-02</internalNodes>
          <leafValues>
            -5.8980119228363037e-01 3.3694446086883545e-01</leafValues></_>
        <_>
          <internalNodes>
            0 -1 4 3.2665178179740906e-02</internalNodes>
          <leafValues>
            -3.3792525529861450e-01 4.7371730208396912e-01</leafValues></_>
        <_>
          <internalNodes>
            0 -1 7 1.3711968436837196e-02</internalNodes>
          <leafValues>
            -6.3916760683059692e-01 2.9657968878746033e-01</leafValues></_>
        <_>
          <internalNodes>
            0 -1 0 2.6354514993727207e-03</internalNodes>
          <leafValues>
            -6.5217113494873047e-01 2.5391036272048950e-01</leafValues></_>
        <_>
          <internalNodes>
            0 -1 9 6.6459993831813335e-04</internalNodes>
          <leafValues>
            -7.2984099388122559e-01 2.2120401263237000e-01</leafValues></_>
        <_>
          <internalNodes>
            0 -1 20 1.0697787627577782e-02</internalNodes>
          <leafValues>
            2.7213603258132935e-01 -5.9704387187957764e-01</leafValues></_>
        <_>
          <internalNodes>
            0 -1 13 1.5776425600051880e-02</internalNodes>
          <leafValues>
            1.3031955063343048e-01 -7.4256837368011475e-01</leafValues></_>
        <_>
          <internalNodes>
            0 -1 21 1.4951191842556000e-02</internalNodes>
          <leafValues>
            -3.9725306630134583e-01 3.8911905884742737e-01</leafValues></_></weakClassifiers></_></stages>
  <features>
    <_>
      <rect>
        0 0 8 8 0</rect></_>
    <_>
      <rect>
        0 0 8 8 2</rect></_>
    <_>
      <rect>
        0 0 8 8 3</rect></_>
    <_>
      <rect>
        0 0 8 8 4</rect></_>
    <_>
      <rect>
        0 0 8 8 13</rect></_>
    <_>
      <rect>
        0 0 8 8 28</rect></_>
    <_>
      <rect>
        0 0 8 8 35</rect></_>
    <_>
      <rect>
        0 8 8 8 3</rect></_>
    <_>
      <rect>
        0 8 8 8 22</rect></_>
    <_>
      <rect>
        0 8 8 8 23</rect></_>
    <_>
      <rect>
        0 8 8 8 25</rect></_>
    <_>
      <rect>
        0 8 8 8 26</rect></_>
    <_>
      <rect>
        0 8 8 8 28</rect></_>
    <_>
      <rect>
        0 8 8 8 33</rect></_>
    <_>
      <rect>
        4 8 8 8 12</rect></_>
    <_>
      <rect>
        8 0 8 8 13</rect></_>
    <_>
      <rect>
        8 0 8 8 14</rect></_>
    <_>
      <rect>
        8 0 8 8 16</rect></_>
    <_>
      <rect>
        8 0 8 8 19</rect></_>
    <_>
      <rect>
        8 4 8 8 30</rect></_>
    <_>
      <rect>
        8 8 8 8 19</rect></_>
    <_>
      <rect>
        8 8 8 8 29</rect></_>
    <_>
      <rect>
        8 8 8 8 30</rect></_>
    <_>
      <rect>
        8 8 8 8 31</rect></_></features></cascade>
</opencv_storage>
