<?xml version="1.0"?>
<opencv_storage>
<stage4>
  <maxWeakCount>6</maxWeakCount>
  <stageThreshold>-1.5077902078628540e+00</stageThreshold>
  <weakClassifiers>
    <_>
      <internalNodes>
        0 -1 38609 5.1042938139289618e-04</internalNodes>
      <leafValues>
        -6.2118291854858398e-01 8.7630057334899902e-01</leafValues></_>
    <_>
      <internalNodes>
        0 -1 16806 -6.1167057603597641e-02</internalNodes>
      <leafValues>
        6.6924357414245605e-01 -5.1831388473510742e-01</leafValues></_>
    <_>
      <internalNodes>
        0 -1 418 -3.4614367177709937e-04</internalNodes>
      <leafValues>
        6.8343853950500488e-01 -4.2704415321350098e-01</leafValues></_>
    <_>
      <internalNodes>
        0 -1 139731 8.8403478730469942e-04</internalNodes>
      <leafValues>
        -4.5370161533355713e-01 6.1162686347961426e-01</leafValues></_>
    <_>
      <internalNodes>
        0 -1 119422 1.0910622775554657e-02</internalNodes>
      <leafValues>
        3.4965932369232178e-01 -8.5439103841781616e-01</leafValues></_>
    <_>
      <internalNodes>
        0 -1 84416 -1.4884468168020248e-02</internalNodes>
      <leafValues>
        -9.3403661251068115e-01 2.5636079907417297e-01</leafValues></_></weakClassifiers></stage4>
</opencv_storage>
