<?xml version="1.0"?>
<opencv_storage>
<stage1>
  <maxWeakCount>6</maxWeakCount>
  <stageThreshold>-1.3037999868392944e+00</stageThreshold>
  <weakClassifiers>
    <_>
      <internalNodes>
        0 -1 17 2.9466938576661050e-04</internalNodes>
      <leafValues>
        1. -6.6666668653488159e-01</leafValues></_>
    <_>
      <internalNodes>
        0 -1 8 7.8584831207990646e-03</internalNodes>
      <leafValues>
        -8.2934594154357910e-01 2.8560212254524231e-01</leafValues></_>
    <_>
      <internalNodes>
        0 -1 66 3.5582210868597031e-02</internalNodes>
      <leafValues>
        -8.2267415523529053e-01 3.8667243719100952e-01</leafValues></_>
    <_>
      <internalNodes>
        0 -1 15 9.4576142728328705e-03</internalNodes>
      <leafValues>
        3.6521929502487183e-01 -7.2174853086471558e-01</leafValues></_>
    <_>
      <internalNodes>
        0 -1 2 4.1296742856502533e-03</internalNodes>
      <leafValues>
        -7.1360886096954346e-01 3.0762925744056702e-01</leafValues></_>
    <_>
      <internalNodes>
        0 -1 124 3.6710537970066071e-03</internalNodes>
      <leafValues>
        -8.4926670789718628e-01 3.1405800580978394e-01</leafValues></_></weakClassifiers></stage1>
</opencv_storage>
