<?xml version="1.0"?>
<opencv_storage>
<stage1>
  <maxWeakCount>5</maxWeakCount>
  <stageThreshold>-6.5292692184448242e-01</stageThreshold>
  <weakClassifiers>
    <_>
      <internalNodes>
        0 -1 79411 -1.4112861827015877e-03</internalNodes>
      <leafValues>
        4.6062567830085754e-01 -9.0274840593338013e-01</leafValues></_>
    <_>
      <internalNodes>
        0 -1 87850 1.8640848793438636e-05</internalNodes>
      <leafValues>
        -4.8043045401573181e-01 8.2698822021484375e-01</leafValues></_>
    <_>
      <internalNodes>
        0 -1 121342 2.6642568409442902e-02</internalNodes>
      <leafValues>
        5.7711082696914673e-01 -7.4490237236022949e-01</leafValues></_>
    <_>
      <internalNodes>
        0 -1 21 -3.2930419547483325e-04</internalNodes>
      <leafValues>
        9.0873533487319946e-01 -3.8759112358093262e-01</leafValues></_>
    <_>
      <internalNodes>
        0 -1 105865 -2.5311901117675006e-04</internalNodes>
      <leafValues>
        5.4073226451873779e-01 -6.9536453485488892e-01</leafValues></_></weakClassifiers></stage1>
</opencv_storage>
