<?xml version="1.0"?>
<opencv_storage>
<stage3>
  <maxWeakCount>5</maxWeakCount>
  <stageThreshold>-1.1987335681915283e+00</stageThreshold>
  <weakClassifiers>
    <_>
      <internalNodes>
        0 -1 71321 1.7222217866219580e-04</internalNodes>
      <leafValues>
        -6.3790744543075562e-01 9.7644287347793579e-01</leafValues></_>
    <_>
      <internalNodes>
        0 -1 256 -2.9552471823990345e-04</internalNodes>
      <leafValues>
        7.0943552255630493e-01 -5.9185570478439331e-01</leafValues></_>
    <_>
      <internalNodes>
        0 -1 159420 -2.2209531744010746e-04</internalNodes>
      <leafValues>
        9.9632257223129272e-01 -2.7206933498382568e-01</leafValues></_>
    <_>
      <internalNodes>
        0 -1 159269 -3.9921671850606799e-04</internalNodes>
      <leafValues>
        8.4500741958618164e-01 -2.8183180093765259e-01</leafValues></_>
    <_>
      <internalNodes>
        0 -1 80405 2.4175946600735188e-03</internalNodes>
      <leafValues>
        -4.6929758787155151e-01 5.8493065834045410e-01</leafValues></_></weakClassifiers></stage3>
</opencv_storage>
