<?xml version="1.0"?>
<opencv_storage>
<stage2>
  <maxWeakCount>6</maxWeakCount>
  <stageThreshold>-1.1616672277450562e+00</stageThreshold>
  <weakClassifiers>
    <_>
      <internalNodes>
        0 -1 127 2.5808477774262428e-02</internalNodes>
      <leafValues>
        -3.6462092399597168e-01 -8.9237666130065918e-01</leafValues></_>
    <_>
      <internalNodes>
        0 -1 134 2.8373450040817261e-02</internalNodes>
      <leafValues>
        1.1292114108800888e-01 -6.5230435132980347e-01</leafValues></_>
    <_>
      <internalNodes>
        0 -1 3 7.0824548602104187e-03</internalNodes>
      <leafValues>
        -9.4837063550949097e-01 1.1801718920469284e-01</leafValues></_>
    <_>
      <internalNodes>
        0 -1 127 3.9314113557338715e-02</internalNodes>
      <leafValues>
        1.4538562297821045e-01 -8.4044611454010010e-01</leafValues></_>
    <_>
      <internalNodes>
        0 -1 132 2.5726500898599625e-02</internalNodes>
      <leafValues>
        2.4435713887214661e-01 -5.4353702068328857e-01</leafValues></_>
    <_>
      <internalNodes>
        0 -1 25 1.8872983055189252e-03</internalNodes>
      <leafValues>
        -9.2089956998825073e-01 1.3539232313632965e-01</leafValues></_></weakClassifiers></stage2>
</opencv_storage>
