<?xml version="1.0"?>
<opencv_storage>
<stage1>
  <maxWeakCount>6</maxWeakCount>
  <stageThreshold>-1.0928571224212646e+00</stageThreshold>
  <weakClassifiers>
    <_>
      <internalNodes>
        0 -1 51697 6.0945048928260803e-02</internalNodes>
      <leafValues>
        -7.2861355543136597e-01 6.8421053886413574e-01</leafValues></_>
    <_>
      <internalNodes>
        0 -1 81865 -1.0006560012698174e-02</internalNodes>
      <leafValues>
        5.5832856893539429e-01 -7.3606431484222412e-01</leafValues></_>
    <_>
      <internalNodes>
        0 -1 100812 -5.2561685442924500e-03</internalNodes>
      <leafValues>
        5.8020472526550293e-01 -7.4277633428573608e-01</leafValues></_>
    <_>
      <internalNodes>
        0 -1 72999 7.8949995804578066e-04</internalNodes>
      <leafValues>
        -4.1697782278060913e-01 8.4836405515670776e-01</leafValues></_>
    <_>
      <internalNodes>
        0 -1 1884 3.6898249527439475e-04</internalNodes>
      <leafValues>
        -3.0319997668266296e-01 9.7481393814086914e-01</leafValues></_>
    <_>
      <internalNodes>
        0 -1 47576 -1.5893645584583282e-02</internalNodes>
      <leafValues>
        5.4038202762603760e-01 -6.5417075157165527e-01</leafValues></_></weakClassifiers></stage1>
</opencv_storage>
