<?xml version="1.0"?>
<opencv_storage>
<cascade>
  <stageType>BOOST</stageType>
  <featureType>HAAR</featureType>
  <height>32</height>
  <width>32</width>
  <stageParams>
    <boostType>GAB</boostType>
    <minHitRate>9.9500000476837158e-01</minHitRate>
    <maxFalseAlarm>5.0000000000000000e-01</maxFalseAlarm>
    <weightTrimRate>9.4999999999999996e-01</weightTrimRate>
    <maxDepth>1</maxDepth>
    <maxWeakCount>100</maxWeakCount></stageParams>
  <featureParams>
    <maxCatCount>0</maxCatCount>
    <featSize>1</featSize>
    <mode>BASIC</mode></featureParams>
  <stageNum>2</stageNum>
  <stages>
    <!-- stage 0 -->
    <_>
      <maxWeakCount>2</maxWeakCount>
      <stageThreshold>-3.2911751419305801e-02</stageThreshold>
      <weakClassifiers>
        <_>
          <internalNodes>
            0 -1 2 1.0297616943717003e-02</internalNodes>
          <leafValues>
            -9.2893403768539429e-01 7.2602736949920654e-01</leafValues></_>
        <_>
          <internalNodes>
            0 -1 0 -1.0871875565499067e-03</internalNodes>
          <leafValues>
            9.7777009010314941e-01 -7.5893914699554443e-01</leafValues></_></weakClassifiers></_>
    <!-- stage 1 -->
    <_>
      <maxWeakCount>3</maxWeakCount>
      <stageThreshold>-6.7085617780685425e-01</stageThreshold>
      <weakClassifiers>
        <_>
          <internalNodes>
            0 -1 3 7.5933110201731324e-04</internalNodes>
          <leafValues>
            -7.9372197389602661e-01 1.</leafValues></_>
        <_>
          <internalNodes>
            0 -1 1 -6.7947257775813341e-04</internalNodes>
          <leafValues>
            9.2829531431198120e-01 -6.3900762796401978e-01</leafValues></_>
        <_>
          <internalNodes>
            0 -1 4 -1.6058461740612984e-02</internalNodes>
          <leafValues>
            7.6187342405319214e-01 -7.3805922269821167e-01</leafValues></_></weakClassifiers></_></stages>
  <features>
    <_>
      <rects>
        <_>
          0 0 1 14 -1.</_>
        <_>
          0 7 1 7 2.</_></rects>
      <tilted>0</tilted></_>
    <_>
      <rects>
        <_>
          0 1 6 15 -1.</_>
        <_>
          0 6 6 5 3.</_></rects>
      <tilted>0</tilted></_>
    <_>
      <rects>
        <_>
          7 0 17 24 -1.</_>
        <_>
          7 8 17 8 3.</_></rects>
      <tilted>0</tilted></_>
    <_>
      <rects>
        <_>
          9 0 17 10 -1.</_>
        <_>
          9 5 17 5 2.</_></rects>
      <tilted>0</tilted></_>
    <_>
      <rects>
        <_>
          16 15 6 3 -1.</_>
        <_>
          18 15 2 3 3.</_></rects>
      <tilted>0</tilted></_></features></cascade>
</opencv_storage>
