<?xml version="1.0"?>
<opencv_storage>
<stage3>
  <maxWeakCount>6</maxWeakCount>
  <stageThreshold>-1.3419811725616455e+00</stageThreshold>
  <weakClassifiers>
    <_>
      <internalNodes>
        0 -1 193 1.0146333277225494e-01</internalNodes>
      <leafValues>
        -6.9827586412429810e-01 6.6666668653488159e-01</leafValues></_>
    <_>
      <internalNodes>
        0 -1 10 1.1542983353137970e-02</internalNodes>
      <leafValues>
        2.2876106202602386e-01 -6.3337761163711548e-01</leafValues></_>
    <_>
      <internalNodes>
        0 -1 199 3.2694183290004730e-02</internalNodes>
      <leafValues>
        2.1316382288932800e-01 -8.0973142385482788e-01</leafValues></_>
    <_>
      <internalNodes>
        0 -1 114 1.5486773103475571e-02</internalNodes>
      <leafValues>
        2.1002699434757233e-01 -8.4884536266326904e-01</leafValues></_>
    <_>
      <internalNodes>
        0 -1 168 3.2423339784145355e-02</internalNodes>
      <leafValues>
        1.6447557508945465e-01 -7.8093886375427246e-01</leafValues></_>
    <_>
      <internalNodes>
        0 -1 12 2.2155540063977242e-02</internalNodes>
      <leafValues>
        4.6087822318077087e-01 -3.6870080232620239e-01</leafValues></_></weakClassifiers></stage3>
</opencv_storage>
