<?xml version="1.0"?>
<opencv_storage>
<stage3>
  <maxWeakCount>5</maxWeakCount>
  <stageThreshold>-1.0539430379867554e+00</stageThreshold>
  <weakClassifiers>
    <_>
      <internalNodes>
        0 -1 90396 3.3688498660922050e-04</internalNodes>
      <leafValues>
        -6.4946448802947998e-01 9.2159026861190796e-01</leafValues></_>
    <_>
      <internalNodes>
        0 -1 18616 -3.1091250479221344e-02</internalNodes>
      <leafValues>
        5.7703077793121338e-01 -6.8205076456069946e-01</leafValues></_>
    <_>
      <internalNodes>
        0 -1 146321 8.3235688507556915e-03</internalNodes>
      <leafValues>
        -7.3572629690170288e-01 3.8205552101135254e-01</leafValues></_>
    <_>
      <internalNodes>
        0 -1 81762 1.5612292336300015e-03</internalNodes>
      <leafValues>
        3.1313458085060120e-01 -7.4646252393722534e-01</leafValues></_>
    <_>
      <internalNodes>
        0 -1 162316 3.5763386404141784e-04</internalNodes>
      <leafValues>
        -4.1761794686317444e-01 7.0809817314147949e-01</leafValues></_></weakClassifiers></stage3>
</opencv_storage>
