<?xml version="1.0"?>
<opencv_storage>
<stage2>
  <maxWeakCount>7</maxWeakCount>
  <stageThreshold>-1.7655515670776367e+00</stageThreshold>
  <weakClassifiers>
    <_>
      <internalNodes>
        0 -1 71390 2.3645894543733448e-05</internalNodes>
      <leafValues>
        -6.7757403850555420e-01 9.4450259208679199e-01</leafValues></_>
    <_>
      <internalNodes>
        0 -1 11052 6.8427354563027620e-04</internalNodes>
      <leafValues>
        -4.9712386727333069e-01 7.2300440073013306e-01</leafValues></_>
    <_>
      <internalNodes>
        0 -1 7567 1.0051967547042295e-04</internalNodes>
      <leafValues>
        -4.1948753595352173e-01 8.2252496480941772e-01</leafValues></_>
    <_>
      <internalNodes>
        0 -1 6475 -2.0592741668224335e-02</internalNodes>
      <leafValues>
        5.2306735515594482e-01 -6.6817373037338257e-01</leafValues></_>
    <_>
      <internalNodes>
        0 -1 13045 2.1947330969851464e-04</internalNodes>
      <leafValues>
        -2.9112440347671509e-01 9.5362359285354614e-01</leafValues></_>
    <_>
      <internalNodes>
        0 -1 566 -4.3724259012378752e-04</internalNodes>
      <leafValues>
        9.5457541942596436e-01 -2.1712398529052734e-01</leafValues></_>
    <_>
      <internalNodes>
        0 -1 25902 -4.3188812560401857e-04</internalNodes>
      <leafValues>
        8.9701211452484131e-01 -2.1507231891155243e-01</leafValues></_></weakClassifiers></stage2>
</opencv_storage>
