<?xml version="1.0"?>
<opencv_storage>
<stage1>
  <maxWeakCount>5</maxWeakCount>
  <stageThreshold>-1.8373168706893921e+00</stageThreshold>
  <weakClassifiers>
    <_>
      <internalNodes>
        0 -1 15 1.1606090702116489e-02</internalNodes>
      <leafValues>
        -1.1538461595773697e-01 -9.4520545005798340e-01</leafValues></_>
    <_>
      <internalNodes>
        0 -1 157 7.3951482772827148e-02</internalNodes>
      <leafValues>
        -5.3541266918182373e-01 7.1912425756454468e-01</leafValues></_>
    <_>
      <internalNodes>
        0 -1 114 1.5563897788524628e-02</internalNodes>
      <leafValues>
        3.4048554301261902e-01 -8.4747672080993652e-01</leafValues></_>
    <_>
      <internalNodes>
        0 -1 8 8.1987138837575912e-03</internalNodes>
      <leafValues>
        -8.4371113777160645e-01 2.3193022608757019e-01</leafValues></_>
    <_>
      <internalNodes>
        0 -1 161 4.1526574641466141e-03</internalNodes>
      <leafValues>
        -9.5578527450561523e-01 2.5884777307510376e-01</leafValues></_></weakClassifiers></stage1>
</opencv_storage>
