<?xml version="1.0"?>
<opencv_storage>
<stage4>
  <maxWeakCount>6</maxWeakCount>
  <stageThreshold>-1.2653342485427856e+00</stageThreshold>
  <weakClassifiers>
    <_>
      <internalNodes>
        0 -1 193 8.3720803260803223e-02</internalNodes>
      <leafValues>
        -7.4588233232498169e-01 2.2666667401790619e-01</leafValues></_>
    <_>
      <internalNodes>
        0 -1 0 2.0751465111970901e-02</internalNodes>
      <leafValues>
        -5.1645416021347046e-01 2.2991997003555298e-01</leafValues></_>
    <_>
      <internalNodes>
        0 -1 10 3.2225206494331360e-02</internalNodes>
      <leafValues>
        1.6589525341987610e-01 -9.4143044948577881e-01</leafValues></_>
    <_>
      <internalNodes>
        0 -1 7 5.5120291654020548e-04</internalNodes>
      <leafValues>
        -5.1503854990005493e-01 2.9478028416633606e-01</leafValues></_>
    <_>
      <internalNodes>
        0 -1 14 1.4275293797254562e-02</internalNodes>
      <leafValues>
        4.0428704023361206e-01 -4.8015141487121582e-01</leafValues></_>
    <_>
      <internalNodes>
        0 -1 170 4.7841735184192657e-02</internalNodes>
      <leafValues>
        1.9985876977443695e-01 -8.0451565980911255e-01</leafValues></_></weakClassifiers></stage4>
</opencv_storage>
