<?xml version="1.0"?>
<opencv_storage>
<cascade>
  <stageType>BOOST</stageType>
  <featureType>HAAR</featureType>
  <height>16</height>
  <width>32</width>
  <stageParams>
    <boostType>GAB</boostType>
    <minHitRate>9.9500000476837158e-01</minHitRate>
    <maxFalseAlarm>5.0000000000000000e-01</maxFalseAlarm>
    <weightTrimRate>9.4999999999999996e-01</weightTrimRate>
    <maxDepth>1</maxDepth>
    <maxWeakCount>100</maxWeakCount></stageParams>
  <featureParams>
    <maxCatCount>0</maxCatCount>
    <featSize>1</featSize>
    <mode>BASIC</mode></featureParams>
  <stageNum>3</stageNum>
  <stages>
    <!-- stage 0 -->
    <_>
      <maxWeakCount>3</maxWeakCount>
      <stageThreshold>-6.7468756437301636e-01</stageThreshold>
      <weakClassifiers>
        <_>
          <internalNodes>
            0 -1 2 4.2306045070290565e-03</internalNodes>
          <leafValues>
            -8.1570994853973389e-01 7.3170733451843262e-01</leafValues></_>
        <_>
          <internalNodes>
            0 -1 0 -3.8759916787967086e-04</internalNodes>
          <leafValues>
            9.8600697517395020e-01 -4.1508936882019043e-01</leafValues></_>
        <_>
          <internalNodes>
            0 -1 8 -4.5975157991051674e-03</internalNodes>
          <leafValues>
            -7.6370745897293091e-01 5.5611175298690796e-01</leafValues></_></weakClassifiers></_>
    <!-- stage 1 -->
    <_>
      <maxWeakCount>5</maxWeakCount>
      <stageThreshold>-4.5539733767509460e-01</stageThreshold>
      <weakClassifiers>
        <_>
          <internalNodes>
            0 -1 11 2.1095739677548409e-02</internalNodes>
          <leafValues>
            5.3037381172180176e-01 -8.3455884456634521e-01</leafValues></_>
        <_>
          <internalNodes>
            0 -1 10 1.4383568668563385e-05</internalNodes>
          <leafValues>
            -5.0084018707275391e-01 9.0654540061950684e-01</leafValues></_>
        <_>
          <internalNodes>
            0 -1 3 3.3754762262105942e-03</internalNodes>
          <leafValues>
            -7.1716159582138062e-01 4.9288892745971680e-01</leafValues></_>
        <_>
          <internalNodes>
            0 -1 12 -4.0762557182461023e-04</internalNodes>
          <leafValues>
            6.5308821201324463e-01 -5.5196326971054077e-01</leafValues></_>
        <_>
          <internalNodes>
            0 -1 1 -6.7506433697417378e-04</internalNodes>
          <leafValues>
            9.3907600641250610e-01 -3.2854574918746948e-01</leafValues></_></weakClassifiers></_>
    <!-- stage 2 -->
    <_>
      <maxWeakCount>5</maxWeakCount>
      <stageThreshold>-1.3424388170242310e+00</stageThreshold>
      <weakClassifiers>
        <_>
          <internalNodes>
            0 -1 7 -1.7434783279895782e-02</internalNodes>
          <leafValues>
            5.1674640178680420e-01 -7.6595747470855713e-01</leafValues></_>
        <_>
          <internalNodes>
            0 -1 5 5.3819571621716022e-04</internalNodes>
          <leafValues>
            -3.9444798231124878e-01 1.</leafValues></_>
        <_>
          <internalNodes>
            0 -1 6 1.3153910636901855e-02</internalNodes>
          <leafValues>
            -7.3198747634887695e-01 5.3145903348922729e-01</leafValues></_>
        <_>
          <internalNodes>
            0 -1 4 -1.9225194118916988e-03</internalNodes>
          <leafValues>
            1. -4.4303426146507263e-01</leafValues></_>
        <_>
          <internalNodes>
            0 -1 9 1.3623182894662023e-04</internalNodes>
          <leafValues>
            -2.8971555829048157e-01 8.6014920473098755e-01</leafValues></_></weakClassifiers></_></stages>
  <features>
    <_>
      <rects>
        <_>
          0 0 1 8 -1.</_>
        <_>
          0 4 1 4 2.</_></rects>
      <tilted>0</tilted></_>
    <_>
      <rects>
        <_>
          0 0 1 14 -1.</_>
        <_>
          0 7 1 7 2.</_></rects>
      <tilted>0</tilted></_>
    <_>
      <rects>
        <_>
          0 2 20 6 -1.</_>
        <_>
          10 2 10 6 2.</_></rects>
      <tilted>0</tilted></_>
    <_>
      <rects>
        <_>
          0 5 18 2 -1.</_>
        <_>
          9 5 9 2 2.</_></rects>
      <tilted>0</tilted></_>
    <_>
      <rects>
        <_>
          1 15 30 1 -1.</_>
        <_>
          11 15 10 1 3.</_></rects>
      <tilted>0</tilted></_>
    <_>
      <rects>
        <_>
          8 15 15 1 -1.</_>
        <_>
          13 15 5 1 3.</_></rects>
      <tilted>0</tilted></_>
    <_>
      <rects>
        <_>
          11 4 12 11 -1.</_>
        <_>
          15 4 4 11 3.</_></rects>
      <tilted>0</tilted></_>
    <_>
      <rects>
        <_>
          11 6 12 4 -1.</_>
        <_>
          11 8 12 2 2.</_></rects>
      <tilted>0</tilted></_>
    <_>
      <rects>
        <_>
          12 0 9 12 -1.</_>
        <_>
          12 4 9 4 3.</_></rects>
      <tilted>0</tilted></_>
    <_>
      <rects>
        <_>
          13 0 5 3 -1.</_>
        <_>
          13 1 5 1 3.</_></rects>
      <tilted>0</tilted></_>
    <_>
      <rects>
        <_>
          13 0 7 4 -1.</_>
        <_>
          13 2 7 2 2.</_></rects>
      <tilted>0</tilted></_>
    <_>
      <rects>
        <_>
          22 0 10 9 -1.</_>
        <_>
          27 0 5 9 2.</_></rects>
      <tilted>0</tilted></_>
    <_>
      <rects>
        <_>
          31 0 1 10 -1.</_>
        <_>
          31 5 1 5 2.</_></rects>
      <tilted>0</tilted></_></features></cascade>
</opencv_storage>
