<?xml version="1.0"?>
<opencv_storage>
<stage0>
  <maxWeakCount>5</maxWeakCount>
  <stageThreshold>-1.4835295677185059e+00</stageThreshold>
  <weakClassifiers>
    <_>
      <internalNodes>
        0 -1 163 1.6857523471117020e-02</internalNodes>
      <leafValues>
        1.4492753148078918e-01 -8.8397789001464844e-01</leafValues></_>
    <_>
      <internalNodes>
        0 -1 157 6.5097272396087646e-02</internalNodes>
      <leafValues>
        -5.9258258342742920e-01 6.4448404312133789e-01</leafValues></_>
    <_>
      <internalNodes>
        0 -1 8 2.0460240542888641e-02</internalNodes>
      <leafValues>
        -7.3289173841476440e-01 4.8332622647285461e-01</leafValues></_>
    <_>
      <internalNodes>
        0 -1 25 1.9310981035232544e-02</internalNodes>
      <leafValues>
        -6.5525317192077637e-01 5.0076627731323242e-01</leafValues></_>
    <_>
      <internalNodes>
        0 -1 109 2.1856561303138733e-02</internalNodes>
      <leafValues>
        3.5227039456367493e-01 -8.5161119699478149e-01</leafValues></_></weakClassifiers></stage0>
</opencv_storage>
