<?xml version="1.0"?>
<opencv_storage>
<cascade>
  <stageType>BOOST</stageType>
  <featureType>HAAR</featureType>
  <height>32</height>
  <width>32</width>
  <stageParams>
    <boostType>GAB</boostType>
    <minHitRate>9.9500000476837158e-01</minHitRate>
    <maxFalseAlarm>5.0000000000000000e-01</maxFalseAlarm>
    <weightTrimRate>9.4999999999999996e-01</weightTrimRate>
    <maxDepth>1</maxDepth>
    <maxWeakCount>100</maxWeakCount></stageParams>
  <featureParams>
    <maxCatCount>0</maxCatCount>
    <featSize>1</featSize>
    <mode>BASIC</mode></featureParams>
  <stageNum>2</stageNum>
  <stages>
    <!-- stage 0 -->
    <_>
      <maxWeakCount>3</maxWeakCount>
      <stageThreshold>-8.7666207551956177e-01</stageThreshold>
      <weakClassifiers>
        <_>
          <internalNodes>
            0 -1 0 -1.2720862869173288e-03</internalNodes>
          <leafValues>
            7.7049177885055542e-01 -8.4688997268676758e-01</leafValues></_>
        <_>
          <internalNodes>
            0 -1 3 -4.1983529925346375e-02</internalNodes>
          <leafValues>
            6.9714230298995972e-01 -8.9924544095993042e-01</leafValues></_>
        <_>
          <internalNodes>
            0 -1 4 -1.5403550060000271e-04</internalNodes>
          <leafValues>
            9.3547987937927246e-01 -7.2691446542739868e-01</leafValues></_></weakClassifiers></_>
    <!-- stage 1 -->
    <_>
      <maxWeakCount>3</maxWeakCount>
      <stageThreshold>-7.6299798488616943e-01</stageThreshold>
      <weakClassifiers>
        <_>
          <internalNodes>
            0 -1 1 -2.6810582494363189e-04</internalNodes>
          <leafValues>
            9.5744681358337402e-01 -7.8475338220596313e-01</leafValues></_>
        <_>
          <internalNodes>
            0 -1 2 -4.6639537322334945e-04</internalNodes>
          <leafValues>
            6.8893915414810181e-01 -8.1546694040298462e-01</leafValues></_>
        <_>
          <internalNodes>
            0 -1 5 3.8682745071128011e-04</internalNodes>
          <leafValues>
            -6.3728708028793335e-01 8.3722233772277832e-01</leafValues></_></weakClassifiers></_></stages>
  <features>
    <_>
      <rects>
        <_>
          0 0 1 22 -1.</_>
        <_>
          0 11 1 11 2.</_></rects>
      <tilted>0</tilted></_>
    <_>
      <rects>
        <_>
          0 0 10 6 -1.</_>
        <_>
          0 3 10 3 2.</_></rects>
      <tilted>0</tilted></_>
    <_>
      <rects>
        <_>
          2 1 1 14 -1.</_>
        <_>
          2 8 1 7 2.</_></rects>
      <tilted>0</tilted></_>
    <_>
      <rects>
        <_>
          10 11 12 8 -1.</_>
        <_>
          10 15 12 4 2.</_></rects>
      <tilted>0</tilted></_>
    <_>
      <rects>
        <_>
          20 0 12 8 -1.</_>
        <_>
          20 0 6 4 2.</_>
        <_>
          26 4 6 4 2.</_></rects>
      <tilted>0</tilted></_>
    <_>
      <rects>
        <_>
          28 24 4 6 -1.</_>
        <_>
          28 26 4 2 3.</_></rects>
      <tilted>0</tilted></_></features></cascade>
</opencv_storage>
