<?xml version="1.0"?>
<opencv_storage>
<stage1>
  <maxWeakCount>5</maxWeakCount>
  <stageThreshold>-1.5503351688385010e+00</stageThreshold>
  <weakClassifiers>
    <_>
      <internalNodes>
        0 -1 90436 2.5539422495057806e-05</internalNodes>
      <leafValues>
        -6.3231879472732544e-01 9.7609084844589233e-01</leafValues></_>
    <_>
      <internalNodes>
        0 -1 21 -3.4949262044392526e-04</internalNodes>
      <leafValues>
        7.7793031930923462e-01 -5.6787139177322388e-01</leafValues></_>
    <_>
      <internalNodes>
        0 -1 11052 3.3944696770049632e-04</internalNodes>
      <leafValues>
        -5.2974689006805420e-01 7.2416210174560547e-01</leafValues></_>
    <_>
      <internalNodes>
        0 -1 74621 -5.8555034920573235e-03</internalNodes>
      <leafValues>
        4.7332099080085754e-01 -7.8572273254394531e-01</leafValues></_>
    <_>
      <internalNodes>
        0 -1 61988 -6.9513514637947083e-02</internalNodes>
      <leafValues>
        -6.4308500289916992e-01 5.3079390525817871e-01</leafValues></_></weakClassifiers></stage1>
</opencv_storage>
