<?xml version="1.0"?>
<opencv_storage>
<stage5>
  <maxWeakCount>5</maxWeakCount>
  <stageThreshold>-9.7417473793029785e-01</stageThreshold>
  <weakClassifiers>
    <_>
      <internalNodes>
        0 -1 645 -4.9443938769400120e-04</internalNodes>
      <leafValues>
        9.0399998426437378e-01 -6.0596609115600586e-01</leafValues></_>
    <_>
      <internalNodes>
        0 -1 80768 3.2322917832061648e-04</internalNodes>
      <leafValues>
        -4.5227873325347900e-01 6.3650542497634888e-01</leafValues></_>
    <_>
      <internalNodes>
        0 -1 159836 -5.8524555061012506e-04</internalNodes>
      <leafValues>
        8.3139061927795410e-01 -3.5985055565834045e-01</leafValues></_>
    <_>
      <internalNodes>
        0 -1 159817 6.9912592880427837e-04</internalNodes>
      <leafValues>
        -3.8384711742401123e-01 7.7228635549545288e-01</leafValues></_>
    <_>
      <internalNodes>
        0 -1 61188 4.8831116146175191e-05</internalNodes>
      <leafValues>
        -2.6101639866828918e-01 9.3256431818008423e-01</leafValues></_></weakClassifiers></stage5>
</opencv_storage>
