<?xml version="1.0"?>
<opencv_storage>
<stage4>
  <maxWeakCount>5</maxWeakCount>
  <stageThreshold>-1.0956838130950928e+00</stageThreshold>
  <weakClassifiers>
    <_>
      <internalNodes>
        0 -1 0 2.1692879498004913e-02</internalNodes>
      <leafValues>
        -8.2817870378494263e-01 -2.8229665756225586e-01</leafValues></_>
    <_>
      <internalNodes>
        0 -1 45 1.8828254193067551e-02</internalNodes>
      <leafValues>
        -5.2587628364562988e-01 2.1670655906200409e-01</leafValues></_>
    <_>
      <internalNodes>
        0 -1 152 4.2449411004781723e-02</internalNodes>
      <leafValues>
        1.5546789765357971e-01 -1.</leafValues></_>
    <_>
      <internalNodes>
        0 -1 48 1.6688380390405655e-02</internalNodes>
      <leafValues>
        -8.5488784313201904e-01 1.9870577752590179e-01</leafValues></_>
    <_>
      <internalNodes>
        0 -1 27 2.8632573783397675e-02</internalNodes>
      <leafValues>
        2.1520829200744629e-01 -7.0113575458526611e-01</leafValues></_></weakClassifiers></stage4>
</opencv_storage>
