<?xml version="1.0"?>
<opencv_storage>
<stage3>
  <maxWeakCount>6</maxWeakCount>
  <stageThreshold>-1.4812061786651611e+00</stageThreshold>
  <weakClassifiers>
    <_>
      <internalNodes>
        0 -1 81414 1.3288931222632527e-04</internalNodes>
      <leafValues>
        -6.0523825883865356e-01 9.3094789981842041e-01</leafValues></_>
    <_>
      <internalNodes>
        0 -1 106 -7.3879007250070572e-03</internalNodes>
      <leafValues>
        7.4524497985839844e-01 -4.7322410345077515e-01</leafValues></_>
    <_>
      <internalNodes>
        0 -1 406 -2.9651925433427095e-04</internalNodes>
      <leafValues>
        9.6742963790893555e-01 -3.1142130494117737e-01</leafValues></_>
    <_>
      <internalNodes>
        0 -1 48743 2.8732648934237659e-04</internalNodes>
      <leafValues>
        -3.3211556077003479e-01 7.8267443180084229e-01</leafValues></_>
    <_>
      <internalNodes>
        0 -1 13071 3.9174212724901736e-04</internalNodes>
      <leafValues>
        -3.1691005825996399e-01 9.0939515829086304e-01</leafValues></_>
    <_>
      <internalNodes>
        0 -1 126155 -7.0926789194345474e-03</internalNodes>
      <leafValues>
        5.5770319700241089e-01 -5.0019043684005737e-01</leafValues></_></weakClassifiers></stage3>
</opencv_storage>
